0.0174023383,0.0201158696,0.0553269612,-0.0146324937,0.0625574852,-0.0925151992,0.0119737154,-0.0500113889,0.0988498494,0.0164591728,-0.0772136589,0.0677425277,0.0941756803,-0.0372372522,-0.0107923991,-0.0734925644,0.0277347194,0.0898543441,0.0173678829,-0.0128072120,0.0345243162,0.0272069487,0.0119236049,0.0255415133,-0.0382749345,0.0135014551,0.0295734512,0.0922330384,0.0821228770,-0.0279400125,-0.0679191171,-0.0103095641,0.0938250645,-0.0052603870,0.0984270187,0.0095598033,0.0635683744,-0.0561496570,-0.0363773884,-0.0616478973,-0.0477063697,-0.0614766188,-0.0331088309,-0.0413906904,0.0095686305,0.0596608130,-0.0266294862,0.0656525822,-0.0299811866,-0.0596557970,-0.0420286617,-0.0014121966,-0.1024378816,0.1212834841,0.1318215979,-0.0659682035,-0.0172806831,-0.0512625286,-0.0770668787,-0.0515610455,0.0072231285,-0.0772969529,0.0280992920,0.0291314548,-0.0388730150,-0.0022427908,0.0192425574,0.0497552076,-0.0204690385,-0.0107745938,-0.0181057317,0.0096799010,0.0167032017,-0.0814678748,-0.0379650742,-0.0459318114,-0.0387265887,-0.0151286469,0.0175908538,0.0314516491,-0.0190079571,-0.0669370587,-0.0385559635,-0.0219038516,-0.0357586163,0.0834932662,-0.0398170585,-0.0170414954,-0.1494220454,-0.0031064605,-0.0282662466,-0.0384001225,-0.0005397854,0.0908806070,-0.1514215056,-0.0521668414,-0.0245506938,0.0980478314,-0.0543069053,0.0141884687,0.0309175239,0.0489333014,0.0479658803,-0.0192933587,0.0171464446,-0.0538231301,0.0267822389,0.0295549413,-0.0041569633,-0.0344202139,0.0323380997,0.0025642600,-0.0557646702,0.0728607201,-0.0472106366,0.0163045003,0.0878649050,0.0023450055,0.0172402115,-0.0139848483,-0.0181018823,0.0059241312,-0.0145822217,-0.0224683259,0.1144735404,0.0186065376,0.0573543468,-0.0882030725
0.0542343573,0.0286454263,0.0062473841,0.0336720425,-0.0036548699,-0.0260911041,0.0228439906,0.0354901296,-0.0009390430,-0.0133538671,-0.0349763999,0.1106637766,-0.0019025847,0.0452544682,0.0005018492,0.0459503987,-0.0137292974,-0.0390455152,0.0098711907,0.0016619059,-0.0059823087,-0.0994663309,0.0690516845,-0.0111907227,-0.0156973797,-0.0004568567,-0.0596739811,-0.0191035022,0.0048259015,-0.0291116413,-0.0289535325,-0.0251335548,0.0377783552,-0.0859287229,0.0849301915,0.0433279896,0.0275288006,0.0229531314,-0.0907890541,0.0736558659,-0.0363540548,0.0109391251,-0.0805743250,0.0221834311,0.0515625907,0.0674307398,0.0726762789,0.0260565795,0.0143570851,-0.0030530965,-0.1039702881,0.0208055682,0.0305395429,-0.0184295298,-0.0920428095,0.0252237443,0.0738406082,0.0918470094,-0.0714753641,-0.0008633620,0.0151144118,0.0126065107,0.0265541629,0.0664520620,-0.0109241668,0.0231340860,0.0293222559,-0.0912133207,-0.0914016453,-0.0001543860,0.1163380504,-0.1237607256,0.0388824281,0.0292677677,-0.0208744578,-0.0658877042,-0.0280523470,0.0968501650,-0.0476679896,-0.0668595557,0.0877625453,-0.0135894092,0.0200586561,0.0589899500,-0.0637417315,0.0165147787,0.0165024135,0.0062312120,0.1034555711,-0.0746899606,-0.0191723949,0.0348151170,-0.0376103234,-0.0491299800,0.0372457508,0.0125830412,0.0412955728,-0.0305918742,-0.0793237098,0.0388664147,-0.0493765801,-0.0178159895,0.0058554130,0.1343352492,-0.0369529633,0.0079508817,-0.0634055426,-0.0131305161,0.0198856950,0.0199349250,-0.0731311708,0.0454786464,-0.0158394364,0.0548903033,-0.0675554481,-0.0595235007,0.0721361514,0.0924871842,-0.0101400028,-0.0985466341,-0.0043397827,0.0400636033,-0.0450692753,0.0079792898,0.0418443442,-0.1465403636,-0.0036480288,0.0742534883
-0.0255475887,-0.0184661279,0.0415734646,0.0183021078,0.0167171972,0.0200609055,0.0444687560,-0.0248583861,0.0788895755,-0.0386764765,-0.0710687437,0.0142743230,-0.0569904138,0.0282150931,0.0351768158,0.0046270369,-0.0202933241,-0.0330005333,-0.0787359243,0.0214554638,0.1364946014,0.0682284042,-0.0632126255,-0.0606509106,0.0126855465,0.0405271636,-0.0032791260,-0.1056480789,-0.0679186246,-0.0349367519,-0.0130426252,0.0605897115,0.0587211127,0.0824191822,0.0011406972,0.0281065184,0.0813831711,0.0462573165,-0.0063191289,0.0911935136,0.0270786234,-0.0261294996,0.0242977110,0.0129002970,-0.0225717934,-0.0077998474,0.0433888288,0.0603019630,0.0541909251,0.0103349998,0.0498249124,0.0505752409,-0.0409761162,-0.0443993688,-0.1189833794,-0.0971186262,0.0356249226,-0.0760155921,-0.0005015110,0.0090620897,0.0421760400,0.0023039309,0.0588841762,0.0819837798,-0.0379682290,0.0344811504,0.0208659254,0.0457390305,0.0178224755,0.0970528741,0.0008419772,-0.0105532778,0.0852614623,0.0074730698,0.0726759745,0.0585296926,-0.0146585916,0.0108308583,-0.1006698228,0.0862143690,0.0437817499,-0.0474563800,-0.0513235152,-0.0071803630,-0.0112627475,0.0297498902,0.0568050842,-0.0219694725,0.0244814874,0.0051042618,-0.0331187106,-0.0215715313,-0.0385601124,0.0134201105,-0.0032319122,0.0267365959,0.0044764305,0.0402202814,0.0763064856,0.0866680235,-0.1574377200,0.0916773524,-0.0224915937,0.0345660158,-0.0240081343,0.0213144796,0.0728840838,-0.0493365241,0.0007327481,0.1371376439,-0.0054157088,0.0097241566,-0.0398129072,-0.0149048722,-0.0555157058,0.0607929733,0.0041440802,-0.0609391399,0.0305010721,-0.0808404387,0.0144873236,0.0065143488,0.0336210994,-0.0259283150,0.0540999493,0.0374986983,0.0584991581,0.0302511161
0.0472394154,-0.0351428438,-0.0448232858,0.0864064483,0.0498224948,0.1059178928,0.0611170199,0.1624482023,0.0230063788,0.0248193882,0.0317984702,-0.0382258580,-0.1541139657,-0.0051407912,0.0635549188,-0.0302827766,-0.0300990545,-0.0017949561,-0.0576856610,-0.0041471185,-0.0062775380,-0.0766535321,-0.0166129463,0.0680719960,-0.0120189211,-0.0360936024,-0.0072241265,0.0409225245,0.0107214113,0.0324900376,-0.0103609745,-0.0126528752,-0.0676502641,-0.0165513486,0.0001324121,0.0614450104,0.0791303419,-0.0263799798,-0.0520135133,-0.0848668988,-0.0583324730,0.0694903464,0.0853242901,-0.0611376303,0.0277274401,0.0343961951,0.0150285009,-0.0074751624,0.0567662900,0.0049632994,-0.0284223058,0.0091054579,0.0068093572,0.0070406545,-0.0497832644,0.0202393012,0.0058946151,0.0354006254,-0.0795604848,0.0257729011,-0.0108627830,-0.0604703776,0.0686909209,-0.0174837995,0.0822020971,-0.0420623429,0.0096790251,-0.0304577372,0.0153614305,-0.0535013867,-0.0319487088,0.0117036129,-0.0849935291,0.0703700759,0.0207729973,-0.0640987379,0.0541743640,-0.0508707646,0.0162964976,-0.0621119812,0.0138983869,-0.0063034810,0.0062221226,0.0368725718,-0.0382693604,-0.0032061924,-0.0040542191,0.0604254590,-0.0149868854,-0.1208586803,0.0038664624,0.0413500723,-0.0514815878,0.0112870381,-0.0493752910,-0.0225703824,-0.0411597473,0.0464230582,0.0347734791,-0.0814246813,0.0267040157,0.0382433302,0.0948959916,-0.0308334297,0.0193854570,-0.0181817161,-0.0273497566,-0.0197450918,-0.0018128894,-0.0463739583,-0.0864162877,-0.0199522068,0.0843301418,-0.0140294402,0.0448823797,-0.0030881466,0.0148034892,-0.0193124085,-0.0882709323,-0.0021287538,-0.0045810119,-0.0079897135,0.0097889239,-0.0053085605,-0.0906207405,0.0093652899,-0.0375932402,0.0478104697
0.0178744492,0.0250906263,0.0360781146,-0.0045046555,0.0103778287,0.0770610730,0.0138347363,0.0747582377,0.0440218431,0.0169439807,0.0015981288,0.0205912318,0.0334209070,-0.0008544738,-0.0547185175,-0.0154976804,0.0272730654,0.0783751870,-0.0297026614,0.0155066474,0.0289290680,-0.0396719347,0.0256156258,0.0080399794,0.0301598288,-0.1164382609,-0.0833171230,0.0392905894,-0.0236615010,-0.0539905664,0.0275186313,-0.0081878400,0.0454228608,0.0189390459,0.0752938062,-0.0254842345,0.0037333939,0.0422601107,0.0621382190,-0.0104201361,0.0465277545,0.0087717496,-0.0840000910,0.0319712854,0.0157689674,-0.0665184585,-0.0537776557,0.0079493764,0.0443243399,0.0812690677,-0.0288183348,0.0450585446,0.0107215158,0.0712962100,-0.0428841262,-0.0225888077,0.0477748035,0.0142951207,-0.0695649897,-0.0873309600,0.0173253724,-0.0159103761,0.0360321201,0.0023303147,-0.0124928716,-0.0160958135,0.0623307416,-0.0066943642,0.0456873561,0.0221298621,0.0465612302,0.0005504946,0.0562599220,0.0107832895,-0.0295630761,0.0270356700,0.0101121727,-0.0692694386,0.0528846269,-0.0394550460,0.0216607396,-0.0639186671,0.0214623809,-0.0584403610,-0.0070507961,-0.0527884273,-0.0604635214,0.0008660559,0.0786546668,-0.0916477933,0.0058600466,-0.0043285939,-0.0098422629,-0.0411941835,0.0003991744,-0.0059974351,0.0642976988,-0.0204674733,0.0820206289,-0.1000188262,0.0125590917,-0.0540988585,-0.0608363285,0.0022808589,0.0085975475,0.0015394248,0.0052232816,0.0354606857,0.0035829985,0.0300840324,-0.0454732042,0.0062920836,-0.0800517974,0.0692350287,0.0345779024,0.0608625356,0.0378731415,0.0103013641,-0.0266084261,0.0548126011,0.0174784487,0.0356857441,0.0166306928,0.0248724752,-0.0697229012,0.0190148840,-0.0034554820,0.0576305730
0.0133718208,-0.0442130762,0.0429747995,-0.0821720953,-0.0513173691,-0.0330406100,0.0580134008,0.0057932901,0.0053438268,-0.0237279783,-0.0488610268,0.0329423642,-0.0828795248,0.0510461738,-0.0471947622,0.0019134524,-0.1300573505,-0.0577811515,0.0500003057,0.0125040034,-0.0149962537,0.0696029158,0.0145077151,0.0470057316,-0.0633126853,-0.0368544547,0.0091876359,0.0060349743,0.0168475614,0.0213050010,0.0726878637,0.0347714317,0.0079166212,0.0372957337,0.0821215290,-0.0078053591,-0.0451947207,0.0230598459,-0.0063494960,-0.0730861488,0.0021254086,0.0055244189,0.0610552145,0.0155326873,-0.0026687153,-0.0275988693,-0.0192461033,-0.0181351259,-0.0868817673,-0.0398634295,-0.0764880622,-0.0268439701,-0.0471942260,-0.0201153839,-0.0266059346,-0.0844734304,0.0685130925,0.0356160524,-0.0707051820,-0.0743593356,-0.0290615663,0.0006591087,0.0321424958,-0.0209560332,0.0500377055,-0.0356616499,-0.0546820518,0.0668071241,-0.0818607766,0.0248802508,0.0264403451,-0.0905615224,-0.0359679429,-0.0453189999,-0.0266535862,0.0075704116,-0.0117879216,-0.0445314664,0.0006638790,0.0168222599,0.0157197958,-0.0208331466,-0.0238168922,0.1035786428,-0.0779414657,-0.0352393488,-0.0076478739,-0.0552037423,-0.1142640872,-0.0645794073,0.1364488744,-0.0283157609,0.0127356958,0.0306088174,0.0251138971,-0.0780484093,-0.0211473938,-0.0112112532,-0.0485222860,0.0682104013,0.0561114626,-0.0840668893,-0.0065170924,-0.0082544179,-0.0774106162,-0.0039434967,0.0037152406,0.0187116343,0.0341915554,-0.0135009391,0.0573628445,0.0231386675,-0.0450019518,-0.0121633155,0.0226974272,-0.0438498080,0.1071363086,-0.0456399672,0.0034830770,-0.0242301554,0.0042757882,-0.0246892633,0.0155300988,-0.0340002050,-0.0129568817,0.1078277664,-0.0283781588,-0.0089020113
0.0316958657,-0.0275732119,0.0978733505,0.0422306669,0.0544745655,-0.0427524433,0.0333369453,-0.0016318553,0.0697580662,0.0012787107,-0.0938465913,-0.0687521876,-0.0411073187,-0.0118994265,0.0071627918,-0.0083797005,0.0872699061,-0.0604470572,-0.0375306078,-0.0087452612,-0.0330468007,-0.0495424707,-0.0008619372,0.0294626831,-0.0098641725,-0.0221747981,-0.0756992723,-0.0994459078,0.0404993538,-0.1129650696,0.0396694182,-0.0807669113,-0.0250400066,0.0711311057,0.0149606122,0.0331340994,0.0910177896,0.1085426924,-0.0096130302,-0.0209516626,-0.0062271453,0.0023274490,-0.0075891416,0.0655973460,-0.0910483608,-0.1208044132,0.0332586697,-0.0393425805,0.0049603102,0.0599236046,0.0404633633,0.0501332686,-0.0304033956,0.0173133040,-0.0033498076,0.0169371233,0.0064743784,-0.0719555432,-0.0262752348,-0.0083131077,-0.0424356710,0.0731126461,-0.0383744016,-0.0293694888,0.0017929237,0.0296162491,0.0042903218,0.0899084627,-0.0206192049,-0.0358595151,-0.0077156533,-0.0474497728,-0.0371788671,-0.1454713796,-0.0189108333,-0.0143050727,-0.0177328258,0.0656049598,-0.0444066437,-0.0010770880,0.0094268270,0.0336577623,-0.0172703550,-0.0173260053,0.0154492355,0.0361324208,-0.0117454693,0.0774972909,0.0093298890,0.0507119215,-0.0188839099,-0.0464000457,-0.0249924910,-0.0239556572,-0.0448792085,0.0077426884,-0.0786733652,-0.0006681573,-0.0205613912,-0.0221689265,-0.0126508272,0.0013883077,-0.0493980348,-0.0036616603,-0.0467713919,0.0076190289,-0.0978971056,0.0026615606,-0.0342718240,-0.0148405733,0.0696198551,0.0162973253,0.0266614101,-0.0161507233,0.0664562678,-0.0506267611,0.0699998546,-0.1042941931,0.0227876449,0.0256014071,-0.0535397247,-0.0078088731,-0.0921188609,0.0545783509,0.0404180353,0.0062782837,0.0314388307,0.0279907435
-0.0386764556,-0.0662138426,-0.0795833260,0.1073076658,-0.0110341274,-0.1233960586,-0.0194965556,0.1143445696,-0.0612312738,-0.1259810458,0.0061863578,0.0655431637,-0.0082385014,-0.0091543082,0.0781689491,-0.0248034090,0.0681280566,-0.1007574068,0.0202367428,0.0219938976,-0.0008239277,-0.0568134946,-0.0252575792,0.0236245441,-0.0621218261,0.0435235504,0.0322092028,-0.0056238434,0.0242158607,-0.0343910328,-0.0046057166,0.0448627558,0.0110653289,-0.0450371379,0.0498229259,-0.0370171145,0.0292665610,-0.0151342445,-0.0456595726,0.0008536210,0.0189616577,0.1300824863,-0.1212522426,0.0109869496,0.0184955266,0.0473438479,-0.0290579139,-0.0239534608,0.0057339732,-0.0227226829,0.1235409497,-0.0816142333,-0.0486228654,0.0964255562,0.0325160614,0.0614437928,-0.0081816128,-0.0540814735,-0.0400107446,-0.0659246946,-0.0004966496,0.0173432976,0.0834554060,0.0573246767,0.0044706713,0.0029425875,-0.1023231733,-0.1020315322,0.0009426951,-0.0289825743,0.0153572175,-0.0379019406,0.0175205588,-0.0753637679,0.0819927051,-0.0226740421,0.0076400096,-0.0265487066,-0.0794377912,0.0165246081,-0.0011535674,-0.0135241119,-0.0006560636,-0.0544521443,0.0564104463,-0.0728774290,0.0478515393,0.0419451997,-0.0911567842,0.0489881033,0.0084137489,0.0028532154,-0.0636596228,-0.0328805981,-0.0006210761,-0.0478407140,0.0188863449,0.0675733750,-0.0416584518,-0.0633117161,-0.0050464094,-0.0041935814,0.0468393310,-0.0694011293,0.0277235044,-0.0245513047,0.0098311805,0.0192305547,-0.0846000612,0.0562346914,0.0945363895,0.0319496752,0.0383436213,-0.0114976348,-0.1015070553,0.0030307259,-0.0926685289,-0.0078356755,0.0738767762,-0.0755192645,-0.0261190763,0.0454977721,-0.0160114378,-0.0115772887,0.0309477496,0.0030649471,-0.0175838693,0.0255543781
-0.0651961487,-0.0129208348,-0.0277320886,-0.0663385888,-0.0256612231,-0.0854910426,-0.0618277585,0.0563169158,-0.0149871701,-0.0524747996,-0.0241639139,0.0494217776,0.0643115598,0.0038764639,-0.0033257949,-0.0501494401,0.0098271495,0.0378085584,-0.0504754910,-0.0396688202,-0.0444905417,-0.0021429473,0.0440782023,0.0102079860,0.0732221611,-0.1372450027,0.0286119821,-0.0476624761,0.0791537686,0.0415040865,-0.0173828351,0.0372134154,-0.0257146229,0.0439129536,-0.0729969643,-0.0083625729,-0.0782692845,-0.0830035226,-0.0286398793,-0.0611311897,-0.0017862981,0.0730540067,0.0262606740,-0.0231826981,0.0265155731,-0.0579709811,0.0088146768,0.0133149123,0.0320087818,-0.0629707659,0.0375532715,-0.0664960806,0.0762066701,0.0071451381,-0.0005735943,-0.0213541856,-0.0179796892,-0.0354671763,0.0316921784,-0.0339898377,-0.0160174307,0.0589545734,0.0009544375,-0.0277113320,0.0154063815,0.0134651951,-0.0322086579,-0.0098305424,0.0677632702,-0.0556423058,-0.0451007439,-0.0138138320,-0.0705022747,0.0683396981,-0.0275467059,0.0034466376,-0.0825365933,0.0738458818,-0.0378174993,0.0225727666,0.0205263799,0.0350824707,0.0004690166,0.0651984848,-0.0448965135,0.0121582715,-0.0753026294,0.0992378935,0.0123514597,-0.0257763217,-0.0798604207,-0.0025289565,0.0648531442,0.0200782752,-0.0634414375,-0.0635349480,0.0005351837,-0.0281467237,-0.0194333064,0.0254805230,0.0352258095,-0.0268573405,0.0563427817,0.0505346401,0.0422652710,0.0458080099,-0.0017412485,-0.0273577791,0.0858814042,0.0473488076,-0.1274930729,-0.0536669965,-0.0377074967,-0.0211866108,-0.0396721617,0.0491939794,0.0433942841,0.0097809375,-0.0489293740,-0.0212982691,0.0092525315,0.0087451694,-0.0552163354,0.0523784523,-0.0202577480,0.0084361333,0.0158598197,0.0351008278
0.0009099010,0.0204718023,-0.0058220156,0.0556002471,0.0090711100,0.0936602617,-0.0605675397,-0.0221103215,0.0210076950,0.0170389627,0.0783174260,0.0034867119,0.0562733028,-0.0083782535,-0.0429055823,0.0897700780,-0.0502486833,0.0343340237,-0.0223588361,-0.0166172679,-0.0034611013,0.0419825438,0.0572454010,-0.0783112334,0.0152900516,-0.0389526664,-0.0122948119,-0.0571313797,0.0035942864,0.0209986859,0.0139990806,-0.0305687604,-0.0785339823,0.0632117709,0.0163620599,-0.0443651743,-0.0667893061,-0.0435741592,-0.0715715578,-0.0871249316,0.0159849535,-0.1378858411,-0.0271581422,0.0226200398,0.0285457960,-0.0588991771,-0.0126921848,-0.0278136774,0.0625884542,-0.0056350973,0.0460697261,-0.0413685494,0.0060136296,-0.0515971252,-0.0944082696,0.0287593640,-0.0895552006,-0.0181336605,0.0051920315,-0.0060431394,0.0111809693,0.1087188860,0.0551001626,0.0920897478,-0.0673325383,-0.0179480911,-0.0453503013,0.0736110867,-0.0352997708,-0.0305924871,0.0219086687,-0.0191986968,0.0104451518,-0.0607830461,0.0687742771,0.0907042409,0.0288577991,-0.0375717101,0.0360395500,-0.0012531930,-0.0953424848,0.0584608791,0.0652169787,0.0059786441,0.0534375943,0.0393169176,-0.0412539135,-0.0181701021,-0.1454890901,-0.0676127332,-0.0594917768,-0.0625368895,0.0954062499,-0.0583691315,0.0146077635,0.0598408313,-0.0134766004,-0.0061022624,0.0574726084,0.0039338582,0.0895730839,0.0573926212,0.0279594266,-0.0618490061,0.0565382378,-0.0215509552,0.0607340848,-0.0112592042,-0.0378053963,0.0396097430,-0.0653677631,-0.0437048847,0.0075532598,-0.1097548760,0.0379722945,0.0338554997,0.0456481306,-0.0003163143,-0.0356878572,0.1026023508,0.0445374996,-0.0313430675,-0.0311253042,0.0039387156,0.0362443210,0.0071622640,-0.0558573299,0.0278405406
-0.0436830052,-0.0155698130,0.0376112861,0.0054358387,0.0274820614,-0.1195936537,0.0005865751,-0.0196233367,-0.0163080167,0.0461534016,0.0184397510,0.0655476159,0.0581395068,0.0553617100,0.0344003987,0.0412294781,0.1075969334,0.1385884945,0.0032375704,0.0000220033,0.1046222164,-0.0501595975,-0.1182957952,0.0065193137,-0.0506035976,0.0190562913,0.0144949888,0.0132646569,0.0335052545,-0.0704456962,-0.0275899582,0.0910029623,0.1164844339,0.0457898520,-0.0561606911,0.0163672015,-0.0086189479,-0.1093107708,-0.0046223745,-0.0262200273,-0.0486866877,0.0074180261,-0.0782893806,-0.0113312345,-0.0164337404,0.0060915010,0.0157965220,0.0029305959,-0.0641459044,0.0303847604,-0.0360820508,0.0147703804,0.0033341746,0.0157244439,0.0319080003,0.0382378365,-0.0495749576,0.0005253488,-0.0319868987,-0.0116385056,-0.0460865379,-0.0350347113,-0.0022004874,0.0332015115,-0.0068927922,0.0425439033,0.0210386265,-0.0213195745,0.0492382949,0.0281836893,-0.0103989313,0.0636003513,-0.0187776288,0.0311401930,-0.0678182380,-0.0026543908,-0.0021593873,-0.0425407579,-0.0081965527,0.0050772108,-0.0195095289,0.0362537743,0.0701133962,0.0174714660,0.0349273380,0.0620366963,-0.0234258468,-0.0067032877,0.0381208259,-0.0112892942,-0.0499803227,-0.0179819343,0.0236714985,0.0430882872,0.1017455378,-0.0512759815,0.0238032425,-0.0864386176,-0.1186135480,-0.0240096921,0.0482513624,0.0137682669,-0.0559762633,-0.0060050954,0.0572810295,-0.0266955865,0.0389010235,-0.0253793023,-0.0589377700,-0.0510002153,-0.1476643961,-0.0071071132,0.0360859693,0.0124520055,-0.0107844501,0.0820357500,0.0301190068,-0.0031907922,0.0026115773,0.0101637886,0.1009824258,-0.0424018131,-0.0706591164,-0.0747971065,-0.0088240947,0.0018711553,0.0554151331,0.0341919921
-0.0433889372,-0.0321328508,0.0028785854,-0.0128941081,0.0456306539,0.0488956024,-0.0268884573,-0.0694889553,0.1084347932,-0.0541566043,-0.0602730239,0.0374370745,0.0235496859,0.0318397064,-0.0083418632,-0.0031791076,0.0436362589,-0.0290363022,-0.0062534668,-0.0652622899,0.1301466881,0.0515051868,0.0289155238,-0.0189252295,-0.0519176063,-0.0712799371,-0.0411095100,0.0090862105,0.1186686653,-0.0700709191,-0.0306488054,0.0282345466,-0.0394223343,0.0028227391,0.0065293830,-0.0404347583,-0.0415802029,-0.0455089346,0.0162291317,-0.0174124498,0.0689083341,-0.0140891067,0.0017756038,-0.0236181166,0.0177826031,0.0429783277,-0.0176678800,0.0535918083,0.0593240940,-0.0667121639,0.0100748702,0.0156464432,0.0542119017,0.0675002832,-0.0474579519,-0.0091200511,-0.0029273722,-0.0586434375,0.0170928569,-0.0069282176,0.0204350950,0.0426064301,0.0377867496,-0.0480595994,-0.0141508206,-0.0059995110,-0.0343657451,-0.0083699058,0.0232411337,0.0149671717,-0.0847001955,0.0455042994,0.0177291642,-0.0789922850,-0.0411660024,-0.0751789629,0.0476059122,0.0563483547,-0.0704931817,0.0636758218,0.0168298882,-0.0155833737,-0.1001937256,-0.1261554244,0.0209135910,0.0241442652,0.0267164107,0.0694266321,-0.0348628743,-0.0209929103,-0.0040054796,0.0840551445,0.0287041700,0.0503697183,-0.0060074161,-0.0507756182,-0.0598195833,-0.0551215091,-0.0063963801,-0.0062463197,-0.0057366629,0.0382798039,0.0613692262,0.0064112156,0.0098776732,-0.1212561582,0.0368883201,-0.0427582239,-0.0283844611,0.0399564520,0.0413905088,0.1182888184,-0.0676125151,-0.0090185753,0.0916660706,-0.0652723555,-0.0805071564,-0.0686017956,0.0700478873,-0.0064494294,-0.0638397344,-0.0158817440,-0.0286749370,0.0089371069,-0.0254628851,0.0816652899,0.0592902920,0.0668751843
-0.0192782509,0.0025116056,-0.0026259159,-0.0197078521,-0.1237366246,-0.0444280574,-0.1512682071,0.0570509217,-0.0421386065,-0.0679338222,-0.0197644248,0.0437759394,-0.0235556279,-0.0954335423,-0.0237255301,-0.0196184484,0.0164750877,-0.0000210252,0.0208677607,0.0173647314,0.0924389503,0.0417098430,0.0274714122,-0.1573190721,0.0453022510,-0.0206095870,0.0231306528,0.1254305170,-0.0072109693,-0.0264258539,0.0540573563,-0.0030752151,-0.0531101800,0.1051140399,0.0748118165,0.0400082438,0.0267508837,0.0248189058,0.0606075698,-0.0543353609,-0.0907702125,0.0435871974,-0.0209391926,0.0181454708,-0.0298651730,-0.0027865577,0.0227037587,-0.0610574206,-0.0070148934,0.0575985691,-0.0275828944,0.0200864927,0.0556329816,-0.0479851091,-0.0198591765,0.0348392453,-0.0585342734,-0.0729713126,-0.0712880402,0.0513841427,-0.0709121662,0.0400701161,0.0618996722,-0.0121624908,-0.0545546599,-0.0272874865,0.0140669959,0.0463445356,-0.0353179765,0.0407874704,0.1020599656,-0.0907380294,-0.0611425355,0.0140393990,-0.0209448305,-0.0700443095,0.0067168848,0.0398594493,-0.0665580072,-0.0395266927,0.0566470536,-0.0702481155,0.0131724733,-0.0530499471,0.0146441075,0.0428309271,-0.0299299746,0.0020249893,0.1128639096,-0.0704557616,-0.0940788984,0.0298358413,0.0577605675,-0.0816878210,0.0184742653,-0.0020764111,0.0622303794,-0.0488963178,0.0432014065,0.0305118460,-0.0914318428,0.0115178197,-0.0193462651,0.0185904826,-0.0442792382,0.0885006845,-0.0528864488,-0.0356404023,0.0682042937,0.0033503664,-0.0032625668,0.0533904954,0.0144464900,0.0350371240,0.0071043594,0.0638919731,-0.0020394268,-0.0244161393,0.0129306242,0.0564494110,-0.1228927085,-0.0291877964,0.0753121171,-0.0089407035,-0.0359049007,-0.0168038700,0.0498549983,-0.0454720162
-0.1177249698,0.0009109548,0.0163045656,0.0086161490,-0.0321529435,-0.0170523256,0.0509129042,0.0592420720,0.0518569448,-0.0654179999,0.0003942993,0.0496501482,0.0041016212,-0.0219933830,0.0514411418,-0.0293838171,-0.0991252952,0.0699282136,0.0456756302,0.0039405557,-0.0611804502,-0.0115555057,0.0388357684,-0.1157280643,-0.1105690402,-0.0446032236,0.0292198892,0.0040988163,-0.0113609984,-0.1204110701,-0.0587470210,-0.0068170640,-0.0381856210,-0.0060468682,0.0062718726,0.0011707196,-0.0423474248,0.0601117077,0.0283356202,-0.0222364297,0.0311584335,0.0147762920,-0.0371761108,0.0750134344,-0.0836799097,-0.0474475661,0.0312540150,0.0326663070,0.0473568043,0.0549369472,0.0383167207,0.1118269556,0.0277568522,-0.0219103132,0.0624497988,-0.0013920961,-0.0812117432,-0.0218233389,-0.0996656013,0.0030039634,0.0487528970,0.0715257598,0.0454044597,0.0092542565,0.0160816407,-0.0528547249,-0.0175212626,0.1101194090,-0.0115133973,0.0301215314,0.0759640316,0.0034776186,0.0132025933,0.0584967657,0.0040135697,0.0538509040,0.0418768256,-0.1203139916,0.0510484389,0.0386515180,0.0013664193,0.0754682576,0.0993453758,-0.0469373180,-0.0482105323,-0.0094524490,0.0377626262,0.0574989977,-0.0009418333,0.0657356451,0.1162064527,-0.0191299121,-0.0235226678,0.0410338463,0.0102160581,0.0978025287,-0.0399542416,0.0076764821,0.0445716361,-0.0377730141,-0.0634087195,0.0683745279,-0.0058484158,-0.0734184372,0.0033621708,-0.0144781935,-0.0627832204,-0.0667035871,0.0330415026,-0.0227064670,-0.0547527184,0.1167459748,-0.0882486176,0.1169578853,-0.1129300679,-0.0657924620,-0.0238359013,0.0389080458,0.0584099049,0.0182876421,0.0815611211,0.0167859587,-0.0801022429,-0.0450840112,0.0633460145,-0.0671543742,0.0000212532,0.0259373005
0.0613804053,-0.0590983622,0.0635215922,0.0364299153,-0.0112408084,0.0234414241,0.0173104245,0.0422077157,0.0007584925,0.0048476490,0.0719288920,-0.0060647512,-0.0298605217,0.0354659461,-0.0300775367,0.0125425724,-0.0083272231,0.0032267335,0.0470674932,-0.0151812078,-0.1264613240,0.0001584600,0.0038638218,0.0182904136,0.0136351239,-0.0496560092,-0.0521975297,-0.0267666727,0.0721119016,-0.0051809572,-0.0759371153,0.0731237030,0.0369575945,0.0465819619,-0.0325495669,0.0778533654,-0.0408369902,0.0216168901,0.0269078880,-0.1016624001,0.0855521279,0.0351843795,-0.0587762098,0.1530656726,0.0539230638,-0.0820282240,0.0296154222,-0.0952898515,-0.0177177680,0.0150595715,0.0344500758,-0.0094039954,0.0256550330,0.0873850967,0.1364509283,-0.0279742613,-0.0618089704,-0.0778615624,-0.0730438558,0.0612449313,0.0127579722,0.0241330939,-0.0254846433,-0.0395784037,0.1024141311,0.0608344197,0.0899081598,-0.0241872664,0.0902051654,0.0651879958,0.0811750652,-0.0240550616,0.0618521297,0.0369872397,0.0707674547,0.0877855770,-0.0130524499,-0.0489314256,0.0450530643,0.0291966756,0.0306197848,0.0038892191,-0.0136423866,-0.0341978357,-0.0002488910,-0.0470315810,-0.0373861555,0.0555097920,0.0507514372,-0.0665438489,-0.0581516520,0.0544041768,-0.0039465218,-0.0437697594,0.0541612724,0.0300341676,-0.0213006951,0.0139331347,0.0450065379,0.0217909063,-0.0739765790,-0.0558530462,0.0805938299,0.0858974173,-0.0249536814,0.1102716366,-0.0703594634,-0.1003747784,-0.0691956671,-0.0058669849,-0.0543542313,0.0459428539,0.0032493486,0.0637630330,-0.0658968629,-0.0221163425,-0.0596236045,-0.0411846426,-0.0263370114,0.1093200862,0.0155117089,0.0052235826,0.0264834435,-0.0509590239,0.0135453724,0.0174365582,0.1194033358,-0.0433720916
-0.0328287869,0.0199324581,-0.0290648589,-0.0164500402,-0.0167956898,0.0264563037,-0.0166102137,-0.0512244558,0.0350622867,-0.0428334931,-0.0014771622,0.0731083779,-0.0551443343,0.0586970950,0.1263365037,0.0368751787,0.0738626005,0.0260634496,-0.0240450335,-0.0069397007,0.0685855845,-0.0318610400,0.0313875788,-0.0731378338,0.0517394418,0.0065490461,-0.0378346226,-0.0356205827,-0.0020246779,-0.0201456332,-0.0464826732,0.0802092003,-0.0056976053,-0.0292669240,0.0334489538,0.0444555260,0.0158372107,-0.0305093206,-0.0378987211,-0.0365184260,-0.0104091490,-0.0489483943,-0.0292113379,-0.0258726103,-0.0929935644,0.0667704826,0.0227356266,0.0192170836,0.0086096862,0.0096848162,0.0628663253,-0.0932181555,0.0143978948,-0.0234440504,-0.0496151483,0.1136208619,0.0008695383,0.0594773986,-0.0537017069,0.0943084429,0.0846688788,-0.0922623444,0.1196327558,0.0283602156,-0.0355361223,-0.0464270763,0.0770729497,0.0447600014,-0.0255152321,0.1123897233,-0.0131502456,-0.0536145498,0.0792251097,-0.0440674223,0.0764734755,-0.0115616109,-0.0729287409,-0.0845360016,-0.1130595442,0.0214467340,-0.0304001867,0.0172277932,-0.0107058477,-0.0553737549,0.0452063652,0.0052463487,0.0016930450,-0.0242076630,0.0806432948,-0.0331459987,-0.0399556150,0.0704808609,-0.0405334137,0.0129502926,-0.0495387488,-0.0417119007,-0.0242662431,0.0227529231,-0.0378793934,0.0251260014,-0.1154517464,-0.0006219175,-0.0122638077,0.0615534844,0.0341638501,-0.0763107290,-0.0249574663,-0.0940071696,-0.1115090882,-0.0203083460,0.0486711148,0.0043199081,0.0644869602,0.0168347455,0.0549132185,-0.0749120381,-0.0331162973,-0.0162168900,0.0549893134,-0.0851987364,0.0006278496,0.0850436341,0.0208152445,-0.0275052554,-0.0407008595,-0.0775047402,0.0613543733,-0.0576413004
-0.0225070545,0.0151096941,-0.0552049996,-0.0296839391,-0.0470643470,0.0184183139,-0.0336860229,-0.0004219064,0.0432566601,0.0402783364,0.0625243343,-0.0370109269,0.0425604827,-0.0444685994,-0.0014070878,0.0051450069,-0.0278803802,-0.0823989018,-0.0844631355,-0.0461331190,0.0302792929,-0.0146784293,-0.0429182977,0.0067824940,0.0182044203,-0.0186603055,0.0103639306,0.1314013241,0.0308299498,0.0448847006,0.0438196078,0.0231910870,0.0044072702,-0.0464959270,-0.0063114391,0.1234907550,0.0220746909,-0.0699349902,0.0859253299,-0.0077526764,-0.0192884224,-0.0325792202,-0.0106735947,-0.0104313298,-0.0210144144,0.0405820270,-0.0446684763,0.0670679659,-0.0108309342,0.0038984694,-0.0436656902,0.0216699133,-0.0360213134,-0.0232643928,-0.0033112411,0.0247123400,-0.0450062746,0.0262915549,-0.1317217014,-0.0104444393,0.0564944430,0.0788681107,0.0787092805,-0.0586129594,0.0173220885,0.0912178845,0.1262961873,-0.0608040860,0.0365793100,-0.0489697651,-0.1635064342,-0.0384883893,-0.0029691684,-0.0337658436,0.0413826515,-0.0618661313,0.0524382930,-0.0086935304,-0.0252864125,-0.0558086332,-0.0348368028,-0.0038171272,0.0138242495,-0.0508286372,0.0417065409,-0.0759843254,0.0073273828,-0.0181291062,0.0155963992,0.0445272371,0.0334047376,-0.0292200378,0.0325911264,0.0704178560,0.0400532489,-0.0191565063,-0.0432858678,0.0011758237,0.0838851604,0.0366520266,0.0315145305,-0.0128251204,0.0361882785,-0.0077650158,-0.0360741223,0.0336117097,-0.0532164674,-0.0330562974,-0.0023444623,-0.0429438395,0.0258399825,-0.0267737641,-0.0061470352,0.0913693362,-0.0220025907,0.0716448823,-0.1135048016,-0.0020167217,-0.0119199707,0.0155927770,0.1095323854,-0.0475894304,-0.0005796623,-0.0179160586,-0.1031007352,-0.0320897384,-0.0105846834,0.0241782236
0.0220114542,-0.0118502802,0.0903808554,0.0102284538,0.1369803057,-0.0961352424,-0.0235617073,-0.0617035064,-0.0640552846,-0.0435845154,-0.0364407708,-0.0037334851,0.0409225415,0.0317705889,0.0585418938,0.0707658940,0.0656017597,-0.0101202690,-0.0314182585,0.0382638268,0.0029492025,0.0686374088,-0.0454718399,0.0376287719,0.0891440583,0.0279773567,0.0675619331,0.0595645875,0.0168630268,-0.1037374811,0.0289952166,-0.0321785919,-0.0217342202,-0.0090459542,-0.0698905761,0.0101939771,-0.0242760212,-0.0743059715,-0.0153016487,-0.0109452973,-0.0429033630,-0.0406761882,0.0078563791,-0.0530140979,-0.0802168997,0.0426931545,0.0656635027,-0.0078920030,0.1207761662,0.0000769772,-0.0424848955,0.0081452015,0.0476099862,-0.0063703952,0.0129370351,0.0434959273,0.0462716840,-0.0326989744,0.0754012507,-0.0367635014,-0.0517719153,0.0021342727,-0.0951326456,0.0980630087,-0.0924724191,-0.0761078919,0.0656675452,0.0090208454,0.0107902808,-0.0539372015,0.0033436935,-0.0066369292,0.0138650383,-0.0562109802,0.0863240472,-0.0670669558,0.0276599560,0.0446559519,-0.0225430890,-0.0149315594,0.0130237790,-0.0020959736,0.0259562742,-0.0409691065,-0.0225000555,0.0021086093,-0.0201122419,-0.0457668907,0.0191040535,-0.0781363594,0.0420100663,0.0060432383,0.0051536777,-0.0033957814,-0.0144533992,0.0906178013,0.0725614869,0.0685602303,0.0066924150,0.0544398528,-0.0592921108,-0.0013343179,0.0085166087,-0.0073884969,0.0286244353,0.1118011014,0.0516679877,-0.0109289685,-0.0203469646,0.0053243024,0.0522430354,0.0236967142,0.0846014011,0.1002729777,-0.0073168513,-0.0468341305,-0.1003809069,-0.0231330366,0.0607620260,-0.1283519179,-0.0249812463,0.0086062661,0.0398659685,0.0210665018,0.0131806782,-0.0305326011,0.0581092934,-0.0710878314
0.0407668049,-0.0047701747,-0.1091392268,0.0077677462,0.0455594706,-0.0294610893,0.0829433293,-0.0342858559,-0.0413640587,0.0248155626,0.0304386351,0.0348405461,0.0029301620,-0.0447888969,0.0560683942,-0.0845581519,-0.0249007450,0.0065360700,-0.1056899221,0.0852360068,-0.0439036727,0.0398392734,0.0320550993,-0.0118421546,-0.1034584094,-0.0121157176,-0.0536745797,-0.0033384622,-0.0710480947,0.1207887720,-0.0332044668,-0.0671187490,-0.0024075048,0.0002983782,-0.0495382637,0.0212022834,0.0855784703,-0.0072850818,0.0306828037,0.0728083335,-0.0231467833,0.0754661777,-0.0700813555,-0.0754627187,0.0200701347,0.0335469459,0.0653977358,-0.0337990698,-0.0881184816,-0.0184545024,-0.0281945337,-0.0525534823,-0.0569602670,0.0100873719,0.0219992577,0.0576470941,-0.0116248162,-0.0079313080,-0.0659330890,0.1025268428,0.0505907966,0.0235430725,-0.0515708179,0.0286006041,0.0100556562,-0.0006360760,0.0204375474,0.0141016707,0.0565563138,-0.0945790221,-0.0158993947,0.0198182030,0.0322643950,0.0827586197,0.0033769073,0.0128016340,0.0341602727,-0.0766775101,-0.0018756490,-0.0261792866,0.0373177230,-0.0391750558,0.0785308587,-0.0044494050,0.0095578476,0.0436120728,0.0554189654,-0.0060944131,0.0996100462,-0.0370684540,-0.0234461809,-0.0738221177,0.0389981369,-0.0121156447,-0.0214650226,0.0043272187,0.0635932971,-0.0008497411,0.0040213198,0.0274947697,0.0056380310,-0.0231825344,-0.0102961079,-0.1120993348,-0.0881425106,-0.0147189155,-0.1514936874,-0.0123568150,0.0333165763,-0.0066365273,0.0391072939,0.0037293835,0.0059411799,0.0161017049,-0.0277430607,-0.0589046735,0.0104591120,-0.0675084842,-0.0516187714,-0.1104696384,-0.1148966869,0.0637221505,0.0469329125,-0.0287981014,0.0785564844,0.0292530302,-0.0482429193,-0.0228352622
0.0055984997,0.0768119599,0.0173695902,-0.0616127836,0.1008519213,-0.0165779835,-0.0384639235,0.0246083103,0.0089784982,0.0444119078,-0.0386195639,0.0263269281,0.0315138303,-0.1198988238,0.0096138794,0.0826014548,-0.0513178601,0.0616370511,0.0233520149,0.0710123267,0.0539731003,0.0062708370,-0.0447001061,-0.0269614628,0.0412040828,-0.0618248557,-0.0771326765,-0.0543662489,0.0184601839,-0.0049186578,0.0231134543,0.0056379968,0.0397355799,-0.0756275188,0.1008739606,0.0063354463,0.0294121641,-0.0316604951,0.0173071826,0.0506275927,0.0861985796,0.0216753959,-0.0287847137,0.0540666595,0.0106766267,-0.0953053257,-0.0601054554,0.0128470408,0.0363619143,-0.0538791266,-0.0988650730,-0.0532975950,-0.0052525915,0.0918171302,0.0363097777,-0.0091127634,0.0098434998,0.0255613653,-0.0233858401,-0.0164885445,-0.0630455789,0.0340353257,0.0503949813,-0.0353562226,-0.0285654764,0.0156329201,0.0756559449,0.0141331945,-0.0208042667,0.0439039962,-0.0574257395,-0.0365919727,0.0009190169,0.0348870733,0.0022128884,-0.0020196670,-0.0369012204,-0.0883062807,0.0024728175,-0.0432612768,0.0354353524,-0.0111051603,0.0299649964,0.0209009807,0.0618261131,0.0618390489,0.0281331557,0.0408823472,-0.0689404392,-0.0535852484,-0.0697805483,-0.0062685685,0.0311934414,-0.0354085253,0.0294797988,0.0382697501,0.0278842411,-0.0884757108,-0.1503905821,0.0832368930,-0.0340710103,-0.0132084514,0.0253821456,-0.0222894795,-0.0416449401,0.0266633810,0.0460034518,0.0527141756,0.0950778808,0.0063879540,0.0495623570,-0.0311198262,-0.0160486546,0.0563460461,0.0202936292,-0.0330616999,-0.0043394195,-0.0597343262,0.0518569677,-0.0330053274,-0.0489096878,-0.0125381220,-0.0155026091,0.0255668457,0.0668412123,-0.0291149614,-0.0573996545,-0.0337580701
0.0558127834,-0.0402123135,-0.0441017070,-0.0245154839,-0.0633012598,-0.0134487533,0.0554972221,-0.0899750635,-0.0353642912,0.0038370518,-0.0142773165,-0.0320463642,-0.0281722077,0.0474935393,0.0228629981,0.0534992267,-0.0220032329,0.0248709059,0.0700765121,-0.0596870602,0.0510986252,0.0004824932,0.0934118108,-0.0340327564,-0.0774946511,0.0066908284,0.0441617939,0.0494780805,-0.0700933803,0.0358339266,0.0736396326,-0.0102929728,-0.0443737522,0.0073905667,0.1353167282,-0.0100527438,-0.0076538823,0.0519632233,-0.0050210269,0.0195918248,0.0204297473,-0.0263722985,0.0506802124,-0.0355298665,0.0059962904,0.0297022389,0.0434041388,0.0473838891,0.0190990003,-0.0484305013,0.0025309124,0.0065875811,0.0358339869,0.0038959882,0.0315144676,-0.0466971346,-0.0254452962,-0.0117478640,-0.0287937203,0.0082006909,0.0943715081,0.0120117580,0.0408600868,0.0547532941,0.0349473792,0.1295918682,0.0061487024,0.0640770232,-0.0867045372,0.0738293839,-0.0473084604,0.0430103889,0.0089390900,0.0341091242,0.0347872379,0.0554689574,0.0546894610,-0.0236467172,-0.0210285556,-0.0583806746,0.0000257407,-0.0768532372,0.0335718890,0.0627249863,0.0234834653,-0.0009318496,0.0379534376,-0.0634511763,-0.1181104739,0.0323112613,-0.0562807676,-0.1234852614,0.0700972713,-0.0440138192,-0.0231986628,-0.0562376491,-0.0195482961,0.0037663910,0.0473720285,-0.0316018568,-0.0496112321,0.0134173518,0.0477268748,0.0044025665,0.0217634291,0.0198349165,-0.0523166449,-0.0680909315,0.0423647711,-0.0576713754,0.0339576310,0.0349250508,0.0065593690,0.0677160669,-0.0058005047,-0.0585733650,0.0189407757,0.0098921254,-0.0068288772,-0.0377557701,-0.0249237148,0.0178497310,-0.1007960680,0.0396424421,-0.0042558207,0.0630210230,-0.1021032672,-0.0796635722
-0.0125260773,-0.0475911838,0.0568818189,-0.0950194145,0.0246428906,0.0332181017,0.0560027155,-0.0687504511,0.0089174557,-0.0969443650,0.0675421989,-0.0820738265,0.0158224051,-0.0456862303,0.0371452312,0.0404539806,-0.0391719641,-0.0192898233,0.0048430064,-0.0123361369,0.0077598562,0.0087070934,0.0072034477,-0.0356805642,0.0271201571,0.0062408757,-0.0470108582,0.0111396682,-0.0800466639,-0.0675977867,0.0394910244,0.0853754601,-0.0322044765,-0.0113307071,0.0231017338,0.0737954438,0.0317097575,0.0211165799,-0.0271995046,-0.0367973068,-0.0460453047,0.0365589801,-0.0349633643,-0.0292144579,0.0134305152,0.0389513621,0.0428120812,-0.0281572453,-0.0698253483,0.0535211740,0.0081833366,0.1211758154,0.0156403034,0.0416111133,0.0547831687,-0.0066734959,0.0380403802,0.0047736750,-0.0171055859,0.0421342811,-0.0089301960,-0.0255224882,-0.0217886862,0.0124045334,0.0202251331,-0.0449037839,0.0072906540,-0.0060013294,-0.0203151577,0.0854643647,0.0566119886,0.0301722969,-0.0419855694,0.0156834667,0.0158907821,-0.0278279085,-0.0644162439,0.0313228118,0.0280091057,-0.0357996272,-0.0477156414,0.0091123533,-0.1114419616,0.0660815816,-0.0336130948,-0.0342395593,-0.1362581422,0.0472625205,-0.0430148837,0.0054798408,0.1008657762,-0.0150657426,-0.0788656293,0.0717782330,0.0921242218,0.0566286823,-0.0708288073,0.0386861528,0.0276582186,-0.0003887267,-0.0087862846,-0.0255843678,0.0580317854,0.0402615797,0.0245734335,0.0657910269,-0.0006887008,-0.0256498512,-0.0499875653,-0.0857033528,0.0388189965,-0.0022784551,0.0442505998,0.0334119008,-0.0740531423,0.0328990676,0.0336164426,-0.0156519012,0.0190247777,0.0248703620,0.0039456769,-0.0123433626,0.0104676988,0.1081168812,0.0281745113,-0.0043198683,-0.0427804414,-0.0380966151
0.0094230793,0.1080266438,-0.0474375495,-0.0425309443,0.0110815061,-0.0046941824,-0.0011581793,0.0362494904,0.0201551836,0.0595133492,-0.0984918739,-0.0605591498,0.0373717973,0.0319856444,0.0589806354,0.0073974420,0.0168304065,0.0103178731,0.0029528397,-0.0255724545,0.0354520747,-0.0528559216,0.0586155757,0.0990792811,-0.0522905560,-0.0026755655,-0.1036832647,0.0441075673,0.1280613335,0.0527344147,-0.0576321063,-0.0224795409,0.0182927535,0.0425757381,0.0292368007,-0.0575287169,-0.0499815696,-0.0014448339,0.0004710733,-0.0911984965,-0.0654130683,0.0875206447,-0.0380230234,0.0282051350,0.0215803373,0.0711699852,0.0423442359,-0.0464669632,0.0487157893,0.0318230020,-0.0082894688,-0.0617868334,-0.0158084859,-0.0292552691,0.0471320699,0.1082535394,-0.0683550821,-0.0414165479,-0.0414243210,-0.0447032753,-0.0845148902,-0.1004450757,0.0645141018,-0.0439122182,0.0378301263,0.0364710131,-0.0309167560,0.1326627840,0.0062506377,-0.0325798181,-0.0700959752,0.0275278425,0.0148157003,-0.0243942125,-0.0680225078,-0.1341792723,-0.0105873338,0.0415074098,-0.0331895606,-0.0255962489,-0.0324414872,-0.0902105174,-0.0052381678,0.0113015450,-0.0218631043,0.0061196408,0.0410411864,0.0420390520,0.0159707279,-0.1107325777,0.0390903096,0.0715373309,-0.0539404499,0.0379549963,-0.0707771769,-0.0112680228,0.0356366280,-0.0372819478,0.0795157388,0.0478230341,-0.0312145564,-0.0738016320,-0.0100249612,-0.0403647740,-0.0519060507,0.0287568775,-0.1566632894,0.0909768798,-0.1059260503,-0.0212144190,-0.0065171841,-0.1045908531,-0.0260101578,-0.0197642823,-0.0286112092,0.0530812092,0.0117987781,0.0376842353,0.0378998981,-0.0319541256,-0.0201411100,-0.0250936501,-0.0055493968,0.0173731244,-0.0334571977,-0.0328432470,-0.1027944993,-0.0203126141
-0.0320665475,-0.0089674105,-0.0911735685,-0.1240861548,0.0589098874,0.0364798438,0.0812264336,-0.0193731613,0.0369656009,0.0817397628,0.0378983491,-0.0201191199,0.0857253865,-0.0426852646,-0.0199951504,-0.0125396709,-0.0312985006,-0.0722009920,-0.0076386948,-0.0458640851,0.0818523695,-0.0742008881,-0.0120792767,-0.1101623848,0.0935824104,-0.0031241203,-0.0129744804,-0.0432314785,-0.0501948737,0.0398136661,-0.0705548608,-0.0165031960,0.0511716282,-0.0447397646,0.0512646657,-0.0462641857,-0.0320385063,-0.0293559363,0.0060640721,0.0631633614,0.0265986286,-0.0011010874,0.0918272866,0.0108586522,-0.0982311886,-0.0183460712,0.0031309657,-0.0291512044,0.0646684788,-0.0261918368,0.0104951659,-0.0088693583,0.0129906800,0.0331868339,0.0095406150,0.0554800557,0.0072163704,-0.0657814616,-0.0512104826,0.0408340591,0.0719194006,0.0354758789,0.1191412583,-0.0317109617,-0.0107194137,0.0471563750,0.0016102332,-0.0496617969,-0.0369969526,0.0551685185,-0.0533962428,-0.0153643275,0.0097444243,-0.0376391964,0.0509737719,0.0113881216,-0.0764842723,0.0311539168,0.0295441925,0.0375830004,-0.0974770380,-0.0176565207,-0.0187544840,-0.0871011173,0.0653080683,-0.0456576940,0.0289817866,0.0241378837,-0.0510527781,0.0131115308,-0.0343257269,0.0389015878,0.0070365141,0.0702902417,0.0202405919,-0.0277051339,0.0671099133,-0.0156005979,-0.0101694296,-0.0409379712,0.0698021220,0.0885083698,-0.0484988562,-0.0190275096,-0.0374217508,-0.0091529355,-0.0194750921,0.0630049802,-0.1020510854,0.0199191299,0.0005920602,0.0374601549,0.0133687037,0.0222227377,-0.0361229005,-0.0466822499,0.0742659929,-0.0426235721,0.1018426753,-0.0208967779,-0.1440632529,0.0262389748,-0.0263685504,-0.0323877818,0.0179134933,-0.0431117684,-0.0072825681,0.0769431968
0.0357678788,0.0682038738,0.0291284851,0.0390841908,0.0067384751,-0.1097112524,0.0605164527,-0.0166293472,-0.0904734921,0.0061377783,0.0390482568,0.0760646539,0.0188087130,-0.0146427553,-0.0152232294,0.0527318188,-0.0374200908,-0.0398356351,-0.0468883879,-0.0210820649,0.1216563867,0.0425239704,0.0543903918,-0.0262235646,-0.0242117156,-0.0058009206,-0.0727117987,-0.0651907676,-0.0743535243,0.0165583860,-0.0783176867,0.0062931647,-0.0747405440,0.1122447911,-0.0930932732,0.0390117418,0.0419800311,-0.0049846122,-0.1543247653,-0.0114417350,-0.0541476931,-0.0027816026,-0.0466727364,-0.0171480100,-0.0552724922,0.0409422343,0.0070489155,-0.0347714106,-0.0455399638,0.0728493926,-0.0290436751,-0.0835621784,0.0182226452,-0.0402526923,-0.0568618067,-0.1207685957,0.0427456834,-0.0283018805,-0.0371024084,0.0780597356,-0.0413669138,-0.0486213872,0.0000547625,-0.0507565084,-0.0266503436,0.0236438860,-0.1120418457,-0.0575240864,-0.0941217899,0.0050488756,-0.0019153977,-0.0026963742,-0.0864124910,-0.0607746951,0.0264103358,-0.0482577054,-0.0742026343,-0.1147127700,-0.0445406653,0.0482782918,0.0503104824,-0.0354252841,-0.0126356218,0.0427358212,-0.0235925233,-0.0912899139,-0.0938126593,0.0218215645,-0.0332875703,-0.0501922840,0.0971438796,-0.0212959561,-0.0305530574,-0.0845935004,0.0833231250,0.0312967734,-0.0080361721,-0.0310231182,-0.0539297460,-0.0444953645,0.0808275573,0.0191941329,-0.0193280327,0.0175676439,0.0478322479,0.0204571486,-0.0087478257,-0.0173167141,-0.0636211812,0.0597060182,-0.0310958573,-0.0138529952,-0.0374352562,-0.0173735748,0.0172414624,-0.0011986358,0.0416203779,0.0582139629,-0.0957663181,-0.0556042160,0.0257192326,-0.0265798079,-0.0937624260,-0.0077633715,-0.0721206215,0.0271279063,-0.0495706766,0.0264362173
0.0201250750,-0.0739824713,-0.1075187869,-0.0217687462,-0.0481807585,-0.0443623370,0.0386375891,0.0084718749,0.0031161241,0.0149136517,-0.0897816754,0.1131402543,0.0132010085,-0.0393553196,-0.0589632552,-0.0005640894,-0.0343802869,0.0717981905,0.0070634839,-0.0248368621,-0.0390082295,-0.0863225224,0.0464404866,-0.0195743149,0.0048946256,0.0533693077,0.0192317320,-0.0317835017,-0.0125873933,-0.0458800232,-0.0673246505,0.0498410918,-0.0553919576,-0.0468141573,0.0544012490,0.0526232499,0.1233429137,-0.0234792772,-0.0826071594,-0.0095276796,-0.0303483650,-0.1352995729,0.0044655512,-0.1064663212,0.0180306880,0.0696800513,0.0030482677,-0.0852639768,0.0297230183,-0.0230327715,-0.0426839240,0.0321652619,-0.0186641803,-0.0893145337,-0.0212382545,0.0860957141,-0.0135265370,0.0272655739,0.0439821985,-0.0723119874,-0.0283624866,-0.1088868671,-0.0164575028,0.0251077020,-0.0256827655,0.0029254050,-0.0033743470,0.0347186189,0.0717785145,-0.0065086865,0.0626679447,0.0711665556,0.0911393104,-0.0175409974,-0.0173842187,0.0868982124,-0.0404114674,0.0043646075,-0.0344242301,0.0092935852,-0.0788529736,0.0146509429,-0.0249370507,0.0353421991,-0.0115099240,0.0391831613,0.0388646979,-0.0065995499,0.0467596799,0.0533749072,-0.0598660828,-0.0144206403,-0.1097625294,-0.1490290384,-0.0867454030,-0.0976907613,0.0201928041,-0.0056827981,-0.0259307248,0.0304000800,-0.0112668338,-0.0179180993,0.0557104852,-0.0389796500,0.0668125804,-0.0004109785,-0.0417529776,-0.0213364338,-0.0474069899,-0.0478046999,-0.0051255211,-0.0740066078,-0.0752868922,-0.0026460326,0.0858408479,-0.0601339641,-0.0031315530,0.0365206754,0.1102200712,0.0291400225,-0.1007588923,0.0296678348,0.0733925070,-0.0038216688,-0.0519173254,-0.0236723995,-0.0194444008,-0.0681001646
-0.0208493629,0.0061888155,-0.0496946845,-0.0815302263,-0.0620681250,-0.0942222574,-0.0366341660,-0.0265484966,-0.1210032755,-0.0523754747,-0.0889333783,0.0859592381,-0.0278650439,-0.0488488886,0.0470893009,-0.0066914132,0.0376604354,-0.0406831371,0.0213113826,0.0087577715,0.0998198321,-0.0638882305,-0.0840972536,0.0733440397,0.0450327317,-0.0326078317,-0.0878663303,-0.0041368350,0.0727919131,0.0191680085,0.0559474678,-0.0447302296,-0.0621239847,-0.1126262490,0.0219376637,-0.0118493477,-0.0254861204,-0.0159669888,-0.0102956040,-0.0622609270,0.0100490950,-0.0528151048,-0.0410299992,0.0378143789,0.0014091257,-0.0993107549,0.0219860452,-0.0161763877,0.0370158125,-0.0344608919,-0.0536682748,0.0652446332,-0.0380381130,-0.0603713413,0.0545629912,0.0073131322,0.0102897383,-0.0026842546,-0.0368452423,-0.0315345253,-0.0281493392,0.0414220864,0.0740330486,-0.0013840897,0.0139631934,-0.0020237401,-0.0477486269,0.0400025498,0.0418220185,-0.0233357603,-0.0155272935,0.0059067792,-0.0006249640,-0.0058112423,0.0094396372,-0.0288646891,0.0263168184,0.0475236025,-0.0575841533,-0.0353309251,-0.0092909629,-0.0383701023,-0.0035963145,0.0152411851,-0.0621515019,0.0165617115,-0.0009508243,0.0558200610,0.0058805024,-0.0200446155,-0.0107690790,-0.0766660244,-0.0354727721,-0.0828118602,-0.0064594623,-0.0466322282,-0.0997878419,-0.0258377954,-0.0016151966,0.0588306886,0.0587869924,-0.0180590135,0.1137813790,0.1133851858,-0.0749792330,0.0486812237,0.0303509108,0.0370239177,-0.0047920942,-0.0166543290,-0.0083719974,0.0258139924,0.0415037476,0.0236143646,0.0349275893,-0.0093693398,0.0137700747,-0.0255842145,0.0378329148,0.0410446459,-0.0138454598,0.0396039117,-0.0543288049,0.0693642011,-0.0041562710,-0.0160340862,0.0297958066,-0.0124309333
0.0351946505,-0.0198224863,-0.0067969434,-0.0684757483,-0.0282783088,-0.0910966169,-0.0663812247,-0.0133842745,-0.0327774356,-0.0189270644,-0.0370235959,0.0347365714,-0.0475256182,0.0005647842,0.0578604330,0.0526471495,0.0126571884,0.0986210884,-0.0839475722,0.0954569323,0.0163170068,-0.0001564758,0.0094485666,-0.0382808674,-0.0494238865,-0.0466322139,0.0226677813,0.0060995771,0.0189617736,0.0163489797,0.0721615077,0.0390280813,0.1024388762,-0.1716599353,0.0016152409,0.0400253327,0.0502876462,-0.0381455541,0.0300412994,0.0469567829,-0.0198736292,-0.0119700711,-0.0310347285,-0.0406289180,-0.0067582734,0.0442201983,0.0019603190,-0.0046651370,-0.0696461696,-0.0966777047,-0.0098854448,-0.0234784065,-0.0097290151,0.0654667168,-0.0344085560,0.0435004448,-0.0185316892,0.0410706505,0.0585759592,0.0574186187,0.0351460787,0.0047249754,0.0343901774,0.0243785753,0.0633416240,0.0525976062,0.0036583179,0.0132813760,0.0024623241,0.0129328871,0.0578012614,0.0054512547,-0.0540588171,0.0313322205,0.0507049941,0.0102561682,0.0473959564,-0.0302756863,0.0048683694,0.0464908256,-0.0580650614,0.0288234275,-0.0065948428,0.0660373896,-0.0677590236,-0.0057781829,-0.0285796001,0.0294653431,-0.0409472906,-0.0233127973,-0.0413697975,-0.0036362887,-0.0768687304,0.0077042772,0.0123560421,0.0462501537,0.0261938489,-0.0250606626,0.0563892836,-0.0032468027,0.0667561291,-0.0476572641,-0.0655303673,0.0728326459,-0.0099945801,-0.0017353392,-0.0896708454,0.0791297440,0.0658220602,-0.0001057467,0.0275042436,0.0445908379,-0.0703637478,-0.0233701652,-0.0871724508,-0.0909608679,0.0018394136,-0.1373302213,0.0310938542,0.0104486898,-0.0274594343,-0.0054996764,-0.0098551695,0.0128844994,-0.0104593142,0.0327686889,0.0675097045,0.0512399995
-0.0908307428,-0.0323456313,0.0261294073,0.0143533982,0.0686958219,0.0772390844,0.0171966184,-0.0268352637,-0.0287244560,-0.0164153415,0.0845597134,0.0444450295,-0.0626636345,-0.0619512477,0.0672152634,0.0201719256,0.0015774073,-0.0525786289,-0.0446871240,0.0642100992,0.0440425493,0.0243820397,-0.0460626818,-0.0567225527,-0.0029929342,0.0166577338,0.0486520545,-0.0001680203,0.0356535839,-0.0244660401,-0.0076762394,-0.0818387942,-0.0044764602,0.0272305026,0.0705273447,-0.0521509637,-0.0320431830,0.0519060469,0.0585320183,0.0497152559,-0.0559915866,0.0358571566,-0.1061403955,0.0713438137,0.0049856272,0.0203439353,0.0050049252,-0.0001980055,0.0245199019,0.0851032915,0.0229358090,0.0527301793,-0.0362476659,0.0319553382,0.0264701102,-0.0155159945,0.0122572795,0.0288828192,-0.0350613436,0.0369328401,0.0202028941,0.0068036038,0.0845076174,0.1041498127,-0.0288080523,-0.0429831798,-0.0228891258,0.0487539203,-0.0766308354,-0.0129707360,-0.0507994136,-0.0113284115,0.0208660795,-0.0221888740,-0.0997292710,0.0193949959,-0.0474296948,0.0573854834,0.0540444363,0.0574290012,0.0008398270,0.0333568731,0.0169397587,-0.0597634448,-0.0501983505,-0.0603783041,0.0338805862,0.0093433842,0.0154175903,-0.1171943746,0.0117885978,0.1354197628,0.0184429094,-0.1104821841,0.0028550399,0.0230738104,-0.0110576053,-0.0329845118,0.0348382438,-0.0023463178,-0.0609689583,0.0061542098,0.0313449205,-0.0138233872,0.0367000193,0.0787331531,-0.0149196474,0.0462916080,0.0409084303,0.0400730387,0.0189721159,0.0687292673,-0.0297523250,0.0171320724,-0.0162673971,0.0256688917,-0.0002879821,-0.0266038285,0.0132564994,-0.0965002852,-0.0546266881,-0.0071186066,-0.0049123793,0.0188883839,0.0650167031,0.0281687666,0.0104492631,-0.0035468439
0.0386783891,-0.0069118484,0.0158581932,0.0097226717,0.0027920161,0.0232183045,0.0311572248,-0.0272569484,0.0208474774,0.0105889668,-0.0083687121,0.0234016576,0.0130524528,0.0346178676,-0.0193028532,0.0206333255,0.0837756991,-0.0190653422,-0.0454946619,-0.0125956080,0.0016533036,-0.0340064393,0.0581143845,0.0539681055,0.1729789000,0.0808266548,-0.1028732460,-0.1563150103,-0.0312566994,-0.0358749982,-0.0276669353,-0.0456407837,0.0101981308,0.0233514799,0.0163460390,-0.0113631795,-0.0678978715,-0.0541742610,0.0535120564,0.0070630454,-0.0687144119,0.0700358299,-0.0682684358,-0.0684770831,-0.0583758322,0.0204852819,0.0022496159,-0.0948223269,-0.1303789440,-0.0109422964,0.0868121891,-0.0206847372,-0.0683038638,-0.0329802623,-0.0414232099,-0.0433414206,-0.0299062040,0.0748172869,-0.0856220792,-0.0515558283,-0.0110922039,-0.0483872268,-0.0163207088,0.0140904883,0.0587003410,0.0684763811,0.0031849330,0.0282542632,0.0445203226,-0.0379637010,-0.0778818151,0.0623143398,0.0338625093,-0.0559862997,0.0400647993,-0.0331581296,-0.0470210537,-0.0108599794,0.0228375058,-0.0412392806,0.0106429803,0.0000530309,-0.0443109873,-0.0261508457,-0.0016991193,-0.0432322780,0.0211075720,-0.1334212978,0.0402468829,-0.0420442643,-0.0009603289,-0.0121447858,0.0235008754,-0.0535477440,-0.0328756617,0.0173158065,-0.0504501238,-0.0182686463,0.0299154269,0.1082335615,0.1159982727,-0.0202371812,-0.0640573215,-0.0647837060,-0.0100852314,0.0763151161,0.0093275125,0.0312409488,-0.0443063591,0.0248243544,0.0355002532,-0.1001845078,-0.0017722845,0.0137365438,0.0247194465,-0.0323754312,0.0022475086,0.0464869475,-0.1236148112,-0.0497738933,0.1560949790,-0.0254746225,-0.0215226094,0.0111916308,0.0328193711,0.0318019687,-0.0058201848,-0.0615664840
0.0087864178,-0.0470569861,0.1577914497,-0.0884089581,-0.0230373484,-0.0968471500,-0.0558336950,-0.1179037590,0.0506276318,-0.0379136150,0.0109367819,0.0312014290,0.0616476682,-0.0203741424,-0.0226946354,0.0417611307,0.0879626438,-0.0486459388,-0.0087244978,-0.0277874066,0.0155244576,0.0598850034,-0.0481738806,-0.0118999443,-0.0527214790,0.0434006087,0.0233320329,-0.0125974707,0.0061572404,-0.0092201066,-0.0740348125,-0.0025127820,0.0057507908,0.0409931840,-0.0184814851,0.0676529372,0.0366114791,0.0213601849,0.0128270875,-0.0216345185,-0.0090915163,0.0876374190,-0.0338724544,-0.0119935917,0.0261754704,0.0114408667,-0.0207663896,0.0873236035,0.0024683541,-0.0246911059,0.0842954786,-0.0276019630,0.1323921300,0.0524159529,-0.0345449445,-0.0189526449,0.0095906445,-0.0597331300,0.0490672258,-0.0243499227,0.0415382490,0.0081162943,-0.0620625231,0.0444572539,0.0678235663,0.0897553404,0.0286375232,-0.0126373431,0.0878148363,-0.0300883916,-0.0183699404,-0.0202983715,-0.0006897242,0.0580021623,-0.0104686932,0.1232541106,-0.0729268629,0.0675144224,0.0293426995,0.0270762564,0.0275195508,-0.0403126520,-0.0688759419,-0.0357967245,-0.0124952130,-0.0342575095,0.0000999042,-0.1121302100,0.0364074230,0.0098407525,-0.0261663780,0.0029514096,0.0754716897,-0.0443122751,0.0307567940,0.0512050708,0.1369977411,-0.0548365007,0.0053912165,-0.0851156883,-0.0941197358,-0.0375777591,0.1316914444,0.0458112229,-0.0343310461,0.0705042207,0.0273448076,0.0714502893,0.0705840120,-0.0551730987,-0.0299533569,0.0295784803,-0.0040861343,-0.0035110970,-0.0052394896,0.0843749044,0.0020520453,-0.0378042628,-0.0480428501,-0.0276759416,0.0254966757,0.0774777625,-0.0197957308,-0.0717823016,-0.0055521053,0.0889050649,0.1095507693,-0.0622347838
-0.0553302297,0.0369323174,0.0677474552,-0.0896149966,-0.0309003579,-0.0155716296,-0.0258898325,0.0842632158,0.0398854566,0.0242886223,-0.0355992731,0.0401197237,-0.0010111544,-0.0040796754,-0.0196829741,0.1089155691,-0.0690885516,0.0430467438,-0.0109030076,0.0126657524,-0.0066783482,0.0399814112,-0.0081801764,-0.0450276316,-0.0140004716,0.0673540769,0.1006114949,0.0465661093,-0.0064523684,0.0161013052,-0.0279372781,0.1039012857,-0.0042087492,0.0239593315,-0.0515174234,0.0130018992,0.0432531298,0.0450266171,0.0449344554,0.0159748666,0.0150520239,-0.0970931369,0.0592727452,0.0242711967,-0.0209075114,-0.0416810168,0.0261933445,-0.0052820568,0.0301220343,-0.0171577538,-0.1253015753,0.0131691732,-0.1051574147,0.0284507685,-0.0535933904,-0.0459773085,0.0328791741,-0.0009743827,0.0236473709,0.0147529969,-0.0421736650,-0.0320052840,0.0867798156,-0.0240386220,0.0739351995,0.0224622149,-0.0125466519,-0.0020141127,0.0135833893,0.0267874506,0.0891405275,-0.0235555567,0.0183400476,-0.0141048491,-0.0928434277,-0.0821571275,-0.0003201675,-0.0188162177,-0.0625160145,0.0109371433,-0.0292632002,-0.0406492511,0.0244412618,0.0978284747,0.0290174658,0.1068028102,-0.0118933798,-0.0658171499,0.0164005881,0.0538978232,0.0248215176,-0.0706724365,0.0197216805,-0.0244050582,0.0078612012,-0.0182098189,0.0403566730,0.0027464268,0.1344522299,0.1579567124,-0.0368079565,-0.0540420886,0.0499172262,-0.0816699394,-0.0068368765,-0.0625940300,-0.0073013618,-0.0708386568,-0.0401278053,0.0426108705,0.0419873541,-0.0035793256,0.0167796774,0.0078382682,-0.0201941680,0.0606248550,-0.0145528909,0.0022285400,-0.0026780888,0.0259537955,0.0282385889,-0.0318704567,0.0921005845,0.0109885852,-0.0204784560,-0.0024406543,0.0016500920,-0.0255159296
0.0849094496,-0.0096434452,0.0731502674,0.0430038395,0.0823341716,0.0655091760,0.0237317186,0.0332107202,0.0338589122,-0.0065724393,-0.0368549686,0.0095091642,-0.0238129084,-0.0570217289,-0.0653669861,-0.0218961288,0.0039672853,-0.0123541585,-0.0102610835,0.0215304983,-0.0264652138,-0.0376887464,-0.0937110037,-0.0098976687,0.0318069224,0.0492123587,-0.0187217399,-0.0289245395,-0.0294146655,0.0847372516,-0.0481765574,-0.1055597436,0.0598999619,-0.0390550305,-0.0221467821,0.0311209767,-0.0548345162,0.0488617586,-0.0342134515,0.0129330620,0.0734518900,0.0021861425,-0.0445968916,-0.0383864496,-0.0232502002,-0.1128239480,0.0222678753,0.0595271538,-0.0033117416,0.0031030377,0.1153294805,-0.0364080258,0.0023702135,-0.0132641572,0.0239938288,-0.0257242438,-0.0683631171,-0.0609743068,-0.0230586020,0.0157272797,-0.0101267904,0.1002887405,0.1476601404,-0.0025192745,-0.0026966712,-0.0232675193,-0.0133479289,0.0038637830,-0.1313350751,0.0288194035,0.0530583109,0.1254076449,0.0016670540,-0.0379931349,-0.0476693348,-0.0208503754,-0.0541114358,-0.0116515771,0.0385010156,-0.0936581381,-0.0334443053,-0.0567101434,-0.0311679113,-0.0100239236,-0.1635376585,-0.0248632468,-0.0726440523,-0.1085711064,0.0973795682,0.0074072278,0.0426161061,-0.0307867762,0.0254000307,0.0331493010,-0.0960861475,-0.0372013504,0.0196268582,-0.0265935771,-0.0373405871,-0.0145405410,0.0069151837,-0.0278269575,-0.0136253861,-0.0745868817,0.0486633150,-0.0445626908,-0.0363824857,0.1040564447,-0.0291878288,-0.0860185714,-0.0331325181,-0.0027680269,0.0229804634,-0.0551970175,-0.0021945696,-0.0223177067,-0.0019905394,-0.0280527533,0.0497679989,0.0102136059,-0.0553099825,-0.0416275817,0.0131660239,-0.0204758325,0.0689965125,-0.0153861049,0.1240949008,-0.0788707074
-0.0817986194,0.0064566268,-0.0313546160,0.0459478843,-0.0342928176,-0.0008379015,-0.0530800170,0.0279836939,-0.0253235039,-0.0075037421,0.0080739758,0.0589974163,-0.0585349330,0.0365069565,0.0327462341,0.0021079465,-0.0030612402,-0.0108968789,-0.0613065990,-0.0288942357,-0.0418936467,-0.0273518395,-0.0407862617,-0.0024526617,-0.0138339863,-0.0547279134,0.0214460675,0.0076762817,-0.0089364807,-0.0331913726,-0.0876981866,0.0177003569,0.0521068809,0.0240406531,-0.0066213802,-0.0554180341,0.0584589862,-0.0450432797,-0.0200194800,0.0727581045,0.0365121796,-0.0244746282,0.0914106703,0.0516315348,0.0101325678,0.0235450259,-0.0066104937,-0.0500831603,-0.1189658584,0.0481385082,-0.0116373056,-0.0857923100,0.0183621942,0.0107165879,-0.0146065337,0.0306802125,0.0734540537,0.0303872272,-0.0343008837,-0.0611647413,-0.0195561454,0.1106305380,0.0284433272,-0.0510710209,0.0678706117,-0.0003876886,0.0255081896,0.0195455898,0.0499429271,0.1004916142,0.0614179858,0.0041389141,0.0486934518,-0.1104622518,0.0219540303,0.1228969950,-0.0003445207,0.0512044003,0.0386064482,-0.0479261297,0.0138353757,0.0193152133,-0.0506563867,0.0283783568,0.0532524281,0.0137710168,-0.0806821609,-0.0147482867,-0.0348003402,0.0399571224,0.0403454304,0.0316852257,0.0361431441,-0.0014404316,-0.0258560541,0.0407096177,-0.0406604441,-0.0462843707,-0.0178133529,-0.0785776041,-0.0118914849,0.0076978707,0.0091627995,-0.0541314396,-0.0212485080,0.0374310596,0.0627850414,-0.0413171758,0.0311218664,0.0091383061,0.0886713250,-0.0227299858,0.0728707966,-0.0499888817,0.0015786528,-0.0323041979,-0.0044512822,-0.0257802680,-0.1063228196,-0.0510834035,0.0249581437,-0.0642731566,-0.0360568638,0.0159559956,-0.0164112643,-0.0617513832,0.0708743146,-0.0313451752
0.0673408588,0.1194315074,0.0415852044,-0.0080290967,-0.0569662081,0.0169494610,0.0197211691,-0.0915730657,-0.0488370896,-0.0428846998,0.0569642857,-0.0269941969,0.0383604177,0.0113688337,-0.0419430830,-0.0177965782,-0.0301751575,0.1010779861,-0.0124289994,-0.0148106425,-0.0789092174,-0.1232722857,0.0724807050,0.1068117083,-0.0580727948,0.0128885535,0.0392371005,-0.0169087426,-0.0247107163,0.0508249187,0.0108096124,0.0064015433,-0.0221089982,0.0542006483,0.0492805998,0.0212954387,0.0666166287,0.0011882827,0.0905829476,-0.1432828666,0.0906654825,-0.1108940395,0.0438850135,-0.0138501038,-0.1109735435,-0.0287780785,-0.0880087006,0.0466206955,-0.0477426466,-0.0159009592,0.0250075575,-0.0129614911,-0.0649851080,0.0100554030,0.0513478732,0.0506259185,-0.0501341307,-0.0622445291,0.0481493026,0.0917137846,-0.0558834842,0.0165406356,-0.0220245789,-0.0362280372,0.0377451081,-0.0704182174,0.0682241468,0.0117397041,0.0241678032,-0.0274551591,-0.0208262098,-0.0252773729,0.0349628119,0.0210223072,-0.0009781708,-0.0698128901,-0.0287341818,0.0069305026,-0.0556101163,0.0464018542,0.0290991500,-0.0062302707,-0.0983312725,0.0414877005,-0.0127343386,0.0121601296,-0.0338330368,0.0017988503,0.0379526076,0.0100293436,-0.0530073355,0.0183772504,0.1323106362,0.0528633604,-0.0284334865,0.0200506437,0.0213700127,0.0293293763,0.0066156429,0.0053304546,0.0460779293,-0.0301033642,0.0408602738,-0.0113032319,-0.0499714136,-0.0243555470,0.0071665794,-0.0070865571,-0.1071621689,0.0001197672,0.0238173697,-0.0131615827,0.0755058988,0.0001911064,-0.0149883044,0.0152213721,0.0398091491,0.0313317159,0.0272539017,0.0709912400,0.0413665826,-0.0605810058,-0.0619843369,0.0645351229,0.0273931608,-0.0670117223,0.0500745538,-0.0531852183
-0.0314975923,0.0115036626,-0.0046147530,0.1029949586,-0.0087390656,0.0426286289,0.0113585571,0.0682984506,-0.0837870254,0.0742534586,0.0493243200,-0.0371096961,-0.1071575490,0.0568671114,-0.0883465944,-0.0375449063,-0.0033817265,0.0624883213,0.0036686313,-0.0027436074,0.0595430318,0.0877042334,0.0176753398,0.1042231209,-0.0002259482,0.0230967918,-0.0425498716,-0.0149729540,0.0139843524,0.0347428329,-0.0676708791,-0.0055032984,-0.0327129298,0.0866011893,-0.0388193466,-0.0151863390,0.1317606116,-0.0601076581,0.0259480108,-0.0406545290,0.0177958747,0.0009157247,-0.0059564935,0.0841538903,0.0074624133,-0.0619966184,-0.0203415531,-0.0654069029,0.0351317611,0.0337586832,0.0787195102,0.1030122509,-0.0134049475,0.0332318698,0.0307707924,-0.0511723689,0.0558554444,0.0072299928,-0.0718710059,-0.0498083624,-0.0270787318,0.0305394975,0.0078233442,-0.0152334227,-0.1130628941,0.0181206516,0.0614060723,0.0404903240,-0.0598865472,-0.0030785690,-0.0604596747,0.0252370877,0.0108597726,-0.0252799147,0.0580662368,0.0536464660,-0.0176537492,-0.0247923677,-0.0502885053,0.0038494686,0.0268586123,-0.0710492046,-0.0296343070,0.0636626943,0.0099052770,-0.1015510190,-0.0251195596,-0.0467741407,-0.0486427716,0.0589761340,0.0782502674,-0.0270511380,0.0209375642,0.0275894344,0.0735182535,0.0179728129,0.1089892757,-0.0641654245,0.0369538016,0.0449147841,-0.0436214728,0.1033216028,0.0110679254,-0.0294175004,0.0931442576,0.0124289975,-0.0379341913,0.0083938357,-0.0275757981,-0.0082785293,0.0481704744,-0.0308047418,0.0027576469,0.0532437309,0.0608218533,0.0051775472,-0.0046186687,-0.0270881034,-0.0648398859,0.0317232178,0.0419147036,-0.0678280520,-0.0127949582,-0.0394773330,0.0159122469,0.0769155426,-0.1182712414,0.0046203527
-0.0280006321,0.0739645335,-0.0467225960,0.0065266487,0.0512165291,-0.0814535712,0.0443535217,-0.1318821428,0.0265231312,0.0254578605,0.0478600962,0.0546844331,0.0023385305,0.0772986213,-0.0654535244,0.0285263897,-0.0954927676,0.0753072990,-0.0168419602,-0.0470467580,0.0344766424,0.0219861260,-0.0860951610,-0.0011658232,0.0355468188,0.0453402769,-0.0507349113,-0.0307810384,0.0993130060,0.0508364528,0.0360700985,0.0268883364,0.0174940977,-0.0026525932,-0.0327903669,0.0589303203,0.0638144358,-0.0015144781,0.0865795937,0.1453465183,-0.0300016959,-0.0296117197,0.0179768431,-0.0247406105,-0.1365546963,0.0640847297,0.0946580492,0.0972913341,-0.0045971810,0.0463406326,-0.0639038586,0.0393707765,0.1131113664,0.0039923889,-0.0019572808,-0.0649887585,-0.0010206535,-0.0201413416,-0.0174741474,0.0139994659,0.1148640527,-0.0226945573,-0.0087923208,0.1208636756,0.0007033615,-0.0009072696,0.0822460597,-0.0156619789,-0.0230571524,-0.0260367167,0.0424795535,-0.0125053908,0.0007783438,-0.0401645814,-0.0316425658,0.0429694266,0.0133563259,-0.0128398115,-0.0196047084,-0.0855371021,-0.0229405942,-0.0631758047,0.0434675824,0.0644207085,-0.0384068578,0.0795643659,0.0516921329,0.0466060038,0.0385180849,-0.0479816689,-0.0172714681,0.0162811896,-0.0774545858,-0.0205080855,-0.0218892348,-0.0299067004,-0.0330079437,0.0432033963,0.0145775249,-0.0352599585,-0.0418370122,-0.0310122720,-0.0305403660,0.0738025888,-0.0311448892,-0.0006451694,0.1178619694,0.0057703467,-0.0299636915,-0.0461616796,-0.0947276286,0.0256937268,0.0072071886,0.0695285026,0.0069378667,-0.0431459121,0.0068145305,0.0032025686,-0.0403150375,-0.0188648429,0.0255893520,0.0671098014,0.0408978293,0.0797695976,0.1240627367,0.0326411996,-0.0305162347,-0.0062671068
-0.0282935223,0.0018793883,-0.1059961409,0.0098280362,0.0892109221,0.0355360780,-0.0490273715,0.0461883973,0.0039238331,-0.0399708123,0.0237571735,0.0648665068,-0.0020378919,-0.0391521396,-0.0006580610,-0.0911342449,-0.0076204518,0.1502756922,-0.0255475787,-0.0274453205,-0.0339241264,0.0079941304,-0.0434395832,0.0193786526,-0.0982269017,-0.1221011020,0.0021400540,0.0280283671,0.0011587793,0.0298073517,-0.0214620983,0.0440476688,-0.0270024744,0.0123642315,-0.1224664903,-0.0405263221,-0.0610911964,0.0278156978,0.0623019854,-0.0394455691,-0.0545429556,-0.0356437478,-0.1075186682,-0.0532104627,-0.0378740584,0.0316459520,-0.0510634974,-0.0757669886,0.0648168881,-0.0415681603,-0.0752885592,0.0234640195,-0.1088602748,0.1155312265,0.0504806610,-0.0371745767,0.0335772001,0.0714494372,-0.0452478449,0.0593328144,-0.0279051704,0.0574885739,0.0437202487,0.0818719431,-0.0426681739,-0.0081280728,0.0200563701,-0.0375456986,0.0045603580,-0.0209050844,0.0530883128,-0.0235158487,0.0413451432,0.0245477417,0.0127688309,0.0838746273,0.0572407151,0.0457765250,-0.0689074740,0.0050666767,-0.0116988827,0.0817375294,0.0326114964,-0.0082639286,-0.0588005035,0.0868292525,0.0442409537,-0.0192874915,0.0464024960,0.0127910629,-0.0174675329,0.0616390422,0.0093668113,0.0338471743,0.0340109042,-0.0350097156,-0.1100005428,0.0241236717,-0.1211935784,0.0131022114,-0.0219849950,0.0658398953,-0.0016725604,0.0913190900,0.0040217866,0.0156662312,0.0289168275,-0.0618420703,0.0260185715,0.0610884951,0.0076037187,0.0732529040,-0.0594566165,-0.0677308363,-0.0433477651,0.0673585992,-0.0031812290,0.0709547378,-0.0672155088,0.0584390657,0.0033453605,0.0525060853,0.0418053753,-0.0744644014,-0.0661735851,0.0294281106,-0.0092398014,-0.1063663225
-0.0204147287,-0.0451687881,-0.0242235475,0.1007856763,0.0635184282,0.0483766754,0.0256863953,0.0208555089,0.0379406857,0.0484220619,0.0883570785,0.0022490894,-0.0487171263,0.0035582541,0.0498179734,-0.0933189070,0.0522544156,0.0259296250,-0.0092373283,-0.0220166486,-0.0948953082,-0.0344957046,0.0645568392,0.0101641997,-0.0572961694,0.0727542937,0.0098277340,-0.0299442267,0.0431101871,0.0194801349,-0.0249111076,-0.0520924084,-0.0010123681,0.0071074711,0.0182486693,0.0130509397,0.0250653662,0.0172494177,-0.0295542033,0.0449384789,-0.0095078974,-0.0340107683,0.0266840848,0.0071799796,0.0022986972,-0.0179089626,-0.0252724159,-0.0366940443,0.0538337290,-0.0098005476,0.0920065379,0.0243438238,0.0048122885,-0.0142240812,0.0014269764,0.0467534220,-0.0024849038,0.0050260572,-0.0122799790,-0.0496484978,-0.0370132066,0.0202776144,-0.0059769701,0.0623844710,-0.0501079060,-0.0556701908,0.0799575446,0.0632146459,0.0924672489,0.0122857001,-0.0966491268,0.0000949822,0.0853710065,0.0879766125,0.0732368949,-0.0261618844,0.0255686486,-0.0025926468,-0.0370031787,0.0206990980,0.0736586271,0.0226863860,-0.0187155207,0.1227556872,-0.0092804927,-0.0086198461,-0.0554749873,-0.0131969245,-0.0029793454,0.0208793767,-0.0099557022,0.0243543251,-0.0571737498,0.0582424689,0.0712715918,-0.0020574526,-0.0738213245,-0.0678447417,0.0386801551,0.0365116349,0.0174423117,0.0460166687,0.0315974819,-0.1254183230,0.0763069730,-0.0644264112,0.0642650639,-0.0522884926,-0.0833906513,0.0682564549,-0.0113629821,-0.0286528463,-0.0708818260,-0.0229096001,-0.0397850013,-0.0566927995,0.0159380211,-0.0253045209,0.0332979442,-0.0673894886,0.0008686197,-0.0704810581,-0.0147605943,-0.0082371988,-0.0323252205,-0.0338365587,-0.0086758886,-0.1090145800
-0.0113360537,-0.1047911274,-0.0614591505,-0.0195978954,-0.0324551580,-0.0545007958,-0.0499691889,0.0186980783,-0.0070362735,-0.0465589160,-0.0090434536,0.0665977102,0.0311982164,0.1171044858,0.0142013057,-0.0302887594,-0.0296043141,0.0590791568,0.0493160304,0.0174774956,0.0283991008,-0.0499743984,-0.0727219983,-0.0238350756,-0.0415087690,-0.0661168282,-0.0063668562,-0.0259978936,-0.0057677309,-0.0031942370,0.0598842263,-0.0947450539,0.0500853141,0.0271378479,0.0799556594,0.0572866095,0.0774550158,0.0178661607,0.0154892564,0.0552838860,-0.0057406748,-0.0616832156,0.0660341478,-0.0145090378,-0.0417010636,-0.0920600104,-0.0553190954,0.0072191350,-0.0347200930,-0.0045326434,-0.0360778945,-0.0302669915,0.0251839095,-0.0174261925,0.0613906179,-0.0605845824,-0.0277866010,-0.0700470752,-0.0101773612,0.0884712432,-0.0602852306,-0.0058716262,0.1135339821,0.0491958153,-0.0376854833,-0.0326164695,0.0388217427,0.0416595639,-0.0278434463,-0.0004461049,-0.0025720085,0.0551492530,0.0043519096,-0.0561801386,-0.0418732975,0.0276206393,0.0714735097,0.0365100478,-0.0117773890,0.0283539511,-0.0309191778,0.0621301190,0.0267987056,-0.1060287261,0.0290073770,0.0532889690,0.0029571505,-0.0526579975,0.0273596517,0.0789668909,-0.0360434092,-0.0552956761,0.0240798508,0.0308420107,0.0515797500,-0.0666039993,0.0059986276,0.0608861398,-0.0478037896,0.0006377389,0.0487304494,0.0063087394,0.0160138067,0.0036656375,0.0308279167,0.0511051677,0.0653081812,-0.0751722178,-0.0231578390,-0.0087103328,0.0125510170,-0.0013843581,-0.0078025338,-0.1172268460,0.0728367965,0.0450720839,-0.0725790286,0.0056334734,0.1177515315,-0.0501206251,-0.0992603196,-0.0216605148,0.0135241678,-0.0343679209,0.0507883200,0.0175557019,-0.0091805636,0.0491401802
-0.0372204815,-0.0120399538,-0.0789158333,-0.0299646443,-0.1112222388,0.0503683765,0.0119417762,0.0823845139,-0.0014570960,-0.0118556768,-0.0251790188,0.0462622754,0.0253071320,-0.1435533661,-0.0041133263,0.0215205023,-0.0335863544,-0.0277841726,-0.0271393400,0.0484021764,-0.0080534013,-0.0233635061,0.0185816659,-0.0148629353,-0.0482630720,0.0468841349,0.0363392031,0.0661490661,-0.0279730140,-0.0145622699,-0.0072956818,0.0159704205,0.0106680051,-0.0374834938,0.0478745604,0.0381691901,0.0146142824,0.0302831110,-0.0055986644,-0.0961330941,0.0332046405,0.0317902307,0.0585398289,0.0519154776,0.0088577435,-0.0252913540,-0.0588564995,0.0387039631,-0.0263302198,0.0241174074,-0.0794479590,-0.0020880266,-0.1043726374,-0.0585761346,0.0270348730,0.0203969492,0.0316642092,0.0113545101,0.0480135700,0.0889803344,0.0278147987,-0.0354111984,-0.0508406805,-0.0223027364,0.0401050784,-0.0147869274,-0.0873910073,-0.0327625302,0.0507571623,-0.0512097497,0.0531735507,0.1577628823,-0.0502277631,-0.0070377762,-0.0213560756,0.0591074905,-0.0338751830,0.0517521669,0.0579313408,0.0724197033,0.0156879015,0.0436270017,0.0556729320,0.0116938329,0.0115293039,0.0044406246,-0.0261771428,0.0643782868,0.0762060768,0.0331497377,0.0821375349,0.0785292310,-0.0212140034,-0.0149518297,-0.0805856621,0.0002210278,-0.0785937496,0.0533532771,0.0095485922,0.0788422698,-0.0757787287,0.0311095627,0.0635449555,-0.0688639681,0.1157287069,0.0021193195,-0.0051643334,0.0361193256,-0.0201238201,-0.0415642107,-0.0080757001,0.0080911631,-0.0049941969,-0.0303644597,-0.0379974330,-0.0347765613,-0.0496590291,0.0702074531,0.0356080118,-0.0050278686,0.0731618966,-0.0810249546,0.0129343878,0.0290951914,0.0319225803,0.0669054685,-0.0662988803,-0.0294946905
-0.0526854519,-0.0206231982,-0.0034393497,-0.0640790464,0.0113710322,0.0430677032,0.0206336165,0.0147887145,-0.0665029063,-0.0353672917,0.0243611232,-0.0078199962,0.0039900525,-0.0799081981,0.0506586609,-0.0284173324,-0.0418892017,0.0398322858,-0.0380688767,-0.0468120840,0.0583109302,0.0521630200,-0.0448838958,0.0173335300,0.0351304773,-0.0502134780,0.0330556075,0.0682275532,-0.0421047291,-0.0777607840,0.0420301161,0.0734289870,0.0318388005,-0.0087234900,0.0246425432,0.0346733963,0.0181461838,-0.0140189308,0.0654216938,-0.0081380843,0.0439759552,0.0920538892,0.0128517946,-0.0246711537,-0.0294970285,-0.0577470559,-0.0554813475,-0.0030272798,0.0504541336,0.0952210775,0.0280414341,-0.0254830225,-0.0074439498,0.0149383392,0.0373616793,-0.0706687089,0.0705071030,-0.0332975893,0.0251953497,-0.0205681233,0.0170438571,-0.0023012891,0.0132748100,-0.0473335196,0.0723158142,0.0207005506,-0.0470972624,-0.0517256324,-0.0407994993,0.0062390240,-0.0647373056,-0.0460865358,-0.0199118203,-0.0606368119,-0.0065207939,0.0318385637,0.0158191020,0.0096046072,0.0183336011,0.0430034174,0.0616228795,-0.0357032945,0.0168045925,-0.0903729323,0.0101134278,0.0596518131,-0.0516592774,-0.0703138684,0.0358522706,0.0001792763,-0.0365511196,0.0059486210,-0.0871230712,0.0451203325,-0.0507451500,0.0200658485,0.0594972297,0.0491577417,-0.0900634880,0.0782327369,-0.0496628883,-0.0189026225,-0.0638524656,-0.0202056588,-0.0310393443,0.0439414739,0.0715615047,0.0004876420,0.0754108838,-0.0267021395,-0.0796472922,-0.0841541265,0.0520023881,0.0773383890,0.0799183337,-0.0323272850,-0.0074343893,-0.0222766386,-0.0270898401,-0.0398759538,-0.0647962040,-0.0145960062,0.0020753459,-0.0190551334,0.0104785010,-0.0309740804,0.0279701759,-0.0133739164
0.0416336643,-0.0022419403,-0.0375288482,0.0438383368,0.0154879237,-0.0299045738,-0.0127025365,-0.0494641349,-0.0794923541,-0.0132344086,-0.1146936125,-0.0230163361,0.0173629818,0.0037209691,0.0171788976,-0.0123665051,0.0732753536,0.0469202522,0.0301236552,0.0081950744,-0.0262163893,-0.0155153260,0.0029317103,0.0278510523,0.0210709973,0.0250721926,0.0893107611,0.0914038923,0.0048207606,0.0129807795,-0.0336643226,-0.0404626385,-0.0215240645,0.0106279394,-0.0474277929,0.0007679101,-0.0473571318,0.0071251258,-0.0550364384,-0.0170758604,0.0189597122,0.0162454646,-0.0783760434,-0.1014711994,0.0183664888,0.0380223204,-0.0355316358,-0.0015945904,-0.0201519585,-0.0566360817,-0.0315387836,0.0261557828,0.0331561975,0.0435913643,-0.1034359710,0.0650845736,-0.0303389694,-0.0164940080,0.0900533025,-0.0030577780,-0.0576964641,-0.0449582710,0.0037184400,0.0860974482,-0.0292918786,-0.0351801325,0.0029110334,0.0103014629,-0.0173177033,-0.0450071786,0.0470032304,0.0350078503,-0.0116674073,0.0355425069,0.0385778259,-0.0223822406,0.0431068510,-0.0630500059,-0.0146638941,-0.0985773681,0.0315886829,0.0070888406,0.0368836582,0.0362860235,0.0020952085,0.0278160426,-0.0255103305,0.0395410700,0.0439077502,-0.0545784050,0.0988751667,-0.0496322159,-0.0421263324,0.0463166685,0.0953366412,-0.0269812494,-0.0231261961,-0.0024725729,-0.0258674956,0.0348583935,-0.0060107336,-0.0368975834,0.0543379339,0.0772167992,0.0827084618,0.0199538678,-0.0239011402,-0.0842980732,-0.0008407419,0.0235933565,0.0100793702,0.0064363027,0.0113441850,0.0403021668,-0.0139815073,-0.0315855027,0.0606922346,-0.0406381163,-0.1182740767,0.0821876309,0.1363566581,0.0134154050,-0.0224604897,-0.0373528040,-0.0384273233,0.0075677265,-0.0237094398,0.0421149650
-0.0333645022,-0.0385045726,0.0703897099,-0.0040310204,0.0282100462,-0.0567337545,0.0822037524,0.0349664002,-0.0828505217,-0.0543407296,0.1097541358,0.0906889087,0.0230764945,-0.0122720506,0.0310536287,-0.0314792697,-0.0326728891,0.0330858231,0.0225324832,-0.0664083714,0.0559495996,-0.0645762868,0.0560828638,-0.0035336694,0.0578590026,0.0151302121,-0.0531290538,-0.0651274773,-0.0012356582,-0.0073015324,0.0161347246,0.0699027100,-0.1153505687,0.1059974238,0.0325718351,-0.0168727431,0.0115522037,0.0934695680,-0.0757893888,-0.0402332417,0.0056269727,-0.0818248990,0.0706908502,0.0475647395,0.0855877124,-0.1932911950,-0.0651095307,-0.0493266595,0.0070438317,-0.0290934798,-0.0390537107,0.0047612469,-0.0638365840,-0.0187950151,-0.0541026748,-0.1052291776,-0.0689174552,0.0303810921,0.1290389341,-0.1339373913,-0.0266830608,0.1880572451,0.0579480176,0.0796773800,-0.0066400772,0.0696991537,-0.0629172710,-0.0942042562,0.0172959045,0.1204357871,0.0280306644,-0.0406762835,0.0379552279,0.0587354064,0.0165029308,0.0594051327,-0.0212595759,-0.0125202297,-0.0392636707,0.0445850383,-0.0695820887,-0.0058428466,0.0466031330,-0.0200859429,-0.0070616757,0.1186473648,0.0993826883,-0.0492705316,0.1336937684,-0.0418128155,0.0182943826,0.0763317004,0.0520344712,-0.0198068943,0.0057352985,0.0016224858,0.0153064322,-0.0164419023,0.0441065374,-0.0209828139,-0.0237330467,0.0476597162,0.0674970354,-0.0597640544,0.0423877047,-0.0995291147,0.0022430901,0.0022639379,-0.0445320568,-0.0343102680,-0.0149666449,0.0455594636,0.0070124173,-0.0353661241,-0.0062365542,-0.0308154756,0.0757319251,-0.0615532405,0.0637990775,-0.0662790499,-0.0474382162,-0.0594809567,0.0236465070,-0.0422071057,-0.0291735283,0.0284821704,0.0473301086,0.0441035985
-0.0235851410,-0.0807534657,-0.0278449245,0.0663491891,-0.0358379682,-0.0272973524,0.0165770272,0.0457571151,0.0074180987,-0.0521918450,0.0137223428,-0.0048790780,-0.0386841132,-0.0110571764,0.0139187557,0.0294406947,-0.0229825042,0.0205141361,0.0731980769,-0.0288241785,0.0170138978,0.0447581257,-0.0161458771,0.0087791367,0.0682255383,0.0102059564,-0.0471586494,0.0426497881,-0.0654395003,0.0518996793,-0.0058930319,-0.0738913873,-0.0631822994,-0.0013973388,0.0154114476,-0.0367555121,-0.0714888048,0.0206769230,-0.0626603720,-0.0002604757,-0.0239676872,0.0311363981,0.0136594582,-0.0784558719,-0.0263145717,-0.0301158127,0.0370004320,0.0612298667,0.0321215156,0.0270060130,0.0040781674,-0.0132325520,0.0504751395,0.0342758055,0.0482509273,-0.0281541444,-0.0465728681,-0.0374007834,0.0026178043,0.0545658194,-0.0040024325,-0.0150501827,-0.0285481725,0.0031620690,0.0358647128,-0.0570542770,-0.0193585813,-0.0214919658,0.0429384294,-0.0116960873,0.0472409560,0.1403183578,0.0456169890,0.0294034109,-0.0017876502,-0.0031103663,0.0156154872,0.0265651406,-0.0078122539,-0.0257705108,-0.0347788062,0.0744130140,-0.0234859985,-0.0131152839,0.0015710203,-0.0227339286,-0.0834038758,0.0442571026,-0.0404743666,-0.1091739979,-0.0014752450,0.0109508043,0.0258659900,-0.0146212848,-0.0097419154,-0.0132821380,-0.0202885223,0.0220781798,-0.0144926460,-0.0702947315,0.0236527297,0.0131529578,0.0418728347,0.0284260673,-0.0166353856,0.0223255822,-0.0562274936,-0.0132570520,0.0547757496,0.0479716183,0.0279366316,0.1023550180,-0.0189096398,-0.0354952342,0.0544983071,-0.0141728600,-0.0557276939,0.0889811943,-0.0045855804,-0.0044268103,0.0260323806,0.0398117092,0.0290620952,0.0639485344,0.0066001416,0.0310613370,0.0010258951,0.0095579945
0.0181364506,-0.1314751267,-0.0253949103,-0.0899036307,0.0236610972,0.0468682711,-0.0661638782,0.0568609779,-0.0451923016,0.0342715592,0.0561685801,-0.0108940501,0.0201386495,-0.0478376331,-0.0649003250,-0.0796110708,0.0368448171,0.0094202344,0.1062787714,0.0410291853,-0.0129868684,0.1139117515,-0.0593437930,0.0264186148,-0.0127679679,-0.0603140964,0.0348623008,0.0125068850,0.0459524999,0.0426475289,-0.0026154793,-0.0488084602,-0.0100962033,-0.0438032547,-0.0595315305,0.0064336135,-0.0346671104,-0.0054497642,0.0398123492,0.0325682689,-0.0210510268,-0.0325307088,-0.0653075690,0.0377190558,0.0695958561,0.0359297922,0.0591423395,0.0074701577,-0.0073233742,-0.0293193671,-0.1242709426,-0.0164292911,0.0510059148,-0.0178421226,-0.0353236306,0.0248780492,-0.0324379137,-0.0293257040,-0.1015196709,0.0205127963,-0.0750731463,0.0398370243,0.1024261801,0.0813068215,-0.0498022558,0.0264850846,-0.0579764476,0.0660799285,-0.0217139442,-0.0039972011,0.0581289622,-0.0489615861,-0.0114507644,-0.0259445862,-0.0745785157,0.0174737471,0.0982043538,-0.0148057323,0.0098341600,-0.0269682254,-0.0409192994,0.0443238960,-0.0270676019,-0.0967000617,-0.0213812954,-0.0245270109,0.0292729789,0.0363424112,0.0032269177,0.0473700511,-0.0002012374,-0.0113331711,0.0144473649,-0.0055650280,-0.0099812269,0.0712489584,0.0412770991,-0.0092545107,0.0187807374,0.1026153717,-0.0302099372,-0.0100401842,-0.0126613056,0.0183923961,0.0483070181,0.0151917204,0.0631845661,-0.0424350885,0.0516564307,0.0352991225,0.0908979348,-0.0898637626,0.0785251709,0.0267419989,-0.0182086727,-0.0341849034,-0.0174401591,-0.0745246929,-0.0355592914,-0.0272736461,0.0692191701,-0.0740883504,-0.0612349725,0.0723057744,0.0534743179,-0.0470307707,0.0171673191,-0.0128612744
0.0581602806,0.0591543812,0.0725444209,0.0677960414,0.0164281612,0.0513719798,-0.0060957812,0.0622796343,-0.0070460077,0.0414121392,-0.0470647254,0.0260293692,0.0168636660,0.0379393932,-0.0157300573,0.0689177063,-0.0206718901,0.0089287983,-0.0681998655,-0.0475621981,-0.0136507819,-0.0273744713,0.0437523742,0.0662960470,0.0278947052,-0.0759267644,-0.0554107313,-0.0759663330,0.0536937051,-0.0114333283,-0.0388344716,0.0492469935,0.0515092936,-0.0868335576,-0.0172063704,0.0944019532,-0.0668469748,-0.0007094489,0.0247315887,0.0349809103,-0.0520929224,0.0574557711,-0.1068863517,0.1362794545,0.0493291577,0.0594712030,0.0098042221,-0.0371185758,-0.0170131882,0.0297412059,0.0187369634,-0.0413519065,-0.0128730662,-0.0028718850,0.1537135683,0.0005578395,-0.0772776944,-0.0327147135,-0.0291585777,-0.0151844260,-0.0242941485,-0.0535959640,-0.0555390602,-0.0078107051,-0.0468926898,0.0037156897,-0.0275623702,-0.0833366860,0.0153362777,0.0425545562,0.0471452546,-0.0442504737,-0.0592649800,0.0182546718,0.0213220928,-0.0379594095,0.0451101814,-0.0460683218,0.0671666547,0.0656408254,0.0533911242,-0.0106711818,-0.0151302703,0.0263251294,0.0248038439,0.0413622703,-0.0183365318,0.0339667765,-0.0187266990,-0.0482723925,0.0588368732,-0.0942785983,0.0431268423,-0.0142138019,0.1331081242,-0.0194158211,-0.0280844512,-0.0490822290,0.0504342161,-0.0529459302,0.0690401743,-0.0064039047,-0.0136811422,0.0492275371,-0.0671227943,0.0079885689,-0.0199318535,0.0055102358,0.0478384724,-0.0043177224,-0.0175197020,-0.0570205200,0.0248775838,0.0111989076,0.0122585578,0.0301186253,-0.0155013106,-0.0271487737,-0.0360207675,0.0120273255,0.0595819324,-0.0854652470,0.0169629947,0.0050466231,-0.0311992188,0.0849584810,-0.0100296929,-0.0553837571
-0.0240598517,0.0413517511,-0.0149644841,0.0295383136,-0.0139710143,0.0563805739,-0.0670100757,0.0241635816,0.0783799770,-0.0189081370,0.0159384376,-0.0854537803,-0.0309108133,-0.0077145008,-0.0456003228,0.0057804974,0.0026514944,-0.0416514842,0.0196798840,0.0109361477,0.0208148890,-0.0236655889,0.0108506394,-0.0262439493,-0.0141824693,-0.0263573587,0.0112130918,0.0015146860,-0.1239367868,-0.0323460066,-0.0382713670,-0.0436628962,-0.0287553306,0.0269414892,-0.0369419877,0.0165989787,-0.0900030281,-0.0334663037,-0.0138300077,0.0575788571,-0.0742007018,0.0697102649,0.0052304583,0.0134347525,-0.0110229737,0.0150159515,-0.0178544963,0.0032502443,-0.0797019177,-0.0667046378,0.0306379111,0.0843555080,0.0122655933,0.0144367595,0.0161401463,-0.0851049651,0.0277303770,0.0251955523,0.0705622413,-0.0819181390,0.0549805539,0.0207590366,0.0279707361,0.0976518166,0.0414401185,0.1279329571,0.0900014741,-0.0363650494,0.0457391010,0.0365032227,-0.0823602880,0.0066850438,-0.1404067480,-0.0278492826,-0.0436891732,0.0267612458,-0.0326081961,-0.0285049607,-0.0333240689,0.1185921046,0.0276601924,0.0008454229,-0.0196316958,0.0033661377,0.0122685081,-0.0184838132,-0.0358600252,0.0958523425,0.0004506494,-0.1063126391,-0.0856209398,0.0084594416,-0.1049327212,0.0959064447,0.0294951027,-0.0093644749,0.0424011678,0.0563276182,0.0283206824,0.1097861286,-0.0282439601,0.0350302815,-0.0108708244,0.0112025825,0.0085152960,-0.0163548461,0.0020382239,0.0838989803,-0.0154148938,0.0532292955,0.0378059346,-0.0144995808,0.0299874458,-0.0604507505,-0.0508813992,-0.0465508021,0.0389635082,0.0154985992,-0.0585912256,0.0466718575,0.0370519580,0.0353784038,-0.0017893303,-0.0180826292,0.0773434496,-0.0131668145,-0.0314840697,-0.0076980445
0.0504296840,-0.0383390000,0.0533435822,0.0557031982,0.0115221535,-0.0453797785,0.0112524624,0.0455924093,0.0041292451,0.0404344718,-0.0150429417,-0.0081459761,-0.0049048594,0.0365787406,0.0580129140,0.0251512110,0.0492128566,0.0301350820,0.0564212841,-0.0012803830,0.0092859518,-0.0014927545,-0.0071818928,-0.0260596934,-0.0274768448,-0.1068929958,-0.0488648324,-0.0897836336,-0.0040141900,-0.0117681760,-0.0475671901,-0.0105582332,-0.0735945625,-0.0020984496,0.0719458481,-0.0065926800,0.0626757057,-0.0119351041,0.0261574124,0.0211025409,0.0337740380,0.0349186878,-0.0756971245,-0.0156664918,-0.0391741113,0.0072210065,-0.1002638790,0.0511080045,-0.0196586768,-0.0277653097,-0.0572689654,-0.0837449101,0.0918195539,-0.0301943189,-0.0348774084,-0.0005075161,-0.0535883758,0.0065269351,0.0057199152,-0.0467284651,-0.0520567792,-0.0838701036,0.0184451080,0.0621918605,-0.0378081340,-0.0842384348,-0.0802928855,-0.0270274388,-0.0910356026,0.0124112404,0.0304574901,0.0314382893,-0.0083174425,-0.0667999630,0.0683858150,-0.0409867403,-0.0704979329,0.0139647805,0.0474578321,0.0105995707,0.0116137137,0.0360036508,-0.0069444930,-0.0335581445,-0.0029638484,-0.0142931458,-0.0081887925,0.0259423856,-0.0326056151,0.0048941683,0.0379671675,-0.0526646485,-0.0266557972,0.0063451102,-0.0150685180,-0.0086917455,0.0034490705,0.0253642704,0.0318501851,-0.0152799485,0.0186891697,-0.0390716901,0.0189132425,-0.0738914969,0.0621792255,-0.0000926747,-0.0368446978,0.0319965909,-0.0297560052,-0.0377688107,0.0230348190,0.0108606873,-0.0363939989,0.0388884206,0.0087266712,-0.0149078517,-0.0648224043,0.0620062793,-0.0394953747,-0.0527990166,0.0731110638,-0.0224726403,0.0215011392,-0.0486754881,0.0239613728,-0.0268044836,0.0357752133,-0.0135496073
0.0490149547,-0.0033678095,-0.0263913642,-0.0913804596,0.0373243685,0.0763566029,0.0508365518,-0.0096615193,-0.0109042583,-0.0197106017,-0.1117914744,-0.0337669135,0.0397732579,-0.0258532785,-0.0307108774,0.0532926746,0.0497771724,-0.0045495927,-0.0071681908,-0.0582422220,0.0018281663,0.0716491095,-0.1045484859,-0.0285536654,-0.0464582980,0.0682738137,0.0359978341,-0.0120228804,-0.0807741061,0.0119150677,0.0357158601,-0.0747698350,0.0617498362,0.0613881918,0.0081303269,-0.0227488498,-0.0060819075,-0.0818390553,0.0670805642,0.0347173190,-0.1072278223,0.0676566553,0.0389573028,0.0830380202,-0.0045466726,-0.0090238446,0.0207644833,0.0107341924,0.0798502195,0.0029731858,-0.0234490434,-0.0182909819,-0.0207451472,0.0363498756,-0.0006923270,-0.0272815576,-0.1253719412,-0.0226993642,-0.0223563208,-0.0192672173,0.0193034899,0.0828345664,0.0116964602,0.0337501481,-0.0095003478,-0.0048725256,0.0129289190,-0.0599386943,0.0402192554,0.0198039780,-0.0055656177,-0.0663506053,0.0221975497,-0.0190553357,0.0808147882,-0.0522029514,0.0173499223,-0.0659260449,-0.0007401949,0.0339685054,0.0566952671,0.0274592852,-0.0193399011,0.0013042750,0.0906226161,0.0205400357,-0.0666173887,0.0363842716,0.0686266053,0.0112487162,0.0363490015,0.0133956374,0.0072512343,-0.0442763564,0.0108873130,0.0284605990,0.0256351534,-0.0287208895,0.0290207523,0.0297100352,0.0939131126,-0.0538134998,0.0333004711,0.0508842433,-0.0354993175,0.0618146302,-0.0037933870,-0.0415361817,0.0333931305,-0.0499691914,0.0577584310,0.0364732695,-0.0401445523,0.0062587371,-0.0464811732,-0.0143516196,0.0171550269,-0.0564031265,-0.0388391940,-0.0384954984,-0.0207986359,0.0682274495,0.0687265741,0.0563181125,0.0156506332,0.0360006594,0.0295531187,0.0049351868
0.0144661809,0.0470831960,-0.0387612025,-0.0784405060,-0.0214082988,-0.0121211148,0.0016795218,-0.0207380243,0.0493361595,0.0414206019,0.0664073118,0.0027203640,-0.0192867463,-0.0075510473,-0.0197307059,0.0288643703,-0.0418122165,0.0629058179,0.0401554939,0.0097129504,0.0300224896,-0.0021582370,0.0002040687,-0.0672757059,-0.0255429982,0.0031565740,0.0829793056,-0.0486855218,-0.0491853717,0.0834199506,0.0008526639,-0.0633830953,0.0664055056,0.0321250623,-0.0083461860,0.0504709900,-0.0291102951,-0.0008435452,-0.0687721721,-0.0084794825,-0.0285942367,-0.0052793838,-0.0842725283,0.0068669255,0.0409762698,0.0447687353,-0.0151293199,-0.0377501103,-0.0130738749,-0.0011378179,0.0196230183,-0.0392842745,0.0610917606,0.0964470024,0.0149661030,-0.0120035605,-0.0209242358,0.0303192652,0.0557629670,0.0405943282,-0.0218733978,0.0410608809,0.0308054672,-0.0259091050,0.0439681911,0.0729235250,0.0039243825,-0.0597559804,0.1046059085,0.0710145829,-0.0086475865,0.0133150287,0.0006291271,0.0544333788,-0.0125164950,-0.0075959505,0.0688377150,-0.0018328643,-0.0170549091,0.0739104925,0.0591656280,0.0220653911,-0.0395319105,0.0507311431,0.0754339275,-0.0059510395,0.0258599341,0.0840710506,0.0017438482,0.0013647420,-0.0701045947,-0.0143637585,-0.1231180753,-0.0733407076,0.0674642396,-0.0251323316,0.0639103268,-0.0459655290,0.0147132997,-0.1311250530,-0.0202903715,0.0272752103,-0.0653712409,0.0118320176,-0.0094431015,-0.0708376686,-0.0034950958,0.0864307736,-0.0239464561,-0.0150998356,0.0644320281,0.0156937171,-0.0430177846,0.0660849112,0.0048649482,-0.0419351664,-0.1334143032,0.0338642147,0.0508902497,0.0884443098,0.0314280499,0.1166052221,0.0398236532,0.0346952938,-0.0772809187,-0.0233152189,0.0581578564,-0.0989438477
-0.1327568358,-0.1333748659,0.0223741914,-0.0571253203,0.0281288727,-0.0100947677,0.0817713278,-0.0270877241,0.0830330106,0.0010221602,-0.0454296207,0.1165965341,-0.0201197203,-0.0653077026,0.0230894861,0.0337930726,0.0092265539,-0.0196630332,-0.1098985506,-0.1076741629,0.0139890974,-0.1090006853,0.0382370414,-0.0099153869,0.0226360968,0.0477734601,0.0087472436,0.0505547413,-0.0740244077,0.0409212605,-0.0354753264,-0.0344088653,0.0123462828,-0.0581299841,0.0589065838,-0.0652099153,-0.0587370986,-0.0632424501,0.0868529435,-0.0761752998,-0.0734050057,0.0504840474,0.0646211182,0.0068130755,-0.0488654806,-0.1087603994,-0.0359664516,-0.0281962910,-0.0314416221,-0.0181676412,-0.0389634973,-0.0953667536,-0.0331068296,0.1016991177,0.0404910046,0.0840788548,-0.0168818370,-0.0524910059,-0.0101287605,0.0237383212,-0.0401048043,-0.0303772281,-0.0348477349,-0.0276397453,-0.0237070631,-0.0232815256,0.0003115714,-0.0856397680,-0.0656324253,0.0542986313,-0.0265340888,0.0019474224,0.0414643382,0.1232070538,0.0562063667,-0.0354815276,0.0061215041,-0.0033352731,0.0667072753,0.0197710023,0.0155867092,0.0555297095,0.0187414466,0.0228674490,0.0286891283,-0.0105236209,-0.0188438474,0.0541138605,0.0222086174,-0.0724848828,-0.0622466024,0.0509700716,-0.0837077353,0.0551606651,0.0131781067,-0.0171955779,-0.0523815665,-0.0172062022,0.0414028754,-0.0070310193,-0.0639952517,0.0109907764,-0.0645309701,-0.0739834105,0.0320461751,-0.0168042183,-0.0280147220,0.1314427454,0.0724992170,0.0151771044,0.0062367286,0.0396481839,-0.0470121036,0.0016481634,-0.0470557450,-0.0893771614,-0.0068918255,-0.0769424278,-0.0138368393,0.0571352470,-0.0220042486,-0.0346345602,-0.0688144264,0.0095562705,-0.0190205121,-0.0912905589,-0.0355336495,-0.0222805019
-0.0429605670,0.0415305893,-0.0406607696,0.0494547107,0.0287156250,-0.0174943047,-0.0586210308,0.0500536371,0.0198135513,-0.0894308859,-0.0815969304,0.0193530058,-0.0415655549,-0.0255564263,0.0412976915,-0.0768713639,0.0271494119,-0.0114933648,0.0434148657,-0.0188841722,0.0913853080,0.0056690527,0.0804909148,-0.0171346615,0.1213668379,-0.0125746574,-0.0457791539,0.1228549085,-0.0466614336,0.1045304999,0.0706184025,-0.1065882629,0.0134214177,-0.0349321944,-0.0365750592,-0.0236362182,-0.0316623209,0.0320574516,0.0255280453,-0.0508146492,-0.1398851170,-0.0165231932,-0.0335463044,0.0254932464,0.0055255311,-0.0261945153,-0.0376409141,0.0363257655,-0.0898831764,0.0080427722,-0.0404142437,-0.0259357931,-0.0006168814,-0.0628175581,-0.0604527341,-0.0971047382,0.0171451083,0.0339678927,-0.0283420200,-0.0225140456,0.0065245316,-0.0414970181,-0.0311690268,0.0061202541,0.0118198064,0.0068019491,-0.0650982665,0.0149657161,-0.0024074207,-0.0166002539,-0.0594529911,-0.0009628469,0.0488931952,0.0639649699,0.1000117505,-0.1029679238,0.0358425868,-0.0579317984,0.0470967172,0.0113616573,-0.0303542711,-0.0208017500,0.0082709433,0.0798251695,0.0367153134,-0.0858812292,0.0748517580,-0.0132959207,0.0506215837,-0.0023177709,-0.0215391820,0.0676530722,-0.0458885618,-0.0532521330,-0.0371702206,-0.0530245771,-0.0580402165,-0.0081232690,0.0847977471,-0.0735912275,-0.0411847387,0.0028255809,-0.0060197474,0.0295347020,0.0707810378,-0.0265033853,-0.0090018035,-0.0093969730,-0.0245849657,-0.0083351558,0.0036717392,0.0343104693,0.0089491360,0.0246732141,-0.0692651180,0.0594539612,-0.0339413646,0.0399307998,-0.0205261747,0.0653252657,0.1094869205,0.0625884846,0.0530863976,0.0292617245,-0.0425571657,-0.0219401843,0.0096051829,-0.0372797571
0.0672980030,0.0297948421,-0.0265866107,0.0014202598,0.0299572826,0.0503351021,0.0304680763,0.0390271879,-0.0522244945,-0.0341416401,-0.0283469238,-0.0412042737,0.0202034859,-0.0018196458,0.0012395087,-0.0398491413,0.1437538082,-0.0473474058,-0.0403093719,-0.0708636911,0.0486540965,0.0389233823,0.0177653064,-0.0092824599,-0.0026419595,0.0371516367,0.0911994591,-0.0314075803,0.0455225940,-0.0024046336,-0.0326237517,-0.0447067537,0.0482583029,-0.0405878931,-0.0198591354,-0.0175626734,0.0035981324,0.0514499396,0.1474951937,0.0024549178,-0.0008426260,0.0654939206,0.1098238574,-0.0178162302,0.0298170865,-0.0005541335,-0.0734166122,0.0216805503,-0.0504956648,0.0330572883,0.0905124580,0.0123080476,0.0658756863,0.0764604983,-0.0299258245,0.0269168448,-0.0028815657,0.0899377214,0.0028882626,-0.0071622732,-0.0274558680,-0.0120585165,-0.0097599496,-0.0001058379,0.0650005357,-0.0789142667,0.1077732311,-0.0203291046,0.0011593726,-0.0269447044,0.0061218929,0.0921688379,0.0226201026,0.0370908105,0.0300467938,-0.0642910407,-0.0257960474,0.0429939605,0.0182558248,0.0231524269,0.0346476716,0.0306970011,0.0320859079,-0.0168897277,0.0278495337,0.0376257560,0.0360382348,-0.0296252237,0.0409631080,-0.0874747867,0.0346913288,0.0074863831,-0.0667999094,0.0859015150,-0.0067327776,0.0336148131,0.0564295801,0.0392464317,0.0359525209,0.1002767532,-0.0278250731,-0.0046948751,0.1416719141,0.0801242136,0.0817330528,-0.0426112541,-0.0267494295,0.0297272796,0.0472976119,-0.0440547189,-0.0317424727,-0.0239369572,0.0089981701,-0.0119845702,0.0314828092,-0.1170203438,0.0631254297,0.0552237974,-0.0205587299,0.0714495102,0.0759361015,-0.0470839363,-0.0689133486,-0.0488050809,0.0741543178,-0.0267580700,0.0248747516,0.0314267758
-0.0445003030,-0.0662015299,-0.0524205782,-0.0966878168,0.0234210181,-0.0285907741,-0.0668044081,-0.1363114856,-0.0492255147,0.0252181918,0.0111663969,-0.0075569696,-0.0787644911,-0.0615395869,0.0061012619,-0.0304791198,-0.0481261659,-0.0959279497,0.0049810554,0.0624678752,-0.0034203282,-0.0215630683,0.0317434145,0.0329794612,-0.0052714837,0.0080361016,0.0091837668,-0.0028203290,-0.1224955793,0.0600059997,0.0379755003,-0.0225273568,0.0920215952,-0.0452686763,-0.0459897009,-0.0239512791,-0.0301787223,-0.0429083485,-0.0497218226,-0.0123248973,-0.0365267254,-0.0968069608,-0.0741158275,-0.0212587515,-0.0271641252,0.0462987640,-0.0351937675,0.0098326732,0.0630452271,-0.0750057516,-0.0310077540,0.0351200268,-0.0384162914,0.0796708190,0.0545874170,0.0104056550,0.0149540717,0.0115385496,-0.0072836941,-0.0408893150,0.0251930989,-0.0124874636,-0.0403946273,0.0942681965,-0.0853936539,0.0106927348,-0.0523525568,0.0086504624,0.0055445202,0.0309020531,-0.0204562406,-0.0337114824,0.0007472164,-0.0224444226,-0.0668146186,0.0556392229,0.0016526956,0.0369121548,0.0201038748,-0.0369815347,-0.0302114514,0.0033758835,-0.0503093109,0.0371378668,0.0123566694,-0.0315870672,-0.0085225596,-0.0339089961,-0.0128675348,0.0002847028,-0.0228581157,0.0101123889,-0.0201157178,-0.0656453520,-0.1361795298,0.0207193027,-0.0101054484,-0.0363279453,0.1242020659,0.0292503478,-0.0557463503,-0.0972624585,-0.0145504264,0.0504326164,0.0769237394,-0.0327872335,-0.0420116846,0.0234152547,-0.0316972325,-0.0283091707,-0.0875250875,-0.0186905647,-0.0342824446,0.0000137220,-0.0370126764,-0.0264421429,-0.0537045022,-0.0188606198,0.0167415487,0.0019059744,-0.0088208642,0.0501499129,-0.0492149386,0.0282923998,-0.0051476274,-0.1075683723,-0.0135388543,-0.0181728977
-0.0459145089,-0.0484724699,-0.0789010611,-0.0259922363,-0.0088908961,-0.0300546768,-0.0241048981,0.0784441870,0.0010330873,0.0324148158,0.0059788528,-0.0471199164,0.0108525045,0.0419531444,0.0207047616,-0.0200034809,0.0180872070,0.0595846136,0.0009621960,-0.0256246550,-0.0290350652,0.0556729122,0.0545206627,0.0373075719,-0.0118035601,-0.0167967047,0.0452665192,0.0123704505,-0.0527587283,-0.1227537237,-0.0524916896,-0.0279120122,0.0569441778,-0.0847812969,0.0682456733,-0.0371164574,0.0264728304,-0.0295775412,-0.0265693250,0.0547053218,-0.0150947014,0.0392295897,-0.1002398400,-0.0371253501,0.0605812007,0.0634711077,-0.0471271940,-0.0600703718,0.0268357051,0.0289002701,-0.0265959248,-0.0644286815,0.0382220371,-0.0450093344,-0.0194137923,0.0000699359,0.0304961265,-0.0825656695,0.0117486640,-0.0033445038,-0.0003825997,-0.1082526753,-0.0482491567,-0.0494501804,0.0354745264,-0.0470546997,0.0231675410,-0.0475325583,0.0378247370,-0.0579768149,0.0134826712,-0.0042856030,-0.0136025234,0.0185063482,0.0264372738,-0.0545305551,0.0612872707,-0.0028684165,0.0463459892,-0.0132617271,0.0564795485,0.0565088582,0.0633872504,0.0224805950,-0.0131920044,-0.0242179339,-0.0653797511,0.0814133527,0.0051425950,0.0021660134,0.0322072400,0.0486741872,0.0219248031,0.0555727055,0.0647139612,0.1222423306,0.0237341027,0.0378138380,0.0345470058,-0.0121273774,0.0543695357,0.0694436253,0.0971790534,0.0873004180,0.0188730976,-0.0685241058,-0.0446914575,-0.0500954612,0.0255553326,-0.0396540384,0.0387581489,-0.0711202806,-0.0527752510,0.0304272074,-0.0065268826,-0.0452066155,0.0595105158,-0.0850681885,-0.0107789737,0.0530054524,-0.0410373828,0.0574236029,-0.0054792753,-0.0170865785,-0.0256285617,-0.0564532748,0.0981425700,-0.0095506124
-0.0264228150,-0.0558554919,-0.0711720880,-0.0288196410,0.0063395228,0.0256424534,0.0378409818,-0.0195648684,-0.0608255966,0.0382363606,0.0330013206,0.0465863689,0.0167171417,0.0317552245,-0.0216640028,0.0579346490,-0.0061381267,0.0652100885,0.0541293254,0.0170785627,0.0097972637,0.0042137235,0.0004644346,0.0232785875,-0.0146251496,-0.0527382243,0.0232817048,0.0279375721,-0.0170685903,0.0354579015,0.0607516160,0.0221006099,-0.0898982056,0.0574320316,-0.0675413402,-0.0771286366,0.0368200557,0.0466061314,-0.0112685328,0.0101915529,-0.0161136204,0.0630119299,0.0356707037,0.0222936676,-0.0493363506,-0.0507896386,-0.0665790786,0.0184043246,0.0044140280,-0.1154898318,-0.0221946996,0.0418771752,-0.0361942582,0.0976177450,0.0446887862,-0.0415827866,0.0711800121,0.0863811488,0.0088331145,0.0484415557,-0.0337486239,-0.0076229194,-0.1093605783,0.0364661023,-0.0053740441,0.0871657053,-0.0248866067,0.0589052273,-0.0298781165,0.0324905472,-0.0694762425,-0.0287796460,-0.0653687379,-0.0668517854,-0.0066486492,0.0007093386,0.0458429703,0.0020589838,0.0045213882,0.0216541352,0.0677879412,-0.1034861410,-0.0417952425,0.0679373532,-0.0162365256,-0.0744350303,0.0007850575,-0.0438399037,0.0551812504,0.0420595132,0.0137359065,-0.0158033490,0.0013065412,-0.0717497586,-0.0763031447,-0.0757422400,0.0049464224,-0.0543117905,-0.0530816948,0.0260810750,-0.0501731507,-0.0317121466,-0.0583198875,-0.0047487381,-0.0021237957,-0.0955300115,0.0013427542,0.0219039425,-0.0127656565,-0.1674344059,-0.0722621449,-0.0425493631,0.0448884125,-0.0151983562,-0.1088804020,0.0222757553,-0.0444173165,-0.0156711750,0.0092545267,-0.0660331859,0.0611750991,0.0065759026,-0.0358330625,0.0293310986,-0.0076273761,0.1192686844,0.0686148516,0.0172817524
