-0.0336500603,0.0574394041,0.0151353101,-0.0075901606,0.1323125355,0.1069012852,0.0715868186,-0.0001512455,-0.0048075216,-0.0263502619,0.1252535550,-0.0713499649,0.1639691709,0.0135391840,0.1245756453,0.0144683734,-0.0249079242,-0.0126800339,-0.0059191750,0.0536344668,0.0590731068,0.1046478785,-0.0138814409,0.1165082353,0.0303139363,0.0366304910,0.0023408964,0.0799670541,0.0856819570,0.1479122225,0.0822381216,-0.0272720906,-0.0336565583,0.0548664662,-0.0044661277,0.1157715135,0.1284283120,-0.0592125372,-0.0059377681,0.0610593371,0.1041522297,0.1176044521,0.0424055125,-0.0550036874,0.1273660829,0.0112404875,-0.0066003626,0.1119515130,0.1613708814,-0.0349390201,0.0608001235,0.0016748521,-0.0386892545,0.0923799599,-0.0531650177,0.0849226461,-0.0375759923,0.0056423847,-0.0197274282,0.0399102815,0.1000568644,0.0154909214,0.0320553282,-0.0131124203,0.0697491307,0.0595931852,0.0007244760,0.0998531291,0.0405949602,-0.0299098704,-0.0274673967,0.0515789603,-0.0674158489,0.0482495020,0.1229604838,0.0209337922,-0.0292374323,0.0130902826,0.0031516101,0.1275100059,0.0043549003,-0.0717907764,-0.0027193728,-0.0019855392,0.0479420100,0.0677779946,0.0700920507,-0.0191173437,0.1911234333,-0.0365963399,0.0895851233,0.0363491376,0.0425903421,0.0929928731,0.0976592840,0.0137392744,0.0338661351,0.0986774446,0.2262046943,-0.0239888767,0.0623319844,0.0092460026,0.0529977809,0.0812077465,0.0012134450,-0.0670354430,0.0366023602,0.0404086939,0.0999045630,0.0361839821,0.0915064890,0.0010346126,0.1016314581,0.0603572945,0.2005893550,0.0500303931,0.0777805370,0.0413009584,0.0318842846,0.0027093861,0.1092121138,-0.1170580207,0.1654259888,0.1840693974,-0.0066532042,0.1767542458,-0.1416681733,0.1313839022
