0.1868569055,-0.0065634168,-0.0765112650,-0.1898129693,-0.0199141502,0.0349571787,0.1523422175,-0.1889795615,0.0886874296,-0.3998898292,-0.0455537911,0.1026877524,0.1066509588,0.0146203460,-0.3044936537,-0.0345925753,0.0521965051,0.0489064526,0.3598906433,-0.1266860178,-0.1637951696,-0.1273719200,0.0151176286,-0.1204218436,-0.0210740626,0.0660520894,-0.0642255581,-0.1538226084,0.0601179380,-0.1476871011,-0.2525075208,-0.1228788363,0.0840504716,0.1910897135,-0.2178354620,-0.3135173951,-0.2043689889,-0.1668937714,-0.2248653871,0.0298429654,0.1616788690,0.0780569690,0.1412803396,0.1668436749,0.0698492152,-0.0883988754,-0.1677000291,-0.3076625725,-0.0899411400,-0.0978501156,0.0479707040,0.2658191340,0.0646122144,-0.0324865172,0.1642708106,0.1537310271,-0.0405746429,0.1493089043,0.0334231567,0.0602702435,0.1097691277,0.1876311417,0.1596378046,0.0468838486
-0.0693741420,-0.0340270918,-0.1229749261,0.0431339291,-0.0002631832,-0.1181533280,-0.2611269102,0.1194340652,0.1488616459,0.3544572902,0.2822454550,0.1356714437,-0.1808815831,0.1694946182,-0.1688534077,-0.0533721999,-0.2825607778,-0.1886556480,0.0921395733,-0.0137300645,0.4004920337,0.4170460784,-0.0623119610,-0.0140605686,-0.2804693059,0.0642486752,0.0641282699,0.0952550766,-0.0352792931,-0.0528139437,-0.1452014232,-0.0328065921,0.0935493204,-0.0139785377,0.0740030188,0.1049310875,-0.0947855826,-0.2200097120,-0.1975815789,0.2434477496,0.0395667195,0.2793652827,0.0156795929,0.1083065834,0.0852735302,-0.1319020622,-0.2531216680,-0.1650469877,-0.0535148415,0.2445652376,-0.0062413265,0.0220280999,-0.1123498507,0.1562897686,0.0380775541,0.0544453498,-0.1631940803,-0.0600822934,-0.1840005535,0.1908616609,0.1834305619,0.1617075745,0.0342951366,0.0636042943
0.3046099838,0.0912449835,0.1991751200,-0.3250790732,0.0676782669,-0.1356519966,0.0800276172,-0.0499081534,-0.1795998968,0.0061840247,-0.1270021267,-0.0776939067,0.1736790222,0.0075638782,0.1454437244,0.2993570567,0.1543386743,0.0875619693,-0.0813175954,-0.0627998275,0.1273568503,0.0616547599,-0.0038084074,-0.0456571958,0.2461902435,-0.0743544283,0.0966034577,-0.2263482409,-0.0530134726,0.2182612327,0.3168522462,-0.0806359233,0.0676763941,-0.0236057411,0.2956632731,0.1580836231,0.1949958117,-0.0121925729,-0.0933287023,-0.0830774673,-0.2772628333,-0.1355137963,-0.2153549686,-0.2527232761,-0.2088485159,0.2378033386,0.2595377714,-0.0795367872,0.1471246037,-0.1003646050,0.1909640608,0.1317969346,-0.0652931054,-0.0359901556,-0.0043153433,0.0876730957,-0.1590474564,0.0760624804,-0.2732581426,-0.0692357704,-0.1612727104,-0.1495857264,0.1228076566,0.0653155711
0.1612116996,-0.0628939807,-0.0428625593,-0.0144255268,0.0544300789,0.1378478141,-0.0267949338,-0.1267949655,0.0442091250,-0.0601646419,-0.3217359866,-0.1779365751,0.2293796877,0.0706030338,0.2935355165,0.1485629165,0.0584435010,-0.0924884148,0.0124695703,-0.2427040262,0.0606035097,-0.0808131172,-0.1680585982,-0.1672770574,-0.1074317277,0.0918877875,0.0415930415,-0.1244226970,-0.0812483704,0.0536283397,0.0470224847,0.1792986605,0.3524277408,0.0295772395,0.1640019698,-0.1214267925,0.1317750021,-0.0075789085,-0.0922672657,-0.0077146027,0.0425515916,-0.0343318386,0.0010349651,0.1352599514,0.1525555076,-0.0340865088,0.1413335447,-0.0707908498,-0.0651015792,0.0051234668,0.0526254668,0.0229845455,0.1418426728,0.0489850084,0.0241897054,-0.1833672807,-0.1720598412,-0.0598574929,-0.1860885098,0.2599802058,0.3409283202,0.0374562454,-0.0623784470,0.0786321054
0.2615695224,-0.1211106624,0.0820890979,-0.1253154272,-0.0261963311,-0.1958616435,0.1071768792,0.0583491105,0.0286757486,0.0691506652,0.0110534299,0.1483439104,-0.0987477725,0.1560764018,0.0723843687,0.0927077180,0.2482125612,0.0350893821,-0.1422924276,0.0194264402,-0.0291450652,-0.1298096452,-0.1280053301,-0.0473422861,0.0103249781,0.0382824596,-0.1889915003,0.3165959831,-0.0455697620,-0.1167673185,-0.0677581567,0.1855876420,-0.2196359105,0.0196896849,0.2127360304,-0.0546191729,0.3084870595,-0.0168970382,0.0414307523,0.0138002442,0.3229041431,0.1021094982,-0.1517865805,0.2319220053,0.0648927447,-0.0546044703,-0.0714582289,0.1451906469,0.0624110982,0.1808938918,-0.0606374571,0.2301967690,0.2870524492,-0.0858136336,0.1525244867,-0.1484274799,-0.0088866545,-0.0145852074,0.0462780086,0.1481822368,0.0824235622,0.0333779785,-0.2314004044,0.2128398152
0.0712752478,-0.0936117082,0.1733511087,-0.0145658979,0.1791153636,0.0899256259,0.1403742242,0.0170616035,0.0628362225,0.0001088549,0.1783496407,0.0242415594,-0.2303934488,-0.0236528547,0.0697821283,-0.0014276215,0.1561361273,0.0279501031,0.1350149375,-0.1582692758,0.2614219491,0.0343629855,0.1588174337,0.1800837006,-0.0468027448,0.4296187688,0.1673560742,0.0018214870,0.0916357684,-0.0088948161,0.1297693034,-0.0999075362,-0.1615867788,0.1130609167,0.3110650571,-0.0874475472,0.0844496479,0.2781300548,-0.2291289890,-0.0846684690,-0.2017368205,0.0919296539,0.2107530097,0.2277045900,0.0184936787,-0.2450435179,0.2145929858,-0.0508649756,0.1173856467,0.0423724277,-0.0963657489,0.0909911564,-0.0949941798,-0.1063730688,-0.0650683448,-0.1030201465,-0.0749502999,0.2649468111,0.2577947475,0.0794512491,0.0874383281,-0.0330523707,0.0534264154,0.3071414467
0.1225525264,0.0469460073,-0.0464360386,0.0986639533,-0.1663914978,0.2043948032,-0.0549653163,0.0535635826,-0.1569930900,0.0132733773,0.0406147488,0.1278699763,0.0673853380,0.1234820674,0.3559864400,0.2341155043,-0.2215423815,0.2446709607,-0.0162437546,0.2982684660,-0.1136535992,-0.1348337237,0.0520650887,0.1095231889,-0.1028356659,-0.0525835777,-0.3137493654,0.0559392308,0.1542018916,0.0582839395,0.1617834320,-0.0056579192,0.3634862155,0.1228574061,-0.2674966705,0.0699024473,0.0044042418,-0.0733320904,-0.0025321960,-0.0075916799,-0.0330106959,-0.0323032320,-0.2912317060,-0.0395076454,0.0835833235,-0.1140142938,-0.0621525870,0.0439959047,0.2492585584,0.0465923495,-0.2004528859,0.0317172459,-0.0034228265,-0.2303031823,0.0121340812,-0.0528360835,0.1186178924,-0.1071056657,0.1650000255,0.0069023153,0.2329249275,0.0829451340,0.0083642631,0.0198317112
-0.2120336613,-0.0721318293,0.1591894570,0.2324135894,0.0756975646,0.0210725265,0.0191576548,0.0786395584,0.0695962093,-0.3477906284,0.1575614929,-0.0538333251,-0.2252332137,-0.0235912000,-0.3752155833,0.2426801356,-0.0111096282,0.0199873369,0.0064098545,0.1325233414,0.2990622705,0.0614799484,0.0213084202,-0.0891836462,0.0241098291,-0.1469139033,0.0834236624,0.0399597186,-0.0703850803,0.0440896584,-0.0594990304,-0.2084364837,-0.1258250156,0.4148317844,0.2574343376,-0.1762326555,0.3518285290,0.1556536374,-0.1882561488,-0.0213672410,-0.1088385815,0.2331132677,-0.0220461343,0.0072113334,0.1085944309,-0.1717959959,-0.1080427701,0.0381894013,-0.1170289503,-0.1099534744,0.0261962333,0.0576264834,-0.0029248580,-0.1257222172,0.2087065272,0.0394890761,-0.0570001493,0.0023020766,0.3418492461,0.2638451471,-0.1938792164,-0.0223041114,0.0871281215,0.0399110101
-0.1785025616,0.0557880757,0.0805166556,0.1266374994,0.0126632206,-0.0224994477,0.0774514678,-0.0109138075,0.2026253316,-0.0901248520,0.0835899222,-0.0814597399,0.1361266026,-0.0003771498,0.0361371454,0.0274545836,-0.1826290166,0.0834502005,-0.0423352682,0.0473215692,0.0134055427,-0.1063539107,-0.1965375590,-0.0769212146,-0.0523276736,-0.0222004301,0.1978098800,-0.1088105849,-0.0575578982,-0.0871907518,0.0176252560,-0.2677027276,-0.2772548538,-0.2046789926,-0.0371113599,-0.0295930427,0.0534944791,0.0797090289,-0.0850511428,-0.0578695653,-0.0578184643,0.0623538414,-0.0510133318,-0.0289154165,-0.1528733475,0.0919639991,-0.1033367327,0.3012817435,0.0326219712,-0.0687785221,-0.0416715424,0.1384823672,0.0646225013,-0.1038651400,-0.2959842981,0.0934761965,0.0712794048,0.0082516267,0.1733997890,0.0431412605,0.0500449289,0.0073058456,-0.0364939771,-0.1367543848
0.2178696470,-0.0046340134,-0.0070443730,0.2527458024,-0.0672037941,0.0595203438,0.2606525886,0.0038759682,0.0149979122,-0.0412510212,-0.1161256318,-0.0206636702,-0.1672945068,0.0727723840,-0.0546919969,0.0333721380,0.2592339216,0.0887838391,-0.0197047593,-0.2105488228,-0.0712490482,-0.0668040268,0.1518189326,-0.1251087283,-0.0376670066,0.0876445234,-0.0613766684,-0.0234848525,-0.0618129427,0.0722986624,-0.1366873145,0.0882748382,-0.1109113518,-0.1817865378,-0.1754527970,-0.0463272752,-0.0215571157,-0.2557979881,-0.0910175920,-0.3306808020,-0.2106950843,-0.2747828792,0.2239750856,-0.0322606788,0.1131103308,-0.2560535596,-0.1428011038,0.1211987760,0.0949888519,-0.1182992953,-0.0649741964,-0.0450276114,0.1124760689,-0.1499130115,0.0890540651,-0.0945982848,-0.1585291796,0.0776349571,-0.0083005258,-0.1048141930,0.2555029359,0.1951714048,0.1214995354,0.2079546553
-0.0863118886,0.0329954715,0.1111941715,-0.0593813523,0.0904402292,0.1829251102,0.2101980280,-0.0855252340,-0.1237408252,0.0281158130,-0.0561624385,-0.0529400326,0.1095351439,-0.0076539284,0.3347675578,0.1018306311,0.0939308054,-0.1657513183,-0.0832632421,0.3026363604,-0.0004788471,0.0588656514,0.2159574269,-0.0045020952,-0.0090000511,-0.0323722671,-0.0347089361,0.1952161493,0.0202902951,-0.0039335141,0.1658677949,0.1514011624,-0.2173126200,0.3490938034,-0.0503507155,-0.0207622823,0.0305775937,-0.0245281800,-0.2706913482,0.0829277518,-0.0203251261,-0.0068876316,0.1077988970,-0.0391304157,-0.1068164987,-0.2007775535,0.1394539067,0.1603676455,-0.0894545389,0.0751716464,-0.0789175606,-0.1279220080,-0.0898436061,-0.0908875912,0.1260692254,0.0139113339,-0.1020425413,0.0676951094,0.1957081922,-0.0654943724,-0.0968605857,-0.2368585622,0.0600010662,0.1106523303
-0.2027513571,-0.0610117035,-0.1338610052,0.0287362609,0.0329902464,-0.1620476806,-0.1450156156,0.0604291550,-0.0210198211,0.1588548547,-0.0162017740,-0.0209317529,0.0609975639,-0.1531481569,-0.0531663631,-0.0526697197,0.0750033419,-0.0238565724,-0.2086884713,-0.0329060833,-0.0459327461,0.0362404038,0.2109998564,0.0990790317,-0.0537143252,-0.0256548008,-0.2519027981,-0.0941868679,0.0595483423,0.2073311086,-0.1537074046,0.2256264527,-0.1862456919,0.0789396134,-0.0352450694,0.1752929144,-0.0806975451,-0.0399247656,-0.0452370787,-0.1537022029,-0.0229059970,-0.1897156730,0.0711443245,-0.0388655832,0.2064000102,-0.1090679929,0.0615057599,0.0253835123,0.1762776997,0.0972465773,-0.0019846487,0.1392217893,-0.0529224778,0.1189550737,-0.2555896055,0.0171281102,-0.1657565755,0.0016132394,-0.0009146227,0.1182082317,-0.0901912357,0.0429616624,0.1732072647,-0.0629374014
0.1694054600,-0.0056838139,-0.0551018132,0.2462732835,-0.2305503806,-0.2323179576,-0.1444461134,-0.1356738012,0.2560965494,0.1509772063,-0.0106621992,0.1149118942,0.0297656812,0.1942458191,0.3994064876,-0.0395112212,0.1173127926,0.0258765016,-0.0973302754,0.3885594134,-0.1112404624,-0.1108330403,-0.1922831317,0.0942434372,-0.1351408964,0.0213927407,-0.1792854672,0.2228062807,0.1432636078,0.0625319229,0.2216930030,-0.0547841782,0.3307456734,-0.2605720718,-0.1702338065,0.0904192616,-0.1721409632,0.1764949047,0.1568105473,0.3347967724,0.2455813447,-0.0594702837,0.0205310042,-0.0625181603,0.0691037794,-0.1084134727,0.0302913919,-0.0153259794,0.5065389500,0.0811243321,0.0790367617,0.1267355606,-0.1421730219,0.0814946077,0.0128913634,0.1730422556,0.2110667273,-0.0504993412,0.2649483376,0.0569430685,-0.2341511503,-0.0036657977,-0.1033178080,0.0937272551
0.0288841370,0.0752897173,-0.0210930796,0.0592402626,-0.1145150044,0.0790767405,0.1615584740,0.0990883316,-0.1350617570,-0.1850829055,0.0542035465,0.0569558600,-0.0187947845,0.1066662041,0.0198235458,-0.0808353628,-0.1692553154,-0.1252964865,0.2312142050,0.1797784052,0.1372970179,0.1421108747,-0.0232920110,-0.1168240909,-0.1637555286,0.2133900604,-0.0219674174,0.2753819273,0.1858285647,-0.1369511566,-0.0946502882,0.0047316532,-0.1049768348,-0.0578612741,-0.1844934049,-0.0632142036,0.2646765750,0.0407193863,0.1162369969,0.2351052207,-0.0439045676,-0.1332124248,0.0652568922,0.1621848148,0.0740133617,-0.1227709644,-0.1564908564,0.0335074930,0.0422394722,0.1940337380,-0.0800475761,-0.1456055292,0.0462061852,0.0100063823,-0.0059033562,-0.0165486575,-0.1219481338,-0.0709780145,0.1634383343,-0.0526674867,0.2089866025,0.0265754000,-0.1518245363,0.2111483235
0.2016766353,0.1821167826,-0.0445320035,-0.1040142590,-0.1119042461,0.0303162629,0.0261869984,0.0510286382,-0.2875207182,-0.0931163637,-0.0287554578,0.2260037150,0.0280089084,0.2099790080,-0.0045823166,0.1834024911,-0.0801907340,0.1319647308,-0.0390139405,0.0263240955,0.0075589174,0.0082834758,-0.0809617155,0.0984419403,0.2588278597,0.0573854917,0.1317035114,-0.0428884748,0.0905192873,-0.1574014715,-0.0564258205,-0.1419135046,0.0835715629,-0.1622878070,0.1899376141,0.2829219195,0.1883121123,-0.1551157078,0.1076668490,-0.2062021760,0.2021535913,0.0770646753,-0.1075260663,-0.0297398466,-0.1182344391,-0.2238572753,-0.1046575293,0.0911235735,-0.1329734281,-0.2589586066,-0.0766607028,-0.0242372780,0.0999423108,-0.0335329613,0.0557009681,-0.0732760864,-0.0337601025,0.1877608635,-0.2830439489,0.3557653872,0.0428686351,-0.0599283879,0.2453879376,-0.0983451662
0.0974987139,0.0271691954,-0.0107136065,-0.1130213799,-0.1698103528,-0.1434747771,-0.1861430169,0.1878467400,0.0639402705,-0.0677536647,-0.0649549075,-0.0339241724,-0.0201324862,-0.4349330773,0.0773731656,0.1182017545,0.0704520448,-0.0858490096,-0.0419398603,0.2347150508,-0.3583575903,0.1628316248,0.2027078617,0.1323988673,-0.0599705280,-0.2032957541,0.2004010846,-0.0860909878,-0.1819662316,0.3723063338,0.1943295776,0.0340981976,-0.2025669358,-0.1114221170,-0.0407554007,0.1636096434,0.3751182378,-0.4490081192,-0.0427015955,0.0490734280,-0.1141454556,0.2990341242,0.0319442296,-0.0268182633,-0.0460689972,-0.0705756357,0.2248997061,0.1210704137,-0.0102617033,0.0251355955,-0.1344902940,0.0991583910,0.0909156698,0.0053605240,-0.0127172073,0.1243044961,0.0287961574,0.1139540327,-0.3162543372,0.0458444192,-0.2137262586,0.0203196528,-0.0489157912,-0.1994889347
0.0513477384,-0.0431861293,0.1149788971,-0.1434924148,-0.0358572926,0.0415645731,-0.2589226359,-0.2101654397,0.1935810268,-0.0894325201,-0.1766680578,-0.0098439273,-0.1261963807,-0.0843088499,-0.1536986061,0.1402555051,-0.0544620747,-0.0106957596,-0.1079143666,-0.0700174100,-0.0627847525,0.2511206545,-0.2378569210,0.1057928537,0.1276882765,-0.1436677441,0.0583178330,-0.1191712718,0.0717983246,0.0960300483,-0.1231645173,0.1802504057,-0.1323273169,0.0801324258,0.0784547370,-0.3255672830,0.1230655571,0.1241697836,-0.0652000200,0.0815192414,0.0072887867,-0.0298000431,-0.0086412130,0.1757904302,0.3197584498,0.1754388403,0.1727620391,-0.0947594276,-0.0417734439,-0.0101893776,-0.1983574718,-0.0672488655,0.1662104892,0.2249201634,-0.0359927183,0.1336638164,-0.1806095507,0.0480787794,0.0288051142,0.0493429786,0.0167518679,-0.0347733592,0.3812014511,-0.3638966193
-0.1787071709,-0.0632186833,0.0026237276,0.1002485534,0.2477976711,-0.1274517092,0.0047564302,-0.0894793518,-0.0483684174,0.1291165966,-0.2114694380,-0.0056312712,0.3960717110,0.0166958454,0.0251931588,-0.0939187588,0.1244412642,-0.1172634429,0.1903418817,0.0406713033,-0.0471566293,0.0637060537,0.0291522227,-0.0088225176,0.3146441326,0.0534922133,0.0238438372,-0.0083243527,0.0557461671,0.1362276440,0.0538057196,0.0448376643,-0.2027638046,-0.2692091404,-0.0490586473,-0.0539808508,0.1527743760,0.1740486726,0.2906475869,-0.1188930652,0.2580981529,0.0277810654,-0.2799838671,0.0108605593,0.0081167073,0.0952989143,0.0086172232,-0.0645122495,-0.2817056794,0.1445961630,-0.0565415417,0.0285671541,0.1752732630,0.0470582195,0.0243887982,0.2357770182,0.0058247864,0.0515774830,-0.0120971118,0.1011785031,-0.1375422053,-0.0485648993,0.1521377016,0.0168033027
-0.0912858788,-0.0984181147,-0.0401161395,-0.0439924462,-0.1704280870,-0.1614227758,0.0483971005,0.0965769048,-0.3253281011,-0.1168432651,-0.0561759267,0.1894180408,-0.1550872337,-0.0187752096,-0.0929967720,0.0115655633,-0.1816921517,0.2393514482,-0.1298420155,0.0821248518,-0.0375297152,0.0627250156,-0.0053234040,-0.1397895703,0.2100016016,-0.0501082791,0.3184032084,-0.1121817340,0.0355071884,0.2582785590,0.0060346558,0.0657557919,0.0391153024,0.0605191827,0.1152370176,0.0005730558,0.0461313834,-0.0179324199,-0.1613985535,0.1442796545,-0.0612719827,-0.2063903141,0.0490486696,-0.0017344043,-0.0641017951,-0.0283927697,-0.0244410225,0.0446320903,-0.1654565062,-0.0814479109,0.2120114143,-0.0012560790,-0.2630285345,-0.0060349510,0.1170078660,-0.0749216584,0.0020331184,0.0322434461,0.0933650897,-0.1046443412,0.1049418252,-0.1286336405,-0.0601967885,-0.1037135847
0.2157446556,-0.1806125536,-0.0860512252,-0.2459843587,0.0665452979,-0.2124041276,-0.0668949106,0.0465669414,0.0508076089,0.1614436122,0.1668863391,-0.1448263807,-0.2420013247,0.0715016862,0.1057874482,-0.0628799601,0.1007665381,0.0910297177,-0.0607427284,0.2919892184,-0.1780052658,-0.1582370869,0.2534725709,-0.0040951066,0.2653102923,-0.0991441197,0.2302831357,-0.0490623508,0.0191748525,-0.1400048310,0.0987664562,-0.0841962845,-0.0879852002,0.0792150102,-0.2223374099,-0.1727529883,0.0208416391,0.2640630895,-0.0761039941,-0.0764201344,0.1653746764,0.0782582557,0.0640288308,-0.0650703396,-0.1868533048,-0.3085733528,0.1099538100,-0.0504889071,0.2347791842,-0.1524913949,0.0575928630,0.0111857812,-0.0002380825,-0.1334970263,-0.0653341910,0.0585886088,-0.0330168854,0.2261501872,-0.0168089066,-0.0292604895,0.0014427380,0.0725288051,-0.0057232510,-0.1412843767
-0.0396309825,0.2726181351,-0.0907415151,0.1147894245,-0.0522654570,0.2119942703,-0.1747569021,-0.2460854085,0.0669062215,-0.1181715948,0.0592998882,-0.3401940414,-0.1375705891,-0.0804864301,-0.0643880334,0.3906777932,-0.1912024011,0.0795201619,0.2938078528,-0.0711758629,0.0705083933,0.1028291524,0.1881056651,0.2019269635,-0.0031613697,-0.0630749347,-0.0443289082,0.2313244161,-0.2254693411,0.0195233813,0.0644459451,-0.1087159462,-0.1741564047,0.1877221083,0.2251806991,-0.0643809475,-0.0974903371,0.0794060575,-0.0177483441,0.2727902547,-0.2323914043,0.0376938383,-0.0544728900,-0.0637838163,0.1027427651,0.0862930171,0.0061455603,-0.0886723512,-0.2992190642,-0.1755851846,0.0036082368,-0.0487073504,-0.0194638210,-0.1347364240,-0.0990968300,0.1192524682,0.2562617879,0.0083573992,0.0582814475,0.0647140773,-0.2061724220,0.0457242160,0.2118711916,-0.0835612115
-0.0726805356,0.0058917699,-0.1359316183,0.1250027988,-0.0657621705,-0.0449465779,-0.3014034535,0.1790106495,-0.1742158276,0.0363874299,0.0941330438,0.1169656938,0.2097045537,0.2783416196,-0.0351849991,-0.2591025031,-0.0044981152,-0.1040682293,-0.0750144103,0.1895153249,0.2021117424,-0.0594482439,0.2424012408,0.1887969122,-0.3978690968,0.1410097410,0.1052934865,0.3457378310,-0.1118608733,-0.2544986715,-0.2001951719,-0.0260861613,0.0208895121,-0.1166441484,-0.0621232004,-0.0489967416,0.1813514880,0.2527716052,-0.1295055129,-0.0403260387,-0.2226947962,0.0470557178,0.3932490747,-0.2061149904,0.2890515872,0.1622967976,-0.1686922401,0.1445844477,0.1675764987,0.2868851452,-0.2207849016,0.2638125027,-0.1544480382,0.0279074469,0.0695919361,0.1133240966,0.0599941426,-0.2677214294,0.2245531404,0.1554112299,0.0595538863,0.2014488722,0.0190480031,0.2470930162
0.0619522439,-0.1343583076,0.0233915463,-0.0024300644,0.0032300072,-0.0085036092,-0.1902921497,0.1031246399,-0.0631270909,-0.1061657647,0.1158742426,-0.0509928622,0.0839699891,-0.1879737533,0.0071562397,-0.1755773076,-0.0450444047,0.0308313113,-0.0516033920,-0.0747359792,0.0641910086,0.1949541612,-0.0551884215,0.1845462730,-0.0934223614,0.0593776885,0.1322033429,-0.1925609328,-0.0592729818,0.1225387445,0.1394741108,0.2360090690,-0.1481024544,-0.0186553552,0.0232370180,-0.0978799757,-0.2497482789,0.1673168809,-0.0230577350,-0.1800578770,-0.1736589200,-0.0231622793,0.0850514512,-0.1740286251,0.1070872828,0.1024656226,0.0621467156,-0.0040247669,-0.0234547314,-0.0157687814,-0.0540691877,0.0983523855,-0.0323086688,-0.0134053797,-0.0996878455,0.2278532304,-0.0117633726,-0.0294212130,-0.2957570249,0.0562738238,0.1498887813,0.1680606394,0.2561004562,-0.3505212775
-0.0420581516,0.2287699490,-0.0696316038,0.1373592480,0.0865249316,-0.1740521768,0.0499650747,0.2207854116,-0.0642550710,0.1558786952,0.0309740926,0.1070641958,0.2040771469,-0.1456551149,0.2039097486,0.0308310801,-0.0125945796,0.1662738090,0.0150860653,-0.0967123229,-0.0522693476,0.2038712214,0.0288243482,-0.0281213561,-0.0093081554,-0.0164065821,0.3015205072,0.0028511001,0.1206679619,-0.4012715477,-0.0739487866,-0.1390433023,-0.0829876401,-0.0300677117,-0.1469172154,-0.0944073965,0.0179342973,-0.2166546101,-0.0036287240,0.3124227843,0.2930726647,-0.1912819898,0.1233179802,0.1222314767,0.0649525478,-0.1343688981,-0.0867526313,-0.0033097266,-0.0484465625,0.2626292259,0.0430472742,0.2707391979,0.2212686842,-0.0079132071,0.0398980259,0.1358038866,0.2719399612,-0.0360260075,0.0790779124,-0.0094674055,-0.0950994780,0.1402738656,0.0557200521,0.0103565038
0.0561589698,-0.1307929968,0.2532559128,0.1632632934,0.2310311036,-0.0863662479,0.0946668106,-0.0541942757,-0.1110056830,-0.1190108164,0.0664205397,-0.2639759910,0.1406947454,0.0480914035,-0.2576832229,0.0676922433,0.0728449286,0.2666428801,-0.1515169570,0.0067086176,0.0277092341,-0.0745735747,0.0823603753,0.0388234114,-0.0265560408,-0.1570557344,-0.0864300817,0.0590046775,-0.1742340100,0.0388233985,-0.0918312459,0.0288542705,0.2023957717,0.0559062786,0.2832110589,0.0369053547,0.3166651327,-0.1271633283,0.1793932229,-0.0389676637,-0.0661365049,0.0402446801,-0.2093554908,0.1544036351,0.0560556364,-0.1769680928,0.0528681641,-0.1349252372,-0.1289108480,0.2740869268,-0.2052409157,0.0246618890,0.1711564130,0.1762075769,0.1482883804,0.0539064865,0.0674931360,-0.1112844502,-0.1347190950,0.1798557125,-0.1009625021,-0.0979509101,-0.1719858916,-0.0425982414
0.1408532719,0.0468824920,-0.0143714710,-0.0390878733,0.1735228888,0.0263817631,0.1893553926,-0.2846618351,-0.0241813755,0.1226514594,-0.0201846589,0.0250438500,-0.3562614729,0.1521316435,0.1641440394,-0.0277296021,0.1004394336,0.0854099138,-0.0407808279,0.0823528021,-0.1501221103,-0.2205190697,0.0672151313,-0.3034538883,0.2804986385,-0.0400717386,0.0090613734,-0.0232115141,0.2176133752,0.0749628949,-0.1313484236,-0.0383853699,0.0691560998,-0.0367095452,-0.2395471532,0.0674498108,0.0753607226,0.1432925601,-0.1056462329,0.0359832203,0.0862899093,-0.1525127807,-0.0785486576,0.1518466680,-0.2027154736,-0.2137990009,-0.0899683671,0.1155820123,0.0218580907,-0.1366824696,0.0107073407,-0.1055241007,-0.0439118980,-0.0587198623,-0.0208561930,-0.1076429364,0.2148362693,0.0113937681,0.0703363160,-0.0797694686,0.1071728723,0.1975716539,0.0568672276,-0.1109416232
-0.1349377924,0.1186876482,-0.2735309385,-0.2095972282,-0.1067502423,-0.0796324509,0.0283214617,0.0836475306,0.0822816396,0.0524226485,-0.1284140648,-0.0589404584,-0.2024235623,-0.0787120740,0.0801293479,-0.3790402177,-0.0668683060,0.0172818662,-0.0298555129,0.1376976061,-0.0378211749,-0.1241953247,-0.1024385538,-0.0176161245,0.1610012333,0.0398772379,0.0057944166,-0.0018594014,0.0994711729,-0.0162090704,0.0354801376,-0.1003003123,0.1244723774,0.1412613831,0.0281965384,0.0352827659,-0.0829857571,0.0167631305,-0.0227406973,0.1630561968,0.0293705973,-0.1845181077,-0.2388155256,-0.0009388518,-0.0855718518,0.0325135818,0.0372906782,0.1428850750,0.1836902370,-0.0535771741,0.0004222978,0.0431613989,0.0426972952,-0.0968415371,0.0974778644,0.1213484014,0.0157229996,-0.0812487911,0.0534444629,-0.1728431825,-0.0282304068,-0.1473656942,-0.0263181864,-0.0272524045
-0.1308720314,0.0601695143,0.0161779873,0.0290209690,0.2384230191,0.1675915978,-0.0321166644,0.1079811416,0.1666967573,-0.0992782567,-0.1072670620,-0.0258549511,-0.1755492136,-0.2026765867,-0.0658387880,0.1133670312,0.0405040866,0.0538478098,0.0723478645,0.0634747704,0.0113598755,0.0170490207,0.0676961727,-0.1517165528,0.1986266249,-0.2280156898,0.1000240321,0.0324570741,0.2388761925,0.2828447260,-0.2222354671,-0.1339026356,-0.0574563913,0.0637153075,0.1929709981,-0.1161177603,0.3029866495,-0.0062898835,-0.0823358411,0.1816216532,-0.2028177981,-0.2652329304,-0.1274892703,0.0240211349,0.1100551148,-0.0339269371,0.1594288696,-0.0154403913,-0.0405292623,-0.0862321302,0.0229835484,0.2525183631,0.0595104977,0.0392638417,0.0047023589,0.0119675503,-0.0620847403,-0.1789875100,0.1405227806,0.0831664401,0.0646825311,-0.1438612565,0.0489313579,-0.0671950041
-0.0030484730,-0.0588251098,-0.1384664986,0.1584494212,-0.0844642991,0.1355105361,-0.0503764720,-0.2908780026,0.0558529970,-0.1014185239,-0.0812695167,-0.3395111819,0.0395046183,0.0316005006,-0.0447002286,0.2761817115,-0.1201370034,-0.1774378848,-0.0295400188,0.1662567051,0.2146994360,-0.0564966988,-0.0455400759,0.0834797322,0.0618255249,-0.1333942258,0.0000476061,0.0220951738,0.0599897230,-0.1270130353,0.1307205343,0.0178089581,0.1221420039,-0.0276788488,0.0024596678,0.0499073503,-0.0497712783,-0.0929661450,-0.0716814115,0.4015215203,-0.1178088138,-0.1076669054,0.0404497274,-0.0220272504,0.2009067321,0.1529480670,-0.1025839480,0.0373085009,0.0666036211,0.2595076577,0.0086986678,-0.1856425584,0.2104181496,0.1927186522,0.2611705445,0.1488510768,0.1982561438,0.0921249928,0.1456021441,-0.1371439647,0.3531866352,0.0129578528,-0.1048816043,-0.1158706761
0.0461402875,-0.1117437666,0.2143120303,-0.1194523073,-0.0081232032,-0.1426817117,0.0220512645,0.1887121897,-0.0672557567,0.0922554271,0.1852924729,0.0329219051,-0.2790655943,0.0547781197,-0.1376912942,0.1142594002,0.0084476690,0.4513613037,0.1870584170,0.0006703204,-0.0148174410,-0.2196823928,0.0843627300,0.0583721082,0.1118698565,-0.2074873902,0.0928666666,-0.1067652154,0.1817016475,-0.0095442977,-0.1812694781,0.1952907839,-0.0879262117,-0.1256382250,-0.2133418201,-0.1708478698,0.1980688009,0.3800437199,0.0101382546,0.2812772624,-0.0463024215,0.0431847706,-0.0089222768,-0.1024698712,0.0573812528,-0.1863631874,-0.0154203207,-0.1623727077,-0.0468372182,-0.1028771323,-0.0885362013,0.1071904940,-0.2933500421,-0.0187601071,-0.0522583590,0.2914668927,0.1127609218,0.0764041780,0.1310118706,0.2264284461,-0.0377208129,0.0280222014,0.0990574301,0.1297548856
0.0188992020,-0.1018974010,-0.1363552459,0.1312487577,0.0134050101,0.0533928350,0.2539717209,0.1071939469,-0.1962740140,0.0455600253,-0.0438593740,-0.1531353487,0.1682706004,-0.2864211757,-0.1435991557,-0.1249793057,0.0193841164,0.3392358198,0.0959914090,0.2795062403,-0.3622983971,-0.0364056321,0.1945408854,0.0918148803,-0.1780252035,-0.1539515837,-0.1125124324,0.2292626837,0.0990189781,-0.0169611233,0.1139037281,-0.1001385366,0.0421985891,-0.1367386695,-0.0639854500,-0.0846098903,-0.0549195785,-0.2594382796,-0.2070829773,-0.1634671439,-0.1378757675,-0.0620145954,0.1067101139,0.1938692698,-0.2317191440,-0.0894504763,0.0735150679,-0.1315971129,0.2259551027,-0.1047421080,0.1528355740,-0.1408358180,-0.1425753018,-0.1567258948,-0.0145470362,-0.1294724179,0.1290718796,-0.0551302488,-0.0940196952,0.3039102354,-0.0070695666,0.0466718261,-0.1241334396,-0.2734780381
-0.0185446036,0.0319541154,-0.0556805512,-0.1318926275,-0.0777393716,0.0498764585,0.0402566197,0.0843429469,0.0945450825,-0.1564906520,0.2124914743,0.1727556624,0.0013906623,-0.0122795984,-0.2832164172,-0.0010829012,-0.1274632973,0.0515717820,0.0954694908,-0.1760734556,0.1392229902,-0.0798483030,-0.3302653476,0.0392320941,-0.0986208355,-0.0247585767,0.0318145379,-0.1792529591,-0.0587612828,0.0097742845,-0.1377154415,0.1923665716,-0.0209925288,0.0463270538,0.0654873119,-0.1597459232,0.0865459957,0.0635380115,-0.0326653160,0.0882898607,0.1371839779,-0.0656015394,0.1109412119,-0.2517363531,0.1524037815,-0.0117294971,-0.0842212443,0.0329565452,0.1089517697,-0.0396691129,-0.1163707061,-0.0014594588,-0.2549054999,0.0094988383,0.0766854080,0.0319690106,-0.3941546864,0.2243274112,0.0137325627,-0.0179112570,0.0486915887,0.2070391578,0.0582707329,0.0278374247
-0.2967875796,-0.1190745399,0.1482534260,-0.1376413575,0.2700601950,0.0361062444,0.0805484575,0.0489187179,-0.0486040061,-0.1908523770,0.0476080575,0.0924645029,-0.1468332437,0.0049910191,-0.2198073436,0.0897347886,0.0992588078,0.1066407247,-0.0928002583,-0.0531351557,0.0690380467,0.1745656114,0.0151243378,-0.0992058835,-0.2912373854,0.0206624593,0.1087814379,-0.0596819718,0.2699861798,-0.0569002310,-0.0694944770,-0.0653734194,-0.1387895178,-0.0064102216,-0.0791213555,0.0862054698,-0.0465131632,-0.1071434540,0.0863336883,0.2050419288,0.2839134782,0.0944901449,-0.0366695103,0.0829567970,0.2442758095,-0.1818036588,-0.0924223100,-0.2090645241,0.1744609998,-0.1594283884,0.0018678127,0.0068581402,-0.0108127692,-0.1180147904,0.0211229919,0.0609067685,-0.0621417742,-0.2006368943,0.0810237983,0.1838580994,-0.1536931668,-0.1157649793,-0.1704259069,-0.1646934259
0.0925769974,0.0097219723,-0.0244932786,-0.1357564942,-0.1225180862,0.0583915266,-0.0404743811,-0.0148651326,0.1986963827,0.0521398535,0.1462309404,-0.0726137525,0.0863719059,-0.0703669116,0.2909468340,0.0362519259,-0.1096455756,0.2354737618,-0.0489265645,-0.0571257878,0.0432900324,0.0859413615,0.1526670097,0.0322320918,0.1462181760,0.1085885263,-0.0088691983,-0.0001572402,0.0294030633,-0.0627878128,-0.1621864402,0.1023363560,-0.0832360964,-0.1342065262,-0.1004007486,-0.0672366688,-0.2384158101,-0.0605431104,-0.0474562004,0.1268591535,0.2810138292,-0.0030324621,0.1216125893,-0.3475512002,0.0915158454,0.1709230182,0.0137415354,0.0872765433,0.0840811697,0.0543959922,0.1254395084,0.2428912651,-0.0295154521,0.1488475996,0.0039672283,-0.0119165636,-0.0218287077,-0.1086885463,-0.1719236725,-0.0882824227,0.0430084035,-0.0670731752,0.2157170467,-0.0760308367
-0.1293181319,0.1097865773,-0.0973129018,0.0009476338,-0.1313140512,0.0307824552,-0.0704759094,-0.0025397011,-0.0275006371,0.0484593417,-0.2633728596,-0.0838769172,0.0221370209,0.1215198120,-0.0006654239,0.2288861488,-0.0873728350,0.0836420983,0.1396991390,0.0291073127,-0.2549837270,-0.0195020846,-0.1990801381,-0.1379290816,0.0983361756,-0.0666395797,0.0373908013,0.0888009016,0.2414881500,0.0885298059,0.1804544971,-0.1249971437,-0.0866503488,0.0332805069,-0.1289755947,0.0816044446,-0.0570671255,0.0622776146,-0.0487341419,-0.0813000022,-0.1786685233,0.1131194310,-0.2064399788,0.1533388919,-0.1284493095,0.1304710126,-0.0638048461,0.0860478768,0.0823143512,-0.1244552585,0.0443079064,-0.0504198133,0.0641539662,-0.1870916992,-0.0435833003,0.1441355309,0.2360700096,0.1166004776,-0.0020141843,-0.0727215855,0.1291690159,0.0825251730,0.0733316953,-0.0591482319
0.2343153646,-0.0358674574,-0.0835191903,0.1600533840,0.0788810998,0.1544923566,0.0647136673,-0.0387653129,-0.0841467642,-0.0618918210,0.0874428341,0.1015785621,0.0528167993,0.2133534923,-0.2176563915,0.0089309441,-0.0598329850,-0.0581662603,0.2178360857,0.1924279994,0.0401990602,-0.0730019730,-0.0934096272,0.2215061513,0.0295229779,-0.1759059101,0.1785793734,0.1723778070,-0.0810093860,0.2942570388,0.1089597465,0.0872630949,0.2754027314,-0.0428906746,0.0079539779,-0.1171653606,0.2605638801,0.2010318206,0.0160671745,-0.0088072769,-0.0962840981,-0.1068454568,0.0746141316,0.1723844384,0.1869638224,0.2134573038,-0.0173000325,-0.3206600266,0.0278944756,-0.0231103771,-0.1185420870,-0.0621922573,0.0815121423,-0.0155805295,0.0078876371,-0.1844145402,-0.2450340726,-0.1617173674,0.1217400043,-0.0212771017,-0.1725040554,-0.0234239103,0.1449499412,0.1817298669
0.0751116957,-0.0335674164,-0.1488904621,0.0792066597,0.0258281771,0.0009137736,-0.0379628008,-0.0133725562,0.1407908329,0.1439372243,-0.0451129818,0.0205819115,-0.0095371847,0.0467596100,0.0700328038,0.0088034659,0.1635884053,-0.1218296110,-0.2279263328,0.0545730134,0.2318513542,0.0175480132,-0.0567981902,0.2508431277,0.0600362023,-0.2971710945,0.2899962779,-0.2048328623,0.1130738850,0.1247959022,0.1548289198,-0.0336507645,0.1100453793,0.0281342188,0.1953069342,0.0360483621,0.0940307873,0.0182047963,-0.1281398388,-0.0601245898,-0.0276452559,-0.0677588977,0.1180159472,-0.1392592652,-0.1890649196,0.0538958953,0.0597354350,-0.0242888634,-0.0287760382,-0.1590200140,0.2220045458,-0.0107635567,-0.1016535643,0.0927892829,-0.0930507622,0.2569740800,0.1450418238,-0.0639117064,-0.0358977449,-0.2416320846,0.1692955447,0.0036553739,0.2102928680,-0.1796978455
-0.0432583454,0.0896764073,-0.2040332186,-0.2282326864,0.2751768676,0.1364928361,-0.2942404338,-0.1232992231,-0.0818769008,0.2349105295,0.0108753575,-0.0993150388,0.2336762468,0.0030080735,-0.2342512383,0.1444240452,-0.2144212395,-0.0024706231,-0.0298032487,0.0755133403,0.0362139589,-0.0391570125,0.1612804061,-0.2657917581,-0.1208247476,0.0194176162,0.0213735404,-0.1097838249,-0.0364541106,-0.0050190118,-0.1388604651,0.1298488454,-0.0418031107,-0.0150627182,0.2299767884,-0.0191494911,-0.1482237379,0.0961005307,-0.0922378826,-0.0301538798,-0.1993438599,0.0565627726,-0.0864014063,0.1342072414,-0.0873544600,0.1464818396,-0.0347597626,0.0352313069,-0.1069963228,0.0250839146,0.0064990870,-0.1156708686,0.0464950364,-0.1366491215,-0.0791945320,-0.1223187597,0.0416400058,-0.0509626766,0.1093341028,0.1475186031,-0.1072842366,-0.0045601813,-0.0269092306,0.0078389929
-0.0097731123,-0.0001256619,-0.1599474234,0.0937681568,0.2723229837,0.0208255265,-0.1459081343,-0.2696098288,-0.0303438881,0.1426744377,-0.2105820121,-0.2082422903,0.0631579631,0.1222574276,0.0673656006,-0.0215882675,0.2420692907,-0.1081780317,-0.0354068188,0.0532291483,0.0672834623,0.0324050989,0.1681187996,0.0420806050,0.0387260807,-0.0239941458,-0.3269810077,0.1877023573,0.0960166855,0.0105328889,-0.3104867445,-0.0811128545,0.0662930472,-0.0841061648,0.1175742621,0.0061088632,0.1294602817,-0.0233129217,-0.0374404877,-0.0549160596,-0.0098377532,-0.1046303327,-0.0304557598,0.1309200186,-0.1621799622,0.0421769205,-0.0828545815,0.0395959708,-0.0402918813,0.0177263304,0.2624488029,0.0123257281,-0.0382320032,-0.0279263244,0.0799854177,0.1397290662,-0.2640235664,-0.1227256753,0.1822453947,0.2063192167,-0.1755036826,-0.1299180759,-0.2232415415,0.1014829732
-0.0058532030,0.1357120573,0.1009314218,0.1422001577,-0.1795051653,-0.0282862717,0.0491571516,-0.0319208220,0.1178656792,0.0525513841,-0.0002439983,0.1662128121,-0.0387542635,0.0902826389,0.1287133412,0.0744265905,-0.0032270235,-0.1238163478,-0.0167817804,-0.0213437406,0.1269866735,0.0310382587,0.1588221067,-0.1017603842,0.0807867272,0.0000538448,0.1859829277,0.1329085391,0.0471252811,-0.3262320251,0.0011356820,-0.0038662494,0.1035952104,0.0611742006,-0.0691655851,0.0832799814,-0.1031668915,-0.1383359301,0.1072059198,0.3566079423,0.0075267865,-0.0116487624,0.1259481903,-0.1495225720,0.3180141445,0.1281895686,0.1214931433,0.1982527507,-0.0140785347,0.0209635947,-0.1207055975,-0.1127580478,0.0337565206,0.0511697879,0.0961680588,-0.0422737213,-0.0093645365,0.0882953190,0.1632781398,-0.2959088054,0.0700576652,-0.1070364318,0.2155646049,0.2942067421
0.0678935271,0.0743715247,-0.1718180942,-0.2677117420,-0.1635708048,-0.0946675396,-0.0810232342,-0.2909653603,0.0787431000,0.1765694741,-0.1228007078,-0.1009045876,-0.0915353680,0.0274960850,0.1441759451,0.2503495399,-0.0093550915,0.0075856775,-0.0545398854,0.1297729844,-0.0756853561,-0.0368802119,0.0285414748,0.0573930548,-0.1563108329,-0.0166801552,-0.0239585579,-0.0785932148,0.2517084515,0.1296327135,0.0818298744,-0.0064641108,-0.1574242995,-0.1017326343,-0.0527065016,-0.0368835112,0.0761448754,0.0643778153,-0.0379858282,-0.1230543934,0.0373445465,-0.2304100875,-0.0487428608,0.0850910188,0.0238913536,-0.2160932985,-0.0898792837,-0.1526960641,0.0735292792,-0.1421734830,0.0176002567,0.1666201902,0.0999310908,-0.0192867275,0.0103934716,0.1466044065,0.3456218493,-0.0767067356,-0.0320046578,0.0147093860,0.0529865838,0.1348622064,0.1853298596,-0.0353452109
0.2440393284,-0.0706744230,0.0041096986,-0.0070728342,0.1474913203,-0.0512973558,0.1540734033,-0.2302924604,-0.0501331470,-0.0919467837,0.2025163362,0.2487051080,0.0359332080,0.1561133724,0.1315616051,0.1834462781,0.0154642116,0.0545128373,-0.0806928805,0.1770974403,-0.1288571613,-0.0764191023,-0.2946391355,0.0799074806,0.0151474323,-0.2601076416,-0.0391937897,0.0003017285,-0.2208671459,0.0919421698,0.2029295074,-0.1793597267,-0.0432998499,-0.0370825731,-0.0143100703,-0.0308544709,-0.0023345355,0.0689447072,-0.0623277641,0.2014456934,0.0383692515,-0.0040615517,-0.0528866195,-0.0027269499,0.1179424312,0.2226524797,0.1351732502,0.0054242935,0.2293892895,0.0325283589,-0.0537111881,0.0788647192,-0.0105639892,0.0751726957,0.0181641723,0.2242478747,0.1868035326,0.2050519450,-0.1647539031,-0.0189632082,-0.0629517334,0.0093337376,0.0154975014,0.0918480995
-0.0491961276,-0.0803657148,0.0636884297,0.1387139307,0.2489990541,-0.1076232849,0.2882608650,0.0110286292,-0.2442110956,0.0911547713,-0.0131208427,0.0336922023,-0.0984328607,0.2024991567,0.4008716701,-0.3431198484,-0.2032992336,0.1489188835,-0.1458979024,-0.0300979420,-0.2578496215,-0.0541334151,0.1362321534,-0.1419503899,0.2609591837,0.2179563486,-0.0742302329,-0.1197119961,0.2108234801,-0.0599784328,-0.0603546721,-0.1764627178,0.2168454903,-0.1668974282,-0.5069345825,0.0217742247,0.0523017263,-0.1390439143,0.0225351384,0.1033465255,0.3234779488,0.1345219834,-0.0355591152,0.0204377689,0.2148462648,-0.0645175105,-0.0135711535,0.0599605639,0.3276424410,0.1977916207,0.0201280123,0.3245784203,-0.0086979929,0.0376390117,-0.3384015117,-0.0377958098,-0.0070696741,0.1892879003,-0.0802954848,-0.1354015983,0.1660075518,0.2168074625,-0.1163565862,0.0375420349
-0.1483428210,0.2192432268,0.0495676493,0.0254514523,0.0556488438,0.1455571548,-0.1786204201,0.0844396103,-0.2295021006,-0.0631836448,0.2057890682,-0.3346901384,0.1617104313,-0.2741289258,-0.1063565090,0.1233909498,0.0174965820,-0.0239129904,0.0193480842,0.0365390465,-0.0429132011,0.0076561869,0.1786706573,-0.0675198656,0.0289825140,-0.1770221900,0.0331641252,-0.1338840273,-0.0431247547,-0.0698312990,-0.0706674354,0.0100445539,-0.2027769172,-0.1097765465,-0.0929744580,0.2281675708,-0.1792925288,-0.1843282501,-0.1808691305,-0.1979252353,0.1328741161,0.0379067688,-0.2030701576,-0.2483975505,-0.0530232021,0.0861289212,0.1261358260,0.1330743444,-0.3040218611,-0.1376758154,-0.3210150013,0.2643499827,-0.0399808298,0.0142540092,-0.1041765760,0.2580765445,0.0319238936,0.1005573551,-0.1923134395,0.0439556920,-0.0072757255,-0.1364278584,-0.0322700819,-0.1229852587
0.0767856803,-0.0752579735,-0.0344965477,0.0764557365,0.1244665019,0.0404295580,-0.1290538581,0.1564521534,-0.2227371876,-0.0175649617,0.1954627728,0.0900023977,0.1201748755,-0.0501944092,-0.0239734537,-0.0204877188,0.0689612062,0.3278008839,-0.0130816830,0.3774829864,0.0600188974,-0.0044340575,-0.0075316014,0.2996858373,0.0068032380,-0.1461417442,-0.1393308663,0.2165883753,0.0386574456,-0.0148619426,0.1065338033,0.0832546954,0.0652207736,0.1941175122,-0.0554221975,-0.2271987555,0.0961927742,0.0166294304,-0.1715117964,0.1968243756,0.2457513195,0.0985237074,-0.0958985681,0.0574480850,-0.1367591914,-0.1231046759,-0.0400880018,-0.1144570896,-0.2347488840,-0.0668317718,0.0110172435,0.0670447368,0.1072662870,-0.0270286424,0.0794618503,-0.0852161084,-0.0156842089,0.0334419463,0.2703095325,-0.0324924353,-0.0799087416,-0.1959207114,0.0687461692,0.3034418474
-0.0131612676,-0.1127105468,-0.1801215503,-0.1013568782,-0.0557781343,0.0845560984,-0.0589135833,-0.1183422856,-0.3168642056,0.0600386462,0.0753829509,0.1670708078,-0.0994744567,0.0616562162,-0.0115165481,-0.1356963435,-0.0607502658,-0.1380212266,-0.0782726518,-0.2967186911,0.1450818846,0.2209458161,-0.0150337740,0.1311279789,0.0449031147,0.0599709985,-0.1040683029,0.0394802651,-0.2947292971,-0.0326247207,0.0378545114,-0.1590573883,-0.0515669134,-0.0717327471,0.1215598774,-0.0456705395,0.1037607769,-0.0935033138,0.0636822852,-0.0991140057,-0.0659355586,0.0554515393,0.1525259144,-0.1353288332,-0.1354109091,0.0944643124,-0.0486308682,0.1584641321,0.0807735778,0.0881969855,0.0543996631,0.0385057848,-0.2337379905,0.1367402928,-0.0065425938,0.1160307818,-0.1128011431,0.0847604064,-0.1144005869,0.2234402500,-0.1680659936,0.1199500203,0.1799820038,-0.0697092201
-0.1400486701,-0.2080607776,-0.0644634277,0.0362297718,-0.0313715791,-0.1412929565,-0.2290130432,-0.0029383263,0.1615672738,0.1054008799,-0.0594808592,-0.0461320443,0.2011454139,-0.1631115143,-0.1353831240,-0.0356753052,0.1699907347,0.0070979547,0.1164766202,-0.0505114061,-0.0186416746,-0.0857060782,0.0743719478,-0.1157968770,0.0388695852,-0.0732269472,-0.1456495835,0.2638834164,-0.1362556662,-0.2086582576,0.0664349894,0.1563466051,0.0683490813,-0.0738109364,-0.2197711359,0.0219135531,0.1527033101,-0.0449640610,-0.0859571599,0.0257357894,-0.0849948784,0.2197939397,-0.0562274144,0.0460922111,0.2344981460,0.0591061717,-0.0031447553,-0.1590564243,-0.2239819684,-0.0365537530,-0.0830105641,-0.1031584776,-0.1717316426,-0.0019809373,0.0133072959,-0.0251914463,-0.2969533881,0.1799343345,0.0503274026,0.0371999483,-0.1428024369,-0.0579935039,-0.0857973072,-0.1596738821
-0.2548318309,-0.1452145276,-0.2591212380,0.2537545384,0.2719171169,0.0876838200,-0.1291909483,0.0292526297,0.1105437599,0.0444927444,0.1451892340,0.1600808078,-0.0551316334,-0.1884722453,0.1181192843,-0.1408986904,0.0709648139,0.0422300139,0.1127064554,0.0709041927,-0.0741811016,0.0188325837,-0.0211791780,0.0381242309,-0.0416170728,0.1041361810,-0.0211623742,-0.1682368299,0.2135370295,0.0552678081,-0.1205694619,0.0353468263,-0.2038919118,0.0481693020,-0.1384809542,0.1071321433,0.3994384522,0.1452806469,-0.0432054786,0.3079069095,-0.0677410958,-0.1670217918,0.1312083469,0.0225610849,0.0727131830,-0.0256292063,0.0135820740,-0.0636713926,-0.1370796864,-0.0564146182,0.0175538833,-0.1419778851,-0.1724233427,-0.1969532771,-0.1450833211,-0.0596888951,0.1351772747,-0.0062229961,0.5044958496,0.1806499903,0.0297244225,-0.1627744246,-0.0966013093,-0.3668975777
-0.0367304883,-0.1491349774,-0.0359598718,-0.1626149712,0.1539811109,0.1085060732,0.2261131202,-0.0816000989,0.1072984706,-0.1230626178,-0.2028465064,0.1970092399,-0.0782383558,-0.2573752661,-0.0995031368,0.2364192913,0.0785775795,-0.0904439816,-0.1091361804,-0.0517886982,0.0736055783,0.1565615604,0.2523147336,0.0150736917,-0.1480478376,-0.2049136345,0.0569650907,0.0023319991,0.0161447411,-0.0092991808,0.3468486308,0.1557437120,-0.3075246350,0.0126404990,0.1673925261,-0.3144787201,-0.3472337372,-0.1865255093,0.0160862622,-0.2822362990,0.4588056846,0.0120111372,0.0987676218,0.1032315694,-0.1162404496,-0.4291232498,-0.1096731722,0.2618334104,0.1184796099,-0.3968465789,-0.0149219348,0.1019028516,-0.0666784498,-0.1899722261,0.0755426150,-0.0577032750,0.0386527215,-0.0194892865,-0.1282596226,0.0260760554,0.1769466354,0.0879996983,-0.0227542949,-0.0223630918
0.0588678429,-0.0645901899,-0.0201900762,-0.0901077121,-0.1669100971,0.2163337042,0.0823483971,-0.0066605333,-0.1750599551,-0.2222249935,-0.1605088311,0.2416961162,-0.1139009577,0.2377954645,0.0417016656,0.0854065844,-0.2227339635,0.0520635080,-0.1268456333,0.0709426018,0.0479211074,0.0311568657,0.0070295582,-0.1299579461,-0.3185700322,0.0197075546,-0.0495258070,0.1463965627,-0.0938236946,-0.1484420867,0.1069724345,0.0036017828,-0.0548129083,-0.1555757836,0.3626568166,0.1967754925,-0.0139558320,-0.0631246723,0.2142696320,0.1658703620,-0.0004582173,-0.2541470325,0.0585548537,-0.0331982640,0.0341180798,-0.1881492078,-0.0870678738,0.0383035999,0.1793295083,0.2062533554,-0.1634808751,-0.0171253564,-0.0370566476,-0.1162077111,0.0048943297,0.0139234749,0.0160391252,-0.0746017836,0.3150818004,0.1299760175,-0.0679505088,-0.1584876493,0.1693662388,0.3515040409
0.2884551244,0.2888569563,-0.1128363910,0.0538005295,-0.2208451365,0.0694658753,-0.0910474552,-0.2100263566,0.0292909980,-0.0499962441,-0.2790865101,0.0680148206,-0.0374730708,-0.0051802169,0.0654985183,-0.1453168460,-0.0343511437,-0.1536284999,-0.3069751873,0.1399296256,-0.0132169806,0.0307113289,-0.0277410956,0.0805835199,0.2913974481,-0.1290421024,-0.1670750332,-0.0520330387,0.0372556297,-0.0707148127,0.3502020016,-0.0935484321,0.2231699565,-0.1768997910,0.0247698067,-0.1623134494,-0.0298794503,0.0778284483,-0.1356670790,0.0187365397,0.1589072472,0.1396669134,0.0086015430,-0.3144471315,-0.0871194085,0.4253778431,0.0125647895,-0.0918098823,-0.0657625485,0.0693750363,0.0305951890,-0.1598620442,-0.0255374188,0.0452732625,0.1495742418,-0.0445938802,-0.0026715482,-0.2575508948,-0.1551256817,0.0254899432,-0.1365974164,-0.0764011160,0.3524448760,-0.0758442378
-0.0265279153,0.1073666838,-0.0623738709,0.0439263645,0.1365849992,0.0926314792,0.0166129417,0.3707498639,-0.0769655874,0.0249172055,0.1623237710,-0.0732145836,-0.1621925689,0.1044100617,-0.1543633018,-0.1351778644,-0.2127843016,-0.0964386793,-0.0330308440,-0.1495015329,-0.0090958628,0.0675415066,0.0140743815,0.0900221996,0.2141802996,0.0520177215,-0.0110647763,0.0962850242,0.0766586444,-0.0152593117,0.1143480436,0.0706770432,-0.0770987983,0.0755390953,-0.0230304993,0.0375646200,-0.1372519788,0.2322372352,0.1205716033,0.0339763367,-0.0091411525,0.0110746541,-0.1461657460,-0.0048934988,0.2445738109,0.1090146156,0.0381545604,0.0536111823,0.0177665016,-0.0621331050,0.0949131884,0.0749217072,0.1556767596,0.0834430762,0.1737716568,0.1992205024,-0.2536811878,0.0322124188,0.0593602260,-0.2584892944,-0.0014503862,0.0240960089,0.0414947798,-0.0309071870
-0.1083219110,-0.0307999187,-0.0436172848,-0.2507955018,-0.0338878715,0.1638633338,-0.0364902839,0.0342090327,0.0072129841,-0.0516681175,0.0510338705,-0.0032892807,-0.0752908839,-0.1090127938,0.0853166020,0.1272020546,-0.1126665761,-0.2354897168,-0.2563333134,-0.0998879848,-0.0472498319,0.0535331240,0.0423466803,-0.0289342162,-0.1916659716,-0.0673264149,-0.1947425000,0.1416781234,-0.2129188348,0.0655777011,-0.0384021569,0.0439211723,0.1257683755,0.0519351913,-0.0018064555,-0.0450155753,-0.0180125737,0.0675659242,-0.1627689782,-0.1063379570,0.1769781539,-0.1743394726,-0.1995471591,0.0373473360,-0.1556620273,0.1408256500,0.0911368078,-0.1410059191,0.1110634285,0.1529556471,-0.0064235029,-0.2830919702,-0.1008956283,0.1125553562,-0.0467226066,-0.0127176423,-0.1027326294,-0.1952471892,0.0051057168,0.0159649983,-0.0750514123,-0.0048905814,-0.1015746381,0.1204780859
-0.0510445906,-0.0413193435,-0.0911622734,0.0536148425,0.1405518427,-0.0845054419,-0.2608533119,-0.1608687663,0.0148236304,-0.0522267529,0.3139504119,-0.0092773457,0.1533500886,0.3770861983,0.1668512402,0.0398000560,0.2027982575,-0.0144179471,-0.0123197163,0.2099855534,0.0714520626,-0.1593671902,-0.2275380703,-0.0194810851,0.3131852057,0.1041872742,0.0194694519,-0.0977821383,-0.0604881646,-0.1766838127,-0.1735304374,-0.0577458936,-0.0059876286,-0.0002231602,-0.2942293098,0.0289445629,0.1320009537,-0.0271094460,-0.0388623599,0.5704094516,-0.1348798528,0.1738103613,-0.0723756892,0.0440504462,-0.1509872806,-0.0376632259,0.1779937946,-0.1453308550,0.0077183423,-0.1157587060,0.0642418374,0.0205018601,0.1208549128,0.0952321648,0.0791882329,0.1403405204,0.1313129436,0.0478758348,0.3824378968,-0.1459044974,0.1314309538,-0.1975619925,0.0387122980,0.2939441724
-0.1041481028,-0.1475626772,-0.0903652064,0.1269014147,0.0566101568,-0.0286189712,0.3094086190,0.0618916395,-0.0731486303,-0.0508770889,0.0160716150,-0.0842383201,-0.2764010296,0.0015804291,0.2002007487,-0.1559730594,0.2918194334,-0.2884979644,0.1260313496,-0.1467592822,0.1465883501,0.1469597228,-0.2552099938,-0.0112444289,0.2493781427,-0.1662437222,-0.0959124616,0.0603943067,0.1937108916,-0.0918089586,0.1250624383,0.0526934150,0.1979356941,-0.1437485840,-0.2737262722,0.1571262858,-0.1112003453,0.0918834403,0.1459100041,-0.2010824278,0.0378570117,-0.0132414953,0.0106810392,0.0232802654,0.2248229339,0.0752686648,0.0137059454,0.0286419925,0.0866187896,0.1152948100,-0.1522676034,0.1256593169,0.2068041882,0.1416208747,-0.2581733812,0.1417954426,-0.1714441210,-0.0694128385,0.1454749061,-0.1343344049,0.0782664884,0.1387889041,0.3186076443,0.1171650432
0.1400962608,-0.2201742055,-0.0000093481,0.1730093696,0.0074853296,0.0805918779,-0.0038522891,0.0044255440,-0.0811993495,-0.0729200156,0.0329767463,0.3528461859,-0.0431249297,0.2162454835,-0.0067561986,0.0345655371,-0.2119030721,-0.0050633834,-0.0925594641,0.0517933124,0.1156557337,-0.1196203224,0.0557343877,0.1312235812,-0.1910224662,0.0949231529,-0.0405729007,-0.0780205378,0.0081442490,0.2495839656,0.1043587186,-0.1106403648,0.2562991050,-0.2613173785,-0.2067596709,0.2111979978,-0.0468710975,0.0467338748,0.1800440622,-0.0134785418,-0.0132849919,0.0190237973,-0.0032181697,-0.1458840992,-0.1061315022,0.0003022753,0.0322078513,0.0131139034,-0.3516354640,0.0173004313,0.0451669286,0.0328820631,0.1534136844,0.0021883747,-0.0095447244,-0.3216348449,0.0089988315,0.2391741626,0.1519177288,-0.1439130016,0.0316314899,0.0715523268,-0.0689313063,0.0458516424
-0.1437744360,0.1872857989,0.1518580940,-0.0854045475,0.0469689573,0.0457966887,0.1356751151,-0.0435051609,-0.1078466037,-0.0349443173,0.0615815411,-0.0014220301,0.0500885892,0.2190032144,0.0552520812,-0.0649302280,-0.1092198458,-0.0744432909,-0.0804036953,0.1555724125,0.1325848810,0.0678826958,-0.1505338062,-0.1375045568,0.0425565157,-0.0847611023,-0.0035786032,-0.2932570827,0.0551084416,0.1165678753,-0.0162639158,0.2690132535,0.1410955634,-0.3661289560,0.0696940658,-0.0606135283,-0.1017456764,0.1721707630,-0.0107751455,-0.1211196550,-0.1148122535,-0.0559289604,-0.1037060093,-0.2355056007,0.1178178384,0.0265138943,-0.0362395403,0.0926909420,-0.0726517086,0.0392035524,-0.0034236862,-0.0172813305,0.2242137974,-0.0006019436,-0.2160583998,-0.0610073563,-0.0725989189,-0.0810104739,-0.0062903812,-0.0590808975,-0.2651922014,0.0910551363,-0.1343111047,-0.0361828795
0.0659534788,0.2273071103,0.0135916588,-0.0688789387,-0.0313154250,0.1638581228,-0.3494269362,-0.0640809579,-0.2668886094,-0.0393895834,0.0151223930,-0.1860712985,0.0115763875,-0.2266443779,0.0362887123,0.0186437604,0.0564839555,0.0846774705,-0.0434495620,0.0737049374,-0.2177198965,-0.0665160279,-0.1008474246,0.1902894739,0.1898319906,-0.2336963582,0.3488070973,-0.3423944449,-0.0691558945,-0.0346565613,-0.0170273007,0.1096887801,-0.1457568025,-0.1454708245,-0.1360434960,0.0486537664,0.2655318701,0.1862967159,-0.0222052816,-0.0422635404,-0.0389076057,0.1178650038,-0.1932445569,0.0502997820,0.0023189291,-0.2744379148,-0.0199671853,-0.1637216840,-0.1606479496,0.1167298317,-0.0027362726,0.1318011035,0.2016552734,-0.0153199178,0.0001230908,0.1734253536,0.0242796236,-0.0770050131,-0.2888313414,0.0633225989,-0.0782899860,-0.0368457731,0.1736789795,-0.0250977438
0.0863777400,-0.3139154469,-0.2059406906,0.1553355903,0.0861284601,0.0944634258,-0.1747613272,-0.0222158721,-0.2902145625,0.0797063311,0.1260721520,-0.0428936371,0.1143252435,-0.1858798381,-0.1986931911,0.4798584620,-0.0898222041,0.0845620845,0.0844781351,0.1308951326,-0.4240927306,0.0264628706,-0.1190699340,0.2660953089,0.0292513531,0.0154271348,-0.0743464422,0.0989276008,-0.2698741806,0.1909638196,0.0014258118,-0.1096513370,0.0274029526,0.4003073718,-0.0450892961,-0.0421600063,0.0459508412,-0.1517804774,0.1331143452,0.1995728730,-0.0929450774,-0.2525725307,-0.2707256123,0.0228810031,-0.1735541701,0.3555369281,-0.2016564448,-0.0984832041,-0.1702699363,0.0903825821,0.0563158562,-0.0937837021,0.0673744797,-0.1521006671,0.0506745191,0.0358045939,-0.0406573942,-0.0730415783,-0.2058297240,-0.0480116811,-0.2220030373,0.0355100456,-0.0401283963,-0.1890800236
0.1275873641,0.1441948135,-0.1748416657,0.1666198283,-0.0778087984,0.0756516900,-0.0593122317,-0.1510919250,0.0221119073,-0.0408867765,0.0607667900,0.0756078934,0.1476463783,0.0218423017,-0.0719561881,-0.2191226790,0.0927857727,-0.0652835953,-0.0473668267,0.1618342007,0.0264292241,0.1032524054,-0.1326925983,-0.0120035716,-0.0437358807,-0.0613929359,0.1355331331,-0.1252672659,0.0084223915,-0.0894407765,-0.1098076995,0.0788172816,-0.0406737256,-0.0729603935,-0.1073484233,0.1216393216,0.0533367399,-0.0697332459,-0.0170735553,-0.0380369535,0.0691888280,-0.1261403153,0.0114856501,-0.1654420157,-0.1898184276,-0.2652503994,-0.1142140397,-0.0288501335,0.1375064936,0.0001634916,-0.1245730819,-0.1193067607,-0.0858126302,0.0589520293,0.0140465140,0.4149140618,0.1067853207,-0.0187583738,0.2206419078,-0.0652892834,-0.0842703439,0.2676643467,-0.0963507517,-0.0742579007
0.1722887533,0.1234634807,0.1810201720,0.0895459016,0.0312746005,0.0515190772,-0.0555137459,0.4278192153,-0.0677182652,-0.1983242702,-0.0815341022,0.2350244874,0.0636767614,-0.0565033569,0.1434584398,0.1141168851,-0.0007152263,-0.1067320782,0.0157160550,0.0699759896,0.3367159692,-0.0262477490,-0.0622328132,-0.1338985616,0.0512611269,0.1019311659,-0.0057213633,0.1395995683,0.0985602118,0.1329874174,0.2765069269,0.0391288390,0.3204452460,0.1909115200,0.2446801837,0.1194814273,0.2078958701,0.0032979939,-0.0576405530,-0.0364532789,-0.1278917587,0.0984876821,0.1081440650,0.0387741156,0.1026919737,-0.0555858307,-0.0985121846,0.0303329685,-0.0233636075,-0.0077193000,0.1285558980,-0.2588794209,-0.1483185268,-0.2354122300,0.0453429196,0.0571009712,0.2161873771,0.2123019772,-0.1564375323,0.0022110211,0.0474826003,0.0201720094,0.0055543421,0.0911093499
-0.3878144904,0.0724170346,-0.0099970991,-0.0859218483,0.1162950765,0.0389567143,0.2025893723,-0.0460059707,-0.0275424027,-0.0481710098,-0.0389966421,0.0855081357,0.1081631608,-0.0159149643,-0.0255670434,0.2865960673,0.0467550199,-0.0515390981,-0.2017949061,-0.0696492137,-0.1150170461,0.0923159257,-0.1296592448,-0.1690454372,-0.0000393769,-0.0162947284,0.1034222802,0.0747046209,-0.0754968147,-0.1099548073,0.1598373464,0.0290518897,-0.0687693754,-0.0102622155,0.1295233333,-0.1243407812,-0.0891343985,0.0290916155,0.0070203487,-0.1287649230,0.3040615868,-0.0737174697,0.2260115877,-0.1794529467,0.0502793650,0.1885404686,0.0512024115,0.0832494610,-0.1109188035,0.2341835030,0.0635446844,0.1205637457,0.1004362248,-0.1113706935,0.0277349407,0.1368256317,0.2006168586,0.0170256401,0.0040599880,-0.0118098285,0.1543353965,0.1365310035,-0.0555371398,-0.1927555448
0.2111373277,-0.0197432092,0.1119413068,0.3732161230,-0.0381751804,0.0432074835,0.0565141585,-0.1511796474,0.1566081943,-0.1050942984,-0.0824984442,0.1378059754,-0.1398490110,-0.0098662853,0.0245208375,0.0067057200,0.4604404704,-0.2305152995,0.0122284558,-0.1432379391,-0.1723447927,-0.0628541224,0.0832661179,-0.1573899936,-0.0539745979,-0.1008503109,0.0293626578,-0.0356002857,-0.1769285198,-0.1048274843,0.0599534838,-0.0176002512,-0.1074276278,-0.1560096863,-0.1554195377,0.0913543683,0.1314164236,-0.3427006772,0.0692833090,0.2742097541,-0.0309410839,0.1332725064,-0.0165413851,0.2443421623,0.1136065030,0.0132572308,-0.1683992917,0.0865684985,-0.0381649448,-0.0603861322,0.1642863514,-0.2438657098,-0.0169379735,0.0259800113,-0.1310028246,0.0193878102,0.0824014015,0.0693631528,-0.0434367619,0.0444362353,0.0109420842,-0.0087563943,0.0529447833,0.0333940600
-0.0112413006,0.1148290636,0.0549643450,0.1145675368,0.1919216791,-0.1214969179,-0.1178344089,-0.0510110768,0.0203470296,-0.0364961844,-0.0493255638,0.0506107211,-0.0900301469,-0.2937981921,0.1065983970,-0.2393123640,0.1301726627,0.2286035626,-0.1465731919,0.0170797549,-0.3194436524,-0.0348176078,-0.1933605774,-0.2335086358,0.0578521748,-0.1190055783,0.1884935936,-0.2542097718,0.1397659370,0.0449600828,-0.0120261699,-0.0080683109,-0.1569419943,0.0600149226,-0.0314074699,0.2576076114,0.0628445978,-0.2309234574,-0.0221545916,-0.1444272796,0.2205318331,-0.0369369305,-0.0326531532,-0.0092658656,0.1381283843,0.0607637731,0.2466653812,0.0166541253,-0.0153759440,0.0415156636,0.0328208408,0.1289955478,-0.0563192221,0.0081620329,0.0726355501,0.0306580630,0.0872963943,0.1021470352,-0.0191098376,-0.1559194470,-0.0377629757,-0.0044212323,0.2284289024,0.1300472529
0.0837349392,-0.3529588628,0.0804791487,0.1505200607,0.0215629205,0.2472705025,0.0294341005,-0.2669359354,-0.1091862264,0.0373214864,0.0171930997,0.0757665390,-0.0409887991,-0.0445208781,0.0216336440,0.0257708973,0.0326101985,-0.1811319597,0.1326531896,-0.0837613323,-0.0415119156,0.1961435387,-0.0740737712,0.1881018878,-0.0075909718,0.1627886286,-0.2989337767,0.0603855855,0.1943638618,-0.1218258530,-0.0269455722,-0.0208149630,0.0019360143,-0.0296144991,0.1060908704,0.0480139301,-0.0808666085,0.3063348404,0.0597232873,0.2144094365,-0.0213759945,0.0793272193,-0.1028667276,-0.0972954663,0.0994985877,0.2609290176,-0.1786881126,0.0524494028,-0.2033550886,-0.0563719921,0.1896024809,0.0085923820,-0.0280809090,-0.0215593293,0.1134196196,0.0354426330,0.0987456982,0.1258857290,0.1710326549,0.0383225397,-0.0437053485,0.0447677438,0.1056192569,-0.1979390216
0.0912456371,0.1276882297,-0.1133677926,0.0287828862,0.0733186278,-0.0693476401,0.0304165464,0.1225213900,0.1270122360,0.0395251821,-0.0637094665,0.1716823656,-0.0987198846,-0.2170613055,0.0688937467,0.2338302629,-0.0065436037,-0.1531308429,0.0501860962,-0.2068855133,0.1078081530,-0.1086166090,0.3765847081,-0.0127279823,0.0542011508,-0.1222905041,0.1993460032,0.0139629571,-0.2228968352,0.2388610419,0.1122643202,-0.0124100127,-0.1507389308,-0.0939211539,-0.0257302152,-0.0509515882,-0.0501982912,-0.1284896490,0.0198953022,-0.1718033578,0.2776797823,-0.0977447154,-0.0223972778,-0.0325842389,0.0372722355,0.0236972846,0.0595347039,0.1181573824,0.0263812556,0.0503831537,-0.0060985646,0.0261622844,0.1792992929,-0.2717017306,-0.2722346666,0.0458176203,0.0198845412,0.2171543386,-0.1730674838,-0.0542555323,-0.0405653258,-0.0266460844,0.2751572829,-0.2577203717
-0.1448688583,-0.0187323072,0.1105947924,-0.0378832623,-0.0188071826,-0.0423543835,0.0594514391,-0.0202788546,-0.0181397040,0.0869363780,0.1401135581,0.1514676308,-0.0740625814,-0.0448331427,0.0299891299,0.0481957940,0.0053356223,0.0892022184,-0.0635031053,0.1458269838,0.1164536837,0.0081998452,-0.0810712706,-0.0357564745,-0.0333384934,0.1201035655,-0.1348175070,-0.2062807965,0.0582603899,0.0508907852,-0.0562098561,0.0200054788,0.1528648465,-0.0871045050,-0.0436096385,0.2256078831,-0.1079989607,-0.1902621559,0.1387146187,-0.2668586851,-0.0332205834,0.1229066019,0.1199979189,-0.0644044694,0.1006163380,0.0457898874,0.1194229835,-0.2461435051,-0.0948503092,0.1315395702,-0.0538428558,0.1002377960,0.0091064793,0.0435371997,0.0561599842,0.0566830818,-0.0510347720,-0.0762874377,0.0037714671,0.0517060058,0.0250448461,0.2416364443,-0.1464650523,0.0269700243
-0.0458611142,0.2209519384,-0.0143721512,-0.1271965174,0.1188320945,0.0146830409,-0.1968312488,-0.0947820745,-0.1764176796,0.0352084517,0.0402357531,0.4070656095,0.0487538515,-0.1264537944,-0.0332143032,0.3589229921,-0.0326083747,0.0874308309,0.1638806761,-0.1450040896,-0.1166212477,0.0456592391,0.3340007351,0.0840437744,-0.0126602241,0.2125736342,-0.0157561291,0.1422570189,0.3509515642,-0.2967889168,-0.2251360115,-0.0438415398,-0.3234151326,0.1204020793,0.0432032739,-0.0683560685,-0.0051525577,0.1777898372,-0.2046523965,0.1299833693,0.0986067975,0.0355798805,-0.1715288807,0.0926493803,0.0859687753,0.0161640201,-0.3330180444,-0.1804747237,0.1032201066,0.0768190829,-0.1421325543,0.2510793299,-0.1535090848,0.0173034561,0.0764159284,0.1289768839,0.0382845626,0.0236662024,-0.0915094662,0.1921806136,-0.1558890527,-0.0890120527,0.0140977201,-0.2121421957
0.0570953318,-0.0552641870,-0.0159662189,-0.0325684935,0.1269475498,0.1452068013,0.2402495501,0.1893230138,0.0056003954,-0.0472186580,0.1761611148,-0.2069476329,0.0355088110,-0.2377081791,0.0359442818,-0.0126259641,-0.0379099625,0.2904970544,-0.1076179461,-0.0137481488,0.0361786919,0.1717191062,-0.1290082187,-0.3253846823,-0.0826503234,-0.2344129283,-0.1055738015,0.0163748625,0.2259369195,-0.0335392623,0.1758721081,-0.0162852979,0.0661433242,0.2041445213,0.0611147242,0.0682073668,-0.1364331095,-0.3407598054,0.0281836338,-0.1317419019,0.0239174250,0.0895912120,-0.0798813825,0.1306319317,-0.3472666808,0.0842849005,-0.0829846940,-0.0111169441,-0.2294499699,0.1798913917,0.0175972788,-0.0042696037,0.0233082355,-0.1597830634,0.1357277600,0.0183482447,0.3558176001,0.1861048674,-0.0378181720,-0.0970657954,0.1045806542,0.1374158180,-0.1280883575,-0.1160590126
-0.1084709075,-0.2870119669,0.1495896157,-0.0200698477,0.0109234809,-0.0698444784,-0.0920336362,-0.0034225067,0.0569193827,-0.1141227513,0.1201051948,-0.0112207114,0.1890109145,0.0265041642,0.1503372001,0.0237474649,-0.0490975685,0.1386544547,-0.0348670471,-0.1133049347,-0.1674138975,-0.0980754860,-0.0144005452,0.0544087898,-0.0633773535,-0.0633925028,-0.0630218162,0.0656998522,-0.0097595527,-0.1815365810,0.2092012050,-0.1155495508,-0.0308473515,0.0751672240,0.2034795130,0.1379262105,0.0106060760,0.3156075398,0.1737256897,-0.0220597080,-0.3173417152,0.1608205686,-0.0877104038,-0.0580692722,-0.0791189735,0.3203258126,0.2063886631,-0.1575424577,0.1748296174,0.1005768878,-0.0029050714,-0.1331275524,-0.0341595420,-0.2034523115,0.0621734894,-0.2167153538,0.1406365771,-0.0177498517,-0.1001719548,0.0774927560,0.1904030244,0.1429392720,-0.0896271934,-0.1725918150
-0.1127895187,0.0913828754,-0.0153543703,-0.1223889745,0.2022816061,0.0572807091,0.0764627795,0.0153386833,-0.0358541127,-0.0523733027,-0.1680152540,0.0908025831,-0.0083053916,0.1751883858,0.1266942586,-0.1103952026,0.0753843184,0.2601090272,-0.1002844538,0.0348257036,-0.1662498039,-0.0883037575,-0.0825993471,0.1000065035,0.3184372203,-0.1495069425,-0.1820217624,-0.1531140076,-0.0725392599,0.0757489681,0.1846921342,-0.0732684097,-0.0859596730,-0.0096557132,-0.1818786246,0.0874078230,-0.0446697107,-0.0134696625,0.2110608092,-0.0186477555,0.1752170549,-0.0247498039,0.0609906432,-0.0792577174,0.0344525891,0.0391969630,0.0561078641,0.0944959050,0.0215161409,0.0318726486,0.0479794383,0.0933335339,0.0594546950,-0.1097437725,-0.1612494377,0.3563755261,0.0755086414,-0.0009043858,-0.1593829181,0.1021470655,0.1282379537,-0.2297451213,-0.2235683315,0.0632870478
0.0968606519,0.0496542421,-0.0609475828,0.0373402606,0.1041373384,0.0517101500,0.2039776276,0.0607403749,0.0489531320,-0.0448229220,0.0520602175,0.2559054322,-0.0846442339,0.0365803904,0.0492495136,0.1894416626,0.0286990678,-0.0127299580,-0.0601184982,-0.0824138338,0.1104923359,-0.2756272675,0.0809244750,0.0404623810,-0.0083067714,-0.0157315770,-0.0969889924,0.3828443408,0.0950515067,-0.0249519349,-0.1785447408,0.1117211239,0.1534351633,-0.2267861597,0.1636191397,0.0555310131,-0.0756482720,-0.0414538602,0.1086047887,-0.0072062253,-0.1098322533,0.1340333751,0.1658529222,0.1162461948,0.0119041755,0.0162506763,0.0321491670,0.0967967966,0.1501870887,0.2678643871,0.2219247337,-0.0785578959,0.1159381470,-0.0857906063,0.2657942572,0.0007652704,0.0118204043,-0.0514885283,-0.1077291521,0.0991080775,0.1916108648,0.0380845746,-0.1369059262,0.0794014381
-0.0563352110,0.2928129814,-0.2348310520,-0.3145169757,-0.1956106226,-0.1599783709,0.0742610101,-0.1813956838,-0.0951800692,-0.1894294160,-0.0353040833,0.0378950923,0.0028294798,0.1000714690,0.2142988375,0.0653751308,-0.0062778633,-0.1221601493,0.0228192323,-0.0655852950,0.0554104828,-0.1274928357,-0.0723388480,-0.0722202665,0.1803753096,-0.2166422857,-0.0733598197,0.2282529388,-0.1459594889,-0.0458681967,-0.2758734569,-0.0193200436,0.1844529663,-0.0367748946,-0.1314740753,-0.0987591457,-0.2983012048,0.1709464631,0.0076061333,0.0818657905,0.0040139074,-0.2820837209,-0.2066949883,-0.0377731348,0.1852084983,0.2239061623,-0.0692665656,0.0071654751,-0.0375212544,-0.0114184303,-0.1789849081,-0.0205519685,0.1645497727,0.0228438623,-0.1018793176,0.0999661421,0.1034356039,0.2650571148,-0.0779666085,-0.1198934970,-0.1109630048,-0.0229076957,-0.0329592428,-0.1134611430
0.2799177509,-0.1923139077,0.0773077994,0.0498932293,0.1082578878,-0.0859470656,-0.0236882008,0.1064082319,0.0721092167,0.0615896251,0.1642931668,0.0825097296,-0.1351398318,0.2559814682,0.0984819964,-0.0720884600,-0.0529583529,-0.1724464515,-0.0113967377,0.3112079538,-0.0643074034,0.0062341378,-0.2642660817,-0.0606660691,0.3436213975,0.0832090210,-0.0298206790,-0.0087996759,0.0266678797,0.0888599844,0.2274791089,-0.0460965361,0.2463562725,0.0204384103,0.0520279720,0.0773243254,-0.1050557918,-0.0841769418,0.0046614482,-0.1898369729,-0.0309114964,0.0850294740,-0.0370545853,-0.1277855851,-0.2175555364,0.1394461849,-0.0890878079,-0.1323335993,0.1069342750,0.0364349380,-0.1081236012,-0.1003942958,-0.1631410392,-0.2006473575,0.2177786596,-0.1858783987,0.2498039695,0.0116014423,0.0750035380,0.0322420995,0.1102149253,-0.1774893409,0.0880096913,0.1253894042
0.2997105439,-0.1072858790,0.0558287530,0.0110712832,-0.0583990299,-0.1015111923,0.0103139970,0.0768788070,0.2413922619,0.1397231851,0.0989692213,0.1340774071,0.0076057459,-0.1583139828,0.1787086513,0.2796485441,0.3535636397,0.2487869314,-0.1268359073,0.4390755265,-0.0232588376,-0.1579598438,0.1553668847,0.2580878853,-0.0166072925,0.1125691775,0.2719022673,0.0188475066,-0.0729222971,0.2238270742,-0.2064404552,0.1204204857,0.0497351532,-0.0128155394,0.0173057216,0.0947699400,0.2427769679,0.0846922865,-0.2105203456,0.0301556573,-0.0990566900,-0.2712406371,0.3080495741,0.2484053921,0.0761857169,0.3455554457,-0.0456026486,-0.0931145261,0.0283807119,0.1925852151,0.1396237223,0.2237618697,-0.0802059442,0.0717800658,0.0598905586,0.0816912631,-0.1073955971,0.0282349653,0.1571536223,0.1768459763,0.1117851663,0.1679153168,0.1010607980,0.0456364333
0.0420554545,-0.1408815727,0.0641358006,0.1891994301,0.2476185518,0.0229507267,-0.1686987612,0.2249709907,-0.2634039059,-0.0281427079,-0.0822287911,-0.2328474823,0.0868442963,0.0145256190,-0.0172998154,-0.1010978402,-0.0247413345,0.1277563828,0.1109027416,0.3262619242,-0.0134464813,-0.1463229661,-0.0230379511,-0.2486573510,-0.2744828237,-0.1829149367,0.0513757245,-0.2097765296,-0.1531116730,0.2115299665,0.0543664259,0.0199902950,-0.1704020701,0.0459119104,0.3028677165,0.0487562713,0.3332871244,0.1752125620,0.0155632851,0.0453992694,0.0912732641,-0.2820586240,0.2749654016,-0.1009354589,-0.0233460873,0.0806047484,-0.2489736125,-0.0851279286,-0.0755093058,0.1875800795,0.3775721555,0.0656586330,-0.1683899505,-0.0476556151,0.0767895081,0.0163095008,-0.0478511797,0.0911909384,0.0350866628,0.0643659981,-0.0139404183,-0.0458281953,-0.0538692322,-0.0558993011
-0.1348505580,0.0861836434,0.1496507903,0.0591138179,-0.0532167338,0.1648707101,0.1016476395,-0.0464929477,0.0220298433,0.1070777016,-0.1582813364,0.0125141355,-0.0266011889,0.1472418291,0.1258173061,-0.0807925648,-0.0852040521,-0.1475481238,0.0321947637,-0.1026425496,-0.1035133438,-0.1968582949,0.1497933876,-0.1247468195,0.2080675447,-0.0058036615,0.0472532706,0.0821183982,-0.0646216894,-0.0244881740,0.0473844555,0.0013785670,-0.0540557053,-0.1403880026,-0.0113838349,0.0091356122,0.0063184589,-0.0060924433,0.0467183922,-0.1505426045,0.0153275149,-0.0777471175,-0.2676376239,-0.0545732985,0.0652947436,-0.0031781145,-0.1387898397,-0.1248002263,0.0194838917,0.0739465360,-0.0312176194,-0.2644567521,-0.1974860467,0.0057078913,-0.1169231074,-0.2873502508,0.0130722420,0.1900254681,-0.1151272939,0.0675773761,-0.0576557737,-0.1380907340,-0.1299258196,0.0765952641
0.1273513090,0.1430947372,0.0050515628,-0.2220648985,0.2440805736,0.1156996049,-0.0216782915,-0.0694148414,0.0018843752,0.0318770823,0.0367197386,-0.1028528241,0.1403561117,0.0678985853,0.0768865546,0.2187113985,0.1208857210,0.4026997091,-0.0353285093,-0.1224809378,-0.0473461762,-0.0735247454,0.0515189529,0.1081217733,0.2938127610,0.2188167337,0.1101070296,-0.0996555673,-0.2449749242,0.0529688042,-0.0510497567,-0.0648896157,-0.0577174636,0.1929059780,0.2153235237,-0.2936649292,0.3450880458,-0.0754279083,0.1860455640,-0.1198479896,-0.0377733653,0.0007551823,-0.0579752208,-0.0747879237,-0.0739362630,0.0791597918,0.1514347574,-0.0290719789,-0.0726973999,0.0327461735,0.0337537318,0.0248780773,0.1884637270,0.2383438183,0.0225183173,-0.1090173413,-0.1410733074,-0.0048650274,-0.0568227814,0.0586682361,0.0322339602,-0.1910240738,-0.2410869542,-0.0458336210
-0.1328529304,-0.1269592574,-0.0468456177,-0.1976015293,-0.0545756429,-0.0384498351,0.0371426663,0.1833130413,0.0443277117,-0.1121623346,0.2511195501,0.0778358853,0.1102664825,0.1967312313,-0.0370005383,0.0030332487,0.0151387614,-0.1693997425,0.0898698404,-0.3972958674,0.1708460474,-0.2139184978,0.1965920716,0.1108222552,0.1539907503,0.0608381562,0.2451628740,-0.0792372992,0.0306596922,-0.0732455963,0.0863432065,-0.0596682786,0.1381981910,-0.1166531180,-0.0999689682,0.1054371982,-0.3916925608,-0.1188023920,0.0200293518,-0.0787644803,0.0315959225,-0.0349827351,0.0310180701,-0.1285318787,0.3041763801,-0.0491111940,0.1436496517,0.2091937769,0.0293391596,-0.0258872801,-0.0721985213,0.0752224289,0.0934314166,0.1421034249,0.0828554739,0.2586114416,-0.0866781910,-0.0011087552,-0.1969368291,-0.1664803785,0.0341639923,-0.0833845925,0.0999871107,0.0211326698
0.0690196151,0.1276357085,-0.0509258298,0.0599744887,0.0483855605,0.1714798437,0.0551784286,0.2534494272,0.2671479312,0.2496705855,0.0367655556,0.2609008864,-0.0732039351,0.1214756258,0.0500815290,0.0241132455,-0.1267037838,-0.1077239584,-0.0075332215,-0.1289601811,0.1799577659,0.1133545930,-0.1929471210,0.1492307644,0.2708570442,-0.0481592422,0.1238794643,-0.0323314617,0.2146334540,-0.0558442962,0.2488766065,-0.0498930187,0.1832225406,-0.0214161905,0.1093874265,-0.1470045618,0.0261381455,0.1295525438,-0.0376288420,0.0222904908,0.0989035474,-0.2141436160,-0.2368651847,-0.0300420131,0.0425832083,0.0410886779,-0.1568609912,-0.1080525523,0.1066612033,0.0130119550,-0.1588860549,0.0795109086,-0.0779415286,0.1551899162,-0.0413961200,-0.0035351831,-0.0071775932,-0.2567515601,-0.0531577574,-0.3146254623,0.0900069259,0.0443178189,-0.1080773863,0.0307420281
0.0462951011,-0.0383073934,-0.0173697128,0.0338084710,-0.0797621020,-0.3421172651,-0.0753445688,0.1760588775,0.0895994655,0.0861291677,-0.1496953370,-0.0088628196,-0.1107355563,-0.0065625240,0.0435665791,0.0169213590,-0.1450697666,-0.2058896662,-0.1007131847,0.2211652660,-0.0351246295,0.0890105406,-0.1812163335,-0.0507938681,0.1504400792,0.1002484639,-0.0812094520,0.0411065039,0.1075060019,0.1089111193,-0.0931061529,-0.1627511670,-0.0553738013,-0.0468295663,-0.0039672574,-0.0132153473,0.1804777055,-0.0351211575,-0.1741964470,-0.0877789391,-0.2079893204,0.0494272519,-0.0191501527,-0.0264475059,-0.1502817414,-0.0685073532,-0.0889332567,0.0456303845,0.0097222961,0.1475319687,0.1141648147,0.0487672519,0.2612537453,-0.0647652467,-0.0092741177,0.0652277465,-0.0932260698,0.0059505903,0.0899827961,-0.1876366316,-0.1088101842,0.1584002372,0.0271933835,-0.0346923028
0.2262131633,-0.0657453831,0.0071595384,0.0237834561,0.2493680529,0.2237928178,0.0435017855,0.0930201865,-0.0774001710,0.0843021146,0.0410127181,-0.0230072233,0.1569092251,-0.0575303625,-0.0672526361,0.0243874862,0.1299328146,0.0396710832,-0.1142746269,-0.0852043847,0.0617331519,-0.0257545704,0.2086566191,0.0822949861,-0.0868111606,-0.1726985289,-0.1574453843,0.0067119672,-0.2336512824,0.2125012536,0.1566978557,0.0189020816,0.1975073658,0.0303624501,0.1533631012,0.0575398966,-0.1563120840,-0.1011801151,0.1359049231,-0.3051980930,-0.0980995772,0.1452807475,-0.0763448260,0.0317338174,-0.2791975681,0.3213417731,0.0840041915,-0.0604638517,-0.0186772006,-0.0905978858,-0.0429413005,-0.1304240002,0.1058373441,-0.0888220703,0.0392640271,-0.1936263357,0.0176814146,-0.0814325662,-0.2217410644,-0.2453655068,-0.0797488821,0.0866035593,-0.0045441026,0.0103331386
0.0334363769,0.0184194234,0.1913363890,0.1033332944,-0.0153659898,0.1169447404,0.1750669219,-0.0713705225,0.1045176062,0.0885308968,-0.0586111840,-0.0876245262,0.0310993974,-0.0185000096,0.2034472783,-0.1664299125,-0.1863766964,-0.0870119903,0.0822939644,0.0753275394,0.0892739326,0.0999033759,-0.4503056289,0.0306979258,-0.1290340036,0.1612458641,0.0126394433,0.1778208631,-0.1648172383,0.1190004165,-0.1000102905,0.0991674808,0.3506914274,0.2167205178,0.2127075436,-0.1632870122,-0.1244688361,-0.1640593655,-0.0252011313,0.5971613102,-0.0090674030,-0.2495761207,-0.1034921259,-0.0616666157,-0.1177857529,0.0500979266,0.1328776817,-0.1331407664,-0.0402747690,0.2356562555,0.0474567388,-0.0975131756,-0.2724606864,0.2531422660,-0.1714916490,0.1664739716,-0.1154888804,0.0899801781,0.1646559527,-0.2773803203,-0.0005034458,0.0236249763,-0.1176534453,0.2576356904
0.0008867604,-0.1718222783,-0.0110041387,-0.0154624455,-0.0584032796,-0.0328870369,0.0482859002,-0.0725901371,0.0798157381,0.1335826487,0.1091581112,0.1025123404,-0.1339440354,0.0566804481,-0.0775221439,0.1659753101,-0.2350276855,-0.1037088604,0.0211636993,-0.2486053858,-0.0255978666,0.0154279210,0.0307516243,-0.0852747433,0.3474145199,0.1056142977,0.0159345276,0.0801261154,0.1263471300,-0.1038825112,-0.0411621506,0.1266217907,-0.0547257060,-0.1205740005,-0.0880949691,-0.1462239600,-0.1330920946,0.0900971827,0.0002325593,0.0081282862,-0.1609676235,0.0652387395,0.0311334826,0.0348471847,0.2095464668,0.1101460957,-0.0485281906,0.0103788875,0.0013190184,0.0195432525,0.0107730635,-0.1131701120,0.1023503528,0.0407242256,-0.3475352001,-0.1580654998,0.2002473970,0.0000516544,-0.1557347732,-0.0928116827,-0.0242088893,-0.2153336298,-0.1512187335,0.1355874430
0.1455540294,-0.1483369495,0.3112287311,-0.0082352899,0.1633211346,0.0766096642,0.1375398629,0.0077195022,0.0072759475,-0.0632007411,-0.0081300913,0.1381805349,-0.0336907057,0.1429078544,0.0487005971,0.0133123285,0.0769435513,-0.1064000000,-0.0090544595,0.1010784716,0.3019674704,-0.0861558835,0.0979078079,0.0392453354,-0.0734592081,0.0283776921,0.1179211323,-0.0482090900,-0.0771187321,-0.0271581670,0.1410013041,-0.0462724386,-0.0755447495,0.0690805420,-0.1658120374,-0.0388522882,0.1658655925,0.0741235413,-0.0492964935,0.3034279943,-0.0728339451,0.1694704878,0.0765775636,0.0692557254,0.1567233309,-0.0785584299,0.1468313846,0.0825676672,0.0352052424,0.0171175029,-0.1478373319,-0.0798520721,-0.1072931471,0.2450498640,-0.1782259521,0.1581946986,-0.3027523356,0.1296222757,0.1750136921,0.0521159427,0.0169656873,-0.0908854264,-0.2276446226,0.2583152523
0.0274127202,0.0450932737,0.1390686529,-0.1102708220,0.0796479992,0.2193740951,-0.2010689382,-0.1307832929,0.0916378985,0.1989588849,0.1373218595,0.0184139941,0.0354668283,0.0871231811,-0.0220429756,0.0059640787,-0.1145035016,-0.1335732210,0.1189258430,0.2429690980,0.3122132262,0.1335395227,-0.0159035696,-0.0639710484,-0.2827562078,0.1786332231,-0.1345194739,-0.0293480217,0.0373293139,0.1276006818,0.1559175812,-0.0322885590,-0.1553224659,0.0336132143,0.0279113729,0.1169816901,-0.0378017591,-0.3373594700,0.1350219608,-0.2029400983,0.0451792620,-0.0110777919,-0.0452925406,0.1134465978,0.0585615005,-0.2504989910,-0.1091444910,0.0925679647,0.0335602853,0.2400709958,0.0086332071,-0.0503230302,-0.1089982831,-0.0365277192,-0.0165951132,0.1199008046,-0.1405848785,0.0586437553,-0.0324446079,0.1099595305,-0.1354380461,0.1001985988,-0.1353821438,-0.0861808454
0.1906831252,0.0362669707,-0.1270427837,-0.1073899234,-0.3649647648,0.1323882080,0.0303468360,0.0934180437,0.0422304146,-0.1186823191,0.1168382506,0.0603664710,-0.0991670768,-0.0114125617,0.1840008672,0.1816678813,0.0208353588,0.1528324697,-0.0761548943,-0.0016955894,0.0217279301,0.0821662655,-0.0373776223,-0.0296345438,0.0355670962,-0.0024484675,0.2900757906,0.0860050663,-0.0653957584,0.0042538555,0.0540491687,0.1064714208,0.1389197849,0.1550084780,-0.0105242448,0.2566659433,-0.1031723839,-0.0974837307,-0.0691136710,-0.0614302230,-0.1073699989,-0.1075487221,0.0089643680,0.0083890599,-0.1435935858,0.1746591418,0.3356209331,0.0444864385,0.1540471239,-0.2045967939,-0.1306202639,-0.1795618424,0.0309913687,-0.0796754542,0.1435974057,-0.1291987133,-0.1545134875,-0.1497211280,0.0474025467,-0.1920408745,-0.0088111642,-0.1740548802,0.2336556119,0.1073972610
-0.1434475962,-0.0885788940,-0.0037019787,-0.1876295566,0.0094393706,0.1075351657,-0.1469677644,0.0507754867,-0.1511477466,-0.0533380345,0.0913469696,-0.0139121004,-0.0723448513,0.2560149031,0.1301858301,-0.0188219319,0.0102710890,0.0267696655,-0.0978524253,-0.0827042564,0.0084602279,-0.0047262943,-0.4820722462,0.0059494905,0.0867491789,0.0654629674,-0.1306708753,0.0764737872,-0.0174235418,0.3287720471,0.0892213099,0.1319469460,-0.0402742402,-0.3503862850,-0.0056456137,-0.1129691685,-0.1253123264,0.0711050664,0.3410171082,-0.0201134685,-0.0437606681,0.0044140434,-0.1371158155,0.1428914210,-0.1381131565,0.1965591685,-0.0188434630,0.0020210899,0.0237257877,-0.1926938353,0.0696229734,-0.0669798770,-0.0866238237,0.1726807006,-0.0633716554,0.0413012230,0.0002658164,0.0165046266,-0.1227617918,-0.2090224024,0.0729613728,-0.1585587735,0.1170076805,0.0932404350
0.2264146965,-0.2059019203,0.0971045512,-0.0392983378,-0.0104895267,-0.0909815751,-0.1252045814,0.0360850796,0.0451507151,0.0731836774,0.0636799924,0.3381122354,0.2439527250,-0.0293172574,0.0795561301,-0.2073608218,0.2766316286,-0.0197888892,0.0852883517,0.1411830787,0.0368882825,-0.0498628271,0.0893247942,-0.0500434163,0.0848917779,-0.0011227358,0.2773881527,-0.2173544566,-0.0444791924,0.1071954597,0.2416820220,0.0809999965,-0.1512128627,0.2496619500,0.2146866108,-0.0448884302,0.1847163523,-0.0366602300,-0.0198591630,0.0292957097,0.0546458610,-0.2786731808,-0.2280384875,-0.1293199088,0.0148303430,0.0984489836,-0.0494507037,-0.2917823813,-0.1479737013,0.1432689080,0.0357544851,-0.1235034882,-0.1620848384,0.0999562106,-0.2373638916,-0.0782502295,-0.2434586816,0.1183615705,0.2630867024,-0.1807610693,0.0634644955,-0.0612628015,0.0471586766,0.0144004468
-0.0792890901,0.1436696942,0.2623577504,-0.0161924870,-0.2993417408,-0.0546682777,0.2026411073,-0.0082665837,0.1517098895,0.0215733845,-0.0302064550,-0.0635459228,-0.0715100388,-0.2082659340,0.0922039856,-0.0220361808,-0.3756613745,0.0081036351,-0.1030494912,-0.1044520037,-0.0753320207,-0.0220407275,-0.0386397453,-0.0672388014,-0.4175463823,0.1547546940,-0.4048300967,-0.0317685605,-0.0402764574,0.0394514383,0.1309982180,0.0111372184,0.0525167344,0.0411010510,0.2323265594,0.0270087535,0.1584077831,-0.0039606893,-0.0877581065,-0.1510757346,-0.1541133548,0.1356577627,-0.0250707999,-0.0055819879,0.2210040416,-0.0368676138,-0.0764275535,-0.2969172189,0.0088989714,0.1084226561,-0.1395995063,-0.0401731199,-0.0140916894,-0.0426685799,0.1091369873,0.0404714786,0.0564598050,0.2113535882,0.1576614488,0.1390578923,-0.1281334995,0.1347842723,-0.0034702899,0.1881828660
0.1403610803,0.0424497630,0.0532360322,-0.1180753319,0.2625065359,0.0373507628,0.3019185350,0.0350745867,0.1386229293,0.0576276265,0.1834125551,0.2059093778,0.1566532013,-0.0909908289,0.1949809365,-0.1423696474,-0.0237955099,0.1694197491,-0.0719508802,0.0097222532,0.0659628303,0.2372782590,-0.1677282744,-0.0065344404,0.0740334138,0.0646680006,0.1316885516,-0.1596278951,0.2769879912,0.1242645381,-0.0525624845,-0.0196877906,-0.2544848429,0.0755144602,0.0181644037,-0.2289721984,-0.0994432511,0.0113896461,0.2969780601,-0.0030166106,0.0746736542,-0.1113078714,-0.0455017717,-0.0008273729,-0.1235455049,-0.1459604599,0.0552627883,-0.1276201479,0.0038647232,-0.0482445552,0.0291453984,0.0339131972,-0.0665222600,0.0026781534,0.2548180834,0.0815063885,0.0640935385,0.2260790657,-0.2545423740,-0.2956152746,-0.0178104509,0.0837077741,0.0764868530,-0.2508408215
-0.0316748040,-0.0757866158,-0.1678617576,0.1502925298,-0.1020074610,-0.0946982942,0.0717335282,-0.1507823463,0.0591726687,0.1715784269,0.0266072183,-0.0021576313,0.2803609724,0.1484466168,0.1588941487,0.0634074255,0.0539603781,0.0459796137,-0.1384333940,0.0927610962,-0.0226899206,-0.1049164125,-0.1009452901,-0.1052185920,0.0296036690,0.1340006169,0.0523181677,0.1501225463,0.0754824818,-0.1114817989,0.1399752902,0.1027135738,0.1127473789,0.2983270886,-0.1790440228,-0.0413162430,-0.1087502519,-0.3556133403,0.0008755952,0.0396558985,-0.0346081083,0.0564757463,-0.2008622788,-0.0165079814,0.1957736452,-0.0494643000,-0.0972715268,-0.0159635625,0.1761216668,0.3127964528,0.0831920309,-0.0912497064,0.1291116171,0.1688303993,-0.2160452738,-0.0674306478,0.0225718276,-0.2050766337,0.0970838104,-0.1852981791,0.2703522782,0.0766174657,0.0782018146,0.4144870633
0.1812998943,-0.0344487408,-0.0509052130,-0.0263107958,0.0833418208,0.0892587877,0.1943543265,0.0073091738,0.0408661026,-0.1064148202,-0.2419890794,-0.2082907169,0.1637645229,-0.0810014595,-0.0342000476,-0.0404011379,-0.1691024966,-0.0718983006,0.0124458198,-0.0943081708,0.0392551434,0.1924788199,0.1105643403,0.0251315799,0.0490754439,0.0412253874,0.0080268905,0.1118562896,-0.2232009569,0.0296648503,0.0729609933,-0.0610962889,0.1964548706,0.0350425650,0.0929614336,0.0614828581,0.1391644758,-0.1709360438,-0.0291579607,0.0346105634,0.2382215065,-0.2503561384,-0.0389850391,0.0506397600,-0.0294327364,0.0561268430,0.1668618333,0.0513391388,0.1704343291,-0.0597372361,0.1285736430,-0.2830315082,-0.3422837188,-0.1972994526,-0.1195286032,-0.2168640044,0.0660385352,0.0898942115,-0.1886096687,0.1814909281,0.0808657766,0.2487136659,-0.0359002588,-0.2104713469
-0.0240426975,0.1568069037,-0.1800956221,-0.0510121434,0.1169277485,-0.0694729141,-0.2308780122,0.2245462134,-0.1191176603,0.1216738232,0.1047296814,-0.1261139753,0.1641193465,-0.0616479453,-0.0381520952,0.0220016915,-0.0216579886,0.2203303457,-0.0769749953,0.0461430998,-0.2847333066,0.2009443075,-0.1013360243,0.1421308826,0.0415322721,-0.1889891352,0.0817303749,-0.3757452842,0.2490082119,0.0072153014,0.1418801565,-0.1701006610,-0.0911381939,-0.1772038288,-0.2207971346,0.0584504516,0.0805415787,-0.0686745049,-0.0635552722,0.0212252100,0.1271973631,0.0824265712,0.0681474611,-0.1275613274,-0.1167885695,0.1525375392,-0.0727594305,-0.1949656415,-0.0132789219,0.0288246187,-0.1218831866,0.1008777403,0.2415110968,0.0773104405,-0.0765101601,-0.0220742555,0.2784638601,0.1684517113,-0.0939881264,-0.2081924857,-0.1445359828,0.2004182150,-0.1460669597,-0.1901525187
0.0081291412,-0.0691671191,0.0047472817,-0.1246953288,-0.1051950584,-0.1194118532,-0.0603368154,-0.1119760617,0.1316583215,0.0646417940,-0.2294535723,0.2230320855,-0.1112017249,0.0618159345,0.1717488525,0.0146799666,-0.1086608922,-0.1733865197,0.0048547324,0.4526175413,-0.2158170833,0.0410369198,-0.1436779870,-0.2835605370,0.0696384215,-0.0625626233,0.0918759925,0.1187030913,-0.0679003653,-0.0330144993,-0.0190215141,-0.2232564510,0.1520096906,0.0546028328,0.1468297382,-0.1266407585,0.2013044525,-0.1010603649,0.1681253294,-0.1424365393,0.1555793212,-0.0267070101,0.0562648196,-0.1338033634,-0.0705785623,-0.1078423504,0.0274111775,0.2988929646,0.1405883222,-0.0730786185,-0.1268641507,-0.0655128168,-0.1070897964,0.0428867792,0.0868963256,-0.1588958295,0.2084459586,-0.0088846689,0.0027317490,-0.0373958345,0.0476707370,-0.3244086090,-0.0205908276,0.3552425921
0.0396466219,0.2212252398,0.1666651760,0.0736953701,-0.1440038490,0.0599187960,-0.0451969767,-0.1498370956,-0.0406009490,-0.2711811856,0.0510081066,-0.1675491325,0.0428483657,-0.0482903480,-0.0715016982,0.1672542521,-0.1674175518,0.2070257933,0.0217765495,-0.0432602892,-0.3012951167,-0.0521860767,-0.3141781518,0.3188008081,0.2570960834,0.0119662828,-0.0888330581,0.0407241928,-0.0431432992,-0.1364990881,-0.1476030415,0.0564375897,0.0673582139,0.1302249694,0.0761420533,0.0992869864,0.1254403167,0.1576883523,-0.1428696697,0.2936082746,0.1829052471,0.0426299581,-0.0503118302,-0.2035117105,0.0277867192,0.1242072431,0.0886561307,0.1054540800,0.0652945313,0.0369578438,0.0594979625,0.0610578929,0.2777482007,-0.1594491847,0.1056894911,-0.0431332222,-0.0293291147,-0.0155020201,-0.0511630330,-0.1439894174,-0.0135130829,0.0252651747,0.0837712322,0.1057632399
0.2295216866,-0.0914252459,0.1519740674,0.1923372776,0.0350876202,-0.0197529001,0.0164503148,-0.0722768987,-0.0025089100,0.0559305192,-0.0542895672,-0.0014423301,-0.0708783933,0.0567238364,-0.3738072546,0.0809792108,0.0426669410,0.0527597148,0.1578902277,-0.2462722820,0.2574632260,-0.0628375071,0.1071531545,0.0291681945,0.1755201298,-0.1091107300,-0.0518096406,0.0989072103,0.0302584756,0.1901270267,-0.1902083102,0.1997695874,-0.1104665468,0.0185707311,-0.0138016531,-0.0101108458,0.1591136721,0.0106378637,-0.0580542977,0.2049625331,0.2539316408,0.0418341822,-0.2533473898,-0.0270900203,0.1149035917,0.0027834412,-0.1476736980,-0.1139607402,0.1590966181,-0.0568422198,0.1443196117,0.0750283273,-0.1352168661,0.0528786126,0.0126061764,0.0752053548,0.1062997480,-0.1392192693,0.0435875603,-0.1319943151,0.0332436481,-0.1457359498,-0.0004846406,-0.1961853837
-0.0301480953,0.0219592184,-0.1354430317,-0.0330941324,0.0566579322,-0.0232433031,-0.0397147340,-0.0861236097,0.1750725380,0.2919676053,0.2020211797,-0.1072524973,0.0291590749,0.0490645727,0.0058793903,-0.2019790245,-0.0145721201,-0.1424749959,0.0595264095,0.2844155311,0.2301853474,-0.1279981818,-0.1572342360,0.2409178175,-0.0339038445,0.0115104721,0.0768246839,0.0164750900,0.1587502315,-0.1619002083,-0.1330920494,-0.0241117033,0.1069184452,-0.0112287938,-0.0449003735,0.0221587274,0.0739546624,0.0133191290,-0.2652138288,0.1728265358,0.1859601523,-0.0959490510,-0.0901411744,0.1584326533,0.1772776818,0.3787470429,0.0533887843,-0.2684239991,0.0418023334,0.4779325768,0.0364616678,0.0206277704,0.2571081525,0.2203227624,-0.1274875437,-0.1554448332,0.0815155257,0.1018596829,0.1149049906,-0.1870610653,-0.0766013408,0.0084640896,-0.0255519707,0.2921105615
0.0820488916,-0.2276830545,-0.1230937242,-0.0568858159,-0.2654799419,-0.1257777319,0.0933016077,0.1815474546,-0.1764633815,0.1541069533,0.2670606530,0.2142793256,-0.1444474414,0.0660283954,0.1885662677,-0.0425850988,-0.0423391324,0.1595690160,-0.0276638181,0.0140174038,0.0954767659,-0.0899162049,-0.0301286466,0.3340586528,-0.1320542975,0.1393725580,0.1140983587,0.3281821218,0.3925506085,0.0888189637,-0.1780826125,-0.0791712333,0.1810795791,-0.2098207792,0.1279894050,0.0154928820,0.0637929926,-0.0915253658,-0.2534894543,0.1116270223,0.2227310556,0.1137395524,-0.0483908738,-0.2013742095,-0.0166337604,-0.1046051942,-0.1276787230,-0.0631836203,0.1743993768,0.0998626030,0.2115633972,-0.0451441750,0.1674396213,0.0788681053,0.0413231720,-0.2045883567,0.1268053568,-0.0127228192,0.0326623227,0.1367685653,0.0247986888,-0.0217682591,-0.0646021505,0.0659648961
0.0307942704,-0.1971258215,-0.0732364255,0.1093320486,0.0352271518,-0.2798367132,0.0996290940,-0.0575511159,0.0536843478,-0.1278116034,-0.0845230545,-0.0239669436,0.1965896495,-0.0300098565,0.0089834929,-0.1355854382,0.1444636199,-0.0249621335,-0.2477776971,0.1050013685,-0.0380701299,0.2311151990,-0.2722742097,-0.0396696801,0.1579293924,0.1000248316,0.0519269607,-0.0525784640,0.0026939415,0.0636136336,0.2062423815,0.0105133073,0.1597528082,0.1733825775,-0.0600296174,-0.1148688810,-0.0532256126,0.0003815416,-0.0688707307,-0.1273981032,0.0587754739,0.0295708798,-0.1276987951,0.2932796996,-0.0465925355,0.3699224962,0.1922302840,-0.0961776854,0.0104757585,-0.0793393784,0.1035701369,-0.0689373289,-0.0047357983,-0.2190129207,-0.0721365121,0.0294950340,-0.1331801570,0.0452194562,-0.1959538543,-0.4500696002,0.0119607836,0.0623212658,-0.1240388212,-0.0440628800
-0.0432854650,0.0061208920,0.1305218701,0.0863533622,-0.0880924864,0.0178574884,0.1083136447,-0.0788470589,0.0274061607,0.0371282328,0.1533280024,0.0740049507,0.0786561136,0.2356358926,-0.0175334663,0.1307579198,-0.0722762255,0.3137378426,-0.0872427831,0.0996442242,0.0897333040,-0.2426045731,-0.1312421874,0.2009542608,0.0055030734,0.0712276564,-0.0257321767,0.0089461559,-0.0175549467,-0.0297099400,0.2524323253,-0.0263500887,-0.0210982272,0.0595213960,0.1915570494,-0.1388766594,-0.0744009723,-0.2025926773,0.0210920025,0.0717998598,-0.0192147966,-0.0190909631,0.1290334085,0.0387868787,-0.1668320518,-0.0769357755,0.0575328510,-0.1530663646,-0.0540578853,0.3379461534,0.1388508586,-0.0091094757,0.0933500677,-0.0813593685,-0.0019259381,-0.0211857147,-0.0602526590,-0.0174358605,-0.1324031679,-0.1383295306,0.0300131381,-0.1406393947,-0.1533409122,0.1915636431
-0.0527656900,0.3553625141,-0.0907690104,0.1688789093,0.1225253120,-0.2245857265,-0.0449229523,0.1746985913,0.0950334869,-0.0044330054,0.0971944332,-0.1122563819,-0.0853382989,0.1704438886,0.2573926360,-0.1957618526,-0.0025981920,0.0484234106,0.1443811511,0.1264602448,-0.0796905574,-0.1102681722,-0.1680706323,-0.0589277572,0.2242713274,0.1515498588,-0.0793278813,-0.1453955654,0.3900588852,-0.0675163347,-0.2447169087,0.0333594777,0.0430063701,0.0513034963,-0.0166561661,-0.0718893926,-0.1234023571,0.0088594541,0.0811665297,-0.1428330159,0.1593857013,0.2317368333,0.0272397842,0.0427276420,0.1013031722,-0.0418140829,0.0321966111,0.1050788942,0.1901438818,0.1666061649,-0.0926514996,0.0207299814,0.0991426818,0.0216590911,-0.0760555757,-0.0112936196,0.0355817004,0.0859703969,0.0888596103,0.0167158914,0.2157941295,-0.1522000320,0.1236461886,-0.0776716351
0.1497073852,0.0790769684,-0.1390102014,-0.0879393883,-0.2508747957,-0.0217753841,-0.1573746895,0.1608500483,0.1620577690,0.1587895539,0.0072850112,0.1212608998,0.0231561253,0.0119850031,0.1421206336,0.0250929968,-0.0214403600,0.1455847225,-0.1460911124,-0.1698876295,0.2937611798,0.1211629014,-0.2544168558,-0.0222958163,0.1038339315,-0.0306910812,-0.0096605909,-0.1761429901,0.1180764989,0.2105168831,0.2795150299,0.2400059982,0.1078022137,-0.0207153597,-0.1021470721,0.0047514146,-0.1316612875,0.0892412110,0.1556422507,-0.0075423296,0.1363359827,0.1732887413,0.1737108293,-0.2020870958,-0.0516632523,0.1254119690,-0.2322983355,-0.0255754959,0.0776811180,-0.1712225543,-0.0538517027,0.1055258001,0.0799606511,-0.0189307466,-0.2625549550,-0.0634036833,-0.0315171055,0.2606182932,0.1287815296,-0.2950940944,-0.1456149957,-0.1622583468,0.0762778116,-0.0285075216
-0.2223314365,-0.1611165584,-0.1211397487,0.1178466418,0.1015835354,-0.0140023109,-0.0532805151,0.2149138348,-0.3286041294,0.0447517256,-0.0296727831,0.0686563071,0.1913457237,0.1169552186,0.4196076512,0.0653616426,-0.0670884325,0.1086727735,-0.1294525321,0.0629489392,-0.1112173474,0.0062798755,0.3983642852,0.3019617920,-0.0669766168,-0.1584940809,-0.2794616414,0.2124777999,0.2538300658,-0.2135095129,0.0886213205,-0.0836591687,0.0767467571,-0.0310437424,-0.1345762010,-0.1157699392,0.0234693279,0.2110924256,0.0415945782,-0.1846172169,0.0393149961,0.1734399350,0.2754096483,0.1178321994,-0.1731834016,0.1981775547,-0.0601659342,-0.1673175770,0.1963006609,0.0597972325,0.1065994499,0.2785129159,-0.0067590203,-0.1742965007,0.0926972097,0.0233852081,0.1638512675,-0.0399686647,-0.0299220881,0.0506667208,-0.0534051086,0.0181956019,-0.0085655258,-0.2206603967
-0.0622792862,0.0869880646,-0.1429654448,-0.1699465889,0.1524860677,-0.0880475298,-0.0696322740,-0.1247208982,-0.0146588391,0.0190241562,0.1788025422,0.0019448568,-0.1183247810,0.0058703467,-0.0836324624,0.0258897470,-0.1208519045,0.0948951499,0.1184725327,-0.0455008922,0.1633587891,0.0877838172,0.1464778905,-0.0809234539,0.1142772281,0.0868006124,0.0543309303,0.0551757709,-0.1236743720,0.0619642037,-0.1936453832,-0.0750473685,0.0491279224,-0.0832265570,0.1408161458,-0.1141858073,0.1481643830,-0.0276200596,-0.2626365222,0.1279605637,0.0730144282,-0.0381023499,0.1456244514,-0.1707104681,-0.1077100085,-0.1555492917,0.0332363390,0.1763328484,0.0132735034,-0.0381004185,-0.1745164673,-0.0218142691,-0.0121004200,-0.1175948679,-0.0078246281,-0.1456047742,0.1024087652,-0.0285866697,0.0531130886,0.0829505594,-0.3007876235,0.0401889516,-0.0014747775,-0.0270703684
-0.0496500267,0.1154179313,0.0075944527,-0.1613859286,0.0193634593,-0.0318774856,-0.0802903884,0.0110655355,0.1184757205,-0.0998479363,-0.1179004609,0.1223392071,-0.0983455332,-0.1442552862,0.0003609272,-0.0766099649,0.1450987388,-0.2978709470,0.1144247219,-0.1269062542,0.0560819910,-0.0996428826,0.2029468187,0.0900014271,-0.1355962201,-0.0450614054,0.0911336069,-0.0877505770,-0.0270014534,-0.3220936421,-0.3087784093,-0.2055379447,-0.0646566872,0.0663459489,-0.0686346038,0.0737380961,0.1102875533,-0.0631060352,0.1913023886,-0.0582378716,0.0431679354,0.2122462638,0.1051620516,0.1403709691,0.0141941155,0.0238255418,-0.2421666494,-0.0483585357,-0.1114199904,-0.1128136802,0.1962070953,0.0127833952,-0.2955557925,0.0470834620,-0.0330352015,0.1291083507,-0.0936148093,-0.0284778869,0.0077633074,0.0339478535,0.1138823701,-0.1976326877,-0.0258111056,-0.2956165005
-0.1596752646,0.2158905458,-0.0631273693,-0.0962819510,0.0025758744,0.4776998961,-0.1292873142,0.0525084629,-0.0730012970,-0.1895995466,0.0129540753,0.0545039452,-0.0654031902,0.0983440702,-0.0673710817,-0.1136574287,-0.4999527533,0.0846188909,-0.1782112425,0.0237866506,-0.0125869727,-0.0453938055,0.0974003225,0.2514633172,0.0995059726,-0.1031713093,-0.2593819106,0.0317041609,0.0988317844,-0.0493135256,0.0030372760,-0.0114514043,0.1148305645,0.3135963793,0.2798828916,-0.0506745360,-0.0314074358,-0.0427530678,-0.0173905033,-0.0494315363,0.2033907972,-0.0226686316,0.0877026977,0.0470960871,-0.0712226894,0.1446304518,0.0624903492,-0.0375045804,-0.2061667522,0.3091726782,0.1467757027,0.2832877032,0.0983556975,-0.0889912678,-0.0731336169,0.1814844437,-0.1553097341,0.0643404680,0.1545388925,-0.0810725753,0.0345787271,-0.1129700131,-0.0079027222,-0.1584551608
0.0827847747,0.1131588326,-0.0693583841,-0.0313831567,0.0550695812,-0.0409601794,-0.1576517080,-0.1687877201,-0.0660899813,-0.0585621280,-0.0465293332,-0.0608018779,0.1000005902,-0.1546661986,-0.1080801381,-0.0089096436,-0.0155614026,0.1775185498,-0.0630927380,-0.0922948769,0.1851341168,0.0774002894,0.0153832161,0.0773906427,-0.0743440572,-0.1261587580,0.1793786332,-0.0097680164,0.0610630480,0.0452414984,0.0947297188,0.0938228227,-0.0462821270,-0.0498229724,0.1659191575,0.0386348475,0.1386267687,0.1017001246,0.0309506308,0.3072358358,-0.0384608126,-0.1058501599,-0.0697252029,-0.1220179490,0.2088204540,0.1209424663,0.3401040304,-0.0706135901,0.0548426672,-0.0678708207,0.2423914490,-0.1060247821,0.1084842064,-0.0087699494,0.0374284402,0.1247771714,-0.0302885054,0.0716708362,-0.0057903278,0.0203470764,0.2138196469,-0.0198398417,-0.0861552333,0.2923804044
0.1574618923,0.0143212219,0.0868174031,-0.1400255061,0.2156741394,-0.1554675263,0.1362543205,0.1184191851,0.1160825245,0.2204835127,0.1961329003,-0.0922860764,-0.0508369576,0.2445545042,-0.0216848245,0.1224257003,0.3454635155,-0.0710775003,0.0821668262,-0.2616666032,0.0613988549,-0.0692147489,-0.0493098063,0.2378049454,-0.0308475036,0.2601963511,0.1053642367,0.2747256075,-0.0502373823,0.0278826315,-0.2490065879,-0.0925901867,0.0658143113,-0.3253675941,-0.0924787037,-0.1862382070,0.1614428186,0.1252124373,-0.0506389870,-0.0683348850,-0.2120371489,-0.0739073324,0.2568852961,-0.1353693299,0.1760443416,-0.1433663577,-0.1746081062,0.0020436186,0.1155063927,0.1183989279,0.0499210249,0.3143869361,0.0392942616,0.0631163462,-0.1232656568,0.2017991810,0.1743499855,-0.0062537313,0.2775908273,-0.1115866562,-0.0709453293,0.0565452192,0.1624543920,0.3239605971
-0.0595318920,0.1609484156,-0.0475799016,-0.0926241883,0.0708869233,-0.0838757536,-0.1071380967,-0.1494661885,-0.2154127969,-0.2884753138,-0.0298084785,-0.0538422470,0.4033887454,-0.1799157333,0.3465093862,0.1878196637,-0.0936967870,0.0766134376,-0.0345251049,-0.1333501953,-0.0731090980,-0.2156065791,-0.0217060929,-0.0755712062,0.0319494902,0.0754872564,-0.1303275100,0.1623010919,-0.0344364725,0.0663788607,0.2026352324,-0.1824121209,0.0084077709,0.0249458395,0.5318103044,0.0746716969,0.2008895370,-0.0846663106,0.2637601119,0.1323463841,0.0737550957,-0.2637875510,-0.0904131024,-0.3018062395,-0.2181968783,0.0496247322,-0.2327418971,0.0051541584,0.0174532967,0.1532543446,-0.1115117603,0.1590183758,0.0688606938,-0.2737001420,-0.1224518395,0.0261187731,-0.0276589045,-0.0330155456,0.0719203685,-0.1317053101,0.3449797736,-0.0831975875,-0.0329133531,-0.2503174973
0.2229508181,-0.0417463892,0.0826742189,-0.0116303495,-0.1831610298,0.1284387812,-0.0387377040,0.1229769639,0.0952677668,0.2637795814,-0.0430205946,0.2774270142,0.1161462440,-0.0199178240,-0.0882352643,-0.1212165793,-0.0658316220,-0.1830956975,-0.0977576339,0.0851701459,0.0739080185,-0.1102364924,-0.0758951065,-0.0864772955,-0.0165886838,0.2550779995,0.1409137946,0.1506802700,-0.0311892799,0.1617285998,-0.0482354892,-0.0305091056,-0.0742595192,0.1501775873,0.1379548052,-0.1706278606,0.1694683617,-0.1090021833,0.2904431865,-0.1456643034,-0.0200737731,0.1149570810,-0.0371540298,-0.1049020141,0.2557288429,-0.0813466160,0.0642388159,0.0464852901,-0.0746196361,-0.1273208604,-0.0359194854,-0.1932256456,-0.1775482397,0.1452473809,0.0297991624,-0.1376943780,-0.0933901856,-0.2442815792,0.0347877146,0.4294993467,-0.0433106472,0.0245079122,0.0902732795,0.1572675697
0.0441635620,-0.1258660071,0.0108588293,0.1065706469,-0.0185486979,-0.0873619552,-0.0608449428,-0.0966631984,0.0657220867,-0.1139196321,-0.0455142837,0.1446254089,-0.0504372155,-0.2959719549,0.0410417167,-0.0061428659,-0.1561670103,-0.0681596903,0.2094214352,-0.0361910272,0.3365985789,-0.3648806895,-0.2362628422,-0.0068908128,0.1059202903,-0.1723833103,-0.0457400387,0.1451979119,0.0203572017,0.0130964205,0.1232903630,-0.2121604656,-0.0072511175,0.0957429077,0.1291365212,0.3839021376,0.1431479177,0.0606980616,-0.3707066204,-0.0634927530,0.0852796705,-0.2614223399,-0.1371181580,0.1452378580,0.0541583492,-0.0256091551,0.0148155327,0.0730797575,0.0735237885,-0.1588355281,-0.0312703008,-0.0070000621,-0.0334879054,-0.0985823432,0.2221609357,0.1968334704,-0.2898945328,-0.0830072593,0.0330703612,-0.0542514060,0.0417963227,-0.0865131091,0.0832201307,0.0579532894
0.1305788241,0.2088621243,-0.1415899911,0.0835428928,0.2442926506,0.0348844103,-0.0051529660,-0.2125804419,-0.1333636709,0.1291694053,0.3887178100,0.0859766598,-0.0230897683,0.0694220328,-0.1430006475,-0.0562350231,0.0100246732,0.2716203089,0.1493957953,-0.1072277141,0.3066853304,0.0222207136,-0.1256677808,0.1256718070,0.1653579538,-0.0876007324,0.1328418934,-0.3379091471,-0.0683497735,0.1412022113,0.2535750682,-0.0019485001,0.1096293868,-0.0964022945,0.1209514731,0.0797802498,0.1457013898,0.2949977230,0.1889205310,0.1486665088,-0.1113535742,0.0586148391,0.0573703947,0.1131302049,-0.1576898464,0.0082454271,0.0656946528,-0.1455115936,-0.1015944509,-0.0479386989,0.1716039246,0.0733293393,0.1007484208,0.0348807034,-0.0013062028,-0.1149858002,0.0488713924,0.0554751878,-0.2967955885,-0.2471168946,-0.0606660401,0.0218026413,-0.1938977886,-0.1087972885
-0.1237634206,0.3305459747,0.0542900086,-0.0212558821,0.1464269941,0.0829066410,0.0814100520,0.0160224777,-0.0864605091,-0.0832282987,-0.0078614774,0.3378250837,-0.0112091643,0.0564584726,0.0136957031,0.1189114814,0.2269845134,0.0362675071,0.0797709150,-0.3481006657,0.0136974465,0.1232664496,0.3096274863,0.1124775831,0.1279184165,-0.0667803141,-0.0823653422,-0.1846023464,0.2792889310,0.0419818047,0.1166770081,0.0681338631,-0.2733419052,0.3237330899,-0.1110659874,-0.0989963578,-0.0591282469,-0.0566252092,0.0118324965,-0.0805991522,0.1518112454,-0.1196534994,0.0148292892,-0.0917654889,-0.0251827605,-0.3453988596,-0.4121616547,-0.2270263471,-0.1018967650,-0.0389807786,-0.0915630905,-0.0607163291,-0.0012541691,0.0887026354,-0.1394210481,-0.0006253252,-0.0048575722,0.1898321453,-0.0690476382,-0.0830402960,0.1893216947,-0.2449116413,-0.0577637262,-0.0181056387
-0.3486067751,0.0188635859,-0.0296497542,0.2606778010,0.1265280405,-0.0411759624,-0.1586827074,0.1629466623,0.0050322118,0.1042587175,0.4139642379,-0.0762081598,-0.2855112272,-0.0417283180,0.1401327682,0.0375373980,0.0654380873,0.2708795849,0.1695501860,0.1575927903,0.0985377054,-0.1324017391,0.2614468358,0.3368044434,0.0677677757,0.1927042425,0.1870082160,0.0536372605,0.2680852634,-0.2015470824,-0.0301875995,0.1092108294,0.0843636976,-0.1858451058,-0.0552979010,0.0228196569,0.0762727765,0.0083131894,0.0915846824,0.2024946745,-0.3043317072,0.2280519347,0.0619647388,-0.0166834426,-0.1323684375,0.2094612604,-0.2469346974,-0.1540804836,0.2294598905,0.0656033240,-0.1633519911,0.2545032116,0.0623203595,0.0966678827,-0.0397773129,0.1684149685,0.1694519502,-0.0864931593,0.2825252441,0.0692089563,0.1748448506,0.0662329905,-0.1540036211,-0.1253686978
