-0.0747813212,0.0655078361,-0.0305696895,-0.2515371408,-0.0371054359,0.2194833536,0.2606518127,0.3455884606,-0.1424574812,0.0930965240,0.2259562362,0.0482387883,-0.0113021982,0.0414229290,-0.3312718404,0.1178852232,0.0170724918,0.0074448116,0.0618510844,-0.0747807928,0.1415349994,-0.0353177224,-0.1224628010,0.1977622484,-0.1632666194,0.0037603990,-0.0649960739,-0.0488494668,0.1127712820,0.1053292259,0.2265377784,-0.0961262175,-0.0568718125,-0.0890732880,-0.2493602290,0.0874082815,0.0178726899,0.0443516352,-0.0372243404,0.2622335573,-0.0966261494,-0.2138616432,0.2197618825,0.4749794057,0.1591172279,0.0192140828,0.2452576618,-0.0412721560,-0.0822471265,-0.0640314380,0.1342953697,-0.0292637471,0.3497534398,0.2480263705,0.0031478881,0.1101926844,0.1072100296,-0.1679783117,0.0978517647,-0.1319484772,-0.2049795220,-0.1265917158,0.0345560333,0.0221454947
-0.0166059060,0.1481423114,0.3106992975,-0.1006007355,0.1691069888,0.0413908428,0.2996939919,-0.1046659661,-0.0546806879,0.2823117734,-0.1094262566,0.1604149298,-0.0656184519,0.1808398565,0.0758967149,-0.0187860861,0.1745556121,0.1035980998,-0.0443893199,0.0631391247,-0.1917226708,0.0209499252,0.0449065673,-0.0124464961,-0.1071369793,0.1788664981,-0.2299355443,-0.1939529161,-0.0549080844,-0.1902082762,-0.1012758757,-0.0315997106,-0.1034982643,-0.2439687468,0.0989822809,0.0937887819,-0.1718207949,-0.1142031570,-0.2530745156,0.3109347258,0.0329884773,0.0944882242,-0.0389586531,0.1779884116,0.0223537669,-0.3830969219,-0.1578134156,-0.0575787879,-0.0703281854,0.0219389985,-0.2278697051,-0.0596639929,0.3756236810,-0.0453409767,0.1213746685,0.0129161371,0.0430692918,0.0684092322,0.0662368911,0.0359401937,-0.0139157958,-0.0640811719,-0.2589833605,-0.0189926317
0.1120146119,0.2280152111,-0.0458173551,-0.1033598395,-0.0390682436,0.1313522869,0.0522585153,0.0580813656,0.1438794090,0.0189849828,0.0852105618,-0.1303480668,0.0208795419,0.1566987398,-0.0691511014,0.1056452018,0.0002459129,0.0533403534,0.0942285581,0.1769226294,-0.3840279330,-0.0737817126,0.1963606942,0.1195189335,0.2424104448,0.0893870079,-0.0017296166,0.2080238647,0.1308228505,-0.2310826751,-0.0917916297,0.1080135482,-0.1193756255,-0.0732227671,0.0443609550,-0.0735767657,-0.1061161827,0.0256614231,0.0045458837,-0.1034344679,-0.0658417015,0.1213203962,-0.0521296589,-0.0877342980,0.0152468512,0.1753241726,0.2153257498,0.0198634249,0.2415945753,0.0844220761,-0.2039859360,-0.0381024490,0.1203466221,0.1400877603,0.0147385962,0.2586274855,0.3058599696,0.1613922207,-0.1119823539,0.0138168865,0.0452927507,-0.0432642645,0.1296591187,0.0137494864
-0.1096837247,0.1570958225,0.1221506683,-0.1230209595,-0.2437289976,-0.0482691531,-0.1089631604,0.0791625510,0.3180823484,0.0040148236,0.0034469401,0.1919220005,0.2314542507,-0.1738538062,0.1660153979,0.0291488318,0.0240851354,0.2766178111,0.0787486216,0.0245253637,0.1210886148,-0.0356117509,0.1148624541,0.2734065758,0.1824056936,0.1817921077,0.1732943789,0.1517275595,0.0781136443,-0.0330101153,-0.0589442698,0.0039697490,0.0529987739,-0.0646270018,-0.0799323928,0.0724853840,0.0278384617,0.1039958063,-0.3390063665,0.1244139685,-0.0360777051,-0.1412593012,0.0348308911,0.1813713739,-0.1000103090,-0.2480242726,0.0069151162,-0.0648845745,-0.0678295341,0.3899689131,0.1446753775,-0.1017460187,-0.0086256743,-0.1574709643,-0.0773460184,-0.1666948717,-0.2964809235,0.0170763061,-0.1025206169,-0.1774233477,-0.2164107979,0.2342009587,0.0431414131,0.0616547820
0.0956505982,0.0548298191,-0.1992476202,0.0784005988,0.0590544901,-0.0688046863,0.2451077846,-0.1359958395,-0.2119740418,0.1304412202,-0.0658401322,0.0613085713,-0.1028190559,0.1737871353,-0.2472011166,-0.3266169758,-0.2026695472,-0.2501424237,-0.0071903363,-0.0948160671,-0.1420483273,0.0011563569,0.2022981993,0.1086499984,-0.0709900552,0.1694515668,0.1365872959,0.0626022216,0.1292783670,-0.1639052154,0.1831088642,0.3293307780,0.0221070310,0.1609901783,0.0730598766,0.0672954878,-0.1342727157,-0.0931280437,-0.0262134416,0.2055030171,-0.0669185701,0.0910254500,0.0295968216,-0.1836002533,-0.0889249646,-0.0650141454,0.1122879440,0.2173146806,0.1207316678,-0.0128602011,0.0506078796,-0.0342252325,0.0874401714,0.1111024102,-0.0369255720,-0.0323048165,0.1679503864,0.0049317790,0.2997340867,-0.1397467463,0.1059807715,0.0011456246,0.1530516494,-0.2166792762
-0.0422092502,-0.3234184896,-0.0302349468,-0.0985392498,-0.0189474799,0.0810366874,-0.0194083338,0.0064253880,0.2443857564,0.0925653510,0.1107652762,-0.0763310079,0.0862706022,-0.0326099069,-0.0186985729,-0.0078152615,0.0999944678,-0.0627477386,0.1577601390,0.1252174885,0.1497422702,-0.0266939125,0.0733707884,0.0799274709,-0.2070701148,0.0378778106,-0.0309549330,0.2050998936,-0.2507004564,0.0642168636,0.1060677648,0.2147032075,-0.0872215339,-0.0302490655,-0.0312873822,0.2187246348,0.1345503447,-0.2130851251,0.0079725880,-0.0393315095,0.2002786113,0.0476176854,0.0270257741,0.0032072375,0.1598041764,0.2171458638,-0.0520478003,0.2800365523,0.0166711528,0.2693204447,0.0492131122,-0.0094579661,0.2398285255,0.1201664112,0.1106838048,-0.0756107602,0.2422557529,-0.0478302260,-0.1623269964,0.0188478881,-0.0107732023,-0.0326183975,0.0255714295,0.1263168577
-0.1687707859,-0.3670377900,-0.2796492103,0.0334022968,-0.0601702238,-0.0694421718,-0.2017596776,0.1168213017,0.1896835354,-0.1572535939,-0.0313761391,-0.2429390912,-0.0229891499,0.0652091758,0.1496316326,0.0924411165,0.1494006185,-0.1037667265,-0.0130418177,0.3113496872,0.1368891573,0.2358227552,-0.1326999818,-0.1179160755,-0.1036100754,-0.0639291100,0.0460801255,-0.1474331734,0.0249409255,0.0904052365,-0.1021545367,-0.3049793026,-0.1313337756,0.0306102907,-0.0195345671,0.0878430684,0.0151814990,-0.0110590464,0.1151071247,-0.3364794273,0.4494848837,-0.3366180139,0.1314164102,0.0332814856,0.1616811316,-0.0441466228,0.3645895917,0.2326590720,0.1649288975,-0.0675801966,0.2218337398,-0.1450875127,-0.0929110181,-0.1756551345,-0.0184625939,0.0255816566,0.0123549922,-0.0100933007,-0.0965566906,0.2796760958,-0.1579276544,0.1069875617,-0.0937136575,-0.1692944944
-0.1229044213,0.0508193952,-0.0567145837,-0.0639203361,0.2810802723,0.1834030424,-0.0462660842,0.1503922099,-0.1786199303,-0.0676063929,-0.0568826157,0.1847118328,0.1896816518,0.1474434454,0.0168772078,0.0289573320,-0.1116053408,-0.1241213426,-0.0245000347,-0.3454944427,0.1855112715,0.0319993190,0.2271467385,-0.2677739508,0.1802876062,0.2251653328,0.0177560472,-0.0559411653,-0.0166433838,0.0676283457,-0.1913103156,-0.0184244750,0.1253263727,0.1820092601,-0.0463253792,-0.1038147978,0.0269522826,-0.1332998800,0.0010571292,-0.1276512026,-0.0517444474,0.0321034992,0.2743579264,0.0452707300,-0.1521494469,0.0338811528,0.0651402805,0.0701052095,-0.0654387524,0.0336775103,-0.0466839761,0.0015778870,0.2588180396,0.0312959111,0.0196643444,-0.0850340489,0.0215427754,-0.1320294514,-0.0957965335,-0.0174808373,-0.0006741046,-0.1194502060,0.1610168586,0.0054201136
0.0155001199,-0.0640869332,-0.0245131042,0.1637430884,0.0814402983,0.2161408134,0.0609394842,0.2063407209,-0.1247850070,0.0034026867,-0.0553967761,-0.0064702452,-0.0572422431,-0.1589156764,0.0601069550,-0.0361906046,0.0107952873,-0.0404457632,0.0557956103,-0.2121574395,0.0024281124,-0.1448390652,-0.1995998256,0.0777030078,0.0099029522,-0.0146122875,0.1213693301,0.0820243924,-0.1400585027,0.0189906444,-0.0343383854,0.0279370921,0.2274326538,-0.0197585327,0.2267165772,-0.1511344382,0.0021424382,0.2046039507,0.0971618990,0.2185168565,0.1390880430,-0.1704442400,-0.1450532256,0.0220432316,-0.0363214032,-0.0977706279,0.0986924802,-0.1428542525,-0.1050963406,0.1069649624,0.0558909064,-0.0636845290,0.2176992063,0.0541626010,-0.0191555425,-0.3050315816,-0.0872377313,-0.2225251647,0.2134791491,0.2391918142,-0.1150899824,-0.0494707976,-0.1755807130,0.0516271296
0.1951278485,-0.0651018306,-0.0753267350,-0.1318867725,-0.3380896909,0.0263633943,-0.1779316693,0.2542036456,0.0941310721,0.0371289188,0.1138058920,-0.1809376622,0.2313954960,0.0355434284,-0.1488425688,-0.0284731886,-0.1309944317,0.0820636661,0.1164481726,0.0350286851,0.0816925537,0.0514678536,0.1423756364,-0.1175366993,-0.0430436012,0.1796779873,0.0127154721,-0.0421051206,-0.0489061274,-0.0895910789,0.1464529929,0.1435776695,0.2968533660,0.2241529281,-0.3729709247,-0.2219489928,0.0724862159,-0.2463913919,-0.0020413910,0.0643314843,0.1081898882,0.0768933726,0.1359921043,0.0296511356,0.2887024459,-0.1215193288,0.0629831988,-0.0839332937,0.1718635369,-0.1750319655,0.1042700993,0.0270453355,-0.0952460106,-0.0710008772,-0.0182909745,0.0853930060,0.1407187370,0.0455004405,0.3198159387,-0.1598153945,-0.0449959605,-0.1358743673,0.0983023674,-0.0484516499
-0.0350927731,-0.0005957245,-0.0041436187,-0.0973445055,0.1062471453,0.1222668123,-0.0361634719,-0.1130834967,-0.1525348874,0.1985459511,-0.2628217917,-0.1445563389,-0.0889368271,0.1644968486,0.0011732854,0.0283795462,0.0565285730,-0.1087711659,-0.0101138744,0.1799380128,0.0484146159,0.0537698433,0.1245398979,-0.0308575925,-0.2244304214,-0.0816965208,0.1634990751,-0.1071178252,-0.2226138387,-0.0051591976,-0.0927878097,-0.1198232624,-0.2036486706,0.1326491487,-0.1384969580,-0.2912740117,0.0937478421,0.0312622793,0.0363046911,-0.0575250490,-0.0373259984,-0.1545436871,0.2192115913,0.1133369698,-0.3452424532,-0.0336033471,-0.1162052325,-0.0292664724,0.1246822190,-0.1062830674,-0.0234462530,-0.0712574399,0.0791293671,-0.2428264813,0.0405448133,-0.0835820692,0.0618402346,0.0101746906,0.0255282002,-0.0788323009,0.0881317712,0.0920493104,-0.0121809918,0.1987120291
0.0396371928,0.0973885048,-0.1566551032,0.0606722285,0.0413909633,-0.1313920133,-0.1261347699,-0.0173861223,-0.0457426489,-0.0577482652,0.4205868804,-0.0391217913,-0.0236204206,-0.0979466798,0.2447291133,0.0925111388,0.1372903019,0.1935083673,0.1786156033,0.0540012484,0.1512944347,0.0370237614,0.1602157037,0.4899263900,-0.1029874121,-0.1588320555,-0.0642541740,0.0370867547,0.0020500743,0.1921992002,-0.1618019161,-0.0605991928,0.0872517836,0.1112419348,0.0829537191,0.0044353726,0.1184139773,0.0333705311,0.1300780183,0.1109281964,0.1524053428,0.3414463708,0.0635589513,-0.0428835852,-0.1312825299,0.0094523136,-0.2370739648,-0.2619109958,0.1149009603,0.0088633796,0.1117706240,0.0261581827,-0.1933512130,-0.1552877854,0.2129407011,-0.0847482827,0.1064752966,-0.1513748475,-0.0235399888,0.0898103383,-0.1253392344,0.0869757229,-0.2091632041,-0.0939599788
-0.1306930102,-0.1202707378,0.0041750228,0.1410695061,0.2104646152,0.0594950141,0.0687115306,-0.2177190615,-0.0941309535,-0.0054266245,0.0532603901,0.0960450095,-0.2026284863,0.0664951056,0.0812225769,-0.0695773608,-0.0725869113,0.3150844592,0.0576218366,-0.0407710651,0.0012501164,-0.1081359524,-0.2775175803,0.0517582757,0.1418133530,-0.0348355024,-0.1315481038,0.0577393067,0.0212438259,0.0097362269,0.1274151354,0.1666984468,-0.0438850468,0.1498510666,-0.1307124890,-0.1028235142,-0.1722169819,-0.1615506437,0.0534357651,0.1342922668,0.1066484502,0.0285458783,-0.1220536903,-0.0781578605,0.0329413278,-0.2338618598,0.1070605399,0.2223841156,-0.0668059898,-0.0552906237,0.0444853484,-0.2175306825,0.2148527897,0.1807965028,-0.0888384274,0.0276097322,0.1190917500,-0.0501273356,-0.0858449549,-0.0128587274,0.2280441348,-0.0600902801,-0.0987379089,-0.4581152988
0.0073423338,-0.0303201514,-0.0540661424,0.0854245439,0.0000138226,-0.0823851112,0.0851714984,-0.0160771057,0.2162602586,-0.1871074662,0.2694555916,0.1613643736,0.0679447774,0.0798239705,0.1028000211,0.2170771875,0.0654820965,0.1985276933,0.0660861024,0.1856219979,-0.0504242073,-0.0624656314,-0.0804992963,0.0582894673,0.1330697654,0.0191446236,0.0457494175,0.0937617403,-0.1680761165,0.0388884438,0.0009821723,0.2321632285,-0.2227849980,0.3637353352,0.0731196662,-0.0939151685,0.1196170701,-0.0480868155,0.0250855509,0.0043791288,0.0263142571,-0.0968304794,-0.0890178228,0.0379046635,0.0858819669,-0.0942677562,0.1065877948,-0.1070375668,-0.1461248331,0.0751775407,0.0373926614,0.0600341021,-0.1896643590,0.0765961511,0.1516216964,-0.0498706054,0.0065295598,-0.0463784151,-0.0275230013,0.1138663960,-0.1743021940,-0.0554462861,-0.0632879286,-0.0681538594
-0.0972845867,-0.0772178659,-0.1147976531,-0.0979953969,-0.0935700825,0.0376113746,0.1839337574,-0.0355876859,0.0398302751,0.2464296589,0.1016964127,0.1195663224,-0.1935115627,-0.2408654826,-0.2576787680,0.0587015470,0.0041247533,-0.1295934412,-0.0099436742,-0.1101503560,-0.0547006793,-0.0090047413,0.0543095767,-0.2293077767,-0.1346200699,-0.0708935949,-0.0376857054,0.0694245435,0.0362458927,0.0466943862,0.1523856337,0.1752620444,-0.3371893712,-0.0149261895,-0.0864357782,0.2427171091,-0.1312489338,0.1334209509,0.0000146390,-0.2606332409,0.1651035105,0.1481603887,-0.0829299429,-0.3080749966,0.2260267997,-0.0789154904,-0.0967824940,-0.0457958873,-0.1390157205,-0.0102270681,0.0124874893,0.1116117718,0.1998038376,-0.0052447708,-0.0811173294,0.0409143369,0.1487930387,-0.2198203925,-0.2857375937,-0.0114101624,0.0500969639,0.0396575147,0.1278669837,-0.0595293710
0.0849703069,-0.2829927058,-0.1389948839,0.1719868183,-0.0989786366,0.0550373721,-0.0340316281,-0.0550447307,0.1226892281,0.0945747687,0.0599315619,0.1749520281,0.0162234350,0.1400536377,0.1898128679,-0.0636390100,-0.0383120616,-0.0046177084,-0.0065125419,-0.1213531349,0.1748098547,0.1073557499,0.0153688893,0.1490902414,-0.0465822377,-0.0342680925,0.0339856351,-0.0260099295,0.1217254126,-0.1390793077,-0.0751839432,0.1191337455,0.0288232732,-0.0317228662,0.0120204844,0.0618124735,0.0487231935,0.1983943839,-0.0260376658,-0.1886198189,0.1725336216,-0.0639380022,0.2419009678,-0.1927387604,0.0562433033,-0.0291123193,-0.2664230329,0.2106138407,-0.0339278656,-0.0151120784,0.0507660577,-0.0674368446,-0.0359732625,-0.0135703751,0.0956537067,0.0745604285,-0.0288814500,-0.0249638675,-0.0821654667,0.0750030755,0.0120044173,0.1721115492,0.1344055809,0.0244093949
-0.2001569097,0.1365606918,0.0776291544,-0.1830769484,-0.1605442969,0.1645637115,-0.0146849438,0.0821439597,0.0593610305,-0.1555301921,0.1964686717,0.1022688400,0.1650674323,0.0080307206,0.1455474429,0.3806995757,-0.1329164471,-0.1332500985,-0.1956828828,-0.1603637108,-0.1737185981,-0.0455812172,-0.2406967346,-0.1270724314,-0.0662746334,-0.1392712323,-0.0550817731,0.1317598482,0.0159022619,-0.0618769263,-0.1017675239,0.0869222655,0.0496008333,0.0551713115,-0.0479534555,-0.1106436376,-0.3365324598,0.1733847124,0.1973438898,-0.1120454679,-0.2343886357,-0.0285303687,0.0895717281,-0.1787145383,-0.1976266229,0.0667716356,0.1068717668,0.1545240383,0.0465405288,0.0130016719,-0.0997009246,-0.1117859443,-0.0860618946,0.2706875090,0.0372538870,-0.0952825602,-0.0861427575,0.1342324550,-0.0055090625,-0.0110506366,-0.0843651548,0.1212403213,0.0967260838,-0.1435974639
-0.0963229633,-0.0526470881,-0.0342788576,0.0878139199,-0.1732154745,-0.1885886584,-0.2440966352,0.2315316901,0.0169307500,0.1769704047,-0.2880736283,-0.1374415904,0.3114166879,0.1600031131,-0.3297970631,0.1026723935,0.3732164273,0.0283843409,0.0694992031,0.0562656121,-0.1242039639,-0.0328808974,0.1713296399,-0.1828822541,0.2224904483,0.1182501390,0.1777597655,-0.0343945702,-0.0285347861,0.3380172519,0.1070713171,-0.1385907311,-0.0866060726,-0.1847091585,-0.1038101006,0.0567372786,0.1091680472,0.1336226754,-0.0349837995,-0.2587603236,-0.1890357215,-0.1906901735,0.1558149792,-0.0275761109,-0.0501596449,-0.1849187088,-0.0769254586,0.1777584453,0.2000205848,-0.0991803516,0.2016469933,0.1787288270,0.0166802010,0.1406904980,0.1511033478,-0.1271610425,0.0754164227,-0.0857357802,0.0319388479,-0.0939085437,-0.0377961274,-0.0997736557,0.0570788941,-0.0558408135
-0.0356472926,0.0442321684,0.0320613778,-0.0717630355,-0.0352375515,-0.0881732031,0.1678599166,-0.1700363452,0.1505419276,0.0206842876,0.2057699896,0.3081733058,0.1318970798,0.0105657233,0.0367571789,0.3549802493,0.1057561793,0.2031367511,0.0259468128,-0.0975278188,-0.1807825234,0.2085272215,-0.1215005898,0.1907533038,-0.0378829396,0.1847325438,-0.0244974219,0.1151801123,0.0201214256,-0.0923714814,-0.0473813266,-0.0418495949,-0.1295227134,-0.1725719665,-0.2079582482,-0.0936005067,0.0580330933,-0.2505222075,-0.0118460362,-0.0115970261,0.1022146732,-0.1397005421,0.1637170594,0.2123571931,0.0858025102,0.1609007254,0.1078011819,0.1011645259,-0.0466399214,-0.0771716080,-0.0088750934,0.2158742862,-0.1046240825,0.1578803533,-0.0366795376,-0.0473039618,-0.1735162600,0.1097846147,0.1557144631,-0.0898312673,0.3900366822,0.0297403784,-0.0483904933,0.1868577067
-0.0101811145,0.0928398633,0.1896431556,0.2986178600,0.2001379984,0.0875593869,0.0365262989,-0.2568159976,-0.1939756912,0.2237645868,0.0976182067,0.0175510287,-0.0371753788,0.2532829091,0.3838526814,0.1308127138,0.1288703299,0.0733554972,-0.0952055172,0.0388976050,0.2505735227,0.1744771780,0.0857919937,0.2297177035,-0.0367613683,-0.1264631868,-0.1194130287,-0.0383865828,-0.3061256630,0.1957513321,-0.2470771588,0.0915554999,0.1090825975,0.1232640593,-0.0204167659,0.0369207471,0.0217390913,-0.1441910508,0.0536784235,0.1470215939,0.1364882264,0.0750416990,0.0441837861,0.1757444185,0.0367540698,-0.2467548218,-0.2456883295,0.0287817264,-0.2145066423,0.2302479799,-0.0745763855,0.0799150955,0.1894449456,0.1838855217,0.3042547118,-0.2665544696,-0.0342756366,-0.0939531149,0.0579436869,-0.2725525147,0.1216489463,-0.1762722405,0.1416623902,0.1758791717
0.0137906520,-0.1503738513,-0.0666812830,-0.1658776504,0.6479348090,-0.0466566171,0.1276851042,0.0809096123,0.1924836397,-0.0523247727,0.0181219793,0.2591348085,0.0254610828,-0.2380265374,0.2248145153,-0.2102101710,-0.1746698775,-0.2309520104,0.1106966665,-0.0763856017,0.4675593563,0.0232629417,-0.2141330530,0.2871227746,0.0210370013,-0.2763952391,-0.1145138364,-0.0338406827,0.1179282849,-0.0483177508,0.2242000275,0.1057608977,-0.0801456859,-0.1212111056,-0.0073853016,0.3205938580,-0.0093263924,0.2707222760,0.1092436837,-0.0544366778,-0.0441300088,0.0652287379,0.2019122801,0.0374381912,-0.1295783270,0.1012294548,0.0647802174,-0.1727975654,-0.0471297800,-0.0696068133,-0.2208789037,0.0469522809,0.0419263678,-0.0132359901,0.0568765621,-0.0521830804,-0.0228006077,0.0738318999,0.1221289768,-0.0201524009,0.0499665812,0.1753481667,-0.0061556119,-0.2069375400
0.2354978640,0.0606915960,-0.1731597082,0.2115213793,-0.2051388568,0.0572832494,-0.3087379683,0.3200771425,-0.0065188047,0.0898067636,0.0898358879,-0.0846172138,0.1073599420,-0.0734905633,-0.3365488053,-0.0737687474,-0.0896233847,0.1706405421,-0.0762935102,0.1260823774,-0.1121151457,-0.2207558117,-0.0250086168,-0.0739591439,-0.1566891438,0.1801103629,-0.0381542328,0.1941933038,-0.0589098483,0.1572260348,-0.1066999829,0.2082547731,-0.0585875038,0.1373135880,-0.0225191420,-0.1743764718,-0.0095206269,-0.0541807202,-0.0841908801,0.1732749231,0.1504737770,-0.0797735264,-0.0557831255,-0.3799259754,0.0383679020,-0.1779392796,0.3016131402,-0.0683542129,0.0417892659,0.1148062473,0.1841480638,-0.1830086900,0.1782805600,-0.0566336467,-0.1496776847,-0.0520928927,-0.0293951063,-0.0912360992,0.0841631578,0.0161614584,-0.0005728966,0.0335312874,0.0855780276,-0.3394267778
-0.0797153010,-0.2187349705,0.0460878581,-0.1122120671,0.1831821736,0.1271470391,0.0370950327,-0.1716751618,-0.1173509519,-0.0604624816,0.0958495552,0.0237085896,-0.4789322198,-0.1211734064,0.1624550421,0.0065884931,-0.2053798609,-0.0633656431,-0.1282100584,-0.2187752556,0.0293670990,-0.1717875558,0.1479972294,-0.2058858964,0.1501344074,-0.1318748265,0.0576287843,-0.1364384943,-0.0501121597,-0.0479524744,-0.2261886792,0.3414168441,-0.1597469796,-0.0654094833,0.2462605785,0.0304256907,-0.0568396496,0.0482764041,0.0104336755,0.1488401229,0.0385392083,0.1762579242,0.0673665705,-0.4482535602,-0.0575333132,0.0394467750,0.1883606732,0.1830411595,-0.0026427389,0.3670223967,-0.1427146722,0.0017205939,0.0928897062,-0.0299125382,0.2796242905,-0.1472949707,0.0304647436,-0.0487692293,-0.0534221523,0.0440454249,-0.0000980754,-0.0711253937,0.1214378932,-0.2877267443
0.2582883032,0.1286332651,-0.0320083672,-0.0263905373,0.1082490711,0.0129382797,0.1234867068,0.1476490861,-0.2574611599,0.1515926405,-0.0661124148,0.0990488288,0.1038958457,-0.1561300854,0.0779704308,-0.1082259268,-0.0219992877,-0.0951158711,0.0892772121,-0.0349286157,0.0625080934,-0.2075876445,-0.0938141725,-0.0157610962,0.0334063974,-0.1721674918,-0.1094420333,0.0961235621,0.0928033971,0.0437534469,-0.0410039006,0.2034068028,-0.3518433500,-0.0185541856,0.3091147177,-0.1935443900,-0.2151750128,0.0958068679,0.1181174892,-0.0637050132,0.0604980452,0.2893573188,-0.0813973553,-0.1679752328,-0.0469844305,-0.0974740453,-0.0402376085,0.1924073371,-0.0980246928,0.0689549506,-0.1956714658,0.1415887631,-0.0260416732,0.0703936737,0.0572239743,-0.0334150209,-0.1118685628,-0.0443854554,-0.0858119477,0.0909653425,0.1268265612,-0.1385188365,0.1201821167,-0.0471410459
-0.3128032167,-0.1386698825,0.0556353871,0.0345305308,-0.0607247732,0.0980568485,-0.0906199502,-0.0658393368,-0.1739229209,0.0212900392,0.1543852355,0.1190471067,-0.0693442645,-0.0173127814,0.1463727342,-0.2959658058,0.0740148154,-0.0104879363,-0.1879207071,-0.0034422343,0.0963696975,0.0093029772,0.0031647738,-0.0898876798,0.2520643363,-0.0685096484,-0.3169062788,-0.1796131976,-0.1588217723,0.0211227004,0.0010358473,-0.0026290896,0.0329175217,0.2365376708,-0.1226478665,0.0743441202,-0.0404927410,0.0013544372,0.0530385664,-0.0253276613,0.3270517856,0.0843892731,-0.3051146242,0.1866802299,-0.2548028098,0.0749469777,0.2509268872,0.1852155864,0.0807961457,-0.1779996660,-0.2090208016,-0.0054081956,-0.0260427958,0.1750635121,-0.1958619473,0.0694785951,0.1856700022,0.1978741498,0.1430811663,-0.0776993864,-0.0227036183,0.0323520189,-0.0417082397,-0.0334280852
-0.1330213771,0.2417266052,0.1375901438,-0.0412643537,0.1631006081,-0.3063010726,-0.1732234997,0.0546695523,0.1466856439,0.0839949260,0.0069407326,0.0832651344,0.0819293725,0.0590868064,0.1540492385,-0.1149174246,0.1023948546,0.0849405653,-0.2283836627,-0.2995048148,-0.1189392027,-0.1017547599,-0.0605835553,-0.3124852703,0.0510897829,0.1167392636,-0.1555820526,0.0855820046,0.1979765710,0.1737134445,-0.0443813837,0.1317121146,0.0726050103,-0.0077949304,0.1668739960,0.1963647831,0.1589141586,-0.4249855946,0.2542458018,-0.2328384857,-0.0269802371,0.0759157248,0.0952869671,-0.1664981611,-0.0574306891,0.0203683313,-0.0632013302,0.1163515375,-0.2144207159,0.0704606189,0.1317532433,0.0747148977,-0.3690731549,-0.0516670723,0.0860927040,0.0455751865,0.1356583187,0.0441397544,-0.0731119310,0.1223716497,-0.2670883913,0.0522538760,0.0412739993,-0.0973347533
-0.2859478493,0.1018411064,-0.0361632717,0.0098671597,-0.0298516730,0.0548912983,0.0828124225,0.0951732708,-0.0302860160,0.0381363247,0.2841951561,0.0681123247,-0.0175394784,-0.1259335890,-0.0198444097,0.2352004568,0.0935629781,-0.0360714085,-0.1338371301,-0.2268758844,-0.1919508842,0.0611755377,0.1722570166,0.1994652043,0.1846781957,-0.0046258500,-0.1350143414,0.0102236220,0.0559040260,0.0224727265,-0.1768796736,0.1362455393,0.0912090528,0.0615190370,0.1005004760,0.0006509444,-0.0223837413,0.0880793731,-0.0862948460,-0.1640586073,-0.1496575931,0.1463722380,0.1103704963,-0.0332332039,0.0185631743,-0.1853714574,-0.0415453947,-0.1166696565,0.0384432739,-0.1009183334,-0.1802138578,-0.0770788205,0.0079318558,-0.0427237646,0.0252536490,-0.0459361823,0.0361620811,0.0965663502,0.1689569559,-0.1395662435,-0.0124162915,0.0673180611,-0.3710885045,-0.0283936695
0.0915431952,0.0559738489,0.2496429706,-0.0755301323,-0.0359941104,0.0363593776,0.0817338416,-0.3569221135,-0.1908529050,-0.0607242578,-0.1963874025,-0.1778735816,-0.0619495409,0.0759893082,-0.0526499753,-0.0512040603,-0.2540683392,-0.1275099249,-0.2028557892,0.0376943961,0.2215529440,-0.0386093980,-0.1157004590,-0.0477923234,0.1985423425,0.0964027670,-0.2533176528,0.0367241698,0.2075695906,-0.0852832411,-0.1148896934,-0.2093110856,-0.1055841448,0.1302261695,0.1063571251,0.1609226842,0.3281211696,0.1842449778,-0.2810387607,0.1169344838,0.3933643581,0.0463022438,-0.0568959825,-0.2183996370,0.0919892014,-0.1806453020,-0.1333326991,0.0734572736,0.1304855268,-0.2933455012,-0.0143481953,0.0472348947,-0.0011948893,0.0581624587,-0.1439671501,-0.0830636735,-0.0196864029,0.0459116680,0.0614977203,0.0073716984,-0.0975516243,-0.1315776188,-0.0328297574,-0.1078406740
-0.0555626869,-0.1428548153,0.0924023788,-0.0030241763,-0.0402319744,0.0239596707,-0.0144219342,0.1810976096,0.0206391512,0.0273158500,0.4271944483,-0.0649987419,0.0386969939,-0.0808345864,-0.1103677371,-0.0065060107,0.0798753387,-0.0258461286,0.1322160985,-0.0513302061,0.1397996134,0.0137653043,-0.1809363963,-0.1822737522,0.0666113651,0.0773424346,-0.0135472375,0.1168720937,-0.0962768524,0.0861016868,0.0863776118,0.1111037905,0.3290089421,-0.1424454485,-0.1147991640,0.1385722618,-0.1568594605,0.0970798582,0.1470222820,-0.1819576600,0.3765984769,-0.2412611412,0.1667441327,-0.1851589623,-0.2416581072,0.0018958238,0.0424510614,-0.0478981068,-0.0394772519,-0.2035196708,0.3551938460,-0.1376298681,-0.0706342576,-0.1394317029,-0.1124686610,0.0700675033,-0.2095692221,-0.0641676501,0.1034889856,0.1197462507,0.0987488820,0.0263181418,0.2389556512,-0.2992918720
-0.2355384662,0.0030202769,0.0477610865,-0.0999326897,-0.0574641427,-0.0098236375,0.0734462832,0.0532231492,-0.0417979341,-0.1168316173,-0.1906947489,-0.0615188061,0.0109718469,0.2135655805,0.0609050997,0.0379535582,-0.2040169700,-0.0174054894,0.0050400704,0.0618647390,0.0239908891,-0.0582108308,-0.0320351473,0.0716995193,0.1763351661,0.0310120966,0.0314613136,0.3228812595,-0.0165689668,0.5176361571,0.1824481112,0.0355993543,-0.2481821391,-0.0043041912,0.1541389576,-0.1570407151,0.1263596441,-0.0387465705,-0.1255170371,-0.0047247315,-0.0172785499,0.1082278974,-0.0611269022,-0.0716601194,0.0002672862,0.0592709094,0.0304443798,0.0540907850,-0.0301952443,0.1041375934,0.0442072863,0.0895092420,0.1383969738,-0.1139324093,0.3294932915,-0.0842467257,-0.1003161713,-0.2236533758,-0.1623852805,0.0590374855,0.0054320652,-0.0164095000,0.0999097332,-0.1465430396
-0.0881159736,0.4391277773,0.1003505202,-0.0684589811,-0.1638920993,-0.0768425203,-0.1715884790,0.1370086952,-0.0371975875,-0.2584898694,0.0909721813,0.0211074123,0.0194734598,0.2901375951,-0.1796701843,0.0893506757,0.2695625366,0.4665319963,-0.0804240726,-0.0244022358,0.0249956036,0.0323681582,0.2610564800,0.0815503532,0.1462430107,0.0983015501,0.1546276647,-0.0296782863,0.0198162793,0.0840287246,-0.1134495515,0.1101727705,0.1043298598,-0.0512278154,-0.0350748843,0.0916092657,-0.0602541143,0.0752227728,-0.2232429783,-0.0145614629,-0.5427354171,-0.1307950429,0.0036960917,0.1178384569,-0.0872466461,-0.0433951848,0.0318910376,-0.0145257136,-0.0040336670,-0.1417177783,0.3149743100,0.0856646457,-0.1636939357,-0.0998089667,-0.1241078676,-0.0751183245,0.1157133834,0.0758011400,-0.1001178819,-0.2623660021,-0.2315010179,0.0606545935,-0.0907390269,0.2460951002
0.2603552869,0.0780655935,-0.0243857658,-0.0294101600,0.1312310172,-0.1351638799,0.0785049272,0.0431258744,0.1187069013,0.0529814159,-0.0036149106,0.1475605756,0.0095360514,-0.2171198483,-0.0131501624,0.0744586796,0.1383040584,-0.1913250713,-0.2183217078,-0.0204581487,0.0025639487,0.1879620147,-0.0713157455,0.0081351715,0.1233695019,0.0646311210,0.1051923857,0.0429662932,-0.1822654575,0.0754985131,0.0594185984,0.0018475544,0.0348752351,0.0979648966,-0.0265949623,-0.0741383234,0.0700643584,0.3004408608,-0.1227979554,0.1798661959,-0.1859490329,-0.0403772924,0.0727267394,-0.0013719582,0.0166200333,0.1083509438,-0.1510323066,-0.0050824102,-0.0169372290,0.0198552821,-0.0727109748,-0.1297710081,-0.0219577430,-0.0139092173,-0.2242844225,0.0456305105,0.0536187724,0.0577984542,0.0128998387,0.0983448615,-0.0033839747,-0.0577968086,-0.1747858287,-0.1310625190
0.0104134416,-0.0270896916,0.0787940668,0.0154558026,-0.2270037470,0.1616219391,-0.0702722808,-0.1216853617,0.1868158735,0.1059958206,0.1988033869,-0.0742692855,-0.0721380741,0.1206160827,-0.1054550743,-0.0268072926,0.1989984580,0.0250646279,0.0161864386,0.2234183973,0.0385161321,-0.0073988221,0.1198948338,0.0602734592,0.1855865864,0.0732383545,0.0875513689,-0.1895187272,0.0662431254,-0.0607109661,-0.0859333115,-0.1568169500,0.0963969047,-0.1931395129,-0.1155598881,-0.0534188801,0.2846686823,0.0358324800,0.0796920154,-0.1428823209,-0.1709741589,-0.0779914104,-0.0310063731,0.0385055709,-0.0239892061,-0.0569103924,0.0792498593,-0.0100972093,0.1233326394,0.0305014180,-0.0958177022,0.0053997765,-0.3032550937,-0.2964441870,0.1310997913,-0.2162981644,0.1940979396,-0.0588950413,0.1820572164,-0.0746828613,0.1401456809,-0.1126188018,0.0653489640,0.1241214292
-0.0304676644,0.1176991803,0.0463635605,0.2380601483,0.4181225797,0.0064455018,0.0931944007,0.1714656013,-0.1117033490,0.1318185122,0.2535925848,0.0839389073,0.1301429246,-0.1254791341,-0.2179394995,-0.0088437378,-0.1994533005,0.0846327351,-0.0386374784,0.1100615366,0.1307078610,-0.1773339773,-0.0976112628,0.0969944409,-0.0125977582,-0.0710515915,0.0953684381,-0.1286260002,-0.1904650710,-0.1871834873,0.3580793911,0.0578659157,0.2965828148,-0.0970147324,0.2574953560,-0.0628169904,-0.0534176556,0.0253585256,0.1268941019,-0.1243039798,0.0142287682,0.1174260616,-0.0924282470,-0.0069167248,-0.1393426139,0.0685696202,0.0199111624,-0.2146122553,0.0883346767,0.0834802162,-0.1842058856,0.1125642416,-0.0643527143,0.0100705001,0.0116697528,-0.1704969748,-0.0441917277,-0.0709971421,0.0509615956,0.0233361954,0.1162610347,0.1240957830,-0.1003514634,0.0027264894
0.2552064261,0.2360773907,0.2047228435,-0.1781735040,-0.0697670565,-0.3304723382,0.2291850587,0.2131529002,-0.0131043008,-0.3340095086,0.0997771312,0.0110066512,-0.0365881053,-0.0783667954,-0.0010911874,-0.1071995971,0.1410967224,0.1717422811,0.0835489257,0.2508625495,-0.1399179803,-0.1665723256,-0.0219622545,-0.1054480180,0.1531217579,0.1787684319,0.1336663644,-0.0938385063,0.0503883545,-0.1616256683,0.0916390666,0.1281963478,0.2133476782,-0.0767235171,0.4321769829,0.0719616791,-0.1677837868,-0.1721675003,0.2361390706,0.1925309558,0.0027673460,-0.0503250307,-0.1486491629,0.2702871343,-0.0349226530,0.1564770910,0.2339818034,-0.1265261183,0.0715805595,-0.3198488164,0.0573763379,0.1758337387,0.2744494245,-0.0218068904,-0.0194307609,-0.0670595597,-0.0874279359,0.0005279047,-0.0244979081,-0.0698272742,-0.2674436381,-0.2757370341,0.0826288495,-0.0561294844
0.0756918622,0.0644052037,0.0917652331,0.0299676052,-0.0345659896,-0.1120663298,0.0664410955,0.1352602616,0.1074658830,0.0899141231,-0.0733850125,-0.2978083260,0.1747746753,0.0313089392,0.0635086791,-0.0671926960,0.2204573816,0.0432853999,-0.0573793567,-0.1840279150,0.0666354320,-0.0724833396,-0.0847097798,0.0925845669,-0.0024944130,-0.0532248359,0.1116066617,-0.1028200024,0.1539193070,0.3423278420,0.2200895984,0.2547982484,0.1492624574,0.1068343303,0.2013809772,0.3000842547,0.0534208868,-0.0926542178,-0.1329901494,-0.0442459787,-0.0399500509,0.1303965694,-0.0179313349,-0.0282469632,-0.0279475122,0.1682654056,-0.0859626240,-0.1973654551,0.0353077840,-0.1290222013,0.2061744536,0.0719333651,-0.1333219148,-0.0425124516,-0.1673990627,0.0581771247,-0.0170057583,-0.1982323178,0.0753891160,0.2133496553,-0.2210244522,0.0311854729,0.0670371269,0.0459636581
0.1304771432,0.2496968776,-0.2567086757,-0.2004465410,-0.0122327196,-0.0610502835,-0.0193163640,0.0500750472,0.2156615477,-0.2139140366,-0.0189875642,0.2196376691,0.0626589924,-0.1748466551,-0.0254261007,-0.0617707695,0.0457877290,0.0079236677,0.0120145856,0.0812217600,-0.0235034736,-0.0856237141,-0.1490423231,0.0768645661,-0.1297386641,-0.0280949820,0.2519976035,0.0569385940,0.2578027281,0.0322609557,-0.0805786242,0.1158654146,-0.0513464896,-0.3974855995,-0.1305993599,-0.1901034696,-0.1300162796,0.1023273201,-0.0870185460,-0.0286196614,-0.0444137326,0.2981417182,-0.0531109628,0.0767191243,0.0980701867,-0.0156684752,0.0711275983,-0.0001738565,0.1401006287,0.1155272563,0.0497011197,0.0109456797,0.0086892319,0.2556542120,-0.0986872356,-0.0611918613,-0.0018991244,-0.0266033667,0.1605908583,0.0535263313,0.3190451398,-0.0694772665,0.5413848148,0.0157084772
0.0732367602,-0.0980653839,-0.1497143947,0.1973647173,-0.1184457511,-0.3669723766,0.0109425385,-0.0202950588,0.2759690237,0.0958819971,0.0687088947,0.0560456639,0.0714530163,-0.2324620980,-0.0574124406,-0.0284631043,-0.1746542533,-0.0112430779,-0.1665046855,-0.1808071923,-0.1778628538,0.0806118469,-0.0540536602,0.2535818397,-0.4272855474,-0.0659731807,-0.1434285534,0.1616462513,-0.1262051251,-0.0337928568,0.0116307817,-0.1193684389,-0.0587182537,-0.0075031944,0.1848872464,-0.2557560026,-0.0666012908,-0.0495735826,-0.1323856003,0.1885992933,0.0598346473,-0.1197263485,0.2008024352,0.2873020609,0.2208713351,0.0810535875,0.0628965022,0.3219926127,-0.0772739522,0.1194557474,0.1504682787,0.0139186955,-0.0896420819,0.0237358088,-0.1259315152,0.0095334150,0.0760986066,0.0519672936,0.0323712927,-0.0334591582,-0.0781640646,-0.0709960732,0.0683619789,0.0945589160
0.1145495911,-0.0865197286,-0.1843978507,0.1245033557,-0.0300220903,-0.1768186237,0.0054934434,0.1179758011,0.2798542505,0.0056051436,-0.1577481988,0.1230027893,0.1682279176,-0.1422602073,-0.0087519631,-0.1838420500,0.0335052988,0.1243892663,0.1257087064,0.1285274577,-0.1080300581,0.1146083626,0.1199515577,0.2216068550,0.0238408504,0.0307057287,0.0288188420,0.0121710282,-0.0023037988,-0.2547950921,-0.0541306926,-0.0805490832,0.0386973362,-0.1328396891,-0.1358834107,0.0328465630,0.0718045912,0.2856361338,-0.1245378858,0.0493226163,0.0014461604,-0.1564131107,-0.1610908210,0.0972178716,-0.2432361653,0.0798461293,-0.0916691074,-0.1646716343,0.0088975101,-0.1950023903,-0.1528647779,-0.1119697748,0.1909206953,-0.1264670063,-0.0638454426,-0.0076909348,-0.1108725380,-0.2039822979,-0.0848536726,-0.1557839690,0.3391111171,-0.2015619039,0.0620294751,-0.0697140119
0.1257759445,-0.0153499585,-0.0867054289,0.0103448205,0.4230062050,0.0387420917,0.0815822803,-0.0535325345,0.0875436231,0.0638242546,-0.0056684676,0.1089497379,-0.1012475843,-0.1075128066,0.3504989150,-0.2859546154,-0.1494288023,0.0616706896,0.0789263560,0.2008685029,-0.1461615185,0.1182543324,0.0232278107,0.2558647866,0.1289360662,-0.1079600143,0.0873535651,0.1356104810,0.1476166721,0.1487686561,0.0330231707,-0.0977385936,0.1607663307,-0.0926243231,0.0932804273,0.3164383821,0.3717751126,0.1708146182,-0.0687398270,0.2870811010,0.1048640439,0.0483950082,0.2670530572,-0.0972626898,0.1044525854,0.0044317777,-0.0734444105,0.1104647097,0.0654552373,0.0078628946,-0.0581562657,-0.1766524504,0.1925628653,-0.0036889802,0.1952706638,0.1909199530,-0.0019108363,-0.1548477991,0.0292166027,0.0498082682,0.0494931624,0.0035094831,-0.0639668346,-0.2360003082
-0.1283516831,0.1714154626,0.1020817418,-0.0243837148,-0.0122111053,-0.3841377458,-0.0979428091,0.1536546949,-0.0031123329,0.0510760819,0.0260054037,0.0337053277,0.0856494096,-0.2020746589,0.0737379874,-0.1871341523,-0.0099360002,-0.0573277402,-0.0113580413,0.2231613104,0.2937094927,-0.0125287532,0.2454166606,0.2685349926,-0.2038979852,-0.0040601759,0.0146015012,-0.0591005100,-0.1470676754,0.3443378389,0.1175803258,0.0719274955,0.1555877337,0.0454684772,-0.0065297927,-0.0751675908,0.2488062551,0.0886216817,-0.2752894692,-0.2231207393,0.2286366980,-0.1379405599,-0.0630042774,0.1205203072,0.2437691336,0.0342628084,-0.1423809585,0.1563875955,0.0501924143,-0.0037380261,-0.1495848786,-0.0283576800,0.1239384381,-0.1392161744,-0.1766736617,-0.0628479135,0.2936153108,0.2514845933,-0.0373490528,0.1255699564,-0.0212308509,0.0051055070,-0.1984429251,-0.1815875789
-0.1811771263,0.0664694507,-0.1319395512,0.0177778696,0.1198110378,-0.1999943891,-0.0105696905,-0.0848696527,0.0116419093,0.0964979607,0.0168641990,-0.0350396368,0.0947835877,0.0030461351,0.1042958979,-0.2815750511,0.1061628243,0.0405656862,-0.0451733123,-0.0301635014,-0.1370520960,-0.1478643091,-0.2402327268,0.1917644304,0.0680051277,0.1376949307,-0.0012252033,-0.1617708527,-0.0350653105,-0.1032045220,0.0907364790,-0.0847230526,0.0399016496,-0.0407906337,0.0905420072,-0.0574015683,-0.0171540819,0.0575405582,0.2389971852,-0.0934833456,-0.0590816066,0.1635278300,0.3668615645,0.4017330011,-0.1345603742,-0.1022503821,-0.2001432810,-0.0395679333,-0.1748600148,0.0028983771,-0.1666544629,-0.0961373586,-0.2627039895,0.0039797712,-0.1823931922,-0.1007145955,-0.1118014652,0.0057487458,0.2137980741,0.0243330218,0.1481636012,0.0852266387,-0.0853896258,-0.0630680794
-0.0170763380,-0.1170741803,0.2303941989,-0.2702417126,-0.0105189796,-0.0583302583,-0.0547734708,-0.2000754139,0.0868238526,-0.1019025143,-0.1261490927,-0.0522703455,-0.0801353104,-0.0711486579,0.0999095869,-0.0138799313,-0.0140200212,0.0060635560,0.0812939041,0.0829320419,-0.2268603588,-0.0992383183,-0.0776090651,-0.0851045017,-0.1944994909,-0.1289428011,-0.0635859111,0.0865119829,-0.1085310509,0.0310497916,0.1286109760,0.2424540613,-0.3326120647,0.0336015432,0.1108541168,0.0356285858,0.1067356900,-0.1120694196,0.1247031651,-0.2853437278,0.0642620254,0.0726944277,-0.1428110105,-0.1308786144,-0.1687830774,0.0872798593,0.0800998109,-0.1436517599,-0.0970047140,0.5337649515,-0.0926981401,-0.1727511744,-0.1737501127,-0.0606042115,0.2423273546,-0.2942880179,-0.0669374099,0.0511832490,-0.0207982424,-0.0251300842,-0.2337738308,0.0656053546,-0.0984905461,-0.2037041220
-0.1807616579,-0.1458943603,0.1005739986,-0.0187691170,0.0770247610,0.0485372625,0.0978416286,0.0061420895,-0.2509758079,0.1489827055,-0.2254780821,-0.1848937004,0.0675622807,-0.0616387270,0.0664312313,0.0394619458,-0.0362004913,-0.0347382076,-0.1440170505,0.1186761468,-0.0128429276,0.1030549467,-0.0002653359,0.1997713739,-0.0707553702,-0.0664204660,0.0072884279,0.0587013088,-0.0396383325,-0.0850074426,-0.0922349612,0.0300487413,0.1820399141,-0.0962213099,0.0689792538,0.0065250437,-0.0710117566,-0.0817970299,0.1098614446,0.0437341806,0.1149327126,0.1084886020,0.1165124060,0.1394969479,0.0424553147,0.0685760354,0.0262065641,-0.2466937244,0.1539332161,-0.1758017721,0.0596451373,-0.0806288800,0.1389261792,0.3312490837,0.0801185190,-0.2241102184,0.1210396705,-0.1009227749,-0.1173700924,0.2507234607,-0.1830312974,-0.0480540599,0.0884344495,-0.1062842411
-0.1179436437,-0.0973251472,0.1218207089,-0.0774815158,-0.0652994302,0.1272784610,-0.0744838285,0.0157321368,-0.1038209810,0.0704721111,-0.1356918607,0.0673005362,-0.0443847529,0.1064963914,-0.2869895306,0.0218703232,-0.0148211668,0.1730445029,-0.0955342285,0.0485148516,-0.3720169569,0.0411557205,0.0804053170,-0.0420188524,0.0323813634,-0.0082832381,-0.1039856257,-0.0331014518,0.0059323117,0.2821857754,-0.0750449157,0.2367708180,-0.0302268596,-0.0404907701,0.0537191491,0.0446296816,0.1750755679,-0.0424908655,0.0422654115,0.0176445809,-0.0054010281,-0.1437182449,-0.0332540855,0.2297924346,-0.1851160192,0.0955881494,-0.1034093443,0.0151899186,-0.2516699546,0.1138848201,-0.0895713827,-0.0169540559,0.2171447753,0.3138504992,-0.0865972785,0.1342746826,-0.0670482663,-0.0465886813,0.0211978776,0.3115106385,0.1131747761,0.0575393050,-0.0337178697,0.2684398294
0.0405373216,0.2760551543,-0.2016070511,0.0944695758,0.1603966006,-0.0227415253,0.3006282804,0.0910207042,-0.1187979165,-0.1070187270,-0.1385943695,0.2074507786,-0.0540349028,-0.0533056284,-0.0340435082,0.1682037299,-0.1508912077,0.1554362066,-0.1936894575,-0.1722050194,0.0401061433,-0.0937861071,-0.1042654705,0.0555586397,-0.0400024596,-0.0778693442,0.1848813962,-0.1290493191,0.0802993701,0.0059710247,0.0058033901,-0.0468845748,0.0748366730,0.0119064036,0.0292046734,0.1066038088,0.1337981313,-0.1301131668,-0.1630097078,0.2818195050,-0.0282740396,0.2284675650,-0.1050361327,-0.0855472908,-0.1681453092,0.0930887363,-0.0701615998,0.0044723293,-0.1401006817,-0.0280512732,-0.1100508715,-0.1796340864,0.1117438393,0.0606283248,-0.1434213573,-0.0666144339,-0.0523782288,0.0072930495,-0.3168319568,0.0096560920,0.1356772715,-0.0263146676,0.0662398072,-0.0495051712
0.0133233072,0.0109587307,-0.0988784790,-0.2607301203,0.1432513688,-0.0157288965,-0.0640608664,0.1361977956,0.1171484968,-0.1836259254,0.1031671186,0.0493968939,0.0655642564,0.0839455205,-0.1134985329,-0.1336643466,0.0249736035,0.2470453844,-0.0398798893,0.1086063306,0.2490472686,0.1947962243,-0.0894746513,0.0638377432,0.1916220159,0.0577261188,-0.1429892235,0.0550151084,0.0260387905,0.1168868971,0.0640471413,-0.1208790379,-0.0493435289,0.2186890284,-0.1755151396,-0.1717737829,0.0090306269,0.0437453044,-0.1694976626,0.1778093035,0.0024817914,0.0058184749,0.0590574488,0.0902696365,0.0602036560,0.3211374741,-0.0821683725,0.0338102417,0.0785686210,-0.1450795937,0.1054880611,0.0371035976,0.1750425033,0.0169669275,0.2032799122,-0.1378040766,-0.1946402790,-0.1105942516,0.0983177043,0.0086973564,0.0550541969,0.0659685848,0.1386147182,0.0878174141
-0.0267770409,0.0736177493,-0.0347031420,-0.0841034639,0.0255233569,-0.0393364976,0.0202666688,-0.0793339521,0.1104970134,0.0459885268,0.0625282986,0.1934971176,-0.1518661624,-0.0237996752,-0.1079457181,-0.0075376302,0.1370431342,-0.1773402963,-0.2788016885,0.2280647322,0.1185583366,-0.0075003391,-0.2637028808,0.0496350964,-0.1794184798,-0.0751582444,0.1313752872,0.1762153382,0.0885549448,0.1592595759,-0.0633154297,0.1220718844,0.0422726950,0.2361006803,-0.0970935122,-0.0531905875,0.1479724788,-0.0469554560,0.2542199737,-0.1477757251,0.3380576029,-0.4044618576,-0.0102552521,0.0424563408,0.0344695466,-0.0169278440,-0.1783486563,-0.0558290827,0.1004454601,0.0434905299,0.0210223934,-0.0565504363,0.1084150808,-0.1577176525,0.1076999173,0.0808796318,-0.2033655789,-0.0460316028,-0.0675556013,0.1183533360,0.0691619371,0.1021354407,-0.2003272750,0.1747677160
0.0251761801,-0.0660504878,-0.0878957114,0.3100069552,-0.1147876209,-0.1138522856,0.1850448907,-0.0108182677,0.0427983242,0.1682662671,0.2166544997,0.0450408355,0.0848200340,0.0915373178,0.1744054842,-0.0109267965,-0.2880732912,-0.0075308892,-0.0022914303,0.2822215734,0.1209623866,-0.0607958383,0.1611484138,0.1618230038,-0.0812474809,-0.0320386050,-0.1767477152,0.0541526538,0.0511228585,0.0408882775,0.0903073387,0.1281709018,-0.0528418841,-0.0414895687,-0.0809187945,-0.1764967358,0.0747465627,0.0695867811,-0.0829539548,0.1443284965,-0.0110959099,-0.3712673238,0.2077583411,0.0516648811,0.3658990594,-0.1473091967,0.0151297229,0.1160514564,-0.2207401024,-0.1458331217,-0.0497375052,-0.2450601223,-0.0130369672,0.0672287769,-0.0153581676,-0.0095059965,0.0140472530,0.0242328184,-0.0829771656,0.1242845818,-0.0928391877,-0.0026190751,0.1196473087,-0.0914529105
-0.1597296780,-0.1864941099,0.0475682097,-0.0581711905,-0.1063798577,-0.0226840586,-0.0456895981,-0.0638609081,-0.0302956424,0.0718659381,-0.0240744563,-0.0507753054,-0.1129306594,-0.0454159882,-0.1353660077,-0.0685805062,0.1096924771,0.2262653063,-0.1937776114,0.0144451715,0.1004927001,0.2082847956,0.2736222655,0.0398892565,0.0942139739,0.0846450493,-0.0640527619,0.0709942591,-0.0232757548,0.0009769703,-0.1714595010,-0.0571497208,-0.1555648138,0.0275394862,0.1428417366,0.1354347861,-0.0172451267,-0.2379758202,-0.0611090714,-0.0985881101,-0.0295752433,0.0936642162,-0.0946006269,0.3741534902,0.0961920265,0.0224438518,0.0024770791,-0.0751431772,-0.1619403706,-0.0505905180,-0.0021301236,-0.1308511455,-0.1519157197,0.0022412116,-0.0244474156,-0.1472977949,0.1974915578,0.1208501911,0.1270421928,0.0638221391,0.0123781119,-0.0316940456,-0.1112734436,-0.0963865095
-0.1988259395,-0.0943424885,0.0154324440,-0.0810290428,0.0484519118,-0.2249798781,0.4061054802,0.1068603230,0.2721700881,0.3050951951,-0.0584184374,0.2469473325,0.0698082231,-0.1875282907,0.1444912717,0.1095254156,-0.0205879649,0.1459790873,-0.0832938815,-0.0562517767,-0.0086417734,0.0499507547,0.1332514856,0.1223827634,-0.1079154228,0.0821865700,-0.1537141498,0.0643784377,0.0337149404,-0.0077726968,-0.3094934744,-0.0712903651,-0.1059278799,0.1171798289,-0.1831549106,-0.2370626747,-0.0517636059,0.0205568830,0.1732304058,-0.1797975203,0.2924629248,0.0958861435,0.2109303434,-0.0317775136,0.2712934185,0.2352245493,0.1534559395,0.1039745852,-0.1042550601,-0.0405647441,0.0987569824,-0.1860951596,0.3677372982,-0.2839433016,0.1540256631,0.1045243307,-0.0589319544,-0.0084975509,-0.0621363497,0.1109153265,-0.1130348786,-0.1847968104,-0.1559099074,-0.1336299444
-0.1440491482,0.0552899287,-0.2576013777,-0.0375222084,0.0771748859,0.0086468079,0.1439299730,0.1581293305,0.1432976002,0.0768059211,-0.0211844753,-0.2901556068,0.2107059607,0.1127031063,-0.0678365779,0.0100960451,0.0800845442,-0.1875466019,0.0976075623,-0.2011170306,0.3186722347,0.0050620558,0.0017255980,-0.0561036130,-0.0258496297,0.0278879440,0.0433940210,-0.0722004351,-0.1875366453,0.0216245066,-0.1245706738,-0.0050443889,0.0992195102,-0.0662409648,-0.1463434500,-0.0528697426,0.0988707000,0.1750199587,0.4638998472,-0.0512521427,-0.1251821708,-0.0424029633,0.3882223742,-0.0502775188,0.0943933620,0.2279411265,-0.2161280068,0.0335166480,-0.0530366620,-0.0609794853,-0.1887025166,0.0979871872,-0.2630721090,-0.1738925720,-0.0270546413,0.0943772877,-0.2565903388,0.0343857183,0.0326400835,-0.1279891865,-0.1451666014,0.0499381227,0.1304869623,-0.0245368634
-0.2217245227,0.2449482764,0.0660378174,-0.0546604089,-0.1087947261,-0.2138340811,-0.0919448461,0.2416916336,0.2554959405,-0.0900216765,0.1973173334,-0.0532488222,0.2172403749,0.1091624534,-0.1082812939,-0.0395638952,0.1704661026,0.3478035775,0.0716812349,-0.0065817013,0.2593712017,-0.1338324779,0.0978995050,0.0336012776,0.1612955635,0.0559563603,0.0168220509,-0.0011888290,-0.1368662001,0.2318594306,-0.0310042261,-0.1116107909,0.1254795408,0.0764434003,0.1854128271,-0.1525933094,-0.0371413916,0.0153589032,-0.1272379618,0.0098515114,-0.1377340487,0.1413252477,0.0509063049,-0.1620399422,-0.1825465728,0.0555832980,0.1134371690,-0.2145616050,-0.0228830360,-0.0606190566,0.0135107767,-0.0180760000,-0.3079202248,-0.0746435077,0.0941306505,0.1433542467,-0.1141439926,-0.1062508418,-0.1318718584,-0.2038311801,0.0406692177,0.1079640937,-0.0808910840,0.2611104286
-0.1779123805,0.2346176745,0.0226768880,-0.0101438135,0.1449933769,-0.0960739368,-0.0281026901,0.0360880509,-0.0169999885,-0.2358319120,-0.1103003787,-0.0929220039,-0.0170984192,-0.2992732718,-0.3333381841,-0.1376195228,0.1733785970,0.2582289507,-0.0409292141,0.1431144728,0.2136932303,-0.1024060854,0.1307807214,0.2205557654,0.2150232881,0.2395779906,-0.0228875777,0.0717740838,0.0448444771,-0.2569312569,0.0626094045,-0.0851946456,0.1629600468,0.1133983219,0.1605073435,0.2693265384,-0.1509770794,-0.0948681244,0.0846384885,0.1388203960,-0.1724288161,0.1687035545,0.0719803517,0.1986133080,0.1909323642,0.2723013321,0.1480713895,0.2011333351,0.0870902970,-0.0287012120,-0.3284061263,-0.2111369332,-0.1865713512,0.2132126517,-0.2602993895,0.1298102968,-0.1452149628,-0.0737245353,-0.0841733307,-0.0920713307,-0.1430789849,0.0572040808,-0.2356174997,0.0357166253
-0.1185299404,-0.0455594721,-0.0917976328,-0.1109619513,-0.0909888313,-0.1555579806,0.0378587976,0.0455367198,0.0423864896,0.2579667150,-0.2304523186,0.0511660922,0.1581089639,0.1415233870,-0.0912640852,0.1176279208,0.0276030747,-0.0671943597,0.2456893142,0.1417774433,-0.1236707180,-0.0893136350,0.0304803652,0.0332915810,-0.0920165701,0.0000100068,-0.0871804743,-0.1369520350,0.1684452986,0.1140848073,0.2091569691,-0.1125984799,0.0165099578,0.0086382356,-0.2730524289,-0.2690253243,0.3362393546,-0.1883695671,0.1677604279,-0.2920628458,0.2148552207,0.0448882880,-0.0670869658,-0.1590083748,0.0291233823,0.0640869669,-0.0252902164,0.1334149802,-0.1288560327,0.3693262901,-0.1023099473,0.1185955090,0.0908500272,-0.0184315977,0.3333815382,0.0457869461,0.0896093620,-0.1219076754,-0.0088213290,-0.0607144653,-0.1338002425,-0.1117196810,0.1756685886,-0.0547331881
-0.0117331704,-0.0665803228,0.0930327016,-0.0992149896,-0.0245112218,0.0436960392,-0.1122991173,0.0027534005,0.0329620777,0.0466587522,-0.0195735521,-0.0978917741,0.1595480707,-0.0199230241,0.0493200505,0.0525362381,-0.0620648978,0.0035184293,0.0797878901,0.2351790063,-0.2211366421,-0.0266881303,-0.1180351003,0.2189572884,-0.1280850972,0.2191014645,-0.0047526938,0.0077337691,0.0710962687,0.2231023627,-0.1305545493,0.1284757466,-0.1345501643,0.0268432775,-0.1097000988,0.0774494166,0.1311611104,0.2479289002,-0.1466963865,0.2738136356,0.1025911336,0.0892227088,0.0246143895,-0.2325661173,-0.0482460459,0.0033991425,-0.0547268656,0.0214536635,-0.0158942719,0.2168830267,0.0785852466,0.1632486737,-0.0630251159,0.1398293591,0.1885154488,0.0395461922,0.0287017868,-0.1471455951,-0.0285321913,0.2032712704,0.0111661558,-0.1147774601,-0.0683201983,0.2357615506
-0.0083125226,0.3179614479,-0.0932690841,0.0757581622,-0.0941492492,-0.1096758208,0.1665702654,0.2141812849,0.1265970458,0.0605434817,-0.0540967631,0.0874608814,-0.2879360755,-0.2171024197,-0.1465510514,0.2302455654,0.2336440305,-0.0771946747,-0.0059007854,-0.0560752927,-0.2915433120,0.0306308287,0.1031825220,-0.1139785398,0.0402497688,-0.0139147850,0.0268202110,-0.1528543822,0.1321308562,-0.1479396098,-0.0146413413,-0.0352444329,0.0879754132,0.1774040191,-0.0210972847,-0.0378548907,0.1726212149,-0.1435946706,0.4421827599,0.2029411882,0.0013596652,0.0413146569,0.2684596324,-0.1220679907,-0.0156942634,0.0235980738,-0.0631639802,-0.2713829850,0.0716403885,-0.0659087587,-0.2410938822,-0.0439002190,-0.0068583182,-0.0895531558,0.3196735429,-0.0172097918,0.0653302610,-0.1717534048,-0.1740633044,0.1282453840,-0.0858818184,0.0682488445,0.2670024087,0.0596143810
0.0291486216,0.1849091257,0.0616943800,-0.2280651438,0.1725785301,-0.2973590258,-0.1002331889,0.0871059371,0.1259225922,0.0654795796,0.1822571969,0.0994005137,0.0596363314,0.0010913738,0.1025120477,0.3353580521,0.2004128831,0.1979052051,0.1260973111,0.0706272249,-0.2997966680,0.2406330504,0.0473429313,0.1973151049,0.1043067918,0.2204739827,-0.2249251355,0.0609763184,-0.1189221176,-0.2221118056,-0.0009114391,-0.1529199098,-0.0493830986,0.0153006547,-0.0197741552,0.3608641296,0.0236970478,-0.1170150598,0.0943894172,0.1535202317,0.2623044207,0.2488421839,0.1908124458,0.2542832392,-0.0168243018,-0.1795151205,-0.0519318100,-0.1747808863,-0.1069959630,0.2399792436,-0.0068653591,0.0331093669,0.1203740714,0.0792802754,0.3792324569,0.0114317874,0.0063911427,-0.0109298877,-0.2171156917,-0.0245662394,-0.0143090020,0.0821519413,-0.0421484482,0.3041624291
-0.0047412926,0.0829257324,-0.0823073556,-0.1117604542,0.1533557840,-0.0964577368,-0.1148259376,0.0009701319,-0.0020464384,0.1290444293,0.0780486597,0.0800717376,-0.1671478600,0.1197694169,0.2470854400,-0.0267303754,-0.1904910520,-0.0012247593,0.0611611958,-0.0204640463,-0.0779464533,0.3854758897,0.1034094818,0.2202865977,0.0716789859,-0.2245076465,-0.1401619569,0.1018361114,0.2168904004,0.0493464224,-0.1769594275,0.1092781624,0.1052353107,0.1036300448,-0.2294005539,0.0487597796,-0.0342859301,0.0210160531,-0.0421764215,0.2096976409,-0.0854348939,-0.2164444666,-0.0151678785,0.2693483871,-0.0361433681,0.2098022322,-0.0085533198,-0.0596950303,-0.2224119955,0.0993183869,-0.0084332544,0.1651068603,0.1960366523,-0.0224463035,-0.1330282987,-0.2985930454,0.1177598987,0.0041364300,0.0704496262,-0.0319840336,-0.0938733470,0.0859848147,0.0867961311,-0.0037339994
0.0710732462,-0.1630085427,-0.0907254096,0.1285488095,-0.1792248560,0.1363824519,0.0176837836,-0.1282788489,0.0816863165,-0.0800251720,0.1811379698,-0.0217217340,0.1040127739,-0.2755644789,0.1536147092,0.1123366995,0.1146215359,0.0109739002,-0.2791860428,0.1873889166,-0.2150216116,-0.0687994509,-0.0733394078,0.0571866295,-0.0349908815,-0.1461925357,0.1915703035,0.0772224142,0.0735714515,0.0397980417,0.0432515834,-0.0726775596,-0.0260622772,0.0642906164,-0.0445586885,-0.1859855411,0.0144329895,0.0974390930,0.1077457717,-0.1963468752,-0.0273382358,-0.1573285413,0.0275989531,-0.2116219036,0.0369844522,0.0108610379,-0.0893513171,0.0184345474,0.1281790154,-0.0392502125,0.0004912065,-0.2442628813,-0.2603416696,0.0154099891,0.0693182661,-0.0623866744,0.2503019314,-0.2158059127,-0.0888953363,-0.1329053480,0.0661867015,0.1712305954,-0.0159596892,0.1250475966
0.0057335976,-0.0408368081,-0.0943052849,-0.0142397515,-0.0682770720,-0.3524805818,0.0474935791,0.1730420936,-0.1000956007,0.2026452155,0.1021943447,0.0768005441,0.1722204848,0.2322655915,-0.1108144814,0.1371505345,-0.0294592045,0.0508607965,-0.1500813202,0.0074040128,-0.2552809441,-0.0391084418,0.2535183589,-0.0197996793,-0.0124451641,0.1670040742,-0.0204450680,0.0003523452,0.2513245423,-0.0600041266,0.0770597667,-0.0418126969,0.1196557934,-0.0149898318,-0.1406300334,0.0662350473,-0.0376944075,0.1060083906,0.0717905321,0.0626119128,-0.1215754968,-0.1420104575,0.3839097179,0.3355021297,-0.0861672778,-0.0645724159,0.0241678020,-0.0056568931,0.0441958500,-0.1876750218,0.1128549865,0.0243341095,0.0756921174,0.0618769237,0.0235921557,0.0397758326,0.1461419260,-0.0844620288,0.0210929247,-0.1781098879,-0.0882458008,-0.1214306644,-0.0641075373,0.0777010028
-0.1001019400,-0.2194536145,0.1843150724,0.0329097582,0.1763730859,-0.2312572378,0.0413281800,-0.1216693057,0.0715930516,0.1173368599,-0.3403000573,-0.2035208879,0.0956645401,0.1643160992,-0.1047064451,-0.0555188964,0.3170448545,-0.1764119548,-0.2369602943,0.2465895385,0.1269487255,0.0970711565,0.0956462188,-0.1946639528,0.0489059508,-0.0291928986,0.3477177424,-0.2123706708,-0.1835762244,-0.2291238243,0.3235320653,-0.0676035068,0.2833379593,-0.0956766677,-0.0356549954,0.1528442461,0.3382030943,0.0703956891,0.2192726024,-0.1514832247,0.1166148368,-0.1228082824,-0.0323459190,0.2583133781,0.1942963876,0.1650888277,-0.0404604422,0.0379912596,0.0483265425,-0.0063617236,0.0928878519,0.2122605868,0.1873291851,-0.2158753340,-0.0041501630,0.3702257138,-0.0492387123,-0.0686361843,-0.1483757722,0.0438549808,-0.0175824908,0.0234333109,0.1485566909,0.1305283866
0.1375001636,0.0115931088,-0.0155544887,-0.0723732227,-0.0049483540,-0.0733569786,-0.1440852250,0.2927686286,0.1440719929,0.0198903024,-0.0225164547,0.1252490534,0.0899392198,0.1621386821,-0.3157941466,0.1009450006,0.2924987067,0.1646226039,-0.2789920793,0.1902170253,-0.0389127900,0.1560958143,0.1586654193,0.0738336104,-0.0424120145,0.0402878087,-0.1520263680,0.0789454164,0.1076220456,-0.2237387835,-0.1186266567,-0.1383586792,0.0441240460,-0.2489328844,-0.1427126505,-0.2906439592,-0.0229315770,-0.0609247241,-0.0663610491,-0.1526632816,-0.1553864384,-0.0693672204,-0.0108928982,-0.1633077904,-0.0548378924,0.0855905629,0.0779602002,0.2732435333,-0.1208249806,0.1491459865,-0.1821529574,-0.0100260167,-0.0618742187,0.1494649802,-0.2002811889,-0.1598105452,0.0318953319,0.0724644529,0.0510706475,-0.0022001679,0.0634368643,-0.1476384867,0.0645968478,0.1622579296
0.0032382491,0.0204582671,0.0084929517,0.0982260416,0.1597450466,0.0237127552,0.1805147903,0.0188115069,0.0576138430,0.2050053969,0.3335285324,0.1313468486,0.0776289841,-0.0971496104,0.2792638456,-0.2234471219,-0.0632233568,0.1058000573,0.0529993079,-0.0590144251,-0.0425586309,0.1447306047,-0.0884017112,0.0705152080,-0.1577549416,0.0793495560,0.1558887794,0.1555333442,-0.0894844021,0.0246153516,-0.0674336850,0.3094946006,0.0697342819,0.0695928869,0.1996344204,-0.0843343837,0.1309104071,-0.0286946750,-0.1432172230,0.0587276169,0.0124865354,0.1955791045,0.0605722536,-0.2431402907,0.1460223961,0.0696516748,0.1477519397,0.1131976565,-0.0687308091,-0.0724151319,0.1025068268,0.0972339086,0.2634783451,0.1061610078,0.2506780215,-0.0082773756,0.2550914641,-0.2996860611,-0.1946155535,-0.1716364355,0.1454140643,0.0604103676,-0.0144506847,-0.2823683920
-0.0389378267,0.0610392130,-0.1138419974,-0.0617965917,0.2769135435,-0.0606766822,-0.1916454207,-0.0303206703,-0.0851128821,0.0454095230,-0.1024460586,-0.0087367259,-0.1055034390,0.0530687120,-0.0145342089,-0.1576133966,0.0932661789,-0.0389486303,-0.1370014467,0.0262906623,0.1627046820,0.1541522310,0.0920090913,0.0316537960,-0.2053191737,-0.1913184979,-0.0596692574,-0.1200531105,-0.1688633427,0.1682617877,0.1412172984,0.2946398476,-0.2869944843,0.0284796234,-0.2489999894,0.1380062936,-0.0663040757,-0.2040848836,0.2015413317,0.0053754290,0.1899539829,0.0409040133,0.0554515534,0.1048302945,0.1041554171,0.0722930227,-0.1646688841,-0.3407168747,-0.0032182002,-0.2020921155,0.1640427541,0.2748485677,0.3760129649,0.1043143547,-0.0580403295,0.0075629035,0.0192828574,0.1896165306,-0.1620669480,0.3617746975,-0.0332181125,-0.0961511785,0.1933927841,-0.1990383338
0.0976666444,0.5083706860,-0.0129876081,-0.2343341741,-0.0497020482,-0.1074087694,-0.0449027166,0.0532327850,-0.0513046842,0.0008967956,0.0356900691,0.1251787067,-0.2283149805,0.0115662612,0.2710666052,-0.0410790917,0.2133578956,0.2815564936,0.0320425783,-0.0351402526,-0.2179013238,0.0591060603,0.0149074709,0.1820576986,0.1912400013,0.0641111667,0.1178468032,-0.1905994706,0.0716740255,0.0318847755,-0.0145998184,-0.1308794783,-0.1146889629,-0.1037950013,-0.0519858846,0.1179583822,-0.1268694675,-0.0680874780,0.1774545828,0.1227993708,-0.0639968676,0.0470663788,-0.2014804050,-0.1591746869,-0.3296292295,0.0291148964,0.2425116636,-0.1611640534,0.1574364549,0.0131684531,0.0443932694,0.0326972577,-0.1425878104,0.0292583356,0.2953768151,-0.2927953386,0.3133881164,-0.0117594764,0.1845200445,0.0747530924,-0.1241306839,-0.0055000685,-0.2140937842,-0.0201315883
-0.0339808553,-0.0395203405,0.2414480469,-0.1295111432,0.1074231173,0.1777644780,-0.2795456039,-0.4143850685,-0.1134789334,-0.1793270071,0.0524651996,0.0764536487,-0.0447439019,0.1176434854,-0.0703145697,0.0932762617,0.1662844757,-0.2183475772,0.1490480394,0.0895159166,-0.0117703447,0.0323686603,-0.2376159837,0.1897923702,-0.0581504309,0.0959371324,-0.0449378437,0.0915228943,0.0071628890,-0.0534133701,-0.0955747022,0.0359242431,-0.1294608743,0.1639920077,-0.0903948565,0.0377685139,0.0338682121,-0.1102749533,0.0275778757,0.0969700046,-0.0168108931,-0.0426701517,0.0524623181,0.0029343220,0.0267769575,0.0398825271,0.2874912886,-0.0785202736,0.1519530314,0.1280699850,-0.0103107961,-0.1648976111,-0.1119392167,-0.0519474368,-0.0201778243,0.1623270323,-0.1350938296,-0.1421509236,0.1398142544,0.0356401768,-0.0369888181,0.2005607792,-0.0393855841,0.1001169343
-0.1811471559,-0.1464879740,0.1134174953,0.1600145140,-0.0065407972,0.0374033265,0.2079844309,-0.0333797975,-0.1646273498,0.0075704407,-0.0025052339,-0.1428549472,0.1305626763,0.0227071510,-0.1569857522,-0.0718979106,-0.1158144800,-0.0264574551,0.0545850513,-0.0231175222,-0.4465812601,-0.3296117249,0.0899536112,-0.1197985035,0.1354804168,-0.1716248913,0.3421235825,0.2414461352,-0.0611016589,-0.0121997622,0.1016772049,0.0562991502,-0.2312777281,0.0822619095,-0.5791507733,0.1221139512,0.1836294663,0.0895376188,0.1616598618,0.3223745338,-0.1546273321,-0.0448499024,-0.0916321037,-0.2568070836,0.0539897927,0.0989889447,-0.1317059221,-0.0855616102,0.0881025651,-0.0572525965,-0.1673361123,-0.2495747831,-0.0039003328,0.0428599422,0.0193962655,-0.0228303223,0.2778109738,0.0100380776,0.0689331511,0.0987347231,0.0752654730,0.2225937751,-0.1499757173,0.1742388758
-0.1483920188,-0.1294013122,0.2320338545,-0.0107712156,0.0210608821,-0.2460113228,0.1031588655,0.0655995227,-0.1884616929,0.1891520810,-0.1345629079,-0.0929597942,-0.1048793674,-0.0066407855,-0.0030336815,0.2107675134,-0.4041035304,-0.1503624065,0.0497077317,0.0185910659,0.0266721272,-0.2100383093,-0.0823425971,-0.0884544228,-0.2289364901,0.0077462263,-0.2623026208,0.2145855377,0.2299495002,0.0687941880,-0.1301727703,-0.0442424707,-0.1052786666,-0.1775411719,-0.0025280261,-0.2088408456,-0.2420419780,0.1954460940,-0.0112410401,-0.1183638090,-0.1724262925,0.0455568587,-0.0130514041,-0.0058130906,0.0193182070,0.1295407317,0.2636918435,-0.0380862735,-0.1707895660,0.2169382152,0.1546176551,0.1952710116,0.0677474049,0.0940792370,0.1424474327,-0.0854543767,0.0038959491,-0.0601583672,0.0996317846,0.1683204602,0.1519492963,-0.2025184626,0.0172568731,-0.2030803913
0.1118930403,-0.0028737809,-0.1298755862,0.2735352395,0.1199136688,-0.0184325811,-0.0502025537,0.0080577836,-0.1952449429,-0.0343565503,0.0776666868,-0.1891338203,-0.0200981449,-0.0302646019,0.1663003559,0.0204863239,-0.0843506190,0.1516772352,-0.0251450258,-0.0792860800,0.0008519517,-0.0096132987,0.0165521352,-0.1960383028,-0.0547040796,-0.1153132617,0.1142532325,-0.0885881234,-0.0589607402,0.0705241868,0.2446950090,-0.0372789188,-0.1202268796,-0.1694128270,0.0984736097,-0.2400614007,0.0952577091,-0.0292543099,-0.1261482406,-0.1361499421,-0.0578902399,0.3590712340,-0.0812051973,0.0493481241,0.0917555082,0.1910967374,-0.0802716994,-0.0176616673,0.1806598463,0.1177067884,-0.1583728960,-0.1131403093,-0.1156988288,-0.1321167014,-0.0875753873,-0.1125795017,-0.1036231367,0.1063737507,-0.0719206000,0.0153927593,0.0094379557,-0.2638394521,0.1859763110,-0.0491405184
-0.2607621943,-0.0370696564,-0.1219775294,-0.0390337423,-0.0716458288,0.1672404915,0.0553267121,0.0847294591,0.2003769072,-0.2397977076,0.0577659260,0.1959548016,-0.0772346508,0.0182047617,0.3971312417,0.0096003433,-0.3563304226,0.0128366466,-0.0311000030,0.0745163770,0.0929674981,0.1749122324,-0.1465004717,-0.1819272616,-0.1671872169,0.1776429960,-0.1981776595,-0.0272553766,0.0799780257,0.1846469592,-0.0405981101,-0.0690773826,0.1160699291,0.0397030246,0.0637427863,0.0467659975,-0.1498290983,0.0661401928,-0.2876151909,0.2667179807,0.1306702477,-0.0058873491,0.0492956953,0.0451494007,-0.1516266176,0.1314578753,0.1320442680,-0.1846810610,-0.0449829097,0.1760901044,-0.0608314179,-0.0625645044,0.0395246870,0.2754598249,-0.0693100492,0.0553354110,-0.0569644442,0.0525403737,0.0915410903,-0.1103260196,-0.0703741748,0.0509368248,-0.1162193735,0.1916185334
0.0611844052,0.5197790293,-0.0727962772,-0.3713447500,0.4113432049,0.0537132797,-0.0146564483,0.1446412379,-0.0853627247,0.1607732120,-0.0145906516,-0.0128958370,0.0913010571,0.1989053560,0.2283091464,-0.0198097780,0.2719149729,0.0015312612,-0.0501498868,0.1026435201,0.1921951293,0.0401478635,-0.2161017796,0.3625663819,0.1248513911,-0.1382608010,0.2190982016,-0.2633887614,0.0946111827,-0.0039976355,-0.0374463055,-0.0680553915,0.1456956658,-0.1279069380,0.1099665326,0.0918817639,-0.2525276158,-0.1301498001,0.3653959724,0.2927562348,0.1162628486,0.1746452831,0.0333103105,0.2595772455,-0.0577991031,0.0263408819,-0.0231250231,-0.2296883563,-0.1131075171,0.2640266499,-0.0852315430,0.0113022403,-0.0564056095,-0.1116584715,-0.0696878148,-0.1129784299,-0.0333958535,0.0299846269,0.0156550984,0.1005823554,0.2953944781,-0.1291048319,-0.0554224775,0.3867792895
0.1508093971,-0.1009588694,-0.0459351434,0.3736250457,0.0532891702,-0.1514762231,0.2988064857,-0.1793802902,-0.1285689045,0.0001667637,0.1211436826,-0.0020897054,-0.1587816800,-0.1443044221,-0.1550532843,-0.1451007542,-0.0636369704,-0.1138078870,-0.1205851368,-0.0168554876,0.1833784166,0.1931474975,-0.0529365068,-0.0609948982,0.0767727970,-0.1415815272,0.2889262767,-0.1769921013,0.0388179730,0.1928724322,0.2101100021,0.0664591628,-0.1147315140,0.0893937176,-0.1161290896,0.0896322113,0.1692914245,-0.1033900123,-0.1219242227,0.2146811260,-0.0325694757,-0.3352948178,-0.0055667440,-0.0265013723,0.2529185379,-0.0115651711,0.1452365622,0.0733900851,-0.0788065352,-0.0938181824,0.0740294272,-0.1401768598,0.3631990408,0.2276604192,-0.0690654730,0.0822594497,-0.0730447408,-0.1950263869,0.2038072101,0.3728054518,-0.2679228725,0.0213020495,0.4091949892,-0.1088589107
0.0622495387,0.1488359714,0.1227871096,0.0990780549,-0.0186774173,0.0804971764,0.1208288032,-0.1931125846,0.1487670448,0.1606092742,-0.0192545651,-0.1155109431,-0.3110417879,0.0983345215,-0.1451795986,0.0187362704,-0.0721951418,0.0546357204,-0.0832286125,0.0297528933,0.1273276417,0.2303061848,0.0897824688,0.2930655685,0.0072274746,-0.0193346018,0.0185796679,0.1157675828,0.0273246960,-0.2011429072,0.1200750643,0.1122018517,-0.1163403092,0.0454705240,-0.0083320249,0.0505054417,-0.0658215412,0.0122621884,0.1890886271,-0.1475662848,-0.2760350358,-0.1110380866,0.1298558487,0.1076249467,0.1194672525,-0.0170253917,0.0248792744,-0.1145100276,-0.1153903751,0.3913738680,-0.2007446279,-0.0512177618,0.1333359363,0.0296234041,-0.0841945329,0.0946349794,-0.1536126708,0.0315672313,-0.1251721853,0.0698392178,0.1624413632,0.0832858411,-0.0592125580,0.2274549661
-0.0609959009,0.2606380679,0.1734985345,-0.1551005128,0.0746497441,0.1919292830,-0.0414287315,-0.0844168217,0.0934869063,0.1574753594,0.0565444402,0.0587795257,-0.0633898604,0.1360025248,0.2380148234,0.0570980653,-0.3158019209,0.3204153422,0.0621930615,0.0352311290,-0.0176968438,0.0140737272,-0.2119703990,-0.0967797810,-0.1041399159,0.1479484978,0.1961629269,0.2873157205,-0.2447937654,0.0590310583,0.2637882107,0.1245600443,0.0026613417,-0.1473566893,-0.0132748591,0.0184792169,-0.1392713207,-0.0703296325,0.1782080776,-0.1215168433,-0.2077430962,-0.2802631858,-0.1567260123,-0.1090276076,0.2409214495,0.1333156074,-0.2557190695,-0.2303985364,-0.0002911917,0.1322864846,0.0860844591,0.0066959048,0.0367201443,-0.0135705440,0.1226410183,-0.0679762869,-0.0977692689,-0.0430109798,-0.0597976791,0.2896117968,0.1237865734,-0.0406176139,-0.1421149150,0.0892569090
-0.1235985973,0.0596177185,-0.1307605016,0.1752796950,0.1236294561,-0.0568438698,0.1194377322,-0.1085290966,-0.0359062972,-0.0557688776,0.0356095247,0.1542346110,-0.0341021895,-0.3768802037,0.0707962658,0.1974391370,-0.3297753594,-0.0404619857,-0.0939220314,0.1749035442,0.0807857252,-0.0667360163,0.1557390566,-0.0062075493,0.1387072974,0.0719026586,0.0485127020,0.1228337851,-0.0203171141,-0.1956332818,-0.0715173552,0.2822963444,-0.2318970024,0.0622563148,-0.1260380185,-0.1247631573,0.1243253400,0.1483036020,-0.1767028623,0.0054777658,-0.2193510719,0.0178576451,0.0000211789,-0.0003983695,-0.0193608044,0.1647408086,-0.0504366850,0.0363066534,0.0550308402,-0.2004956885,0.0086023697,-0.1628398602,0.0884279595,-0.0238618423,-0.0863481025,-0.1405648288,0.0097962916,-0.1019335802,0.1508684002,-0.1050080251,-0.2729368194,-0.1577478674,0.1438130499,0.2433781133
0.1091352828,0.0136556540,0.0381512212,0.0488052824,0.1674050101,-0.1483022491,0.0914748187,-0.1326450381,0.0485979556,-0.0645403329,0.0603340744,-0.2433832184,-0.2089207439,-0.0561444655,-0.1430523108,0.0690062338,0.1602953883,0.0627014554,0.1054339020,-0.0971240030,-0.0803601349,-0.1155918759,-0.1443088401,-0.3107502997,0.1223905886,0.0165690309,0.3234450634,-0.0666586620,-0.1914957169,-0.0773047706,0.0439685520,0.3313319436,0.1333686953,0.1109777076,-0.1520455547,0.0991816510,0.0661897815,0.1674995677,-0.1099618126,-0.2091642643,-0.3056053640,0.2004226650,-0.2034390149,-0.1650915854,0.0922361295,-0.0702665110,-0.0349540580,-0.1436132391,0.1190760422,-0.1937014289,0.3578275292,-0.0465052906,0.0544175194,0.1379571772,0.1964248416,0.1570680227,0.1146427773,0.2087124473,-0.0721684518,0.0464196623,-0.2698146357,-0.0588123209,0.1943375708,-0.0488972397
-0.0471307167,0.1342891392,0.0922598634,-0.0974227451,0.0635400847,0.0665925680,-0.0203115486,0.0136147824,-0.0083261450,0.1749635638,-0.0547491822,-0.1408503857,-0.0747629498,-0.1965480798,0.1122299481,0.1133982835,0.1223255295,0.0110082574,-0.0226869715,-0.0682064796,-0.2542067371,0.2263049391,-0.2316543208,-0.0784525888,0.3736733662,0.1735769025,0.1004410197,-0.1316226718,-0.0567344814,0.0771404922,-0.0289595363,0.1899944102,-0.2541888926,0.2091762610,-0.2575275453,0.0574494734,-0.0860820013,0.1228581412,0.0261614423,-0.0688735379,0.1996159209,0.1500099910,0.1202392555,0.2153469809,0.0880359628,-0.0220687137,0.1161624926,-0.0777912271,-0.2196508887,-0.0770095645,0.0719561825,0.0823729524,0.2164485575,0.0769033813,0.0218732382,0.0314678650,-0.1146390475,0.0974957718,0.0726327521,0.1680709246,0.0925948061,0.0874011569,0.0778165429,-0.4001890106
-0.0240516063,0.0278945973,-0.0635933424,0.2365553337,0.3684533649,-0.3806791444,0.1958728805,0.0310290690,-0.1289993781,0.1028967655,0.0368090718,-0.1818553654,0.0065150616,0.2742364824,0.1330962901,-0.2942904524,0.0284586677,0.1041278801,-0.1783402844,0.0739868062,-0.1253085844,-0.0808611146,-0.1249939743,0.0189395846,0.0468217509,-0.0775271865,0.0826295663,0.0853791636,-0.0921104343,0.1350914878,0.0377400163,0.0626436876,0.1675659874,0.1200646548,-0.0472815206,0.1429334916,-0.1112523405,0.1642434207,-0.0915822198,0.0279528266,0.0575585298,0.2347601905,-0.0905833046,0.0371675804,0.0189134991,-0.0600624509,0.1275216770,0.0430410533,0.0279994937,-0.0910870696,0.1616191727,-0.0077669311,0.3205402494,-0.1438666997,0.0900474855,0.0453115561,-0.0027282136,0.0913512106,0.0418552201,0.1394370493,-0.0706237258,0.0869460983,-0.1379054187,-0.0016613438
0.0820009692,-0.0518701199,0.1967296843,-0.1703072130,0.1175408638,0.0682291510,-0.0496823683,-0.1184658733,0.0121928478,0.3142329738,-0.0022776250,-0.1019799758,0.2600250490,0.0191519666,-0.0278921006,0.1748056243,-0.0169434096,-0.1835240754,-0.1642565365,0.1205764565,0.0136249983,-0.1237903505,0.0552233313,0.0607921446,-0.2007418517,-0.2198683910,-0.2156236124,0.0497632394,-0.0817545679,0.3385308908,-0.1627109338,-0.1089983402,0.0877475562,-0.1988162614,-0.0260865431,0.2624063487,0.0506110429,0.0528197277,-0.2064218353,0.0395377807,-0.1122936971,0.1497209181,-0.0213428350,0.0559638345,0.0108497830,0.0777134580,-0.2138385213,-0.1390770039,-0.0736756474,0.0085759775,-0.1758595162,-0.0811522898,0.0976420487,-0.0451429793,-0.0452121195,-0.0188376405,-0.1436322447,-0.0968409374,-0.1668466450,0.1024854326,-0.0279586045,0.1669791481,0.0340111916,-0.0588603502
0.0682519296,0.0563457274,0.2679431262,-0.1952231782,0.2368983578,0.1462534912,0.0648078245,-0.0881882183,0.3497145175,0.0888945458,0.1164966594,0.2240621998,-0.1229718187,0.1933452205,0.1813114775,-0.1134710858,0.0632975117,0.2173607032,-0.0907883908,-0.0607554822,0.3735797991,-0.0493740552,-0.1213599150,0.2223499229,0.1846064473,0.1115814546,0.0551713049,0.1977630493,-0.1348454846,-0.1298189649,-0.0985863771,-0.0408340632,0.0721405692,0.1011019371,0.2076512731,0.0449565634,-0.0131210492,0.0144466559,0.0871654114,-0.0786169339,-0.0226541611,-0.1155034412,0.0605930989,0.1109992452,-0.1855007711,-0.2107184225,-0.1191914492,0.2973734833,0.0136717235,0.1790846572,-0.0332371908,0.0462339113,0.0579096895,-0.0873305053,0.0245696096,-0.1474170931,0.0131045190,-0.0073684068,0.1501850891,-0.2382319413,-0.3468181815,0.2019112137,-0.0552144952,0.0895380694
-0.2085083989,0.4130451723,0.2948991113,-0.0408778621,0.0178265108,-0.0763796380,0.1398074129,-0.0802261845,0.0334624190,0.2434254706,-0.0084777114,0.0694475446,-0.1826782270,0.0246100640,-0.0858055734,-0.0091559931,0.0684301706,0.0002571887,-0.0081245003,-0.3162695826,-0.3869394347,-0.0825292774,-0.0201578836,-0.2785791144,-0.0154616490,0.2052638642,0.3072521757,0.0636245283,0.0180508141,-0.2540397162,0.0688817763,0.1500478347,0.1411489703,0.2606127456,-0.1531561014,0.2432634647,-0.1142472024,-0.0247041725,-0.0347175449,-0.0432288413,-0.2301077792,-0.1792814349,0.0774290181,0.0365866503,0.0325269326,0.1274347882,0.0371229091,0.0808753486,0.0481992655,0.1066562524,-0.2835398938,0.1512685196,0.3153059577,-0.1989719019,-0.1319899277,-0.1493687803,0.2170536945,0.1037110046,0.2071862759,0.1578984322,0.1328078764,-0.0418928979,0.0419878376,0.0795833331
0.0960068002,0.0080933897,-0.1911024622,-0.1636187321,-0.1337504112,-0.0413167175,-0.0616355469,-0.0531791147,-0.0386841834,-0.1518571229,-0.1470069025,-0.2414967779,-0.2134905160,0.0179680319,0.2047154436,0.0940436959,0.0073435373,0.0102040455,-0.0311978410,0.0873319285,-0.2190548674,-0.3159203280,-0.2065758496,0.0485650739,0.0106606409,-0.0761363135,0.1287875341,0.1529374812,0.0228920339,-0.0697999967,-0.1528518937,-0.0043631585,0.0616073539,-0.0320065209,0.0162344496,-0.0732726060,-0.1230599876,-0.0082535746,0.0925625464,0.1480190834,-0.1522270407,-0.0025913981,0.1286691234,0.0459311154,0.1731413640,0.0519729415,0.0786456545,0.2174243676,-0.0560989141,0.0778797087,0.0940915803,-0.0218591214,0.0134620091,-0.1163297048,-0.0345037405,-0.1203397331,-0.1606070392,-0.0509339607,-0.0437249054,0.1091886800,-0.1719279118,-0.0372699068,0.1696254690,-0.0775112050
0.0580161207,0.0884758179,-0.1475521804,0.1416632346,-0.0103497780,-0.0960020338,-0.0094766684,0.0816227976,-0.0689216644,0.0228552890,0.0416985952,-0.0645903485,0.0505711922,0.2475266170,0.0055081805,0.1933493295,0.0566881433,-0.0943775210,-0.2274973896,0.1679388165,0.0329991478,-0.2154918032,-0.0079065336,0.0806347512,-0.1056542620,0.1946224061,-0.0719115454,0.1586063888,-0.1150323853,-0.1777649750,0.2833060501,0.0231496705,-0.0262096499,0.2436337712,-0.0408298775,-0.1130278821,0.2123218705,-0.1279551092,-0.0194572777,-0.0891305424,0.0656256942,-0.0152583643,0.1485990708,0.0790190582,-0.0075520329,-0.0333041119,0.0440680518,0.0753100709,-0.0801869563,0.1063693777,-0.0143018289,0.1062885450,-0.0017353507,0.2211845866,0.1511794482,-0.2317230803,-0.1380700078,-0.0934834555,-0.2384866647,-0.0923287149,0.0260528087,0.1440906403,-0.3652803037,0.2193812205
-0.3021120233,-0.0877772226,-0.0078837890,-0.1789687035,-0.0467106904,-0.0983949310,0.0515346127,-0.1138200742,0.0264718002,-0.0796703412,-0.0537655057,0.1513665970,0.1977117573,-0.0144468070,-0.2334852228,0.0135278222,0.2275127376,-0.1792078784,0.1502476631,0.0527111453,-0.0034374380,0.1399707744,0.0527835380,-0.0859216895,-0.0717019205,-0.0271542900,0.0198561806,-0.0350004312,-0.1331751027,0.0270977746,0.1433462817,-0.0076814371,0.1717783065,0.0141081194,-0.0883227718,0.1214090446,0.0678629943,-0.0620597529,0.2211576299,-0.1144395961,0.0406856183,0.1324483754,0.0129066343,0.1199393311,0.2220663870,-0.0194893105,-0.0086532330,-0.0853155756,0.1603034759,0.0276339725,-0.1880642397,0.0404153049,-0.0717923223,-0.0632747207,0.0205224089,-0.1001024749,-0.0854501921,-0.0603517096,-0.1073002891,-0.0792124687,0.0227638446,0.1754180719,0.0809643611,0.0628719714
-0.0273456059,0.2099907249,0.0684967090,0.0315390529,0.2472762179,-0.0943305443,0.0715789505,-0.0994321880,0.0258304546,0.1158071106,-0.3636520825,0.3275641833,0.1299422944,-0.0865092045,-0.1281820029,-0.0559730815,0.2707265219,-0.2035443233,-0.0561548018,0.1842498970,-0.1642992284,0.0516670345,0.0147875249,-0.0869950481,-0.1456261599,0.0656181959,-0.0725727733,-0.1090164464,-0.1523682555,-0.0156748503,-0.1402179655,0.0994935952,-0.0212076226,0.1673947907,-0.0859428804,-0.0604761441,0.0741625679,-0.1674032896,-0.0616329262,-0.1280820323,-0.1687861679,0.1508459650,-0.0959170008,0.2494376300,0.0205352397,0.0718413991,-0.0139855195,-0.0738472083,-0.1046823371,-0.2142800593,0.0310275637,-0.1478018148,-0.2108997182,-0.0670016777,0.2670744497,0.1309039144,-0.1116841242,0.1587764637,-0.2667914065,-0.2675518875,0.0257330236,-0.0598539884,-0.1475806542,0.2967625009
-0.1087672534,-0.0820786942,-0.1268048975,-0.0776939578,0.1228332339,0.0794102042,0.1616369411,0.0362963365,0.0732323432,0.1725460175,0.2345611737,0.0604421570,0.0168379699,-0.0735954096,-0.0891008164,-0.2274403050,-0.5286935358,-0.1584004327,-0.1480388228,0.2406208363,-0.3213045536,-0.0805330300,-0.0095961185,0.1274984747,-0.0321741123,0.1936730006,0.0715713277,-0.1041728893,-0.0546830852,0.3730547003,0.0088282562,0.1494328569,-0.0201103193,0.1660077450,-0.0789906360,-0.3092285493,-0.0642865013,0.2423421646,-0.1868517820,0.0992226376,-0.0662159654,0.1557032893,-0.0048474176,-0.1279806400,-0.2055933208,-0.1174544865,0.1329425912,-0.0941501988,-0.1723197394,-0.0286577471,0.1954007813,0.6295014801,0.2741710229,-0.0720664118,0.1986689388,-0.1135950978,-0.0600632085,-0.0775140557,-0.2157698561,-0.0630710497,0.0432714284,-0.1658463356,-0.2448793259,-0.0530799204
0.0237928141,-0.0313857948,-0.2779539485,-0.0200328064,0.0048537388,0.0125495991,-0.0867102834,0.1139581216,0.1292767066,0.1497318191,0.1291410852,-0.3084390019,0.1944064137,-0.0253141491,-0.0567113057,-0.0990571989,0.1990204114,0.0898612274,0.1066944923,-0.0243654686,0.0053257837,0.2045855110,0.1109474894,0.2135309939,-0.0424987540,0.1051959876,-0.2612665488,-0.0466135376,0.0121229043,0.0580619847,-0.0407303862,0.0332593190,0.1164615926,-0.3653048061,0.0949931265,-0.0853619603,0.2646762752,-0.1097553300,-0.0038405784,0.0661801003,0.0430390862,-0.0999176802,0.0301515479,0.1787698986,-0.2077986671,0.0545645262,-0.0996169797,-0.0417590046,0.3183644108,-0.1708989977,0.0922698806,0.2082944322,-0.0385788808,0.1660261364,0.0562608686,0.2844005633,-0.0064553606,-0.0671940617,-0.0138394289,-0.0462822249,0.0282719573,0.0195916253,0.1610284758,0.0512747859
-0.1274690730,0.1927997195,0.0757836522,-0.1411767002,0.0805986255,-0.0657277475,0.1265978287,0.2885321450,0.0011674074,-0.0340156077,-0.0718249070,-0.0188947688,0.0966226417,-0.0802472447,-0.0470960562,0.1248496952,0.2632321674,0.0073525570,0.1271513459,-0.0862868870,0.0383551496,0.3106319914,-0.2006701416,0.0385245607,0.0935491830,-0.0034763896,0.1836005899,-0.0136936620,0.0492003918,-0.1575871057,-0.0576181868,-0.0125002940,0.0235713245,-0.0300924801,0.1913976032,0.0184467077,-0.0348725043,-0.0479800469,0.0718958064,0.0428035808,-0.1288624447,0.2929857870,0.2340795466,0.2077140297,0.0733070472,-0.0201276835,-0.0914423107,-0.0986606319,-0.1894541511,-0.1014856667,-0.0129683791,0.0474505915,0.1510615121,-0.0568637026,-0.1272150727,-0.1977302295,-0.1952283468,-0.0347932754,-0.1570759448,0.0217704933,-0.0017027054,-0.0214620139,0.0518825522,0.1502949511
-0.1193777318,-0.0412709980,0.0065569452,0.0980759555,0.1160723419,0.0560135008,0.0675682412,0.2306407021,-0.0004690455,-0.0096058847,0.0592030492,0.1736549571,0.2064482335,0.0007741324,-0.0655499575,0.1817340988,0.2870533339,0.0363405195,0.1828965868,0.3343443714,-0.1561866851,-0.1839390671,-0.0760631240,-0.1413085818,-0.0087444670,0.2536515076,0.3580944231,0.3291212501,0.1972523442,-0.0739612577,0.0110612631,0.1240449535,0.0574126951,0.1802480740,0.0779824696,-0.0166174447,0.1242424741,-0.3873841292,0.1249238452,0.2053908742,0.0153974878,-0.1408888832,0.0612687954,-0.0583001532,-0.1228137963,-0.0991750287,0.1775198791,0.0735842173,-0.1848011326,0.0056506855,0.0952571445,0.0365774469,0.0028694593,0.0179917877,-0.1972631872,-0.0311853758,0.1657718408,0.0708480324,-0.2912710552,0.0322766827,0.0526229692,0.0505226667,0.0614053552,0.0631517340
0.0229587903,0.0532409398,0.1128795940,-0.0399454496,-0.0885129305,-0.0934389358,-0.0087486768,0.0087047440,-0.0732178905,-0.0815521109,0.0830747168,-0.1462238348,0.2610937255,-0.0106272921,-0.1532749776,0.1354730402,0.2287425610,0.3155526285,-0.0556877218,0.0794498364,0.1978937485,0.0149777731,0.0118305078,0.0038337863,-0.2089229015,0.2263179247,0.0885783568,0.0633730708,0.0063281804,0.0596907249,-0.0816960732,-0.1507117703,0.1976542686,-0.2751972004,-0.0241828061,-0.1206764919,0.1025997639,0.0276864442,-0.0101087424,0.0214767568,0.0896153771,-0.3032787276,0.2108802875,-0.0306380597,0.1822039632,-0.1405649510,0.2121890016,0.1993513683,-0.0758624207,-0.1073551324,-0.0401202646,-0.3044890488,-0.1402485554,-0.0366867769,0.0358662852,0.1927705309,0.2892170205,0.1127923966,-0.0960831329,0.0119405610,0.1162367987,0.1179962722,-0.0806786344,0.0326595234
0.0173931856,-0.2507910463,-0.0202924264,-0.1980027834,-0.0745821304,-0.1318648466,-0.0257030022,0.0750740436,-0.0991395393,0.2272549056,0.0301023881,-0.0639863439,0.0621802371,0.0195448922,0.0370298252,0.0734486592,0.0331897808,0.1019037140,-0.1330639150,-0.2702459611,-0.0640676435,0.0114585341,0.0270304404,0.2518374719,0.0718808116,-0.0648340081,0.1618878095,-0.0658697398,0.0234748847,-0.0503209501,0.0002499789,-0.2652671293,0.0013476283,-0.2060268496,0.0040592765,0.2014551730,0.1007635567,-0.1791134284,-0.0330868952,-0.0588770359,0.1999577994,-0.1129272722,-0.0336315710,0.1500826355,0.0106007729,-0.1086199913,0.0451751035,-0.2868942368,-0.0554545917,0.2067246106,-0.2119958198,0.0534365470,-0.0331201598,-0.0177888468,0.1024302466,-0.0347009025,0.0398870339,-0.0063093269,-0.0746177064,0.2055024273,0.0078746947,0.1126995433,0.1309997102,0.0398403425
0.1001213634,-0.0912241914,0.0934215247,-0.0827496631,0.0855680307,-0.0039818551,-0.1425159156,-0.0772649088,-0.1723859488,0.0409973282,-0.1837407923,-0.2592300655,-0.1558534307,-0.2143730796,0.0666797197,-0.2125660413,0.1326891796,-0.3488279554,0.1615757328,-0.2388583807,0.1307486915,-0.0759076185,-0.3788185734,-0.1794595993,-0.0234206237,-0.2082083961,0.1826780812,-0.0707900313,0.1042628450,-0.1269762645,0.1247795014,-0.0240982786,0.0999994823,0.0464508419,-0.0140300435,0.2152706806,-0.0747478126,0.1389232109,-0.0208798571,0.0446883171,-0.0118301228,-0.0545155048,-0.1927002093,-0.0008150745,-0.0947671937,0.0286014605,0.0945675581,-0.0301097863,0.0762518807,0.2075030058,-0.0777918913,0.0497970686,0.1791027752,0.0066296907,-0.1146170914,-0.0287435793,0.0150644616,-0.1995022236,-0.0195371868,0.2215145060,-0.0724195004,0.2409913275,0.0577788075,0.2150956234
-0.0498828364,0.0083589027,-0.0221259417,-0.0696951339,-0.0681042253,0.1636238649,-0.2234130573,-0.0156365494,-0.2004270035,0.2254307389,0.1222642785,-0.2437638123,0.0280252582,0.0599147573,0.0202691925,-0.1346522704,-0.0734962325,0.0369857137,0.0203955019,0.1051747775,0.0557370038,0.1550826020,-0.0129351575,-0.0737975197,0.0166567551,0.0449564098,0.0221072589,-0.0225245076,-0.0713922660,-0.0645221265,-0.0225811180,0.0795731869,-0.0134720199,0.0355868136,0.0046707127,-0.0427233569,0.2490634017,-0.0261095704,-0.1148722318,0.1778001921,0.0633371448,0.1066292680,-0.1045117391,0.1259305662,0.0304299571,0.0007996315,-0.0117585936,-0.0272553392,0.0498359855,-0.0407576476,0.0634642368,0.1039094642,-0.0538047830,0.2830122166,0.0699400114,-0.1760026485,0.1375795961,0.0160298597,-0.2067745329,0.1179384816,-0.0522243345,-0.0038666258,-0.0738600461,0.1038870981
0.0199224239,0.0777048920,0.1720932865,0.0274702956,0.0495728006,-0.0545590394,0.0612239650,-0.0010100145,0.1483701165,-0.0902989282,-0.2429040850,-0.0868332776,0.2705292853,0.0873321254,-0.0302855317,0.1117746646,0.1178293256,-0.0515094914,0.1143043687,0.1063930783,0.3124812019,0.1615436858,0.0750058033,0.3273963750,-0.3141796249,-0.1369295719,-0.0518627470,0.0037038656,0.2967485537,0.1883173034,-0.0682391004,0.0454188434,0.0622121491,-0.1056831983,0.0915943497,-0.1552149621,0.1015270906,0.2048422036,-0.1143275068,0.0662725224,-0.0471547579,0.1641770006,0.1790508993,0.1161385152,0.0840656341,-0.0351363060,-0.2850233422,-0.0201164881,-0.0532111692,0.1600494690,0.0110465220,0.1171871409,0.0775209673,-0.0369543185,0.1984175627,0.0805868608,-0.0055963391,0.0095563448,0.1948486248,0.1316185342,0.0758552867,-0.1990237811,-0.0443978312,0.3900879069
0.0364294131,0.0414321655,-0.2268245782,-0.0160708158,0.0426999803,-0.0572479491,0.0375082680,0.0348743755,0.1258004932,-0.0898136937,0.0470569859,0.0880219643,0.0236790383,0.0790969331,-0.1738659752,0.0390095778,0.1832958346,0.0172428332,0.0613109128,-0.0870736786,0.1102571067,0.3122127023,0.3099248927,0.1026815656,-0.1218354218,0.2238403038,0.1522561817,-0.1726351451,0.0369577119,-0.1630635767,-0.0661204149,-0.0647323676,0.2231327901,0.0766344443,0.1540746536,0.2048655023,0.0300037578,-0.1771708999,-0.2504489472,0.0162781247,-0.1130969224,0.0420494954,0.0043946724,0.0361118484,-0.1181040409,0.1107245099,-0.0640891767,-0.1624239960,-0.0027174862,-0.0129498035,0.0473706710,0.1746585266,0.2610038170,0.0881802006,0.0476098027,-0.1717998141,-0.0392216127,-0.0709769629,0.0083635398,-0.0676371088,0.2056102225,-0.0308670860,-0.2552759769,0.3890996184
-0.0226306331,0.2078703301,-0.1735143698,0.1853813080,-0.0441312080,-0.0045603826,-0.0289034335,0.2368655109,0.2317922733,0.1177343295,-0.0241522272,-0.3799247858,0.0893112844,0.1748749531,0.1800255971,0.0779267141,-0.0427677341,0.1194664515,-0.1250645503,0.0459278984,-0.1384054909,0.0379850552,0.1964504921,0.0216535755,0.0366580971,-0.0690667878,0.2463314698,0.1224960023,-0.2670995875,0.1267614033,-0.0734652371,0.2302296174,0.1602662260,-0.0425500049,0.0534526505,0.0984703415,0.0011602728,-0.1722187845,0.1858079776,0.0628846311,-0.1248894065,-0.0338871697,0.0260363044,-0.0159081549,0.1626297528,-0.0395899608,-0.2322107848,-0.0152389909,-0.2645056902,0.2195450900,0.0452062957,0.1028903787,-0.0940909630,-0.1324244753,0.1702055610,0.1013751719,-0.1190965496,-0.1811454012,0.1576615669,-0.1452172821,-0.0251574136,-0.0894509094,-0.0036785494,0.0194508191
0.2626624612,0.0863262765,-0.0819204421,-0.2009592412,0.0584415576,0.0055169605,0.0043229734,0.2563351885,-0.1591165856,0.0817793379,-0.1159647250,-0.0118414145,-0.2109275191,-0.0551549655,0.1803981909,-0.1917761678,0.1199111308,-0.1667346833,0.1374000802,0.0277332089,-0.1921019438,0.0539477055,0.1987108085,0.0433030944,0.1450013542,-0.0527131269,0.0026183295,-0.0134358046,-0.0624758303,0.3100817238,-0.0907120141,0.0335900448,-0.0688947638,-0.1712693097,-0.0487692435,-0.0579580593,0.2574248919,0.1598091828,-0.0831586057,0.1871580679,-0.1093464416,-0.2899081348,-0.1305179805,-0.1243073272,-0.0003608247,-0.0983343570,-0.1792919627,-0.1847605683,-0.0354569490,-0.0420964845,0.0840716924,0.0289873738,0.1420876674,-0.0775928888,0.2142487130,-0.0778900981,-0.0898450167,0.0685475474,0.1500245374,0.1929335462,0.2287199203,0.1532221699,-0.1030986385,0.0646175869
0.0516645562,0.1994080471,0.0297096732,0.1661716809,-0.1169183351,-0.1821348816,0.2448560061,-0.2964420001,0.2342044147,-0.0265443713,0.0477811568,0.1152415452,0.1904043741,0.6042076776,-0.1820774139,-0.0557999335,0.0364667972,0.0760577781,0.0983925712,-0.1291872636,-0.3167649300,-0.0076992050,0.0948084258,-0.2193055216,0.3035843341,0.0939705651,0.0954627564,0.0462226055,0.0319673288,0.2073607235,-0.0484308153,0.1407339602,-0.1499871296,0.1431785161,0.1141907806,0.2084725461,-0.1258144498,0.0199700145,0.0541865016,0.3313478090,0.0283896853,-0.1067212332,-0.0517056046,-0.0127578939,0.2577079773,-0.0885798604,0.0790127693,0.1094653527,-0.0794202261,-0.2188655955,-0.1009886986,0.2889547286,0.0789464162,0.0161852574,0.2417880110,0.0083471604,-0.1270238113,0.1633062854,-0.0982370765,0.2076336841,0.2360364921,0.0191943413,-0.0678630824,0.2883131842
0.1741545136,0.1374493256,0.0706400875,-0.0556237403,-0.0254154513,-0.0479065178,-0.3239337360,-0.1857990510,-0.3023112465,-0.2483558556,0.2715719189,0.0816259902,-0.0353182524,0.1419063458,-0.0954203748,0.0176864558,0.0805797689,-0.1104554594,0.1019531660,-0.0355958863,0.1376588412,0.0338282828,-0.0653167167,0.0501974642,0.0028028350,0.3728338385,0.1030473451,0.1234559170,0.1442869729,0.0496071133,0.3880654835,0.3379393362,-0.1856013202,0.0764754230,-0.0218719687,0.0662794146,-0.1983132628,0.0202830893,-0.0770196042,-0.3541337378,-0.0506690644,0.2809800228,-0.2992819700,0.1831075343,-0.4398233244,0.1177364814,0.2635651699,0.0047654291,0.0745922759,-0.2008914590,-0.1728329853,0.0891547851,-0.1673822506,0.0241150074,-0.2128380731,0.0991863174,0.1981215920,-0.1685306602,-0.0763673484,0.1639670112,-0.1886432948,0.0330796978,0.0714062223,-0.0614899500
0.1957271221,0.0765910013,-0.0318222044,0.1955214633,0.1353785000,-0.1152188432,0.1147788245,-0.2039179760,-0.0162329334,0.0102056579,-0.1264642259,0.4739796638,-0.0233450498,0.0390237347,-0.0395656693,-0.2430774953,0.0582590132,-0.1446776806,0.0360024786,-0.1331927182,0.0730036902,-0.0454524927,0.2041719209,-0.2241521803,0.0521388773,0.0224160041,-0.1644206932,0.1833457688,-0.2728433977,0.1647927494,0.4043287772,0.2608754958,-0.0508735755,-0.1094696321,0.0437116001,-0.1877872738,-0.0638742983,-0.0108381900,0.0479813423,-0.2194233210,-0.0071074078,-0.1059699000,-0.0640696474,-0.0383172319,-0.1674092932,0.2667746206,0.3102767520,0.2147376419,-0.0210865449,-0.0729310720,0.0784098550,0.0881108938,-0.2171384343,0.0180893112,0.1444106436,0.0190935799,-0.0104856881,0.0397540294,0.0019075059,-0.0285139944,-0.0252102424,0.0609374959,0.0321704231,-0.1682130191
0.0780464977,0.0542340131,-0.0630047323,0.0073648639,0.0793020037,0.2713864112,-0.0645142266,0.0937566206,-0.1650546638,-0.1274425587,0.0394474352,-0.0935813537,-0.2967509619,-0.0960246407,0.2533984808,0.1601345916,-0.1883524454,-0.0980859276,0.0656392973,-0.0500469052,0.0054157050,0.0278649988,-0.2434548913,-0.1651369669,-0.1725637950,0.0802380008,-0.0264519665,0.0625968911,-0.1440876442,-0.1426305432,-0.1159554247,0.2011283800,0.2550544290,-0.2361938705,-0.0160906779,-0.2523355214,-0.0941569571,0.0821130303,0.0727851056,-0.0528108312,0.0594720622,-0.0851930076,-0.0013861312,-0.0045405689,0.1861052423,-0.0515881507,-0.1250162708,0.0546035552,0.0986993417,0.0392458771,-0.1547228529,-0.1147383277,0.0620148236,0.0632213574,-0.2843138430,0.0521068851,-0.0863113765,0.1223071981,-0.0965705249,0.0786664851,0.0565095342,0.1539274217,0.4668620880,0.1115920489
0.0275098208,-0.1392748316,-0.1939222700,0.0176867679,-0.0342345734,-0.0546922488,-0.1571965203,0.1596259842,0.2732927458,0.0131040181,0.1461296399,-0.1850884082,-0.0270365954,0.0965245581,0.3298113269,-0.0445522888,-0.0923818003,0.2634501288,-0.1051950016,0.0727363820,-0.1170609625,-0.1961302452,-0.0341354828,0.0640020315,0.0638644492,0.2458187842,0.0855954259,-0.2861921674,0.0777050439,0.0636577263,0.0137157177,-0.3128898009,-0.0238856019,-0.0484829269,0.2631832741,-0.0056842823,0.1008617627,-0.0169082456,0.1786625254,0.2575958928,-0.1305431036,-0.0388328550,0.1233076606,0.2766509822,-0.1451441124,-0.2423030768,-0.1778802963,0.0441252876,0.0273030931,0.1460440728,-0.1658877596,-0.0556290239,0.1399825532,0.1754569073,0.2618048354,-0.1807506904,-0.0218078172,0.2633539449,-0.1622124308,0.1354672457,0.0687874255,-0.1952156547,-0.1690113952,0.0027083216
0.0302472271,-0.0211957648,-0.1770907059,-0.1473776395,-0.1893829042,0.0168009941,-0.2379814056,0.3118606671,0.1854518716,-0.1707870576,0.0147865468,-0.0409980081,0.1786078534,-0.0269211198,0.0969303018,0.0027439867,0.3177327355,0.0173098963,-0.0192373465,-0.0638291053,0.0571891461,-0.0060209916,0.0270582586,-0.0605181733,-0.3499173319,-0.0381266084,0.0145734504,0.2224854636,0.1027389276,0.1148023864,0.1620556423,-0.0197862910,0.1145034195,-0.0120554650,0.1000721791,-0.0087842650,0.0343610158,-0.0071990114,0.4257921184,-0.1666605782,-0.2170802944,0.1163517908,0.2455704708,-0.0546094624,-0.0282750720,0.0811689388,-0.0967850458,-0.2477980582,0.0455573926,0.1340403299,-0.0438483759,-0.2657493152,-0.2283641854,0.0519512012,0.0479390470,-0.1371014034,0.0071443255,0.0188994881,0.0895110451,0.0911131844,-0.1515433257,0.1708186382,0.0508222619,0.1352429821
-0.0665161572,-0.0807493731,-0.1906390286,0.0271172432,0.1907011882,0.0066650620,-0.2078242719,-0.0728251566,0.3149600444,-0.0649443583,0.0892727492,0.0970758244,0.1167204542,-0.2008356582,0.4196282178,0.1627598462,0.2298802883,0.0513786327,-0.0948843814,0.1520383862,0.0008439266,-0.2282609804,-0.0193731630,0.5256939120,-0.2100357627,-0.2323228489,-0.0801424547,-0.1879992351,-0.0423380077,0.1570980625,-0.2843315831,0.0612848115,0.0039156138,0.0114155003,0.0930375266,0.0694572443,0.1248530570,-0.1320978350,-0.2124440025,0.0628963592,-0.1582080582,0.1438412517,0.3568598498,0.0247290668,0.3510885373,-0.1483446252,-0.1704058165,0.2030196979,-0.0953919488,0.2993829622,0.0957101635,-0.1800103931,-0.1748877316,-0.1498252244,0.1978490005,-0.0397049096,0.0869873569,0.0565145381,0.1856253588,-0.0994160470,0.0548433778,0.0501226318,-0.1887707650,0.2969089331
0.0740525954,-0.0026543024,-0.0877235681,0.0233471442,-0.0591441916,-0.0553043442,0.2094233366,0.4246367602,-0.1038223500,0.3174921302,0.0228915214,0.1979596073,0.0298097831,0.0511070609,-0.0235549342,-0.0183834163,-0.0394522288,-0.0054617650,-0.0305587178,0.0354754348,0.0923496274,-0.0423216748,0.2003698501,0.1199893717,-0.0335062014,0.0260287420,0.0038222278,-0.0924954240,-0.2342788397,0.1255312236,-0.0060301370,0.0584731521,-0.0266176920,-0.3241084086,0.0464657007,-0.0038682644,0.0195245073,-0.0917417622,-0.2299487367,0.1563971427,0.0945443797,0.0192506936,0.0009670518,-0.0894156950,-0.0435206878,0.0556558870,-0.1399492565,-0.1311308893,0.0883524762,-0.1426552759,0.0168995002,-0.0632696817,0.1181271365,0.1236387555,0.0015507705,0.1005058706,0.2769198503,0.0820519905,0.1889633891,0.0087698158,0.0200172552,-0.0606491474,0.1327169695,-0.0638037675
-0.1570486982,0.0817565793,0.1681646726,0.0445561908,0.0933072429,-0.0126444531,0.1319379732,-0.1590378408,0.0879773441,0.2580411791,-0.1248617021,0.0350467976,0.1033353660,0.1910063071,0.3001945398,0.1278597534,0.1026226618,0.1436754584,-0.1250946235,0.0529962614,0.2878587867,0.2539100312,0.0901607646,0.3713724982,0.1633574422,0.0941542815,-0.0371180932,0.0746006519,-0.0645921141,0.0467627269,0.3152613173,-0.0396227485,0.0181659119,-0.1859075825,-0.1190299275,0.0605180621,0.1092956829,0.2642872389,0.1834451407,0.1220941402,-0.0834577558,0.0890550934,0.0278687542,0.4630250412,-0.2316715132,0.0650158590,-0.0207478491,-0.0861351745,0.0442033655,0.2956474483,0.0336367905,0.0121921654,-0.1798682926,-0.1039207135,-0.1109761990,-0.0558009443,0.0731596111,0.1973861180,-0.1614368481,-0.0654724365,-0.1741597478,-0.1918371565,-0.1800717666,0.3870503573
-0.1696483217,0.0232079196,-0.0095320373,0.1492493511,0.0775353556,-0.0043257611,0.0167081831,0.0493605842,0.2377712109,-0.1790915424,-0.0104701552,-0.1663684047,0.0251036882,-0.2629781548,0.0943557958,0.0525336000,0.1412698972,0.0697387190,0.1310000474,-0.0451963694,0.1801963253,-0.1427870449,-0.2119530505,-0.0541099664,0.1421095082,0.0942974884,0.0664777515,0.0706660470,-0.0327859958,-0.0878697371,-0.1755023669,0.0231909427,0.0756446225,-0.1602339603,-0.1573756919,0.1645210832,-0.0839228069,-0.0275620289,0.0484238038,0.1368267026,0.0350102161,-0.0865788246,-0.0996529585,0.0906026261,-0.0875939132,0.0973848772,0.0363363420,0.0828800148,-0.1968411261,-0.0744267589,0.1461231243,-0.0946010005,-0.0444162156,-0.0453609133,-0.1100585530,-0.1175080280,-0.1790979245,0.1591278862,-0.0797071244,-0.0477382277,-0.0311367320,0.1515029178,0.0127446236,-0.0852532074
-0.0506587037,-0.2263711990,0.0001465901,-0.1091782027,-0.0742366566,-0.0264834015,-0.0064705339,-0.0655926643,-0.0317693136,0.1234575426,0.1137367834,0.0239951965,-0.1072005247,-0.0427790603,0.3506211862,-0.0643247943,-0.1600786160,-0.0335775556,-0.1455226451,0.1491418474,-0.0392643490,-0.1864804200,-0.2018082542,0.0508996036,-0.1323929563,0.0181816591,0.0616715927,0.0582161941,0.0499964598,0.2888934754,-0.1122929174,0.2562663656,-0.0203865135,-0.1323434360,0.1455350803,-0.0675411363,-0.0178184038,-0.0675004324,-0.0702303359,-0.1477387995,0.2438913781,-0.0808275278,-0.2120252832,-0.1069425115,0.0328842231,-0.0021094280,0.3106509678,-0.3548365546,-0.1285368439,0.2314994597,0.1107946576,0.0294565697,-0.0958964275,0.5130372071,-0.1243419452,0.1775507587,0.0275375629,0.0579977299,0.0061591166,-0.0775150369,0.0727959728,-0.1524474127,0.2444374932,-0.1138700537
-0.3076638497,-0.2939335650,0.0954452918,-0.0034540845,0.3036394092,-0.0665700603,0.1069391478,0.3314520622,0.0902680579,0.0898457057,-0.0543107217,-0.3681563633,0.0943814052,0.0209820304,0.0295294107,0.0034248929,-0.2371199035,-0.2434268433,-0.0566919599,0.2061467980,-0.0416604821,0.0716061040,-0.0267485656,0.1463695854,-0.1281058021,0.0065543806,-0.0421403199,-0.1147659357,0.1782729822,0.2965837971,0.2970133766,-0.1671486597,0.1708769127,0.1367173957,0.0022597287,0.1352571984,0.2423745475,-0.1603376602,-0.4063888815,0.2391183862,0.3749925752,-0.0803196447,0.0482718941,-0.1395268709,0.1048043137,0.0763814283,-0.0492024185,-0.0694126559,-0.0672163494,-0.0964312889,0.0923372332,0.0032351654,0.1188214122,-0.0522447243,0.1869942629,-0.0461436996,-0.0452898796,-0.1202126185,-0.0205835885,0.1589548548,0.0304915739,0.2871832128,0.0876994530,-0.0337952156
-0.0971698322,-0.1308076239,0.0270592430,0.2168823768,-0.0685939960,0.0594544260,-0.1248949407,0.3395537661,0.0417088160,-0.2490356888,-0.0365712386,-0.0265482026,-0.2460466354,-0.1244827855,0.1022893580,-0.1425314221,0.1003706728,0.2217519785,-0.1429108180,-0.0658411310,0.1581078737,-0.0532247025,-0.0441633901,-0.1612973917,-0.1391072741,-0.2245321549,0.3110176776,0.0786098661,0.0302287918,-0.0561693488,-0.0736849763,-0.0088479208,-0.0390359111,0.1739068180,-0.0820537337,0.0987861016,0.1380576837,0.1094773726,0.0003263735,0.1619404166,-0.0736642986,-0.0860240315,0.0323577250,-0.0100293250,0.1529423291,0.1374311622,-0.1941684689,0.1875459249,0.2993077822,0.2885061526,-0.0210622872,-0.0617179012,0.0856935117,0.0805243012,-0.2032026129,0.0625291240,-0.0759475531,-0.0302258523,0.0569699637,0.2610177370,-0.0812525258,0.0070480614,0.2009308660,0.2105835654
0.0142777118,-0.0196551347,0.1756090897,0.1955913406,0.3695112958,0.1165916905,-0.1571585990,0.1623702973,0.0126628624,0.0875746453,-0.2021707135,-0.1549641497,0.1429662910,-0.0757807132,0.0865890863,0.0208808320,0.3204756638,-0.1121645393,-0.0124432281,-0.1471379622,0.0768546308,0.0804992869,0.0379010138,0.1860687159,0.0627444646,0.0608408517,-0.0625381079,0.2056654607,0.0329437637,0.0895709848,0.2619622387,0.0989191376,0.2338605619,0.1144488636,0.2034713196,0.1274787983,0.0926079071,-0.0650853560,0.0040633027,0.1866123500,0.0589746293,-0.2570551081,0.1260331759,0.0618543671,-0.0272161600,-0.0898399170,-0.1087719069,0.0042794143,0.2423061196,0.0903130287,-0.0447255683,0.1312386596,0.3027141579,-0.0659424046,0.0169285734,0.0161554393,-0.0066306963,-0.3392149906,-0.0059419690,0.0855956493,0.1520821537,-0.0879002073,0.1523781768,0.1243349325
0.0712592388,-0.0447804829,-0.1795762037,0.0214915808,0.1107408523,-0.0295483230,-0.0143394016,-0.2530170390,0.0898524684,-0.0114930928,-0.2197657572,-0.0778484504,-0.1750927890,0.1068701917,0.0254329776,0.0922152380,-0.0435754840,-0.1115199962,0.0346221737,-0.2174985399,-0.1904747631,-0.0631392725,-0.0907889955,0.1236621897,-0.2190208051,-0.1489579959,-0.1904996933,0.1428174890,-0.2530926817,-0.1274608157,-0.1172978258,0.1329791864,-0.1931081056,-0.0307309608,-0.2078129476,-0.2228782406,0.0406941729,-0.0151751422,-0.0907497370,-0.1443882823,-0.2459233870,0.2956953441,-0.0601515204,-0.0470851532,-0.0801284411,0.0120267994,-0.1591699873,0.2557713130,-0.2630723542,0.1157025394,0.1293246250,-0.1166462212,-0.3896290481,-0.1376728507,0.0451203430,-0.0339642191,-0.0266636394,-0.0095507326,0.2046635880,-0.0474885053,-0.1684044732,-0.1413251388,0.1698732323,0.1187850020
0.1560945882,0.1592604389,-0.0327622247,-0.1076783549,0.4041389395,-0.0591247468,0.0260789938,-0.2393441801,-0.0606637433,-0.2160655693,0.2188247731,0.0081433342,-0.0001274545,0.0215949766,0.3227834126,-0.0698054339,0.0896323213,0.1079219608,0.0553791292,0.1458426726,0.1154468183,-0.0802250113,-0.1035558119,0.2312023235,-0.0010204954,-0.0360068640,0.0460092694,-0.0512626624,0.0513383253,-0.0515303985,0.1669828773,0.1088334873,-0.0326661356,0.0248249285,0.1991054374,-0.0241001121,-0.2817330570,-0.0507089774,0.1952733905,-0.0075841569,0.0992881087,0.1313053999,-0.1797169554,0.2008394566,0.0713709754,-0.2809107258,0.0797590051,-0.1274161821,0.0178003468,0.1457033936,-0.0810046043,0.1339137392,0.0055463535,0.0593451206,0.0885926869,0.0820683868,-0.0513093813,-0.0474346803,0.1068131368,-0.2031901764,0.1525067492,-0.0057391932,-0.1146033291,-0.0360739688
0.0619322191,0.0193789225,0.1035208688,-0.1355701754,0.3515272233,-0.1454526867,-0.0344838524,0.0929132501,0.0065775346,0.1601610715,0.0954601611,0.0801073153,-0.0673250159,0.2115683135,0.1097975188,0.0415723159,0.3812124775,0.1239094962,0.0404992795,-0.0880460055,0.2167813184,0.1446185425,0.1886305485,-0.0872170560,0.0750717928,0.0689900518,0.2701676420,-0.2453981825,0.0164450908,-0.0853616616,0.0254734878,-0.0430125519,0.1540414243,0.0571859936,-0.0132645872,0.2910270313,0.1027456040,0.0439603342,0.2127302190,-0.0103325033,0.0158468440,-0.0222299557,0.0150276855,-0.3113292173,0.1219855608,0.1053954296,-0.2663095340,-0.0436853049,0.0182788185,0.0857995158,0.0592880995,-0.2255956550,0.2383976301,0.0244604934,0.1662535123,-0.0995186446,-0.0969577135,-0.0239570744,-0.1461009595,0.2494380918,-0.0264347114,0.1930467370,-0.0327039666,-0.3324881769
