0.0645390190,-0.0587356747,0.0633014751,0.0085079686,0.0788780143,0.0804851625,-0.0002422145,0.0636956509,0.0374994778,-0.0894998701,-0.0446128188,-0.0111157143,0.0274144894,-0.0309035380,-0.0132922906,-0.0092403783,-0.0691182835,-0.0127258401,0.0430029633,-0.0521916391,0.0675245625,0.0779530170,-0.0296805162,0.0665653387,-0.0276060569,0.0561451696,-0.0624328229,0.0068085104,-0.0483144250,0.0173422178,-0.0169275006,0.0559953133,0.0400582276,-0.0033682550,0.0615017517,-0.0342804279,0.0631819059,0.0568980428,0.0020123369,-0.0850350591,-0.0045003528,0.0975354890,-0.0541923461,0.0581077816,0.0661403203,0.1192894273,-0.0432163493,-0.0635731330,-0.0023066241,0.0033279699,-0.0056361839,0.0057616107,0.0409549428,0.0149655650,0.0046378531,0.0590506974,0.0452162843,0.0289516279,0.0715664820,0.0472483637,0.0181640954,-0.0358260448,-0.0394845598,-0.0088725304,-0.0776418552,-0.0567196664,-0.0085404691,0.0599103362,-0.0144340286,0.0141209406,-0.0015408255,0.0444062108,0.0618171817,-0.0151680248,-0.0326333423,0.0360410942,0.0775996692,-0.0583056030,0.0079112872,0.0704298476,0.0041315068,0.0218829818,0.0146585663,0.0935106717,-0.0252414649,-0.0835102464,0.0100647483,0.0400777148,0.0155279066,0.1072068800,-0.0201641770,-0.0631878340,-0.0433281942,-0.0123725702,0.0613476256,-0.0505745715,0.0028162920,0.0281762054,0.0731130671,-0.1445705507,-0.0374858405,0.0113152281,0.0350682231,-0.0050129836,-0.0447149725,-0.0181877662,-0.0387203850,-0.1177146228,0.0276257331,0.0412868399,-0.0084843616,-0.0432863926,-0.0523793921,0.0703572590,0.0205515887,0.0594836867,-0.0314959063,-0.0000270191,0.0034727813,-0.0434070664,0.0152993398,-0.0005997756,0.0474438217,-0.0448181905,-0.0387343963,-0.0268506622,0.0270537994,-0.0799599847
0.0409585781,-0.0594645072,-0.0467972165,0.0400260931,0.0114213327,0.0356243729,0.0080854785,-0.1093886486,0.0355314158,0.0065517398,0.0043841170,0.0245060518,0.1021955038,0.0336762234,0.0338059062,-0.0049748894,0.0127847479,-0.0444858662,0.0160208283,-0.0008352736,-0.0152401974,0.0101579249,0.0306200407,-0.0395584374,-0.0689411801,0.0288503172,0.0412807062,0.0663527381,-0.0775504890,-0.0367658400,-0.0148122571,0.1364495258,-0.1231808662,0.0295788574,0.0286186458,-0.0440867718,-0.0526400757,-0.0260987668,0.0287017747,0.0753489908,0.0116639098,-0.0415867807,0.0343022658,0.0107448946,0.0895296432,0.0631932974,-0.0028212574,0.0258952613,0.0257251916,0.0174122293,0.0175471706,-0.0635437937,0.0150848002,-0.0305052121,0.0118028629,-0.1128372016,-0.0291741261,-0.0119520398,0.0187059229,-0.0243826145,-0.0212044731,-0.0226655601,-0.0006614288,-0.0749467648,0.0071227849,0.0401934192,0.0358118229,0.1237296958,-0.0129968163,0.0037302236,0.0385754107,-0.0395488864,0.0950367077,0.0494721690,0.0455711331,0.0390101043,0.0391594493,-0.0752668774,-0.0295595257,-0.0297100555,0.0131876504,-0.0580547935,-0.0483210439,0.1004842682,0.0767928149,-0.1011644167,-0.0131445392,0.0209893162,-0.0477342071,-0.0151932526,-0.0004654878,0.0533603325,-0.0183013003,0.0206653975,0.0906634496,0.0911520530,-0.0494340844,0.0168539234,0.0354532893,-0.0069323074,0.1212325090,0.0173430388,-0.0153187854,0.0091637959,-0.0904837181,0.0305665019,0.0132946774,0.0278997554,-0.0248040640,0.1237633664,-0.0300779365,0.0174292422,-0.0824978812,-0.0096939945,0.0041517849,-0.0511832703,-0.0087522184,0.0237673499,-0.0314044253,0.0431284094,-0.0221361467,-0.1010413953,-0.0012598173,0.0407589917,0.0762417108,0.0839921914,-0.0912707977,-0.0320138449
0.0652762044,0.0393100940,-0.0717917068,-0.0102563021,0.0242501748,0.0071116235,-0.0745681110,-0.0161792758,-0.0091739417,-0.0409110956,-0.0649476865,-0.0093550519,-0.0375022098,-0.0385171365,-0.0356619446,0.0157912475,0.0312332378,0.1018135775,-0.0546980912,-0.0252920853,0.0872730905,0.0855855949,-0.0079335336,-0.0653228515,-0.0694901457,-0.0103263883,-0.0465208805,-0.0366005923,-0.0158933074,-0.0934563554,-0.0012255694,-0.1047556235,-0.0172718709,0.0098871813,0.0248010939,0.0773325853,-0.0238168015,-0.0727176856,0.0415640123,-0.0376618498,-0.0057217527,-0.0323338095,0.0344194543,0.0625907164,-0.0447056120,-0.0184520310,-0.0726029377,0.1237051647,0.0391752528,-0.0153543319,-0.0420121041,-0.0400421988,-0.0443150733,0.0359760334,0.0064077663,0.0285717183,0.0439553385,-0.0737684662,0.0218555795,-0.0404250330,0.0897980020,-0.0618654471,-0.0153314843,-0.0047973789,0.0439868614,-0.0413269250,0.0185358955,-0.0971321402,-0.0139098731,-0.0167529409,0.0064244725,0.0255353651,0.0393332049,0.0674116064,0.0076114934,-0.0179949449,0.0061827774,0.0244855573,0.0267155968,0.0102254944,-0.0716333333,0.0041873224,-0.0123497712,-0.0645513810,-0.0401801188,0.0594119747,0.1041343746,0.0273225104,0.0433960528,-0.0049485482,-0.0792804431,-0.0541478289,0.0311439167,0.1071703537,-0.0928646555,-0.0623715074,0.0301049058,0.0631583147,0.0137311306,-0.0691108737,-0.0069603621,-0.0300839236,0.0041984606,0.0435179754,-0.0386762541,0.0093691860,0.0004373878,-0.1449854160,-0.0391243812,-0.1061144984,0.0172815018,0.0382652749,-0.0298763802,-0.0137574664,-0.0176620566,0.0284561845,0.0088281235,-0.0311261954,0.0244866081,-0.0865366414,0.1332898863,-0.0338873122,-0.0735386816,-0.0507634756,-0.0011752311,-0.0183854427,0.0304703100,0.0453406012
0.0709403829,0.0014229412,-0.0456204487,-0.0833421389,0.0040960913,0.0195711697,0.0357101211,0.0248766300,0.0650493504,-0.0273583824,-0.0211047440,-0.0641507919,-0.0058775955,0.0124772187,0.0598023119,-0.0171554232,0.0451856004,0.0241743560,-0.1157620556,-0.0541475372,0.0597611355,-0.0285336280,0.0060885241,-0.0548268335,-0.0080975494,-0.0757888301,-0.0634937249,-0.0399903322,0.0684522700,0.0327478167,0.1087178684,-0.0184518944,-0.0604323712,-0.0013169024,0.0016118178,0.0099337403,-0.0101034055,0.0024953985,-0.0196974333,-0.0304431712,0.0390598656,-0.0106193348,-0.0577065021,-0.0204036365,0.0270948407,0.0555301425,-0.0306156043,0.0723922899,-0.1076932233,-0.0272834585,-0.0454944073,0.0381940233,0.0051137251,0.1039012247,0.0515855219,-0.0355696092,0.0453536923,-0.1089450496,-0.0096073929,0.0805382223,0.0631878430,-0.0001870755,-0.0334011740,-0.0751049807,-0.0156527779,-0.0462834144,0.0861403140,0.0309940978,-0.0522359366,-0.1445301501,0.0565782386,0.0130261701,0.0784946810,0.0716104440,-0.0458265218,-0.0828659614,0.0229039946,-0.0455126180,-0.1014462272,0.0061165442,0.0240163351,-0.0586872456,-0.0579287580,0.0003873672,-0.0285389907,0.0224965108,-0.0895125074,-0.0512857342,-0.0725381828,0.0663995602,0.0017546882,0.0044766884,0.0566250476,0.0335353554,-0.0405372328,0.0483864312,0.0474686340,-0.0217222926,0.0480238231,-0.0176718208,-0.0250810505,0.0145006787,-0.0717055087,0.1248875675,-0.0144370775,0.0662858306,0.0142502428,0.0203160783,-0.0623798275,0.0643480779,0.0079843436,-0.0097699693,0.0903907058,-0.0470471730,0.0189989828,0.0743031138,-0.0956345778,-0.0939277463,-0.0092565569,0.0420147326,0.0756112039,-0.0426723065,0.0276821262,0.0248438197,-0.1175396980,-0.0923531224,-0.0238021169,0.0112386232
0.1072895480,0.0394228349,-0.0404422960,-0.0137902042,-0.0111162410,-0.0155457777,0.0427608434,-0.0197426042,-0.1241187133,0.0047756487,-0.0327811153,-0.0589466671,-0.0544713259,-0.0609177637,0.0337925925,-0.0835228723,0.0306625362,-0.0602700430,-0.0715199496,0.1249922359,-0.0190601228,0.0099043606,0.0256797483,0.0597828614,-0.0021306096,0.0407955630,-0.0117103098,0.1019305991,0.0156056557,-0.0250588035,-0.0335504457,0.0517380269,0.0316045532,0.0371645291,0.0336417439,0.0233475937,-0.0294474824,0.0341917424,0.0125919393,-0.0456174536,0.0546566965,0.0128863202,-0.0744058752,0.0456187885,-0.0251189881,0.0562998177,0.0518612168,0.0672792331,-0.0289345479,-0.0638965894,0.0310091018,0.0797329846,-0.0161405506,-0.0203542913,0.0313450616,0.0484846183,0.0285713901,0.0795361711,-0.0559584503,0.0659287802,-0.0474874289,-0.0516068527,0.0353915101,-0.1160194766,-0.0609262196,0.0262755639,0.0187588140,-0.0583619550,-0.0181314664,-0.0168279322,0.0779038983,-0.0342561198,0.0501257871,-0.0291476785,-0.0664292010,0.0177552804,0.0475976380,-0.0176439324,-0.0255296728,0.0038838123,0.0525487089,0.0816506920,0.0408471682,0.0755496363,0.1024962623,-0.0749681875,-0.0193938174,0.0501714618,0.0300238246,-0.0644363820,0.0481338000,-0.0024871259,-0.0442371369,0.0335690047,0.0815485521,0.0734302312,-0.0481129027,-0.0785629376,-0.0439234403,0.0678225157,-0.0475397586,-0.0956838320,-0.0047754396,0.0101423144,-0.0118183149,0.0085597819,-0.0003230822,-0.0348274379,0.0248108126,0.0311270109,-0.0836646886,-0.0097001609,0.0159398662,-0.0023380897,-0.0319120125,0.0945222741,-0.1213116011,-0.0211517545,0.0526987406,-0.0241517050,-0.0400893609,0.0075168760,-0.0317997283,-0.0796881187,-0.0166810734,-0.0101892071,-0.1151082724,-0.0864623715
0.0355869713,0.0459405954,-0.0570511704,0.0516277253,0.0434253067,-0.0067590146,0.0528465361,-0.0176108612,0.0622963269,-0.0371001232,0.0574177392,0.0449579394,-0.0528011027,-0.0439701935,-0.0358444567,-0.0680037238,0.0694346451,-0.0653147859,0.0208520827,0.0788868582,0.0695193980,0.0049640646,0.0428876793,-0.0953664513,-0.1002828198,-0.0013583428,0.0288567776,-0.0270278977,-0.0266929046,0.0018004322,0.0000254143,-0.0503094569,-0.0407655077,-0.0913739665,0.0219659678,-0.1043588314,0.0385077142,-0.0176041367,-0.0230342926,0.0462422897,-0.0072561572,-0.0107625271,-0.0124477608,0.0193140588,0.0073713863,0.0061015653,0.0342736931,-0.0580142698,-0.0104722548,0.1145789336,0.0177231825,0.0428285185,0.0620613620,0.0010578053,-0.0349792521,-0.0592728774,0.0320911886,-0.0160362479,-0.0245033878,-0.0010167848,0.0323459391,-0.0572231253,0.0369173671,-0.0180145154,-0.0086423190,0.0089564127,0.0665131187,0.0304036259,-0.0543521762,0.0575361500,0.1096143195,0.0438011000,0.0771131874,-0.0070775008,0.0222762764,-0.1775842084,0.0283165713,0.0501752091,0.0491719181,-0.0148423276,0.0425682312,-0.0352248469,0.0101535550,-0.0841854413,0.0117105484,0.0364164596,0.0184759511,-0.1486332000,-0.0569327472,0.0427577377,0.0281392911,-0.0433037973,0.0361084449,-0.0474867126,-0.0106337637,0.0186138091,0.0603203411,-0.0573811477,0.0586483913,-0.0092962461,-0.0402257535,0.0305059226,0.0009356008,0.0137895280,-0.0396611586,-0.0697894068,-0.0206451230,0.0652005523,0.0799779261,0.0392380012,0.0558148383,0.0349335239,-0.0447783954,-0.0924968759,-0.0008438542,-0.0652449418,-0.0068144727,0.0688112085,-0.0017101188,-0.0122701724,0.0384569253,-0.0145305419,0.0515592853,0.0640605142,0.0217437467,-0.0057091997,-0.0601252173,-0.0065945017
-0.0213301296,0.0207594274,-0.0936847616,0.0277921939,-0.0154841666,-0.0328686092,0.0077988988,0.0431198903,0.0055799027,0.0541886726,-0.0081493173,0.0188079830,-0.0124596281,0.0307615222,-0.0955553497,0.0024654772,0.0853198979,0.0397025458,0.0876009166,0.0556212662,-0.0234918278,0.0117301426,0.0180202314,0.0548821344,-0.0419098689,-0.0634710647,0.1223195638,-0.0833312368,-0.0030420882,-0.0103795916,0.0484062421,0.0469875941,0.0342391386,0.0114952575,-0.0848953575,-0.0465977325,-0.1042030408,-0.0156640831,0.0749102773,-0.0208451441,-0.0150112192,0.0017339345,0.0408303298,-0.0226542226,-0.0240575295,-0.0394038955,-0.0413541635,-0.0014643964,0.0989902835,0.0536605937,-0.0792936161,-0.0143244898,-0.0822538300,0.0174187913,-0.0354705669,-0.0188811409,0.0935759431,-0.0381275910,-0.0050571541,0.0705730190,0.0615110454,-0.0015312686,-0.0083067705,-0.0237185252,0.0852129336,-0.0051156455,0.0746302460,-0.0169166251,0.0176017073,0.0083950530,0.0549616394,-0.0779200122,-0.0410726494,-0.0314898381,-0.0415368953,-0.0262363146,-0.0525454735,0.0097033527,-0.0211748144,-0.0176952161,-0.0120181650,0.0105695278,-0.0034319764,-0.0648491357,-0.0822638807,0.0229882468,-0.0287118234,-0.1130068652,-0.0343583564,0.0101488303,0.0280666941,-0.1016163383,-0.0336292932,0.0309163148,-0.0091122849,0.1233697671,0.0679664277,-0.0247284022,0.0367160571,0.0384901853,-0.0631995375,0.0174288442,0.0551580787,0.0375334122,-0.0274801693,-0.0046822185,0.0329334405,-0.0662075033,0.0422525712,0.0172260317,0.0059587182,0.0193051350,0.0639853475,0.0327138681,0.0406788970,0.0943704579,-0.0175496396,0.0154558796,0.0199569179,-0.0370760850,0.0491967651,0.0359967145,0.0554820836,0.0439382102,0.0532535195,0.0233161632,0.0571053088,0.0144953621
0.1151277579,-0.0015921290,0.0101024691,-0.1186188190,0.0422870151,-0.1166784138,-0.0592998008,0.0179427419,-0.0541292265,-0.0056046926,-0.0069167654,-0.0610266902,-0.0114934065,0.0295173069,-0.0137071554,0.0585185588,0.0254628136,-0.0374269181,0.0038888725,0.0054924133,-0.0145996464,-0.0106195833,0.0066473474,0.0279537968,-0.0763298792,0.0468990450,0.0232530335,-0.0130056752,-0.0051361538,0.0522468018,-0.0373234330,-0.0944304567,0.0133512622,-0.0803992703,0.0292181533,0.0104669663,0.0224709737,0.0308646961,0.0866566145,0.0150526585,0.0360834823,-0.0150167279,0.0466544548,-0.0544448493,0.0065111943,0.0831097557,-0.0120873325,-0.0263057179,-0.0118741865,-0.0471508396,-0.0470112253,-0.0319275747,-0.0173663564,0.0529637877,-0.0239160001,-0.0404917424,-0.0002238865,-0.0455814354,0.0420886888,-0.0047340668,-0.0202870098,0.0758611940,-0.0475713216,0.0362066121,0.0191804130,-0.0081960229,-0.0009211912,0.0243443884,0.0319211287,-0.1037046290,-0.0423490210,0.1255747217,-0.0337006251,-0.0193883296,0.1114687347,-0.0688695911,-0.0245626123,-0.0134738841,0.0074672520,0.0289839472,-0.0010274234,0.0080578004,0.0612087297,0.0614567607,-0.0048057353,-0.0183126780,0.0196478472,-0.0260187802,0.0012193023,0.0091867943,0.0755171171,-0.0468911907,-0.0133093959,-0.0141213812,0.0231897859,-0.0501353060,-0.0298795668,-0.0329347200,-0.0127871110,-0.0014645756,-0.0872437681,-0.0302612013,-0.0923309233,-0.0168485674,0.0510613056,-0.0800063358,-0.0315790022,-0.0244080359,0.0693946280,0.0013224845,-0.0891106312,-0.0413621469,0.0733864860,0.0132446137,0.0126955228,0.0036370636,-0.0169846987,0.0538387782,-0.0853025120,0.0770480848,0.0672504493,0.0005125646,-0.0949971405,-0.0097283860,0.0136106823,0.0930376735,-0.0750660452,0.0018179388
-0.0343192758,-0.0133845228,0.0125021218,-0.1285136033,0.0294859523,-0.0354551282,0.0992259913,0.0666673784,-0.0940526545,0.0466339574,0.1080663831,0.0771091660,0.0124175531,0.0623081863,-0.0103083763,0.0621879517,-0.0537940579,-0.0362101792,0.0331983531,-0.0269376054,-0.0138855012,-0.0080026912,0.0111003309,0.0673041185,0.0240721977,0.0394923942,0.0198994113,0.0049297283,0.0027977502,0.0378150061,0.0166042390,-0.0002319107,-0.0938092711,0.0080541683,-0.0029959036,0.0430330316,-0.0851004172,0.0031135933,-0.0204905341,0.0081170293,-0.0791133565,-0.0199356317,0.0514424315,-0.0271718908,-0.0368954417,0.0366010893,0.0143023101,-0.0314745116,-0.0306525302,0.0763092820,-0.0971427098,-0.0079675933,0.0298514908,-0.0682668793,0.0468881099,-0.0032490071,-0.0614337713,0.0383527926,0.0342708096,-0.0095678440,0.0632258238,-0.0414501255,0.0371672566,0.0103637170,-0.0425451276,-0.0712676033,0.0607549845,-0.0452007450,-0.0448870361,-0.0274731948,-0.0357909415,0.1125015674,0.0707401167,-0.0121662344,-0.0380245365,0.0931925262,0.0199477468,0.1316489336,-0.0537589445,-0.0197754473,-0.0662996588,0.0615251823,-0.0248195730,-0.0036799861,0.0288442910,0.0513282494,-0.0847116130,0.0884577388,-0.0159536113,0.0512226059,-0.0478644630,-0.0449490716,-0.0400658587,-0.0862589846,0.0395567721,-0.0198321989,0.1038718877,-0.0102955718,0.0244555566,-0.0701577024,-0.0545528480,0.0371087519,0.0629848746,-0.0528255063,0.0489540665,0.0683323502,0.0229299028,-0.0182082493,-0.0842640434,0.0135769431,0.0200264736,0.0806697508,-0.0390758577,-0.0861929818,0.0388849665,0.0078147165,0.0172320142,0.0098070004,0.0192274467,0.0223308282,0.0360984744,0.0265452960,-0.0236888922,-0.0458879602,0.0122103202,0.0091519631,0.0407853138,0.0157193477
0.0453090353,-0.0655464870,-0.0782389800,-0.0632467647,0.0016800925,-0.0397616487,0.0056159972,0.0033077955,0.0093615586,-0.0662812012,-0.0489053372,0.1016256874,-0.0673115606,-0.0056408750,-0.0818920045,0.0229910902,-0.0629080606,0.0006164403,-0.0451775794,0.0034405426,-0.1074192846,0.0396619407,0.0111895565,0.0634614686,-0.0349015797,0.0031711310,-0.0296904015,0.0737887805,0.0566899398,0.0218691979,-0.0462415979,-0.0071176486,-0.0213378897,-0.0279396636,-0.0814869831,0.0062886073,0.0190979741,-0.0823168964,0.0153863944,-0.0036049766,-0.0116744566,-0.0362236993,-0.0464740317,0.0399001241,-0.0165167135,-0.0593118964,-0.0320723651,-0.0251552509,0.0261838732,0.0060876895,-0.0438112206,-0.0384592879,0.0558912200,-0.0232391214,-0.0112406006,-0.0661919532,-0.0199737302,-0.1053907771,-0.0489313293,-0.0390398289,0.0247086146,0.0090419876,0.0888913067,-0.0339381912,-0.0356003134,0.0708799211,0.0405054225,0.0655864356,0.0545455931,-0.0476596417,-0.0463548654,0.0265560725,0.0382186299,0.0478696334,-0.0075011541,0.0098218852,0.0063502387,0.0814984902,0.0406916344,-0.0055097514,-0.0224705001,-0.0173223933,-0.0463082282,-0.0230687968,-0.1293257916,-0.0408929302,-0.0285124600,0.0102078818,-0.0420546607,-0.0468972431,-0.0170434267,-0.0006547573,0.0006048955,-0.0374160715,0.0211841881,0.0122669972,0.0549463020,-0.1012833821,0.0361769532,0.0163839583,0.0606033803,-0.0646235566,0.0277205750,-0.0588569906,-0.0372871778,-0.0075607052,-0.0078472174,-0.0126042191,-0.0485640101,-0.0675913322,0.0365669814,0.0472515007,-0.0016063735,0.0113621552,-0.0858791927,-0.0121348203,-0.0152780172,-0.0625370185,0.0215370666,0.0206370257,0.0777182219,-0.0137856992,-0.0188425030,-0.0933144438,0.0400569089,0.0130088217,0.0144112172,-0.0140286709
0.0293478914,-0.0082085162,-0.0579632099,0.0505443461,-0.0290833132,-0.0648599739,-0.0726336415,0.0051092882,0.0477758417,0.0008774489,-0.0137571272,-0.0169952831,-0.0252478217,-0.0551149351,0.0604936991,0.0492105818,0.0217817002,0.0144450506,0.0361328499,0.0115033067,0.0504882585,-0.0050180746,-0.0046080876,-0.0238311388,-0.0324132312,0.0080234374,0.0308968283,-0.0877092623,0.0306388463,0.0186681968,-0.0414497733,-0.0802810240,0.0241725579,0.0330136403,0.0173074850,-0.0095523192,-0.0268808375,0.0262737239,-0.1132630146,0.0376675646,-0.0355831160,0.0478932296,-0.0452276390,0.0148857091,0.0655839246,-0.0712508637,0.0777951508,0.0586070106,-0.0068557903,-0.0359383389,-0.0634025079,-0.0024077446,-0.1004081310,-0.0933405967,-0.0561550042,-0.0585487613,0.0761835714,0.0891166049,0.0335179382,0.0177553394,-0.0121060118,0.1267605070,-0.0017470540,-0.0193137666,0.0749591516,-0.0458257466,0.0518798744,0.0235866830,0.0523288043,0.1027931658,0.0489150811,-0.0227173130,-0.0251984602,-0.0277403840,-0.0536759046,-0.0180887632,0.0341725812,-0.0562094305,-0.0883881882,0.0463987421,0.0536828552,0.0941540594,0.1026193254,0.0606737728,-0.0108965490,0.0059847092,-0.0019577498,-0.0352320792,0.0113712325,0.0766555964,-0.1220664144,-0.0089482196,0.0808019861,0.0790370108,-0.0482204798,0.1166300271,0.0490896353,0.0550903110,0.0164964830,0.0033065157,-0.0550405913,-0.0061212293,0.0903572203,-0.0533670931,0.0348166656,-0.0157641509,0.0269884249,-0.0363538804,0.0208073922,0.0214115375,-0.0066257724,-0.0754771836,0.0031701962,-0.0308291991,0.0528341692,0.0703114032,0.0231047983,0.1011187463,0.0242143739,0.0754676640,0.0754802842,-0.0150415632,-0.0513431129,-0.0732325637,0.0149203169,-0.0039498488,-0.0068866557,-0.0378928574
-0.0485482723,-0.0135378183,-0.0024659147,-0.0643636197,0.1472024393,0.0127239654,0.0470045402,-0.0595739176,0.0462318557,0.0278199435,0.0186380720,0.0587940223,-0.0835105410,0.0775615916,-0.0452753405,0.0715081344,-0.0506725019,-0.0020733122,0.0175591758,-0.0349100810,0.0224991472,0.0015813958,0.0542618415,-0.0666024430,0.0109815949,0.0069197982,0.0031475683,-0.0202964558,-0.0497381366,-0.0219405154,0.0268358227,0.0175196802,0.0320790895,-0.0139009679,-0.0439428867,0.0007250306,-0.0157482858,-0.0051795816,0.0502411246,0.0332373040,-0.0544641473,-0.0403402104,0.0398126111,-0.0242584729,-0.0630031333,-0.0070116735,-0.0897562638,0.0309894237,-0.0506043832,0.0374017591,0.0628510063,-0.0254244042,-0.0104878183,0.0380307535,-0.0158880050,0.0311482696,-0.0281020112,-0.0717432750,-0.0249840441,0.0835089066,0.0363804135,-0.0260133410,0.0105090632,-0.0182224224,0.0481601900,-0.0728000240,0.0084936196,0.0482607579,0.0466968023,-0.0160663986,0.0481824623,-0.0180592337,0.0370009016,0.0783002095,0.0410787443,0.0095350609,-0.0022054100,-0.0197951829,0.0200881427,0.0074786252,-0.0334642172,-0.0045975078,0.1176640805,-0.0018803190,-0.0901681720,-0.0438421590,-0.0321891971,-0.0461410639,-0.0182070001,0.0082310318,0.0384444627,0.0624995788,-0.0209569447,0.0097035515,-0.0253134077,0.0685836166,0.1162677711,-0.0227162895,-0.0312362688,0.0047502023,-0.0496368296,-0.0261286133,0.0527853933,0.0101771424,-0.0479787496,-0.0063683514,0.0673897755,0.0238690002,0.0049001814,-0.0151818984,-0.0215198388,0.0449434647,0.0560479324,0.0789076891,0.0449867593,-0.0577780058,0.0217299902,0.0361643859,-0.0706791176,-0.0208457763,0.0009896894,0.0112814110,-0.0362515073,0.0500013375,0.0246886748,0.0446716317,0.0571517925,0.0432618933
0.0207610665,0.0171068640,-0.0661060120,0.0154240766,-0.0589908215,0.0097795079,0.0022275791,-0.0159380670,-0.0307427730,0.0230470545,0.0887257936,-0.0036712897,0.0173858668,-0.0194026699,0.0150792969,-0.0488911019,-0.0435468562,-0.0055251793,-0.0367239840,0.0310025746,-0.0109801716,0.0670419656,-0.0655871202,-0.0739120892,-0.0086084101,-0.0336879520,-0.0045508201,-0.0623789298,0.0095400274,-0.1270149903,-0.0670985559,-0.1262347980,-0.0497290019,0.1051914029,-0.0841402910,-0.0660024440,0.0938416758,-0.0793047552,0.0143735427,0.0575106944,0.0524213852,-0.0336319145,0.0235852468,-0.0041302457,-0.0847093998,0.0095400571,0.0067200960,0.0020413914,0.0722624663,0.0477978204,-0.0242456336,-0.0828980095,-0.0157952877,0.0225753021,0.0395792787,-0.0031521005,0.0507826684,-0.0420370099,-0.0312531775,0.0054012040,-0.0849786581,-0.0010637595,-0.0328457514,0.0026790797,-0.0870769099,0.0066636763,0.0046619133,-0.0520111142,0.0770045273,-0.0544575310,0.0344695734,-0.0490668157,-0.0608400396,0.0100490864,0.0591916826,-0.0110619952,0.0553563990,0.0385311874,0.0332302128,0.0200444134,-0.0405444654,-0.0318598958,-0.0561284448,0.0745244558,-0.0598658075,0.0614539494,-0.0286758460,-0.0036119076,0.0440169376,0.0566248767,-0.0062538521,0.0733108644,-0.0200514512,0.0022713118,-0.0554345715,0.0839465931,0.1013723580,0.0257993178,0.0033031177,-0.0484357088,0.0157541216,-0.0233771360,0.0281580985,0.0020670473,-0.0209360440,-0.0024924573,-0.0195516414,0.0276359449,-0.0259259333,0.0567640050,-0.0570156556,-0.0694899688,0.1045808860,0.0691608080,-0.1158676984,-0.0337334562,-0.0444817735,0.0752814334,0.0790031469,0.0405925240,-0.0725443429,0.0352322731,-0.0507708766,0.0174824315,0.0921252643,0.0109176791,0.0296015414,-0.0186812646
0.0022611383,0.0744461675,0.0413586212,-0.0110677246,-0.0396405655,0.0287853110,-0.0217902798,0.0368345777,-0.0196795132,-0.0289514394,0.0088178348,0.0970470837,-0.1172569829,0.0845383910,0.1254735273,-0.0323180985,0.0171089771,-0.0657530992,0.0212826980,0.0771921283,0.0432366726,-0.0242501675,0.0150190941,-0.0227083641,-0.0699438477,0.0387879050,0.0543278994,-0.0152527447,0.0096387101,0.0998748637,-0.0356093078,0.0183685261,-0.0088150647,-0.0262716575,0.0500154567,0.0530497219,0.0535648827,0.0809042719,-0.0025041477,0.0122324835,0.0468791829,-0.0724328313,0.0271927450,-0.0220160897,-0.0395133516,-0.0575886049,0.0189557001,0.0231577726,-0.0013378189,0.0289566388,0.0480461883,-0.0164972824,-0.1376767833,0.0011071524,0.0231265498,-0.0151779944,0.0368767314,0.0478475642,0.0269575726,0.0011050076,-0.0463877787,0.0573565624,0.0456063977,-0.0000512866,0.0273208446,0.0356678111,-0.0453960704,0.0123473654,-0.0673432385,0.0289998687,-0.0259247109,0.0167461972,-0.0197333589,0.0381638590,0.0215113529,-0.0325729125,-0.0023080681,-0.0010940847,0.0643506711,-0.0309519821,-0.0440159765,0.0926164303,-0.0525280955,0.0065929961,0.0368577348,-0.0477677691,-0.0050270628,0.0461873781,-0.0326286978,-0.0782560857,-0.0012007266,-0.0417998613,0.0221883928,-0.0119920490,0.0014383155,-0.0340989043,0.0457605272,0.0113914865,0.0227293521,0.0497001088,0.0834467378,-0.0231503042,0.0175043048,-0.1030764300,0.0637416103,0.0508092830,0.0913670217,0.0795024105,-0.0919719994,0.0857474892,0.0380643818,-0.0415181740,0.0515995331,-0.0090384440,-0.0549779878,-0.0236309304,-0.0346846144,0.0436195476,-0.0390693555,0.0161184530,0.0257709098,0.0380102652,-0.1231827697,0.0867608421,-0.0423658300,-0.0947408965,0.0124789771,-0.0402254158
0.0397206756,0.0165157479,0.0307555412,0.1128507721,0.0342909033,-0.0213122713,-0.0769974781,0.0398589906,-0.0300975909,-0.0195997745,0.0938549869,-0.0523005101,0.0148347256,0.0655758417,0.0791774535,-0.0482390653,-0.0217909998,-0.0760688986,0.0081517488,0.0255484905,0.1053721796,-0.0604452751,-0.0956712749,0.0083026153,0.0438369198,-0.0893766318,-0.0319967708,-0.0096958883,-0.0527712419,0.0331114700,0.0299178312,0.0098708594,-0.0405302560,0.0583366795,0.0275757382,0.0509614344,-0.0711712896,-0.0066095638,0.0261052178,0.0469176972,-0.0427219113,-0.0628035538,-0.0848819155,-0.0935220828,-0.0047197144,-0.0236682042,0.0528418762,-0.0616287473,0.0801820904,0.0395674186,0.0163487149,0.0179421870,-0.0672463351,-0.0488840237,0.0109062152,0.0051708955,0.0638306901,0.0515771473,0.0482265127,0.0983355008,-0.0590131742,0.0071700892,-0.0486016118,0.0096375918,0.0199839168,-0.0155908790,-0.0144388148,0.0340311601,0.1132473039,-0.0364607856,-0.0453832447,0.0488551970,-0.0898029690,0.0329453302,0.0748807953,-0.0053584561,-0.0039911919,-0.0656993060,0.0289074399,0.1061638690,0.0640727604,-0.0947516689,0.0390367589,0.0285550734,0.0589851964,-0.0194398830,-0.0928077197,0.0014310281,0.0892579041,-0.0237633350,-0.0361132102,-0.0073375838,-0.0237049810,0.0220024680,0.0848286546,0.0883710088,0.0514315137,0.0160037125,-0.1205751574,-0.0443200749,0.0735938575,-0.0169793678,-0.0247129155,0.0005330231,0.0123750790,-0.0284923506,-0.0106427404,0.0131668334,0.0153097244,-0.0461602440,0.0630349073,0.0297955882,-0.0313090902,-0.1268303575,-0.0248418182,0.0033757040,0.1042195132,-0.0445007363,-0.0060914044,0.0221262983,-0.0095880404,-0.0805378187,0.0032762562,-0.0077715311,0.0271845471,0.0226316834,0.0150928772,-0.0026397838
-0.0217786947,-0.0511850798,-0.0070280870,-0.0140659659,0.0340529830,-0.0098666120,0.0755037516,-0.0409274878,-0.0024916886,-0.0844947959,-0.0201596363,0.0025581915,0.0768555448,-0.0179226616,0.0219046615,-0.0012722676,-0.0238931768,-0.0075196500,-0.0464380282,-0.0640665638,0.0768099401,0.0409898666,-0.0430452293,0.0521310618,-0.0849155088,0.0637675106,-0.0072812897,0.0128041061,-0.0059176127,-0.0040699465,-0.1146454315,-0.0627172352,0.0214271271,0.0509449580,-0.0526298924,0.0800004442,0.0740291954,0.0084435450,0.0357105312,0.0684541697,-0.0820831550,0.0743712857,-0.0236747479,-0.0284175223,0.0100248334,-0.0609683202,0.0407967526,-0.0113099767,-0.0104183262,-0.0174612307,0.0423544813,-0.0152074511,-0.0138715866,0.0149819363,-0.0382744849,-0.0020129895,0.0506886727,-0.0427790564,0.0878327995,0.0394358760,0.0222426650,-0.0556276960,0.0468274363,-0.0638934038,-0.0154868994,-0.0284517084,-0.0766558200,0.0209156992,0.0378085254,0.0125681267,0.0014102476,0.0981201528,-0.0111795399,-0.0401888276,0.1008913291,0.0050076020,-0.0033867731,0.0017303369,0.0328464514,0.0081035804,0.0101028313,-0.0592619343,-0.0207939120,-0.1265786246,-0.0429419028,0.0272759264,-0.1098521731,0.0084765401,0.0045431932,0.0402578158,0.0330433533,-0.0327793759,-0.0219151477,0.0119752882,0.0144849304,0.0044222272,-0.0211881915,0.0316684197,0.0006652793,0.0252387449,0.1081530931,-0.0339059131,-0.0533272744,0.1047126766,-0.0169539245,-0.0054555114,-0.0098853054,0.0968438160,-0.0118076856,-0.0756592587,0.0531019001,-0.0698731209,-0.0378548943,-0.0955044801,0.0852363059,0.0108655250,0.0225127809,-0.0106365417,-0.1145989022,0.0299228011,-0.0186074486,-0.0320379654,0.0345442586,0.0906308525,0.0073024862,0.0106688606,0.0727302564,-0.0192562164
-0.0760463939,0.0530713121,0.0182529506,0.0285712855,-0.0167749004,0.0262311076,-0.0015722746,-0.0440716445,-0.0044700061,-0.0743810684,-0.0711234646,-0.0062025551,0.0034444468,-0.0429394857,0.0176052057,-0.0369723162,-0.0525417003,-0.0373984085,0.0203843131,0.0401928168,0.0673230445,0.0767539146,0.0950072383,-0.0601796615,-0.1108767149,0.0072051043,-0.0555259570,-0.0081891820,-0.1355664267,-0.0119464724,-0.0034650903,-0.0207021024,-0.0062857033,-0.0049042699,-0.0640228882,-0.0255242869,0.0184558671,-0.0326318680,-0.0194934120,-0.0227110299,-0.0480168876,-0.0748225851,-0.0742452549,0.0252434979,0.0453304559,-0.0700879490,0.0790155843,0.0077803981,0.0334311032,-0.0580217128,0.0427637104,-0.0758294674,-0.0578902695,-0.0031061758,-0.0935233416,0.1179606608,-0.0391647332,-0.0417970025,0.0319424255,-0.0234325289,0.0372078355,-0.1193335143,-0.0348225048,-0.0290795858,0.0719541072,0.0005569689,-0.0024773783,0.0586045603,0.1178485590,0.0061691775,0.0935632151,-0.0232749933,-0.0346972482,0.0222437282,-0.0035367195,0.0068995101,0.0229582866,0.0035187663,-0.0732599892,-0.0280875749,-0.0206220153,-0.0026342421,-0.0938452615,-0.0272652484,0.0142134154,-0.0431903921,-0.0075165241,0.0289164035,0.0330344038,-0.0413878030,0.0343345206,0.0710363784,-0.0819257376,0.0054059542,0.0497988142,-0.0455149526,-0.0252271908,-0.0654730805,-0.0627178228,0.0898351113,0.0288008980,-0.0785720211,0.0350334971,0.0228023941,0.0043026710,0.0713278556,-0.0186129954,-0.0122327032,-0.0777470822,-0.0003138028,0.0118674686,0.0433027414,0.0478779635,-0.0282917503,-0.0001908295,0.0490629336,-0.0245401024,0.0593093121,0.0363299080,0.0247215747,0.0011318219,0.0209869734,0.0526622524,0.0070001697,-0.0503033870,0.1090586685,0.0247477034,-0.0198224754
-0.0576218973,0.0389364116,-0.1539687923,-0.0140443750,-0.0316445563,-0.0538997140,0.0568441732,-0.0162188063,0.0714113846,0.0176499837,-0.0301020422,-0.0685021209,-0.0729545545,-0.0019988641,-0.0028360138,0.0449091610,0.0390829449,-0.0528206079,0.0360964726,-0.0051936432,-0.0000881013,0.0973144503,0.0773446269,-0.0256237222,-0.0815024770,-0.0377478504,0.0031587373,-0.0834518658,-0.0290407593,0.0972396008,0.0073065303,-0.0409223171,-0.0356079895,-0.0026316822,0.0680860279,0.0026761043,0.0621099671,0.1131957181,-0.0587176280,0.0231169457,-0.0192694147,-0.1148595875,0.0055706269,-0.0147481208,0.0704177118,0.0191311726,-0.0198828971,-0.0091376610,0.0180248895,-0.0003682317,0.0140468700,-0.0206721901,-0.0657238739,0.0270442271,-0.0431512701,-0.0607323378,-0.0094351684,0.0207596639,0.0627033802,0.0288748792,-0.0066768242,0.0839629210,0.0078605229,0.0278005638,0.0417533551,-0.0825128639,-0.1264432554,0.0488243134,-0.0409922109,-0.0432546392,0.0216597599,-0.0001084967,-0.0677251978,0.0123051433,-0.0845549291,-0.0306206242,0.0472150893,0.0023060681,0.0312833852,0.0154615117,0.0122673334,-0.0760527332,-0.0431801701,-0.0144699584,0.0152586582,-0.0326187829,0.0960356150,-0.0048241540,0.1133108962,-0.0496072691,-0.0505199200,0.0903945777,-0.0767482469,0.0039869234,0.0472793614,0.0447962912,0.0023340161,0.0019873538,-0.0474413263,0.0260565464,0.0025092302,0.0085478864,0.0236251332,0.0254099164,0.0816521859,0.0872781192,0.0283195857,0.0545529137,-0.0678994555,0.0412630822,0.0221611910,0.0156272437,0.0596089456,-0.0369773364,-0.0117528744,0.0247358969,0.0077629585,-0.1024816041,-0.0555007104,-0.0300438765,0.0479708541,0.0095557044,-0.1236977116,-0.0660842633,0.0797871671,0.0108299161,0.0377531667,-0.0065222533
0.0014445571,0.1022962832,0.0190466881,-0.0111596549,-0.0061063550,0.0301447727,-0.1167540177,-0.1095678667,0.0171802009,0.0348207924,-0.0702104891,-0.0303426845,0.0142312674,0.0143071066,0.0096891605,0.0136859611,-0.0474335820,-0.0391781640,-0.0004245966,-0.0767432444,0.0108295877,-0.0939446220,-0.0194110582,0.0355415363,0.0958019719,0.0523959685,-0.0251977710,0.0540805700,0.0174353576,0.0120047908,-0.0025885509,-0.0241169937,-0.1005629864,-0.0695781388,-0.0473091866,-0.0229610700,0.0128970415,0.0328750306,-0.0644699717,-0.0533619707,0.0327382198,0.0012596907,-0.0897226937,-0.0096692497,-0.0275955563,0.0710666695,0.0644775980,0.0122071742,0.0691256349,-0.0153268130,0.0158577932,-0.0885015170,-0.0251635421,0.0576193931,-0.0140536019,0.0056454835,-0.0257788266,0.0049045099,-0.0611374414,0.0485821021,-0.0541836797,0.0190193677,0.1351698044,-0.1258582063,-0.0177167890,0.0698326115,0.0815989121,0.0021784652,-0.0340481225,-0.1112455808,-0.0155804515,0.0748340810,-0.0091812546,-0.0099934436,-0.0070192219,-0.0453609156,0.0934921270,-0.0568649899,0.0359552407,-0.0130973177,-0.0780811387,0.0039207271,-0.0870251962,-0.1158258344,0.0681203593,-0.1086979068,-0.1239112535,0.0486252239,-0.0493015919,-0.0251145187,-0.0758371265,0.0797064154,-0.0005677580,-0.0429234486,0.0109669599,0.0404696578,0.1162815564,-0.0723787382,0.0032475389,0.0308724459,0.0768255393,-0.0019435695,0.0608352924,0.0819222832,0.0715152348,0.0352690135,-0.0374877521,0.0339294727,0.0527433735,0.0574997265,0.0274040592,-0.0302357354,-0.0290525060,0.0932690715,-0.0456044991,-0.0127850810,-0.0690989547,-0.0509566987,-0.0253057377,-0.0389870771,0.0173091088,-0.0403628046,-0.0390384384,-0.0220630920,0.1153061441,-0.0239796443,-0.0337955802,0.0003337657
0.0116532422,0.0223603387,-0.0231413153,0.0389834439,0.0115952328,0.0077573588,0.0319188795,-0.1193438706,0.0469758989,-0.0163859251,0.0161639739,0.0101661583,-0.0055998657,-0.0607395515,0.1096623681,-0.0078724984,-0.0548725814,0.0762073147,0.0416291363,0.0524419003,0.0178518189,-0.0466790332,0.0603372796,0.0788070055,0.0329802957,0.1053998434,-0.0081538155,-0.0549339507,0.0289591140,-0.0108922602,-0.0391628477,0.0096645574,-0.0109170921,-0.0124462971,-0.0244367080,-0.0379166306,-0.0402322783,0.1364112054,-0.0208041997,-0.0802970365,0.0250354113,0.0313677043,-0.0184737549,-0.0439619079,-0.0762575140,-0.0032006391,0.0073012967,-0.0722021439,-0.0538589738,-0.0775554117,0.0890365283,0.0240027684,-0.0584581317,-0.0442478848,-0.1167712952,-0.0206788629,-0.0102282761,0.0389666562,0.0444703833,-0.0301070543,-0.0120520845,0.0181450323,0.0467219404,-0.0519371116,-0.0228669152,0.0970422548,0.0423240155,-0.0670941103,0.0334772828,-0.0540075492,0.0030151795,0.0120137429,0.0515100836,0.0202001438,0.0360935889,-0.0166559650,-0.0209872633,0.0273690498,-0.0300295939,0.0614662398,-0.0328137442,-0.0306520274,0.0235577324,-0.0368433906,0.0631810970,-0.0205819203,0.0188396414,0.0102043981,-0.0725045954,-0.0545896557,-0.0066619754,0.0282089318,0.0191782237,-0.0778565642,0.0422561907,0.0186714188,0.0185773319,0.0583014969,-0.1162303360,0.0497189576,-0.1077551260,0.0258524575,-0.0683806301,-0.1673664279,0.0105313383,0.0032151535,0.0473884876,-0.0125382525,0.0217258603,0.0763175937,-0.0587015510,0.0115838022,-0.0222340883,0.0376442368,-0.0298545533,0.0373239433,-0.0194506241,-0.0132346807,0.1294593443,0.0380411252,0.0196946711,-0.0243121151,-0.0206243833,0.0181890594,0.0482228670,-0.0463556975,0.0044096949,-0.0847318480
-0.0469096676,-0.0628973947,0.0861292371,-0.0117424630,-0.0358210377,0.0182400521,0.0214088264,-0.0423667520,0.0125611968,0.0167114781,-0.0946827545,0.0352353840,0.0212042140,-0.0096300906,-0.0165269977,0.0458290954,-0.0598299691,-0.0296408104,0.0409852048,-0.0113207096,-0.0163999031,0.0593295418,-0.0011951654,-0.0782015218,-0.0360259097,-0.0644057303,0.0294552245,0.0605178354,-0.0506275407,0.0306330100,0.0208623050,0.0827922739,0.1076572089,0.0311256049,0.0753090874,-0.0516269524,-0.0178933155,-0.0001905418,-0.0009096870,0.0216683510,0.0904429584,0.0560073838,0.0114318808,0.1073487914,-0.0305335364,-0.0581015702,-0.0081490857,0.0057497132,-0.1040479748,0.1491356668,-0.0818804519,-0.1311723096,0.0231810680,0.1209870669,0.0051345347,-0.0533278723,-0.0001218622,-0.0014027399,0.0036078431,-0.1853253030,0.0639801941,-0.0089222887,0.0351555006,-0.0283600812,0.0144246288,0.0656522891,0.0127339797,-0.0230033842,0.0050519605,-0.0870994004,-0.0511744550,0.0431211608,0.0150121957,-0.0308851818,-0.0353280268,-0.0067902067,-0.0065051947,-0.0918365093,-0.0508534500,0.0272080851,-0.0548013820,0.0338815351,-0.0219289343,-0.0096503566,0.0071572494,-0.0502657190,0.0598469958,-0.0276145058,-0.0031241970,0.0455183413,0.0491793954,0.0307044034,-0.0428347798,0.0389971904,-0.0337196674,-0.0626469127,0.0154308087,-0.0437691158,-0.0962067179,-0.0572040714,-0.0094587926,-0.0335898895,0.0075931955,0.0716406981,-0.0409960223,0.0359949980,0.0459546302,0.1477457396,-0.0479966291,0.0161292943,0.0025326870,0.0148833212,-0.0129708487,-0.0647034926,-0.0827882669,-0.0517781442,0.0595540988,0.0503176135,-0.0361086999,-0.0295716589,-0.0303334135,0.0133388041,0.0140608147,0.0592911530,0.0230448455,0.0665094166,0.0184471032,-0.0259230643
0.0276704632,-0.0055654572,0.0494287587,0.0111027829,0.0142920186,-0.0445768306,-0.0037405126,-0.1119499523,0.0971519788,0.0093790786,-0.0041365779,0.0637819192,0.0191598697,-0.0438591602,0.0363452763,-0.0139774737,0.0516673691,-0.0629256608,-0.0132409353,-0.0445874868,-0.0239544564,-0.0220544992,-0.0152554651,0.0188564433,0.0012095851,0.0462394298,0.0031524450,0.0462007413,0.0090044804,0.0115400096,0.0060947220,0.0070041227,-0.0556328071,-0.0440122245,0.0556889856,-0.0891372667,0.0176538275,-0.0021556116,-0.0735879522,-0.0716768562,-0.0073347876,-0.0676355118,-0.0406892227,-0.0578968872,0.0323487250,-0.0446061729,-0.0088206571,0.0132799972,-0.0087353196,-0.0414736810,0.0552723939,-0.0053714919,-0.0037717011,0.0315645865,-0.0007427423,-0.0152251851,-0.0235969434,0.0129293400,-0.0640864130,0.0066620630,-0.0373068884,-0.0018004517,0.0280231671,-0.0807928368,0.0009739319,0.0530010444,0.0634688068,-0.0368392831,-0.0416044918,0.0370491434,-0.0236041799,0.0254649090,0.0667541922,-0.0170155119,-0.0204894959,0.0372497270,0.0073111148,-0.0533873573,-0.0268824756,-0.0289031081,-0.0421146998,-0.0855025170,-0.0854017755,-0.0052679478,0.0127799136,-0.0045890312,-0.0709735719,0.0486457690,0.0371745691,-0.0577198697,0.0649664542,-0.0306095779,0.0070392430,0.0409613799,0.0201701454,0.0098809269,0.0975423363,-0.0931736222,0.0313588251,-0.0545621703,-0.0613171755,-0.1286664372,-0.0253230647,-0.0931288596,-0.0346293462,0.0089588145,0.0819560313,-0.0097493742,0.0892935457,0.0163930687,0.0200671196,-0.0757187462,-0.0590414814,0.0227659564,-0.0853301302,0.0723723915,-0.0868509092,0.0251790922,0.0201483786,0.0128443603,-0.0539692272,0.0435072404,-0.0414067351,0.0735630078,0.0549354746,-0.0228369056,-0.0199649799,0.0076036291
0.0121595100,-0.0405717803,-0.0191806049,-0.0221262028,0.0079674989,0.0020672045,-0.0103611950,0.0194484116,0.0564871776,-0.0145664181,-0.0556290914,-0.0382169103,0.0562891364,0.0623093813,-0.0438825430,-0.0159437448,-0.0015922293,0.0752146814,-0.0466284215,-0.0443746252,0.0184801739,0.0315448925,0.0456741727,-0.0331258573,-0.0173345979,0.0386955556,-0.0112070762,0.0069218224,-0.0145542209,0.0084481512,-0.1009380136,0.0275603389,0.0065485402,-0.0040510365,-0.0251211656,0.0297566349,-0.0041044819,0.0713983850,-0.0319705732,-0.0300190275,-0.0659782092,-0.0088625201,-0.1088619971,0.0049248483,-0.0187190815,0.0115409081,0.0712023742,-0.0378994796,-0.0160709774,-0.0310655946,0.0430293491,-0.0067276767,0.0810908391,0.0139945952,0.0640916371,0.0016319469,-0.0169471817,-0.0541929194,-0.0322884266,-0.0101345400,0.0239689667,-0.0308642058,0.0025527550,-0.0241949965,-0.0200535549,0.0969933849,-0.0094188888,-0.0832856023,-0.0545648806,0.0036002178,-0.0518503009,0.0301350532,0.0367376537,-0.0571196917,0.1017541417,0.0225137174,-0.0216186174,-0.0346577985,-0.0407335864,-0.0046452491,-0.0011317129,-0.0353374426,0.0192352632,0.0409062894,0.0393194705,-0.0736115594,0.0195138906,0.0220691478,-0.0274095755,0.0082157918,0.0466022006,0.0425407299,0.0196968358,-0.0407333231,-0.0365605656,-0.0105666911,0.0476781000,0.0347912713,0.0570764404,-0.0086776846,-0.0273851086,0.0415044238,-0.0214657696,-0.0183854444,-0.0484620735,0.0257776895,-0.1377888814,0.0308764573,0.0041854594,-0.0215625451,-0.0483893921,0.0798389453,0.0230641166,0.0245365250,0.0173866597,-0.0232136987,-0.0659634571,-0.0643921339,-0.0592514176,0.0319729379,-0.0042239244,-0.0631926926,0.0736651198,0.0570301402,-0.0035827716,-0.0643125601,0.0404966282,-0.0358598022
-0.0333258174,0.0315513182,-0.0718104040,-0.0431260779,0.0133403356,0.0015642157,0.0213432862,0.0388828281,0.0241464419,0.0003505030,0.0066179097,0.0267955174,0.0679408628,-0.0019107173,-0.0215201294,0.0234971510,0.0600047622,-0.0609150747,0.0083946614,-0.0100528815,0.0540283398,0.0004430768,-0.0411347266,-0.0068221769,0.0687860339,-0.0179158665,0.0280309066,0.0296530281,-0.0588093460,-0.0154234276,-0.0050011824,-0.0686057037,-0.0813169028,-0.0002343329,-0.0417600904,0.0116221090,0.0104503886,0.0514065945,0.0396887409,-0.1015101819,-0.0871092844,0.0445367710,-0.1445147205,-0.0529253252,-0.0082778244,-0.0396925677,-0.0010485389,0.0778593827,-0.0024329455,0.0644492274,-0.0674067027,0.0414821508,0.0097244658,-0.0324498444,0.0205094380,-0.0452109013,-0.0292452046,-0.0339928547,0.0523159454,-0.0512270186,0.0949726127,0.0297535090,0.0144403743,0.0670142619,-0.0365470219,0.0058068382,-0.0111158584,-0.0014343564,-0.0420021385,-0.0041007057,-0.0508617338,-0.0232113072,0.0775224334,0.0612272339,-0.0234866774,0.0057887445,-0.0535676074,-0.0765692442,0.0548919781,0.0961194398,-0.0114240279,-0.0310834547,-0.0171480605,0.0210984372,-0.0710359431,0.0463250327,-0.0403259022,-0.0273975701,0.0799157186,0.0485716816,-0.0475395582,0.0208826619,-0.0713291964,0.0370174036,-0.0252497596,-0.0178340468,-0.0625217354,0.0177482086,0.0412375957,0.0221334226,0.0161897280,-0.0512366604,0.0208042009,-0.0539822703,0.0084353161,-0.0548440110,-0.0340086715,-0.0254369337,-0.0335390264,-0.0357650547,0.0550159053,-0.0458204867,-0.0637809755,0.0987267471,0.1025767452,0.0050200871,-0.0388231858,0.0130729917,-0.0306319787,0.0553682421,0.0586869798,-0.0024278659,-0.0413099965,-0.0944642952,-0.0313691218,-0.0472640536,0.0010208889,0.0571790589
0.0276837170,-0.0136562830,0.0059653928,-0.0199938617,0.0028534899,-0.0571690762,-0.0351404796,0.0563497849,0.0470642241,0.1061800609,0.0508604062,-0.0758121555,-0.0223439563,-0.0739424546,0.0021186601,0.0423183824,0.0180757866,-0.0235620525,-0.0751499322,-0.0159378551,0.0073366556,-0.0445730750,0.0450464992,-0.0560680741,0.0256610693,-0.0740582392,0.0074703164,-0.0094649621,0.0211816362,-0.1176249127,-0.0210317035,0.0196509861,0.0189189712,-0.0624734440,0.0389356514,-0.0231767344,0.0271702624,-0.0052589813,-0.0565456657,0.1029235478,-0.0118455326,-0.0361773543,-0.0429804161,-0.0386088499,0.0996678727,-0.0185900653,0.0508393556,-0.1134920520,-0.1014412233,-0.0369396575,0.0006141861,0.0201809280,-0.0729985635,0.0088868847,0.0500855544,-0.0630229187,0.0338288943,-0.0523224554,0.0161432867,0.0939754958,0.0674096467,0.0539541082,0.0499279169,0.0257984190,0.0643584484,-0.0085448278,0.0425145665,0.0136762400,-0.0464899126,-0.0259661347,-0.0625439078,0.0389008241,-0.0922145888,0.0474882815,0.0610280469,0.0387147861,0.0294078421,-0.0343586917,0.0043313342,0.0363151983,-0.0020048444,0.0069035483,0.0597697368,0.0830907398,-0.0923360717,-0.1285278373,-0.0265934496,0.0450979118,0.0245589030,0.0099332293,-0.0234647452,0.0110703855,0.0164133171,-0.0314896188,-0.0987788406,-0.0282504451,0.1359587618,-0.0147760359,-0.0110628099,-0.0209303368,0.0965837932,0.0997213685,-0.0572637389,0.0373587072,0.0749323769,0.0631755807,-0.0523255399,0.0173336150,0.0364581449,-0.0521280250,-0.0501076302,0.0002727784,0.0085363393,0.0049000809,-0.0575939999,-0.0253368844,0.0030768314,-0.0937521894,-0.0667205086,0.0280991459,0.0703908173,-0.0328607493,-0.0403646886,0.1341429374,-0.0729752176,0.0353910091,-0.0678743904,-0.0322379781
-0.0403173055,-0.1055038082,0.0353141723,0.1008731182,-0.0189462475,0.1001093415,0.0343213765,-0.0492814853,0.0640441217,0.0010636590,0.0074048762,0.1098550074,0.0869070104,0.0220803797,0.0696450668,-0.0570863084,0.0283982148,-0.0238376115,0.0120791962,0.0017930912,-0.0115705639,-0.1122756419,0.0016364904,0.0415581143,-0.0209157573,0.0179565396,-0.0196509935,0.0426461144,0.0354840894,0.0098765277,0.0317127344,-0.0275245975,0.0011618475,0.0292898994,0.0159345963,0.0315163447,0.0370776112,0.0475392889,-0.0028754471,0.0505306217,0.0945368207,0.0126150550,0.0533474677,0.0487268615,0.0116942827,-0.0181471903,-0.0184795690,-0.0727975652,0.0222680743,0.0792136080,-0.0761603062,-0.0154657133,0.0782849615,0.0536435212,-0.0901335066,0.0147739892,0.0125672560,-0.0434975040,0.0339031926,-0.0007547674,-0.0450096303,0.0697540887,-0.0100632182,0.0134069881,-0.0553473678,0.0056260082,-0.0567736862,-0.0334539116,-0.1173903705,-0.0909274538,0.0510556174,0.0265828800,0.0477382297,-0.0108507152,0.0089152047,0.0265018294,-0.1218034840,0.0299669737,0.0431828618,-0.0126812693,-0.0200869151,-0.0238414054,-0.0107528123,-0.0467230448,0.0932364742,0.0187988094,-0.0573641774,0.0205908522,-0.0136306137,-0.1151011596,-0.0563224110,-0.0096551602,0.0074975003,-0.0470399117,0.0083082825,-0.0610194846,-0.0584723623,-0.0508932115,-0.0765983880,-0.0445430354,0.0400415892,-0.0729651612,0.0552979470,0.0221028667,-0.0780857329,0.0434809801,0.0128396170,-0.0403616844,0.0131105072,0.0614585464,-0.0690485659,0.0083044075,-0.0378574231,-0.0157870817,-0.0038117252,-0.0349067931,0.0705468400,0.0507237956,-0.0667514608,-0.0204921360,0.0114231157,0.0939104771,-0.0550587416,-0.1300555090,0.0267242072,-0.0111909652,0.0537857861,0.0597912121
-0.0599506359,0.0670972152,0.0035497393,0.0142000721,-0.0249019194,-0.0096599170,0.0011474550,-0.0024112920,-0.0375569627,0.0696992677,0.0894728629,0.0251160052,-0.0072683745,0.0468853620,0.0076154250,-0.0024746677,-0.0072349900,0.0742944688,0.1047424046,0.0375154049,-0.0325961937,-0.0012329568,-0.0866652500,-0.0336145106,0.0481572797,-0.0445467029,0.0024139414,0.0000216398,-0.0282837535,-0.0575210236,0.0079688234,-0.1481760746,0.0284137559,-0.0137047104,-0.0613342140,-0.0555212242,-0.0377443950,0.0080889631,0.0607663821,-0.0099286833,0.0116776293,0.0448203252,-0.0741221935,-0.0204166060,0.0400760865,0.0153617715,0.0863488291,0.0551855094,0.0561565805,-0.0680031811,0.0253558053,-0.0292023216,-0.0202797379,-0.0563169703,-0.0243445175,-0.0398248248,-0.0349842396,0.0975928496,-0.0392841622,-0.0623781090,0.0043996432,-0.0097939438,0.0253746664,0.0662629118,-0.0126115119,-0.0340929810,0.0747931209,0.0042200008,-0.1393623032,-0.0153214739,-0.0684323579,-0.0159026753,0.0516297365,0.0835094177,0.0762797067,0.0785317321,0.0843186516,-0.0329170861,-0.0042012544,0.0472459951,-0.0566031034,-0.1124098981,-0.0304022827,0.0559583883,-0.0713863188,-0.0037575763,0.0392533802,0.1111871220,0.0098653979,-0.0259482656,0.0580293767,-0.0032250526,0.0312718427,-0.0468963198,0.0279407487,0.1065418356,0.0251065483,0.0919143272,0.0262027248,-0.0767973574,-0.0145353187,-0.0094940503,-0.0509558279,0.0003570201,-0.0215993588,-0.0174002898,0.0361726833,-0.0841950980,-0.0473042576,0.0385372412,0.0194787862,0.0350827683,0.0191577905,0.0285609127,-0.0243088472,-0.0609333430,0.0144809972,0.1080048851,-0.0010390662,-0.0804389512,-0.0102826821,0.0030830368,-0.0144631876,0.0078305445,-0.0743554123,0.0129317392,-0.0057486129,0.0027369271
0.0613664724,0.0195248356,-0.0326331819,-0.0747013133,-0.0004653210,-0.0539653597,-0.0933575262,0.0821401084,-0.0211836291,0.0421904662,-0.0111292035,0.0705090922,-0.0677576641,-0.0430897864,0.0504329823,0.0605328172,0.0024701887,0.0301107229,0.0171970099,0.0560353429,-0.0719122836,-0.0576058590,0.1057811549,-0.0190469497,0.0634253964,-0.0156233306,0.0253248271,-0.0587470537,0.0028615903,-0.0169585570,0.0259664854,-0.0165154701,-0.0439874700,-0.0009580921,0.0395912368,-0.0004763129,-0.0044549826,-0.0374177944,0.0036260908,0.1249615384,0.0258145851,0.0026646370,-0.0246173382,-0.0711090429,0.1500429041,-0.0448668304,-0.0564912076,0.0075201059,-0.0275337248,-0.0257380809,0.0083094634,0.0474178952,-0.0408401070,0.0193143156,-0.0194379354,-0.0523692459,0.0304466761,-0.1487438048,-0.0910106906,0.0383621885,0.0372663856,-0.0423256409,-0.0869146337,0.0253213288,-0.0184176997,-0.0138422011,-0.0376614917,0.0007847709,-0.0768123063,-0.0369250618,0.0025571800,-0.0272629649,0.0398588224,-0.0703480545,-0.0241855100,0.0054221983,0.0749280759,-0.0936571680,0.0133907585,-0.0105901579,0.0652417247,-0.0345767242,0.0414783427,-0.0065637971,0.0346623103,0.0155612370,-0.0213317499,0.0334411939,-0.0027757627,0.0178370215,-0.0460610932,0.0447132613,0.0421406860,0.0021456723,-0.0270247856,0.0643530431,0.0237760340,0.0443516857,-0.1498369212,0.0899930537,0.0550923877,0.0280042716,-0.0896242530,-0.0176047926,-0.0015888565,0.0268147182,0.0004187871,0.0025804406,-0.0594142113,0.0773804056,-0.0112494623,0.0626662900,0.0493988344,-0.0312959567,-0.0644991738,-0.0363414594,-0.0811330035,-0.0604252630,-0.1184553255,-0.0310789950,-0.0178066094,-0.0463229776,-0.0325681120,0.0973237781,0.1074732015,-0.0475307327,-0.0055485892,0.0116178947
0.0029270036,0.0203241994,-0.0064099733,-0.0676996517,0.0711176944,-0.0656828756,-0.0618831622,-0.0174974888,-0.0419715897,-0.0512465521,-0.0186567451,-0.0408825190,0.0855634952,-0.0260278559,-0.0203817251,-0.0413060370,0.0018888801,-0.0052864816,-0.0833129740,0.0099804199,0.0466159495,0.0366704965,-0.0182477104,-0.0536716726,-0.0242767969,-0.0231428764,0.0129283869,-0.0728680078,0.0135711987,0.0247494260,0.0004417927,0.0314014789,-0.0226542318,-0.0163722548,0.0380648724,0.0771210377,-0.0831077709,0.0295725385,0.0610990607,0.0404996150,-0.0288140343,0.0372558735,0.0628837088,0.1497050016,0.0325479578,0.0671918473,-0.0565086295,0.0094993332,-0.0303472542,0.0171462691,-0.0190417693,-0.0099522870,-0.0503166728,0.0423690926,0.0013508508,-0.0085987424,0.0232516754,0.0933804493,0.0712425355,0.0026008424,0.0063040524,0.0136284076,0.0066174020,-0.0125517344,0.0377076257,0.0634580899,0.0947041596,0.0179697021,0.0215822439,0.0755919079,0.0235968168,0.0256735568,0.0712238595,-0.0146712257,-0.0108716800,0.0023270060,-0.0033119156,-0.0858714646,-0.0107076592,0.0018634780,0.0390336778,0.0431079762,0.0207528517,0.0667351040,-0.0856495969,-0.0138644061,-0.0814125288,-0.0104547788,-0.0401258761,-0.0239612315,0.0503470536,-0.0373121317,0.0384633926,0.0036062366,0.0899683238,-0.0458523789,-0.0648351746,0.0010436583,-0.0879774505,0.0540850228,0.0460854101,0.0215099598,-0.0703212592,0.0503977291,0.0331901234,0.0122902703,0.0202328636,-0.0646124168,0.0134699945,0.0210991995,-0.0195611154,0.0855939151,0.0239220899,-0.0101417842,0.0645149897,0.1087213836,0.0889099996,-0.0696620133,-0.0040419971,0.0136596719,0.0037396381,-0.0184702182,-0.0207341945,-0.0655206973,-0.0031031236,0.0721028417,0.0115359257,0.0319656975
0.0515607080,0.0141817889,-0.0339468288,0.0475256495,-0.0607219502,-0.0032641578,0.0575494684,-0.0675547972,-0.0136730859,0.0004800058,-0.0962445564,-0.0435364121,0.0032528138,-0.0554042632,-0.0877354879,-0.0109201772,0.0668574073,0.0236262074,0.0248671104,0.0411723491,-0.0122919160,-0.0877899920,0.0102941066,0.0056350823,0.0400769907,-0.0436443679,-0.0973128645,-0.0554660609,-0.1295929103,-0.0552182896,-0.0109644023,0.0034028971,-0.0186215305,-0.0714335697,-0.0378514353,-0.0373840990,-0.0123321802,-0.0351021310,-0.0337979280,0.0239303266,-0.0171765869,-0.0006872363,-0.1249881118,0.0438612220,-0.0432865709,0.0368992312,0.0425112026,-0.0208428583,0.1382417285,-0.1150282358,-0.0053021909,0.0288191188,0.0197132132,0.0471675137,0.0297578575,0.0139276211,0.0134103919,0.0785062266,0.0213486642,-0.0323272484,-0.0381781926,-0.0320820006,-0.0295503297,0.0693626299,0.0229310986,0.0481073721,0.0012910948,0.0510365323,-0.0451875031,0.0671773714,0.0483094108,0.0273630532,0.0654656091,-0.0336906157,0.0193860623,0.0002618684,0.0725902324,-0.0347734317,0.0980238430,0.0098561843,0.0110175362,0.0111173371,-0.0622081312,0.0262287247,0.0354877395,0.0076341397,0.0626914335,-0.0152571729,-0.0534383318,0.0469119008,0.0306467457,0.0053390198,-0.0250481546,-0.0521850999,-0.0472086237,0.0268307491,0.0523073607,0.0061131780,-0.0048947405,-0.0336341394,0.0358477000,-0.0808970203,0.0177180905,0.0050873386,0.0587502068,0.0884292869,0.0145766139,0.0949847211,0.0223119742,-0.0038255016,-0.0695068572,0.0159279900,0.0962675355,0.0254361599,-0.0102775740,0.0092263896,0.0882827997,0.0727025202,-0.0101786832,0.0603588405,0.0395547075,-0.0833587940,-0.0523187104,-0.0166256113,0.0974318531,-0.0335624105,-0.0143357742,0.0526463983
0.0089280688,0.0373880136,-0.0198194498,-0.0305332499,0.0726951768,0.0753892625,0.0282419961,0.0356671796,0.0485430104,0.0001683009,-0.0779423398,0.0128608900,0.0079571391,-0.0565147555,0.0708628278,-0.1160975199,-0.0118215426,0.0115172518,-0.0369232265,-0.0332384092,0.0445256108,0.0434317340,-0.0376959205,-0.0277652879,-0.0184901826,0.0528834606,-0.0246251943,0.0052654000,-0.0515458165,-0.0744438975,-0.0441966559,-0.1453318793,-0.0348772710,0.0219238843,-0.0341681942,0.0698689129,0.0471145970,0.0470198442,-0.0380887206,0.0339130586,-0.0077615810,0.0116787649,0.0048082271,-0.0466439722,0.0921631743,-0.0667030186,-0.0190115349,-0.0212698219,-0.0048421362,-0.0296812688,0.0432355889,-0.0385139050,0.0438763326,0.0015133101,-0.0394665350,-0.0086992143,-0.0284787505,-0.0143684219,0.0449913359,0.0053929587,0.0057299135,-0.0396795529,0.0390480252,-0.0431057691,-0.0070285258,0.0214769303,-0.0207290648,-0.0520144079,0.0573284619,-0.0720612636,-0.0656233575,-0.0605529075,-0.0091567838,-0.0463914438,-0.0341041290,0.0984397886,-0.0391005221,0.0065234834,0.1165763446,-0.0799319662,-0.0217876321,-0.0387814648,-0.0734935003,-0.0108409684,0.0611646819,0.0548863908,0.0219854992,0.0594210099,-0.1193956942,0.0328449632,-0.0047967249,0.0320474741,-0.0020060327,-0.0180943634,0.0138815024,-0.0456385790,-0.0790495087,-0.0279042305,0.0803953335,0.0659819984,-0.1510435666,0.0155697149,-0.0731883676,0.0399065700,0.0099200209,0.0213436338,0.0641773557,0.0294859127,-0.0042116109,-0.0846228625,-0.0208806647,0.0538906952,0.0225933009,-0.0657570723,-0.0529676578,-0.0375434461,0.0864778935,0.0154460706,-0.0103589898,-0.0374340866,0.0064933266,0.0199951205,0.0247390299,0.0892330457,0.0340193422,0.0984900853,0.0410352418,-0.0071980012
0.0858940523,-0.0336713022,0.0500144419,0.0466447430,-0.0162929129,0.0343291920,0.0392815990,-0.0622259774,0.0656454476,-0.0027401664,0.0576464685,-0.0552784722,-0.0017399921,-0.0156007220,-0.0401460110,0.0049260752,0.0424690603,-0.0250158160,-0.0054660893,-0.0277517184,-0.0107881237,-0.0800387022,0.0101795328,-0.0700706009,-0.0493092736,-0.0790851050,-0.0642628277,0.0618668361,0.0374870964,-0.0662650618,0.0644643882,-0.0078382930,0.0258177398,0.0357923735,0.0376074811,-0.0174498342,-0.0197379916,-0.0279051207,0.0020485897,0.0263441686,-0.0332328789,0.0172701885,-0.0107184027,0.1136370352,0.0198831628,0.0389862788,0.0472393839,0.0372096324,-0.0302751620,0.0286971572,0.0212974216,0.0078773867,-0.0317047113,-0.0404613447,-0.0091733742,-0.0476922866,-0.0097779266,0.0591287859,-0.0344330546,-0.0066969327,-0.0040731897,-0.0258837475,0.0136448828,0.0438435857,0.0549686442,-0.0138719966,-0.0221793391,-0.0426977392,0.0315386267,0.0163057622,-0.0246748335,-0.0770824040,0.0143241281,0.0658348995,-0.0250135606,-0.0065960300,-0.0432998088,0.0652797812,-0.0250194032,0.0764799325,-0.0838417130,0.0170330033,-0.0178795114,0.0408068719,-0.0094953603,-0.0580777425,0.0761364710,0.0089066809,-0.0767953854,-0.0787438599,0.0440184359,-0.0501605190,-0.0344894216,-0.0109661268,0.1075574431,-0.0040427821,0.0532881772,0.0206679043,-0.0031732984,0.0256172189,0.0595638631,0.0217663325,0.0021041122,0.0016282490,-0.0747042200,0.0589041310,-0.0039416809,-0.0107564604,-0.0637178356,-0.0083816053,-0.0561645465,0.0052582044,-0.0280912690,0.0929070216,-0.0131303388,0.0008271991,0.0744112565,0.0405577250,-0.1207110232,0.0676975700,-0.0099645267,0.0016714716,0.0908554320,0.1131094081,-0.0459077291,0.0706333218,-0.0095041108,-0.0623570089
-0.0438013608,0.0225368134,-0.0522303274,-0.0091167548,0.0053596775,-0.0460983920,0.0978012389,0.0438171444,-0.0264148350,-0.0061763770,0.0336547047,0.0398697674,-0.0342967805,-0.0033157757,0.0465656025,0.0202151550,0.0184885559,0.0608665012,0.0818994275,-0.0098430705,-0.0084747284,0.0266221779,-0.0192941628,-0.0470848524,0.0282240723,-0.0778928258,-0.0077002221,0.0117905525,-0.0650914268,0.0022324188,-0.0245108368,-0.0521005650,-0.0201330108,0.0038800927,0.0067438712,-0.0238181678,0.0739947874,0.0482059938,0.0974187212,-0.0119962512,-0.0318989238,-0.0303458010,-0.0192815092,0.0090469642,0.0526454035,0.0367900082,0.0364427820,0.0288858121,-0.0964541612,-0.0292619283,-0.0192323279,-0.0226029030,0.0575595784,0.0326088927,-0.0083040154,0.0034591117,-0.0089656127,0.0096502454,-0.0453706537,0.0203331625,0.0191140262,-0.0118970983,-0.0032409744,0.0186759864,-0.0547623716,-0.0069756333,0.0409967920,0.0340384780,-0.0104768888,0.0699031476,0.0079785217,-0.0768075310,0.0035372816,0.0481473195,0.1028273980,0.0985478118,0.0078365640,0.0307022123,0.0088263410,-0.0318305109,0.0483105822,0.0336747442,0.0498230663,0.0181368958,0.0118268097,-0.0250267317,-0.0137368683,0.0409469037,-0.0099314146,-0.0448523745,-0.0636091340,0.0234563531,-0.0578148819,0.0130110116,-0.0128640808,0.0380101474,-0.0033588725,-0.0023823518,-0.0483123920,0.0788876316,0.0096467963,0.0117541726,-0.0142036048,0.0407465410,0.0617992273,-0.0556948687,-0.0333647589,-0.0421518630,-0.0384449878,0.0028237065,-0.0191841895,-0.0559865240,-0.0211666639,-0.0240591707,-0.0118777769,0.0355636243,0.0548716366,-0.0562257855,-0.0273770818,0.0135860121,-0.0304342238,-0.0381915054,-0.1066474464,-0.0443877836,0.0555685915,-0.0252986949,0.0242036292,0.0714125744
-0.1371188266,0.0027546271,-0.0913433594,0.0247623182,0.0559619647,-0.0134111560,-0.1225606572,-0.0087174092,0.0813583199,0.0331408543,0.0081947483,-0.0324616838,0.0173456274,0.0643940273,0.0657059891,0.0516585409,0.0015790040,-0.0048576109,0.0388208845,0.0811603829,0.0123266992,-0.0487293338,-0.0455753679,0.0369042292,-0.0188947222,-0.0185740086,0.0347767282,0.0142567825,0.0202655228,-0.0063432649,-0.0196313893,0.0516364227,-0.0433558940,-0.0354997244,0.0161843891,0.0768368584,-0.0549204236,0.0936707829,0.0291520127,-0.0658361443,-0.0104794382,0.0523654990,-0.0531295047,0.0067673118,0.0575437089,0.0251963173,0.0166029339,-0.0271122463,-0.0472445891,-0.0742692568,-0.0277319103,-0.0535136168,0.0382200613,0.0040256214,0.0508984697,0.0798367857,-0.0168004786,0.0507646070,0.0073974755,0.0536455594,-0.0123454370,-0.0160256682,0.0375054338,0.0140208138,-0.0465506807,0.0217421385,0.0058676116,0.0266999030,-0.0380951778,0.0734823055,0.0348669403,-0.0372772991,0.0108368438,-0.0735150148,-0.0443739430,-0.0888997307,-0.0045137204,0.0214370673,0.0253189740,-0.0550413539,0.0591661637,-0.1142540749,0.0278792302,0.0478206517,-0.0587106205,-0.1547325331,-0.0522334029,0.0384882623,-0.0180766377,-0.0022897597,-0.0871465981,-0.0383872681,0.0694304057,-0.0227582798,0.0210355544,0.0300753671,-0.0415279976,-0.0058656000,0.0285119847,-0.0092650783,0.0696953123,-0.0025857162,0.0190121733,0.0141070032,0.0906364086,0.0356275547,0.0475011503,0.0085664612,0.0480639421,-0.0422847627,-0.1012443011,0.0571620828,0.0311415088,-0.0603187034,-0.0289855764,0.0028762260,-0.0648646400,-0.0051031625,-0.0078544907,-0.0437863943,0.0456930588,0.0228329570,0.0173274811,-0.0069362054,0.0050446757,0.0282804834,-0.0299231079,0.0282154634
0.0227565602,-0.0461485511,-0.0116151477,0.0016791788,-0.0048407875,0.0352084552,-0.0434565661,0.0255807425,-0.0270159523,-0.1275077788,0.0619624523,0.0939412786,-0.0538741474,-0.0075488288,0.0279349900,0.0615090600,-0.0826169057,0.0310148208,-0.0120300983,0.0291236499,0.0134923765,-0.0135345097,-0.0061151374,-0.0253330099,-0.1096257825,-0.0410733990,0.0513178513,0.0003882695,0.0067987021,0.0791521807,-0.0368282216,-0.0172685884,-0.0283416641,-0.0040441720,0.0497603887,-0.0197385721,0.0322412158,0.0939129507,-0.0149718487,0.0650115845,0.0242687759,0.0089939940,-0.0868732990,-0.0351400129,-0.0341860515,0.0430650101,0.0679816367,0.0137102932,-0.0225944999,0.0689586226,-0.0073876412,-0.0597571043,-0.0786320147,0.0224822730,-0.0359217009,-0.0641374214,0.0406846695,-0.0678696070,0.0267501301,0.0527182435,-0.0301185830,0.0041410476,0.0079952232,-0.0180561190,-0.0491822664,0.0530958469,-0.0628143219,0.0278106662,-0.0080463392,0.0579671966,0.0560717651,0.0079666408,-0.0445931459,0.0280389773,-0.0292291386,0.0489047340,-0.0246651300,-0.1500645181,-0.0237864520,0.0392180461,0.0663526894,-0.0081387675,0.0708086846,0.0433367647,-0.0724538477,0.0543828415,0.0191240905,-0.0419176934,0.0036058828,-0.0525443680,0.0113173714,-0.0947641375,0.0070067222,-0.0154652377,0.0184324851,-0.0177617368,0.0222410760,-0.0499405250,0.0747346685,-0.0375767031,-0.0091355500,0.0916496351,-0.0931292095,0.0829422180,0.0850163959,-0.0250585968,-0.0688834191,0.0307426717,0.1176092039,0.0304876594,-0.0548564953,0.0605241439,0.0842938553,0.0297221362,-0.0372374271,-0.1395629297,-0.0530476526,0.1068069283,-0.0454886710,0.0367261339,-0.0041987914,-0.0015494361,0.0490157919,0.0659961542,0.0768952655,-0.1229366190,0.0304183051,0.0317975532
0.0147467862,0.0453875149,0.0052822907,0.0344787354,0.0767030874,0.0161463788,0.0203598006,0.0433901965,-0.0470475247,-0.0819135885,0.0138678632,0.0379171904,-0.0929891192,0.0545979507,0.0109334307,-0.0628396904,-0.0192205199,-0.0434891169,0.0208694279,0.0124304428,0.0676533275,0.0322070639,0.0303583837,0.0497477673,0.0497677852,0.0322008854,-0.0478056145,0.0054693094,0.0541294314,0.0279749482,-0.0425154142,-0.0588910919,-0.0148594760,0.0110354758,-0.1169451900,-0.0184913633,0.0049330762,-0.1058079453,-0.0212731063,0.0123350706,-0.0156438123,-0.0344136171,-0.0761804723,0.0859525468,0.1057601698,-0.0521570899,-0.0263798091,-0.0464806325,-0.0373608602,-0.0198770069,0.0657505611,0.0849594225,-0.0221614360,-0.0124886903,-0.0221369707,0.0667657245,0.0229139610,0.0285821384,-0.0786464028,-0.0352534977,-0.0240588824,0.0466528260,0.0165024090,-0.0139219022,0.0236758305,-0.0063247737,0.0082307334,0.0119606601,-0.0183518823,-0.1314494452,-0.0669006017,-0.0205416367,0.0275656917,0.0345355086,0.0119467335,-0.0030637347,0.0164735643,-0.0085948032,-0.0300124602,0.0502609902,-0.0333387244,0.0005369624,0.0153539322,0.0494450627,0.0810922341,-0.0562837966,0.0004844077,-0.0139200167,0.0285132022,-0.0634806956,0.0260272597,0.0343864834,-0.0293168318,0.0771160886,-0.0153570078,-0.0622440581,0.0782334217,0.0225551624,0.0114656687,-0.0181899117,0.0351519805,0.0115536378,-0.0443230078,-0.0162975227,0.0246373988,0.0394392930,0.0334599142,-0.0123470992,-0.0532842617,0.0416950521,-0.0931779887,-0.0798234121,-0.0247281532,0.0004843530,-0.0025204081,0.0529061845,-0.0235580390,-0.0009715565,-0.0570689498,0.0878767761,0.0623738705,0.0086659960,0.0209365881,-0.0003172441,0.0458629955,-0.1177628884,0.0011228966,-0.0288311483
-0.0106995642,0.0274157570,0.0048554782,0.0260764980,-0.0246314855,-0.0020411226,-0.0009363051,-0.1170203174,0.0327767511,0.1185920817,0.0020714805,0.0087155096,0.0263987542,0.0272662054,-0.0375814600,0.0156627880,-0.0273319320,0.0578629350,-0.0976663197,-0.0169350098,-0.0488347827,0.0837089211,-0.0584168488,-0.0408262497,-0.0470829488,0.0191355068,0.0150173354,-0.0087419495,-0.0986500552,0.0030295269,0.0197038802,-0.0120173670,-0.0548218810,0.0085685963,-0.0651314627,-0.0021464758,0.0085385549,-0.0024305939,0.0812766701,-0.0088438073,-0.0547295564,0.0667407913,0.0136105828,0.0197104047,0.0057137413,-0.0258260822,0.0171472361,-0.0730828892,-0.0234239523,0.0317327118,0.0356494405,0.0411312936,0.0112672693,0.0574250756,-0.0624980580,-0.0162097068,-0.0117917052,-0.0962262600,0.0009823634,0.0096258279,0.0566102626,-0.0009143653,-0.0706570638,-0.0226673769,0.0009981651,-0.0673840519,0.1041345809,-0.0644284225,0.0090063160,-0.0065945268,0.0377767905,0.0071483810,0.0278867905,0.0273644977,-0.0487523355,0.1052542386,-0.0096734809,0.0427928994,0.0912199863,-0.1612903995,-0.0928374769,0.0289467820,-0.0413554591,0.0636365899,0.0636430447,0.0934716546,-0.0230823072,0.0514622611,0.0547907945,0.0352675990,-0.0848431836,0.0764704334,0.0787710670,0.0217623932,0.0152646083,-0.0427087519,0.0490438393,-0.0430394770,-0.0030895854,-0.0079237226,-0.0363162726,0.0253785854,-0.0118946877,-0.0368316796,0.0493682591,-0.0647095035,0.0404777971,0.0170745409,-0.0007000535,0.0415400093,0.0119309067,-0.0192440158,-0.0350976434,-0.0312463118,0.0339424155,0.0068980459,-0.0465669389,-0.0291178004,-0.0377127594,-0.0734804356,0.0403935869,-0.0101931032,-0.0529708179,0.0768790749,0.0057460434,-0.0635032656,0.0683301259,0.0237281488
0.0235606011,-0.0824337113,-0.0571416235,-0.0098159136,-0.0166920951,-0.0444635093,0.1178839257,0.0044213150,-0.0098876200,0.0290397203,0.0385968134,0.0370795643,-0.0870877950,0.0338567568,-0.0192591890,0.0648488442,0.0679960049,-0.0050368622,-0.1386078917,0.0133201626,0.1111094270,0.0282868233,-0.0620431078,0.0463680117,0.0304315996,0.0433936345,0.0134869770,0.0529913948,-0.0522898759,-0.1027991436,-0.0038151335,0.0614926556,-0.0621684926,0.0246437120,0.0831058491,0.0361032218,0.0551680576,-0.0288022227,0.0360887261,-0.0286588517,-0.0110736349,0.0048912924,0.0698074803,-0.0521634467,0.1368006269,0.0208048234,0.0031924934,0.0289963108,0.0441711308,0.1031182324,0.0530715998,0.0519355976,-0.0197367258,0.0211042259,0.0171409211,-0.0615416236,0.0526342829,-0.0184960812,-0.0430060429,0.0933982287,0.0174468685,-0.0460618316,0.0118936901,0.0937276977,0.0386353921,0.0604745234,0.0146049640,0.0590218519,0.1632842261,0.0673236565,-0.0271786603,-0.0184420425,0.0476744454,-0.0895196445,-0.0238028154,0.0211816028,0.0023396158,-0.0105011670,-0.0163594201,-0.0092248711,0.0886071066,-0.0494906051,-0.0061158797,0.0005696947,0.0786296980,-0.0100190123,-0.0377314840,0.0642405384,-0.0081732860,-0.0156244048,0.0630920380,0.0326466648,-0.0587823068,-0.0556796867,-0.0313783246,-0.0695344766,0.0070683564,0.0283958924,0.0094256769,0.0271995825,0.0980117171,0.1271488451,0.0075105967,-0.0020594128,-0.0157111153,-0.0283073541,0.0542092499,-0.0109758101,0.0421890936,-0.0160981573,-0.0074035879,0.0121009261,0.0033301564,0.0203355521,-0.0624913169,0.0133067335,0.0715958570,0.0146984397,-0.0101525162,0.0606057239,0.0080357352,-0.0161074216,0.0318243840,-0.0117446700,0.0056099441,0.1109929794,0.0239856583,0.0077687614
0.0687246800,-0.0021084650,0.0043096352,-0.0841333088,0.0414680399,0.0553633866,0.0044372363,0.0274392608,0.0053333578,-0.0765726586,-0.0027827791,0.0189091580,-0.0077103088,-0.0018076349,0.0074771273,-0.0205473853,-0.0392118608,-0.0856627083,0.0513912443,0.0124239007,-0.0280760347,-0.0513731470,-0.0317228943,0.0369372160,-0.0578665537,0.0542815901,0.0666329825,0.0816206759,-0.0444765247,0.0362146049,-0.0115936364,0.0736399444,-0.0335641127,-0.0215571681,-0.0471321543,0.0011505875,-0.0211230976,-0.0094706586,0.0039571124,-0.0166207977,-0.0344586955,-0.0579449791,-0.0466226092,0.1010760130,-0.0343353344,-0.0081273452,0.0057403553,0.0262400923,-0.0129262474,-0.0332750200,0.0305291283,-0.0414182727,-0.0239991584,-0.0630216699,0.0024296579,-0.0473577596,-0.0277913151,0.0721542890,0.0143581384,0.0487968947,-0.0145235581,0.0164286582,0.0211873172,-0.0247013962,-0.0190361635,0.0331407952,0.0777734630,-0.1027614159,-0.0543273911,0.0526672192,-0.0127201613,0.0624111141,-0.0118867941,-0.0440939204,0.0585937346,-0.0158673959,0.0725787726,0.1095827982,0.0099046833,0.1063842543,-0.1092881342,0.0778978715,0.0695506749,0.0377912860,0.0350641885,0.0737028940,0.0359835725,0.0140156066,-0.0627219878,0.0569352890,0.0333151005,-0.1580725029,0.0244505845,0.0417107095,0.0219493623,0.0756505167,0.0027618948,-0.0230095682,0.0505145742,-0.0439792923,0.0468643945,-0.0340633511,-0.0232313003,-0.0501117128,-0.0722108530,-0.0953740876,-0.0312079015,0.0051910332,-0.0283607639,0.0043224988,0.0450059102,0.0017842308,0.0326587879,0.0710108569,-0.0524500272,0.0062403567,0.0124546802,0.0145111735,0.0716815904,-0.0451132041,0.0268239293,0.0243212143,0.0030704856,0.0193794085,-0.1298345833,-0.0543720770,-0.0008041679,-0.0117428803
-0.0117383806,0.0091882284,-0.0523380692,0.0107501737,-0.0424952858,-0.0047023963,-0.0021029956,-0.0577849029,0.0873781904,-0.0389440109,0.0083002099,-0.0021840393,0.0036269523,0.0580059402,-0.0485813841,-0.0192833444,0.0251733584,0.0153153554,-0.0153576729,0.0056528444,0.0173658073,0.0031266810,0.0272520827,0.0201811246,0.0196271044,0.0967473085,-0.0240166321,0.0310248257,0.0116375995,0.0240839847,-0.0403366237,-0.0283161945,-0.0335192776,0.0477296584,0.0410203287,-0.0345375400,0.0413090100,0.0718198716,-0.0109951900,0.0052338134,-0.0341100291,0.0057360429,-0.0247898527,-0.0742658197,0.1108661395,-0.0061656410,-0.0655572063,0.0301159704,-0.0019474942,-0.0058023144,0.0437435311,0.0078860171,-0.0115858549,0.0287756329,-0.0465931630,-0.0052804267,0.0119780347,-0.0678192781,0.0178069355,-0.0516428481,0.0648760709,-0.0351010739,-0.0642264394,0.0410475962,0.0666434017,0.0373514174,0.0856358136,-0.0735147307,-0.0443949824,-0.0916679432,0.0932783885,-0.0147961329,0.0818168986,0.0093138763,-0.0059918807,-0.0328180234,-0.0189872249,-0.0247307007,0.0164866146,0.0231652422,0.0520205315,0.0888026216,-0.0177001300,0.0349274215,-0.0445505514,-0.0165457294,0.0180421657,0.0440654615,-0.0195466797,0.0110457821,0.0560707049,-0.0094432195,-0.0170284861,0.0134705487,0.0133675018,0.0516018192,0.0747590859,-0.0673758341,0.0203778961,0.0163389649,0.0195011025,-0.0154575431,-0.0161735067,-0.0499632171,-0.0397555813,-0.0473711670,0.0485136922,-0.0104596987,-0.0799869148,0.1339099920,0.0828327879,0.0303370476,-0.0674976109,0.0649695296,0.0501922624,0.0030315698,0.0134918020,0.0119082263,-0.0262374402,-0.0684003711,0.0155935601,0.0524709746,-0.0664370281,0.0596657579,0.0402575359,-0.0216671602,-0.0544723792,-0.0379987653
-0.0483203006,0.0283377278,0.0144605054,-0.0076326542,-0.0510155886,0.0554512116,-0.0433445981,0.1149082115,0.0607840552,-0.0634831079,0.1068932979,0.0114184265,0.0583576740,0.0724746194,0.0296514756,-0.0263738562,-0.0313851774,0.0610980660,-0.0239270923,-0.0159677556,0.0070341660,0.0485990096,-0.0325383570,-0.0001743928,0.0303261608,0.0410398213,0.0142273033,-0.0296785476,0.0007648439,0.0496610934,-0.0701354935,-0.0382290208,0.0082693795,-0.0456741025,0.0131127447,0.0672478734,0.0501399999,-0.0228573892,0.1165211772,0.0807106027,-0.0256307594,-0.0018873826,-0.0383548821,0.0176780517,-0.0018994331,0.0327540593,0.0468679005,-0.0098207685,0.0599759993,-0.0191573018,-0.0558878076,0.0267510669,-0.0412847560,0.0643732925,-0.0235973712,0.0151193850,0.0383070599,0.0138877314,-0.0257374099,0.1038077738,0.0082697443,-0.0257724828,-0.0227875884,0.0302966504,0.0141049595,0.0150863419,-0.0345914957,0.1040257498,0.1087926868,0.0137261686,-0.0104862837,-0.0795121960,0.0179616996,0.0485880421,-0.0154734406,0.0000141288,-0.0222687968,-0.0338686323,0.0235566206,-0.0960599645,-0.0558633910,0.0293255339,-0.0051724368,0.1147384463,0.0820180742,0.0033464638,-0.0046093938,-0.1398680072,-0.0279030731,0.0021749181,-0.0144837608,-0.0300197737,0.0754277574,0.0502874083,-0.0387350277,-0.0451487209,-0.0613200517,0.0612646605,0.0260233105,0.0012378932,0.0225763647,-0.1058589962,0.0140254934,0.0492918856,-0.0091430794,0.0938039971,0.0091587369,-0.0267036434,-0.0595805455,-0.0274121089,-0.0471716764,0.0268494527,-0.0297384770,0.0310152890,-0.0414606776,-0.0514944859,-0.0288673933,0.0209209669,0.0225058831,-0.0234950486,-0.0601930565,-0.0223799185,-0.0179250212,0.0204059746,0.0391536983,-0.0270805668,-0.0454982997,-0.0159712369
0.0092948764,0.0320105685,0.0342457750,0.0316414847,0.0312099167,0.0262803246,-0.0524356083,-0.0401504282,-0.0137142620,0.0556098330,-0.1160369842,0.0266707478,-0.0773000239,0.0267435832,-0.0246678272,0.0375661417,0.0378189333,0.0021980758,-0.0323964730,-0.0868818140,-0.0068017490,-0.0333059247,0.0641939856,-0.0341628905,-0.0066998860,-0.0579957198,0.0723797760,-0.0355985055,-0.0705084211,0.0801761501,0.0775317094,0.0459843788,-0.0287720148,0.0326855071,0.0397905331,-0.0068914126,-0.0081474793,-0.0085021901,0.0039409497,0.0293978941,0.1006798360,0.0442129865,-0.0011127130,0.0774620801,0.0075917872,-0.0372307750,0.0235065933,0.0746944746,0.0032658982,-0.0502562315,-0.0008551264,0.0058067318,-0.0281330235,0.0219995355,0.0364007740,0.0066091795,-0.0096723592,-0.0275190305,-0.0051568669,0.0247599064,0.0030724658,0.0069293806,0.0189839304,0.0597520970,-0.0289433185,0.0178717287,0.0233097086,0.0832273681,-0.0007904969,-0.0092974593,0.1357852304,-0.0850232886,0.0567185979,0.0569652849,0.0416754914,-0.0055090865,0.0471647169,-0.0214088401,-0.0229665439,-0.0179078143,-0.0457911370,0.0555886942,-0.0996141700,-0.0333483582,0.0071116003,-0.0277211972,0.0837272525,0.0020834098,0.0020801433,0.0044624710,0.0245071261,-0.0108239658,0.0583081299,-0.0188180049,0.0145036295,-0.0097087785,-0.0272403781,-0.0334570913,0.0389917514,0.0889810371,-0.0437762574,0.0920417967,-0.0476294098,-0.0295177394,0.0359308439,-0.0370976878,-0.1007073249,-0.0149885440,0.0574725533,0.0370763224,-0.0323003725,0.0492498048,0.0438285405,-0.0100700617,-0.0025693506,-0.0027588581,-0.0188164114,0.1225693862,0.0715128883,0.0105870879,-0.0221578528,0.0091234839,-0.0094921891,-0.0818246720,0.0402081057,-0.0030795583,0.0324134415,0.0713121284
-0.0054267977,-0.0452330027,0.0340219224,0.0108304586,-0.0314980995,-0.0130872522,-0.0112644548,0.0345328292,-0.0469657952,0.0530559719,0.0143128875,-0.0032627132,-0.0014804654,0.0940914197,0.0720188636,-0.0242191136,-0.0357821685,-0.1338087206,-0.0257146843,0.0991416725,-0.0228164073,-0.0132915851,0.0401641324,0.1187856600,0.0480914176,-0.0606264290,-0.0590939314,0.0312177523,-0.0617161516,-0.0355927473,-0.0084312511,-0.0107263839,-0.0372006476,-0.0183884074,0.0094311711,-0.0170699119,0.1654095825,-0.0237524267,-0.0470736067,-0.0163640271,0.0559469648,0.0733605951,0.0578662168,0.0004095175,-0.0031564948,-0.0185330673,-0.0992856165,0.0000537761,-0.0208977054,0.0381091865,0.0027124198,0.0406011320,0.0322313430,0.0393335350,0.0904527450,-0.0109754282,0.0316673537,-0.1288814275,0.0558217218,-0.0409620878,-0.0210419776,0.0484927003,0.0766087295,-0.0845591580,-0.0931083888,0.0684927214,0.1513566753,-0.0132573741,-0.0377909824,0.0204922855,0.0414177925,-0.0191419248,0.0533307397,0.0146754846,-0.0999904853,-0.0317822076,-0.0821004705,-0.0037798318,0.0491383666,-0.1552569258,-0.0365048949,-0.0241232161,-0.0788199485,-0.0282322343,-0.0687475839,0.0106335591,0.0469476167,-0.0291521087,-0.0990811479,-0.0608538742,-0.0396804736,-0.0641515846,0.0980066738,0.0428118054,0.0268509859,0.0382968441,-0.0179440037,-0.0115967226,-0.0844019249,0.1112512342,-0.0161253573,0.0974079535,0.0771270172,-0.0052333852,0.0512875632,-0.0222428712,-0.0081957568,0.0109644444,-0.0255327853,0.0794132374,-0.0717981310,-0.0218458056,-0.0471878156,0.0506571065,-0.0070294211,-0.0658679526,-0.0036981879,0.0277556699,0.0712155091,-0.0085258555,-0.0976789565,-0.0438914625,-0.0329958582,0.0236864776,-0.0846174940,0.0785656693,0.0090103769,-0.0061900128
-0.0553930590,-0.0285735279,-0.0222488932,0.0602142003,-0.0000660596,-0.0707954695,0.0580989264,0.0030747243,-0.0585404746,0.0155543230,0.0074089062,-0.0194088534,0.0517664155,-0.0667659784,-0.0098477002,0.0147158067,0.0348880084,-0.0420891723,0.0813638678,0.0204359063,-0.0366366665,-0.0868103974,-0.0400555044,0.0173325538,-0.0360144641,0.0777862277,-0.0505787720,-0.0314259815,-0.0205540178,0.0618892423,0.0587630918,0.0331505381,-0.0542382919,0.0915909105,0.0660074402,0.0196831337,-0.0130736137,0.0583944007,0.0992243392,-0.0177351439,-0.0316064984,-0.0864592547,0.0832061336,0.0004075769,-0.0594250347,-0.0843913141,-0.0315187040,0.0544668350,0.0641904815,0.0377975530,0.0751773346,0.0652687081,-0.0194600500,-0.0097961639,-0.0067848538,0.0082480493,-0.0143050902,0.1160364912,0.0044888074,0.0500947823,-0.0121819766,0.0235374227,0.0197543571,-0.0129807506,-0.0946308066,-0.0036867606,-0.0991434475,-0.0294913506,-0.0067570442,0.0645147055,-0.0197990768,-0.0414269040,-0.0375703526,0.0289651045,-0.0352478172,-0.0694038038,0.1079027866,-0.0689932421,-0.0507433393,0.0069671628,0.0389523961,-0.0571512919,-0.0502816937,0.0605464034,0.0644021468,0.0620832271,-0.0017677008,0.0161130566,-0.0166742569,-0.1203536622,0.0214007005,-0.0446857984,0.0548756550,0.0648778566,-0.0937178172,0.0020091426,0.0259382658,-0.0345914350,-0.0313373155,0.0569096426,0.0241514383,-0.0100934152,-0.0170981415,-0.0351501477,-0.0345605783,-0.0057591885,0.1124104451,-0.0790383815,0.0296766326,0.0571721419,0.0538797469,-0.0076761597,0.0037713096,0.1323781229,-0.0006514588,-0.0802573043,-0.0665825929,0.0153708856,-0.0552203811,-0.0051441407,-0.0806757267,0.0262618114,-0.0353280153,-0.0362603176,-0.0152081937,-0.0280081172,0.0052330216,0.0307427475
0.0317336726,-0.0727660476,-0.0449504174,0.0487188872,0.0316215002,-0.0669756599,-0.0513215557,0.0598582130,-0.0056998538,0.0495251665,-0.0364536222,0.0042284456,-0.0477765904,0.0057094527,-0.0134918077,0.0898798188,0.0179193041,-0.0303242678,-0.0693940295,-0.0682469042,-0.0179024389,-0.0640031076,-0.0397112432,-0.0498221781,-0.0885466133,0.0243923019,-0.0414813193,-0.0045625594,-0.1375401439,0.0210137650,0.0413253078,0.0789471097,0.0575046662,0.0693994575,0.0665212908,0.0448326170,0.0992119063,-0.0237920575,-0.0434639684,-0.0340469079,-0.0718069184,0.0392887392,0.0308546960,-0.0431851259,-0.0570476602,-0.0164809975,-0.1263693778,0.0283052286,-0.0040101630,0.0566839110,-0.0416026527,0.0663145013,0.0826945138,-0.0072910743,0.0151805076,0.0498314962,-0.1177178077,-0.0989025364,-0.0556353393,-0.0168750959,-0.0082985763,-0.0316198982,0.0150995684,0.1097129250,-0.0130102497,-0.0078931513,-0.0589018824,0.0363847305,0.0665984702,-0.0439575014,0.0255577086,0.0632697001,-0.0219387777,0.0197500031,-0.0303872634,-0.0369335044,0.0800060197,0.0018744439,-0.0266146081,-0.0498698503,0.0018302278,0.0568943779,-0.0031691627,-0.0232759161,-0.0185474819,-0.0132792692,-0.0679775823,-0.0325605958,-0.0377256963,0.0572779500,0.0208370899,0.0642944951,-0.0331523640,-0.0389971672,-0.0630683686,0.0267645661,-0.0034803519,0.0036262749,0.0297972593,0.0092590837,-0.0197512487,0.0523475718,-0.0273804879,0.0708879542,0.0542930386,-0.0372356687,0.0181803310,-0.0601399926,0.0215104666,-0.0303248258,-0.0420000730,0.0702829896,-0.0760922089,-0.0074132471,0.0718616225,-0.1016723400,-0.0358575828,0.0386748114,-0.0073794067,-0.0850244085,0.0784324136,-0.0457421274,-0.0316060150,-0.0809499603,-0.1378573668,0.0012511611,0.0128762728,-0.0207845165
0.0241402184,0.1221145228,0.0337670431,0.0177431169,-0.0520179905,-0.0530188845,0.0344915569,-0.0190351565,-0.0725948164,-0.0145420501,-0.0196901660,0.0892139280,0.0207049437,0.0097850776,-0.0262919755,0.0035661315,0.0366934842,-0.0099788394,0.0095473386,-0.0425281241,0.0036784525,0.0514360760,0.0231508838,0.0228425567,-0.0205072638,0.0096378647,0.0099065890,0.0093526710,-0.0046156093,-0.0225882052,0.0425511445,-0.0432099788,-0.0475004946,0.0132297310,0.0752158190,0.0006621178,-0.0938555144,-0.0485737883,0.0194418459,-0.0816660648,0.0040493046,0.0744872394,-0.0896348263,-0.0028272810,0.0737320469,0.0522512534,0.0243417880,-0.0479368930,-0.0202241178,0.0182095418,0.1274699261,0.0076660912,-0.0255189726,0.0280350944,0.0313266046,-0.0197089047,-0.1029055898,-0.0568241222,0.0394784748,-0.0297568745,0.0099915090,0.0021532540,0.0255668062,0.0035073210,0.0211353261,0.0082834440,0.0112268477,-0.1115008937,0.0814955945,-0.0756886293,0.0016703416,0.0141267628,-0.0439877883,-0.0429286992,-0.0319793692,0.0427460742,0.0575174781,0.0027807834,0.0543353962,-0.0020339862,0.0042943073,0.0011763317,0.0089259202,0.0113882526,0.0186501314,0.1027359354,-0.0271547659,-0.0701912442,-0.1392673881,0.0660903652,0.0055196005,-0.0648293122,-0.0203053081,-0.0550326663,-0.0513213072,-0.0325289899,-0.0782826863,0.0531841472,-0.0348153730,0.1141390490,0.0109541459,-0.0178588811,0.0004222969,0.0781374688,-0.0124584362,0.0708008711,-0.1074533587,-0.0612908480,0.0127670814,0.0176424454,-0.0748284991,-0.0701151502,0.0113279623,0.0466633894,-0.0004773097,0.0713008991,0.0318189274,-0.0284330601,0.0224920281,0.0012542119,0.0664745657,-0.1113626568,0.0416779879,0.0242921413,0.0142412479,-0.0142041253,0.0553593937,-0.0826181405
0.0027327067,-0.0306537071,0.0983464009,-0.0618021193,0.0332054687,-0.0391174488,0.0620106728,0.0400370376,-0.0058311884,-0.0714397461,0.0225338666,0.0827251716,-0.0060719277,-0.0158004827,0.0115124288,0.0499879305,0.0118557306,-0.0359747830,0.0616819524,-0.0616132311,0.0084697961,-0.0419385286,-0.0355619427,-0.0692104800,0.0680275980,0.0213981194,-0.0516344931,0.0584074056,-0.0228278550,0.0586476681,-0.0452287606,-0.0495285259,-0.0350717271,0.0348300930,0.0818583955,-0.0001954592,-0.0960284065,0.0297159922,0.0075806201,-0.0109774254,0.0331428058,-0.0135628634,0.0242706132,0.0620993375,-0.0198768309,-0.0069350344,-0.0351324590,-0.0353962598,0.0122456635,-0.1305125538,0.0781812769,-0.0721462999,-0.0347140133,-0.0073880960,-0.0576221642,0.0164802464,-0.0139778329,0.0778534708,-0.1194347665,0.0244146910,0.0360922507,-0.0677916995,0.0241554299,-0.0925206623,0.0269700154,0.0443174366,-0.0630667005,-0.0115641004,0.0198912538,-0.0272943696,0.0256955721,-0.0121438378,0.0478196633,0.0085107549,0.0724851444,-0.0400457068,0.0070045271,0.0286241428,-0.0219604864,0.0024541512,-0.0250867813,-0.0268122275,0.0001071093,0.0528379590,-0.1168042068,-0.0758824045,-0.0061892454,0.0665183672,-0.0278511577,-0.0359566396,-0.0238108943,0.0334071309,0.1079178007,-0.0081217571,0.0213659147,0.0455649360,0.0272102811,0.0111976775,-0.0396615145,0.0108031616,0.0777904021,-0.0514287963,0.0163286942,0.0248707146,0.1041900786,-0.1402021325,-0.1755927264,-0.0296594108,0.0772178253,-0.0592993893,-0.0046475985,-0.0178944424,-0.0265259548,0.1380803211,0.0121804367,-0.0697236459,0.0326196696,0.0093982210,0.0093937486,-0.0347677747,0.0228705019,-0.0582669178,-0.0002594340,0.0042926464,-0.0028177845,0.0071211473,0.0429581161,0.0823691364
-0.0764622716,-0.0241484859,-0.0069001768,-0.0756299006,0.0658648226,-0.0324967445,0.0824970120,-0.0356954743,0.1312996416,0.0470538032,0.0666673500,0.0860895932,-0.0897594842,-0.0087106482,0.0419730688,-0.1252168253,-0.0846738184,-0.0105794461,0.0282914606,-0.0021957511,-0.0060384213,0.0195502814,-0.0487733892,-0.0201462638,-0.0012032199,-0.1154302348,0.0051579452,0.0036378559,-0.0735460111,0.0390137688,0.0074749502,0.0161121585,-0.1001142553,0.0671047683,0.0087613333,0.0658349912,-0.0067812073,-0.0559593616,-0.0294190446,-0.0820063117,-0.0391580398,-0.0604245419,0.0518903931,-0.0274859777,0.0006965529,0.0129321810,-0.0112798622,0.1034097931,-0.0885894975,-0.0096226256,-0.0011198718,0.0382167905,0.0337593658,-0.0188012309,-0.0235544266,0.0541079231,-0.0080574710,-0.0970629228,0.0351156312,0.0389772413,-0.0421158873,-0.0550563445,-0.0161222859,-0.0283637689,0.0314131630,0.0292548671,0.0029174059,-0.0728008576,0.0063692056,-0.1097120466,-0.0174022209,0.0185121614,0.0440627305,0.0539226611,0.0646902882,0.0155448828,-0.0130337893,-0.0594739269,-0.0180206075,-0.0429743190,-0.0033780484,-0.0860810968,-0.0270176330,-0.0488197359,0.0063135016,-0.0676930853,0.0092970485,0.0064606169,0.0895893374,-0.0239622963,-0.0253075386,0.0222020164,0.0202827511,0.0302233212,-0.0317150274,0.0925381783,-0.0530163272,-0.0685241495,0.0422710282,0.0166430519,0.0354881683,-0.0431083716,0.0147013970,-0.1017213925,-0.0198668081,-0.0034168816,-0.0337609605,-0.0404581445,0.0197409753,-0.0302972275,0.0366355794,-0.0233819138,-0.0038316831,-0.0362625430,-0.0256293529,0.0499199386,0.0031644970,-0.0040719444,0.0252542993,-0.0139349166,-0.0442661067,0.0503128819,0.0601701815,-0.0582870375,0.0165715391,-0.0588701526,-0.0109735927,0.0250996521
0.0441423798,0.0044739988,0.0110358038,-0.0569527905,0.0011127708,-0.0259403488,-0.0485198401,-0.0292899593,-0.0173755707,0.0062235641,0.0282847030,0.0051071848,0.0060343730,0.0668654597,-0.0004904565,0.0569574672,-0.0076962662,0.0023539743,0.0791024834,0.0925931380,0.0166080497,0.0603945568,-0.0187568729,0.1527712568,0.0270109523,-0.0796333112,0.0199889287,-0.0476247719,-0.0058088491,0.0058141812,-0.0250548974,0.0400770820,-0.1363294133,-0.0294790215,0.0174384810,0.0361294721,-0.0430511190,-0.0285030738,-0.0562003100,0.0594137649,0.0372499385,-0.0768730234,0.0403231955,-0.0699967200,-0.1073269932,-0.0424827017,0.0240501209,0.0779651705,-0.0988372678,0.0325802250,0.0211534101,-0.0326648827,-0.0379462206,-0.0039075928,-0.0501717606,0.0101951332,-0.0036312154,0.0250187983,-0.0010005129,-0.0538028878,-0.1015360914,0.0390978412,-0.0495262193,-0.0211033265,0.0111600224,-0.0829801124,0.0766236616,0.0309919380,-0.0109071353,0.0653458740,-0.0658181466,0.0457773663,0.0445168336,-0.0445583124,-0.0333618059,-0.0213529202,0.0613530411,-0.0058700487,-0.0670257249,-0.0610784539,0.0965979142,0.0308292900,0.0026449796,-0.0297196929,-0.0163321163,-0.0066445977,0.0134575071,0.0007638046,-0.0526309340,0.0088713660,-0.0090926664,-0.0313453508,0.0831762162,0.0262423727,0.0328433102,-0.0572201206,0.1064056985,-0.0385247298,-0.0383075271,-0.0303693456,0.0273020227,0.0368112457,0.0321251506,0.0321284243,0.0252542005,-0.0210387618,-0.0273959075,0.0520305990,0.0349463171,-0.0218937978,-0.0290688363,0.0086077036,0.0278747991,-0.0709196978,-0.0553921780,0.0228259602,0.0060011782,0.0331333888,-0.0566179090,-0.0155847474,-0.0367582161,-0.0991763731,-0.0674891406,-0.1058189888,0.0499179039,0.0533998023,-0.0077702009,0.0397017768
-0.0384270881,0.0184075405,0.0253700015,0.0445021028,-0.0260317081,-0.0416002493,0.0499285491,0.0094972071,-0.0607409610,0.0217595983,-0.0599751483,0.0281705125,-0.0611790393,-0.0981148030,-0.0826637838,-0.0185108090,0.0168577922,0.0120934841,0.0526668023,-0.0111854371,-0.0069844209,0.0226175392,0.0477741077,0.0939878159,-0.0357375912,-0.0379372948,-0.0009344365,0.0537046674,0.0105438426,0.0136287698,0.0316128853,0.0219840037,0.0127062814,-0.0086100814,0.0551185232,-0.0765969043,0.1220098927,0.0072413313,0.0010561484,-0.0059946905,0.0104836177,-0.0024679954,0.0822895910,0.1148634602,-0.0418601230,-0.0636295874,0.0292614713,0.0287127842,0.0392170179,0.0174216874,0.0314459740,0.0571251139,-0.0374216171,0.0215715530,0.0111375048,0.0117078820,-0.0740703340,0.0369982003,-0.0687907530,0.0186464449,0.0358067653,-0.0607911169,0.0362112302,0.0349294713,-0.1376231442,0.0395587493,-0.1070245379,-0.0286988033,0.0215636791,-0.0428322055,-0.0280232750,-0.0979909137,0.0487353223,-0.0203664732,-0.0575245708,-0.0865851812,-0.0601044317,-0.0283124038,0.0242564464,-0.0861611946,0.1021549448,0.0669288139,0.0322017589,0.0330241875,0.0300710834,0.0422345932,-0.0645714581,0.0717552157,-0.0381304590,-0.0650697311,-0.0243113965,-0.0469869004,0.0809507808,0.0135905316,-0.0302105289,0.0637367612,-0.0770088903,-0.0045265828,0.0016254974,-0.0144742354,-0.1027376460,0.0149241038,0.0649565579,0.0781373348,-0.0530502233,-0.0504611669,0.0028241344,-0.1139204078,0.0071443484,-0.0831977431,-0.0416927262,-0.0220464928,0.0172172729,-0.0543512119,-0.0360871310,0.0571333026,0.0198080107,0.0102948011,0.0641642057,-0.0542385269,-0.0066492425,-0.0584547485,0.0137276364,0.0019659990,-0.0189642494,-0.0327325785,0.0320876946,-0.0831148788
-0.0345100015,0.0311052508,-0.0149318590,-0.0444913660,-0.0800935567,-0.0663541119,-0.0610425424,-0.0424192988,-0.0574732919,-0.0197341535,-0.0308722507,-0.0946017262,0.0975411012,-0.0323360440,0.0182712305,-0.0545046288,-0.0601015103,-0.0224017530,-0.0564559893,0.0337360916,-0.0287765107,-0.0818281894,-0.0395172677,-0.0475911508,-0.0696464212,0.0239929196,0.1112313310,-0.0809123216,-0.0800662789,-0.0432808966,0.1521384225,0.0401233308,-0.0629616186,0.0703115722,-0.0029867317,0.0029069322,-0.0969484528,0.0613175269,0.0067015864,-0.0283694498,0.0221577936,-0.0552839828,-0.1578623083,-0.0665396642,-0.0382093337,-0.0121115403,0.0053669515,-0.0250130466,0.0172425050,0.0352257005,-0.0251706339,-0.0304750142,0.0085786056,0.0560784236,-0.0404489189,0.0111905389,-0.0568305245,0.0009018510,0.0850565925,0.0005271249,0.0450538726,0.0032200411,-0.0028593260,-0.0231795740,-0.0416838666,-0.0140335588,0.0452674097,-0.0641693094,0.0035751272,-0.0240612892,-0.0185263212,-0.0012884670,-0.0462127379,0.0022791199,-0.0583844007,-0.0501769669,-0.0092953111,-0.0926110547,0.0879029461,-0.0466772132,-0.0076478401,0.0295240748,0.0448774939,-0.0427647542,-0.0867439426,-0.0778721134,0.0356636621,0.0738573684,-0.0581532875,0.0283784885,-0.0113491546,-0.0387824404,0.0030425522,0.0623049715,0.0188062030,-0.0091528120,-0.0053709422,-0.0153916043,-0.0636843840,0.0348267154,0.0519698029,0.0362395356,0.0258959794,-0.0427553860,0.0303718952,-0.0391066612,0.0221528236,-0.0692196451,-0.0789959359,0.0217320650,0.0456296386,-0.0164960437,0.1087117226,-0.0035261569,-0.0327480068,-0.0044914423,0.0448855436,0.0045677538,-0.0474097486,-0.0715061662,0.0081187174,0.0349506049,-0.0411475184,0.0853943721,0.0364001676,0.0099260790,-0.0362238751,-0.0587485587
0.0158608459,0.0926277953,0.0012673213,-0.0195974918,0.1084543928,0.0328953536,-0.0048965675,0.0354301512,-0.0493280075,0.0151090431,-0.0133895184,-0.0276503255,-0.0247560061,-0.0644253256,-0.0805227025,-0.0822566727,0.0186853347,-0.0208165962,-0.0760297556,0.1691111394,-0.0095118508,0.0497770907,0.0100819727,-0.0906754229,0.0564617624,0.0457072551,0.0008009932,-0.0197666564,-0.0079965886,0.0245530290,-0.0956227230,0.0673157903,-0.0020672276,-0.1479643822,0.0080661194,-0.0318331027,-0.0905874124,0.0135676109,-0.0282578482,0.0084270125,0.0256711865,-0.1176368821,-0.0842175190,0.0839336047,0.1156549815,0.0349621429,-0.0639129049,-0.0123818793,0.0364228795,0.0770692384,0.0258192643,0.0576006471,0.0250835254,-0.0345467505,0.0113749970,0.0717035062,0.0067326348,-0.0752696004,0.0555681025,-0.0244090664,0.0723911657,0.0253818470,-0.0232593929,-0.0012644469,0.0357128884,-0.1376732750,-0.0066234885,-0.0073369183,0.0671056711,-0.0721899304,-0.0119330970,0.0307699149,-0.0172551610,-0.0272542033,0.0087664542,-0.0175677769,-0.0733012727,-0.0173362644,0.0392970097,-0.0196214352,-0.0557853854,-0.0342102428,0.0017945473,0.0017453623,0.0566009601,0.0160255783,0.0488478951,-0.0823602224,0.0403846984,-0.0151521033,0.0237277513,0.0199457383,0.0263824390,-0.0788524494,-0.0443401026,-0.0813736549,-0.0214351938,0.0666040427,0.0118517995,-0.0701287469,-0.0544771774,-0.0432668830,-0.0042258844,0.0051094596,-0.0486604184,-0.0751890414,-0.0421524358,0.0066525250,0.0508928359,0.0638247937,-0.0217477777,-0.0180194762,-0.0553372829,-0.0110420936,-0.0419885603,-0.0743186323,0.0214751698,0.0402060913,-0.0241831344,0.0936897528,0.0143477129,-0.0035612557,0.0391114125,-0.0060689787,-0.0262828239,0.0699356047,0.0401545987,0.0019396933
0.0162202566,0.0737653618,0.0220801876,0.0239503168,-0.0237542813,-0.1212295678,-0.0102388246,-0.0211708712,0.0021656342,0.1094959905,0.0257896633,-0.0153388351,0.0121495487,0.0508076493,-0.0779221734,0.0089946017,0.0134958333,-0.0419559072,-0.0012377243,0.0149166658,0.0586064670,-0.0059066828,0.0057306920,0.0016019386,0.0713816684,0.0272642340,0.0964949641,0.0208302188,0.0147110410,0.0356501509,-0.0335098626,-0.0660849619,-0.0038648420,-0.0245956510,-0.0565228680,0.0240490759,0.0267421437,-0.0725081320,-0.0635632320,-0.0009993997,-0.1619537290,-0.0446040306,0.0159231316,0.0682442423,-0.0521568375,-0.1034892277,-0.0680150950,0.0641665019,-0.0067816784,-0.0583985511,0.0247122466,0.0851803509,0.0743887812,-0.0249290177,0.0557279731,0.0372824646,-0.0945603264,-0.0965899678,-0.0295702959,0.0301909673,0.0915682509,-0.0180262379,0.0481466323,0.0139267950,-0.0191319362,0.0123864689,-0.0409632864,0.0609448303,-0.0463410286,-0.0205772915,-0.0321903756,-0.0240354367,-0.0044881912,0.0620906446,-0.0475077940,-0.0731534786,0.0918180941,-0.0116608555,0.0014267558,0.1081424544,-0.0629618346,-0.0536522211,0.0357089649,0.0389224937,-0.0734970783,0.0938040964,-0.0289727675,0.0223183545,-0.0440022473,0.1734879075,0.0678052683,-0.0926763496,0.0692021349,-0.0085364032,-0.0202570457,0.0783529538,0.0070677935,0.0409261520,0.0643227781,-0.0532912742,0.0145440443,0.0725988912,0.0173277179,-0.0613247299,0.0151909475,-0.0574081452,0.0155808317,0.0191637495,0.1036512620,0.0667616845,0.0231471877,-0.0180517812,-0.0015820363,0.0501522354,-0.0659635249,0.0257979439,0.0377592100,0.0413090961,0.0846215916,0.0172957101,-0.1071968122,0.0456801262,0.0625522375,-0.0621306293,0.0081625469,-0.0480842169,0.0780154344,-0.0833230566
0.0793097876,-0.0136759403,-0.0743655931,0.0468973751,0.0734559634,0.0990853133,-0.0204083920,-0.0026393342,0.0250517377,0.0106167039,0.0505917952,0.0165977440,-0.0139785873,0.0045981712,0.0598753077,0.0263404407,-0.1034846487,-0.0456490433,-0.0284320999,0.0108032994,-0.0283700705,0.0043998609,-0.0452810592,-0.0037027165,-0.0598695474,-0.0392362627,0.0375382827,-0.0584357396,-0.0546468093,-0.0213261485,0.0083147118,0.0188287444,0.0252779841,0.0580980024,-0.0064406834,-0.0289172628,-0.0794903221,0.0011503299,0.0750159503,-0.0511695023,0.0748264676,-0.0772740644,-0.1320314642,0.0687385780,-0.0492922582,0.0640178811,-0.0154919155,0.0523226512,0.0261996383,-0.0895485163,0.0101702599,0.0207448911,-0.0182871928,-0.0641284298,0.0582408709,-0.0190284159,0.0373573324,-0.0181013058,-0.0096335870,0.0068512361,0.0331827069,0.0260909452,0.0509223324,0.0468647250,0.0126910231,0.0533433029,0.0156192499,0.0218918342,-0.0217455966,0.0767062447,0.0144388536,-0.0888566331,0.0273280062,0.0310747471,-0.0418648209,0.0402590123,-0.0223923129,0.0207048379,-0.0038989584,0.0459650953,0.0468844706,0.0956356824,0.0519092325,-0.0423739818,0.0370907956,-0.0228916224,-0.0067585608,-0.1260740262,-0.0616684762,0.0522625606,-0.0790368055,-0.0772901277,0.0398075229,-0.0120080539,-0.0374545035,0.0315967530,-0.0232166279,-0.0445903058,-0.0048036698,-0.0342700744,-0.0001480883,0.0104951106,0.0148944328,0.1428718843,0.0460571356,-0.0122734343,0.0414315302,0.0110892202,0.0300075188,-0.0267483635,0.0016745170,0.0146261076,-0.0544409976,0.0153976469,0.0405713718,-0.0493450181,-0.0495540065,0.0072682991,-0.0011715326,0.0676563328,-0.0726791495,-0.0952720555,-0.1323668662,-0.0125027129,-0.0497120408,0.0263008837,-0.0618830391,-0.0546922695
-0.0573440426,0.0160380600,-0.0336793210,0.0112425101,0.0539936761,-0.0535160449,-0.0681353488,0.0253026315,-0.0344542594,0.0090774788,0.0124425236,0.0602603250,-0.0032039760,0.0186374257,0.0554653917,-0.0087158647,0.0825608563,-0.0371323301,-0.0507048369,0.0162663959,-0.0812185050,0.0166576257,0.0381637270,0.0361544615,-0.0816269532,-0.0646670374,0.1787872327,-0.1067722809,0.0314248198,0.0883994546,-0.0028116716,-0.0074002105,0.0451659581,0.0355682761,-0.0676176373,-0.0872408858,-0.0045077142,-0.0675156326,0.0163697567,0.0776635145,0.1004113927,-0.0497074258,0.0142014197,0.0345774047,-0.0286768215,0.0112087097,0.0177426616,-0.0411184514,-0.0702957420,-0.0594183058,0.0319282621,0.0333866427,0.0983098738,-0.0114561856,0.0148390310,0.0182455165,0.0151208137,-0.0363461795,-0.0254318354,-0.0167447400,-0.0183716275,-0.0006954295,-0.0216402103,-0.0278751255,-0.0074658661,0.0695977315,0.0152841779,0.0184955131,-0.0321018957,-0.0525680893,-0.0182135851,0.0350163809,0.0352143432,0.0168326540,-0.0189633538,-0.1221209818,-0.0074059855,0.0145846057,-0.0448899878,0.0308543942,-0.1181526309,-0.0407475037,0.0555550873,0.0104090610,-0.0838233291,0.1636402735,0.0341804619,-0.1114028111,0.0235758757,-0.0630906358,0.0230147897,-0.0157588355,-0.1113449878,0.0437293197,0.0315993985,0.0523631900,-0.0354466519,-0.0623175695,-0.0041121337,0.0507048669,-0.0357104963,0.0017648341,0.0692378348,0.0345537595,0.0158527216,0.0283508752,-0.0192225735,-0.0040827892,-0.0659578477,-0.0003520857,0.0938719758,0.0159344434,0.0056879084,-0.0102136182,-0.0167202858,-0.0012840335,-0.0139532218,0.0243048179,-0.0103972910,0.0035902907,0.1159735244,-0.0485411317,0.0145946392,-0.1140234238,-0.0052329239,0.0310253169,-0.0072760914,0.0845810760
-0.0281876893,0.0085813232,-0.0639495757,0.0777648816,0.0468577430,0.0596957751,-0.0576018518,0.0495739738,0.0476796513,-0.0724672013,-0.0137790886,0.0035696374,0.0129987960,0.0166189460,0.0084780032,-0.0011217397,0.0583598123,-0.0450431151,-0.0417229142,0.0472018551,0.0308816727,-0.0522302852,-0.0087395332,0.0865677195,-0.0632410957,0.0551336635,0.0359614916,-0.0261623993,0.0592945324,0.0355841988,0.0544256747,0.0495201850,0.1071462550,-0.1244107931,-0.0913775801,-0.0088837445,0.0398054987,-0.0150446390,-0.0198434751,0.0266401688,-0.0645473236,-0.0186874880,-0.0269416884,0.0440816719,0.0278609302,0.0391623663,0.0001081367,0.0085859239,0.0227999401,0.0217778807,-0.0548158507,-0.0817602734,0.0427776003,0.0575628460,0.0404164424,0.0116463940,0.0009457321,-0.0154075983,-0.0077430399,0.0945141338,0.0131292407,0.0470067351,0.0311345348,-0.0205238447,0.0445029467,-0.0699012245,-0.0471256571,-0.0668262479,-0.0070758245,0.1620271726,-0.1087291720,0.0092195766,0.0140803671,0.0159646322,-0.1090442601,-0.0946503034,-0.0546604334,-0.0290178870,0.0263701117,-0.0344076972,0.0565245836,-0.0019312281,-0.0980041709,-0.0199173210,0.0104497549,0.0237464919,0.0116685966,-0.0791114730,-0.0219780272,0.0037634942,-0.0089436811,0.0205455778,0.0022132404,-0.0024143090,-0.0533595740,-0.0092120848,-0.0224950440,0.0532030634,0.0683542722,0.0441082754,0.1091287791,0.0259803557,0.0793694050,0.0795559728,-0.0883454245,0.0228055059,0.0246129080,0.0511275728,-0.0150970311,0.0069917698,-0.0800175450,0.0259250543,-0.0411149987,-0.0924446113,0.0263482884,-0.1019873603,-0.0454029285,0.0635091061,0.0281263436,-0.0846368997,-0.0057651708,-0.0695038180,0.0630371361,-0.0140739298,0.0073581166,0.0004226526,0.0118626423,-0.0547437031
0.0284492518,-0.0070985421,0.0431316393,-0.1025527401,-0.0533753092,-0.0203494209,0.0707242903,0.1254105386,-0.0116189297,0.0028227710,-0.0015364777,0.0036482661,0.0070813828,-0.0079631461,0.0413490268,0.0038033949,-0.0780247983,0.1117893774,-0.0953861590,-0.0796814662,0.0662942216,0.0111452896,0.0036660360,-0.0894360703,0.0022793169,-0.0814300450,-0.0528364389,-0.0006047072,0.0706073912,0.0323184703,-0.0198898710,-0.0005462179,-0.0421519486,0.0628609110,0.0401431204,-0.0391358509,0.0153914015,-0.0204896762,0.0377261592,-0.0035171586,0.0480901681,-0.0303863516,0.0054452136,0.0100634739,0.1037268379,0.0157487670,-0.0331109922,0.0067795706,-0.0784017684,-0.0040400195,-0.0094165967,-0.0774200809,0.0385712722,-0.0107308503,0.0451382343,-0.0271021612,0.0662640514,0.0636684870,-0.0197344580,-0.0155406817,-0.0033671885,0.0831956392,0.0146419701,0.0235005323,0.0701699223,-0.0093890169,0.0924046968,0.0705293818,0.0350263730,0.0285409819,0.0161298179,-0.0369953662,0.0028780582,-0.0733928893,0.0074686070,-0.0022200190,-0.0225356225,0.0177405109,0.0040848400,0.0323694256,0.1598605882,-0.0445119752,-0.0573453468,-0.0227647655,0.0373178132,-0.0227537724,0.0130354453,0.0252164093,-0.0761436854,-0.0310965919,0.0390576390,-0.0152570643,0.0606788770,-0.0954352997,0.0694106073,-0.0518665848,0.0328498316,-0.0283455255,-0.0176230141,0.1104492540,0.0361987618,0.0082323698,0.0459571914,-0.0247695431,-0.0110138441,-0.0185267977,0.0771224807,0.0708606611,0.0292325908,-0.0176577848,-0.0029227111,-0.0192197361,0.0588193906,-0.0589264612,0.0175085476,0.0169676301,-0.0165275898,-0.0233810041,-0.0105339592,-0.0641105803,0.0453168133,-0.0255177325,0.0762762280,-0.0004642222,0.0174372749,0.0265372236,0.0302851935,0.0369563091
