0.0308852260,0.0151689429,0.0795563233,0.0561032948,0.0431901986,0.0723138677,-0.1302225420,0.0272828546,-0.0102866820,0.0059783215,0.0166792150,0.1577623528,-0.0712238170,0.0727143812,-0.0388880828,0.0067975332,-0.0589226079,0.1006721565,0.0763880522,0.1767197185,0.0143389556,0.0118198172,0.0744328661,0.0013430785,-0.0701180005,0.0769848001,0.0103889008,-0.1628484789,0.0264378994,0.1059965458,0.1061575511,-0.0127242664,0.0095233875,0.1264175717,-0.0084335067,0.1261914894,0.0735112629,0.0426486448,0.0140055655,0.0617174948,0.0457132866,0.0513459053,0.0180194375,-0.0020503911,0.0838794483,0.0346476944,0.0883060598,0.0048556380,0.0701368397,-0.0188276861,0.1032385448,0.0178350239,0.0931715267,-0.0059910213,0.0417074378,0.0862741707,0.1401105250,0.1826640618,0.0706360519,-0.0498630112,0.0702121212,0.1048928652,-0.0391827718,0.1121642091,0.0693403097,0.0234553586,0.0006848162,0.0877111400,-0.0534734423,-0.0061370104,-0.0399679277,0.2996046131,0.0494121877,0.1166672827,0.0904349107,0.0001721403,0.0881047106,0.1306377655,0.1154284318,0.0275034461,0.0722121020,0.1620545075,-0.0220590643,0.0308786009,0.0014067287,0.0736829803,-0.0368378087,0.0694588425,0.1680426671,0.0981015449,0.0042354663,0.0392243828,0.0889343236,0.0254398065,0.1919314342,0.0681594166,0.1670485229,0.0598042845,0.2171330297,0.0588217104,-0.0330158990,0.0133919693,0.1228793543,-0.0403582965,0.1329262037,0.0195568073,0.2481278150,0.0378564314,0.0308852224,0.1037029744,0.0564132255,0.2350234816,0.0137106047,0.1060348149,0.1717330778,0.0618957336,-0.0068332322,0.0649692166,-0.0607290939,-0.0069454111,0.0029999996,0.0091454906,-0.0312169801,-0.0054119913,0.0666827911,-0.0825443877,0.1501015905,0.0174030517
